akj:
6.623146781344724232e-01,3.086129620347381475e-01,-3.846990426442926658e-01,-1.973956560099762170e-01,9.461648148350682019e-01,5.181090680779943947e-01,-5.197740642360905161e-01,-3.718342004300388970e-01,8.102392980066213113e-01,4.420603087281192445e-01,1.974002833816914659e-01,-9.638515284209984990e-02,7.900389320610113897e-01,2.429074299426866104e-02,5.014029386063040272e-01,1.002583708150855818e-01,-5.599933519249962188e-01,-1.526146753975997084e-01,-7.623192398818735560e-01,6.952785892757911146e-01,7.885932291374202485e-01,-2.301306086466487766e-01,5.676675151596443092e-01,-7.733561610300930811e-01,2.696985505420225748e-01,1.014267132015963968e+00,9.444548602346303570e-03,-1.193865599350879964e-01,-1.933831133397506952e-01,8.756459895469955734e-01,-2.600775901637543130e-01,-3.569980962528514490e-01,-5.309402780829125534e-01,2.448662737506194370e-02,-2.224377396846020927e-01,9.247781654758001624e-01,4.856986987359281083e-02,-2.375244426503990147e-01,-1.003078429263167370e+00,-8.654409065160597603e-01,1.840732412449158917e-01,-3.361107725817481517e-01,-1.109616437987153148e-01,6.348890653726381172e-01,7.879905013015806592e-01,4.020008421327085635e-02,1.403112789545759576e-01,-8.401559414632991940e-01,-6.209069783856948632e-01,-7.431647341725384770e-01,-2.553131526859489867e-02,7.417901824302806091e-01,-4.671145953525797645e-01,-5.481641536592828379e-01,2.975946225416716273e-01,8.169935772361009985e-01,8.875367853668918450e-01,3.217508776748934096e-01,1.087974087871713680e+00,5.999664156247497271e-01,-1.834829061292642394e-01,4.914094935820237375e-01,2.221407132071419877e-01,5.482627872784292533e-01,-7.678595038478143175e-01,8.474467219981044463e-01,-9.188581263119914855e-01,8.878420150076840600e-02,4.683519346762778091e-02,-2.836064564855649284e-01,-5.795426424938405763e-01,-3.125325576199777800e-01,7.818829552727292187e-01,-3.929084684327911470e-01,8.448007929082016476e-01,6.716825618418219568e-01,6.685819808812284437e-01,-7.192410135419812223e-01,5.038528736560969890e-01,-9.819178106964306929e-01,-9.503747002667360944e-01,-4.253117715936136078e-01,3.440449382426162273e-01,9.703501472155887653e-01,-4.938717545824081699e-03,8.924136086278066093e-01,7.497273586148615054e-01,3.667081211410803121e-01,-3.258876032021682523e-01,5.501879767696500334e-01,7.805813545007440624e-01,-8.179486598994702984e-01,8.379253504693460336e-03,5.828985755242034328e-01,6.284328627832526382e-02,7.344612372572720815e-01,1.017657234103307023e-01,-1.758347747632644786e-01,-7.198125623356912972e-02,-4.772283339130378166e-01,5.688488711863042280e-01,-5.687505377247050742e-01,2.759000434601674989e-01,1.067287140358687214e+00,4.850403123849594822e-01,5.213528141996980336e-01,-8.128078437289966429e-02,-7.164883860952804273e-01,-5.742947166201826104e-01,-3.952909055721887110e-01,-4.430101096926294946e-01,8.605357668886846056e-01,-3.268211200656644388e-01,-3.392417529974343648e-01,-5.372584430542576978e-02,-8.200608250665976096e-01,-8.089889570726810364e-01,-3.929154620370605144e-01,-1.224076713980724179e-01,1.062167387971895138e+00,-6.759289361430416143e-01,6.540448642056470030e-01,-8.044226459727461531e-01,2.554897489255859577e-01,-8.786900429003300372e-01,-2.274000037621251580e-01,-1.293195071910828942e+00,-6.410389603588624308e-01,-5.842734090780731249e-01,-3.111141670865277820e-02,2.675294375034589778e-01,4.181086445427262266e-01,7.883437239461393853e-02,-1.241554279941672195e-01,-1.747832146404230402e-01,-5.966004706447931571e-01,-7.412998318106678308e-01,-4.301310884719469763e-01,8.861868374878114629e-01,-7.599200646387532787e-02,1.959985384716142476e-01,-4.345952503351881435e-01,-1.049214820732497222e-01,4.033442901179634665e-01,-9.595617891079037676e-02,4.711482907382957275e-01,5.066296836435163486e-01,7.468637159414798221e-01,-4.994180554310697628e-01,1.111399731383831746e+00,-6.261752048467076337e-01,-4.230456562867310200e-01,-5.777216753240498326e-01,-4.606724550553828457e-01,8.032695757964914973e-01,5.572711244761796578e-01,-3.991582396125430976e-01,-9.349175497434117910e-01,-7.192973247120381108e-01,-1.038205835407678412e+00,-4.862668547561261323e-01,-7.710021675894224158e-01,-4.730634317704402458e-01,-7.161327420897749541e-01,-7.862293985569845933e-01,8.887876662275064066e-02,-3.079386498716997211e-01,-2.109679112261458045e-01,1.705865133820580748e-01,7.679310671064424332e-01,1.880765667818459219e-01,4.669564161888635212e-01,5.375634236364168483e-01,8.213793443399294292e-01,-6.250728580355151554e-01,6.752210715127234808e-01,4.251555226053641001e-01,-1.388669899994580681e-01,9.690595580890392080e-01,8.476254552786358643e-01,4.934376146848037381e-01,4.778155346692050665e-01,-8.689187795015937757e-03,8.305777842920083476e-01,8.317918399364637727e-01,8.418869350326961820e-01,3.411687382536128244e-01,7.981454357464272675e-01,4.284021922296579743e-01,-8.009303949026154168e-01,-3.758938163075604688e-01,-4.273331016073126931e-01,-6.379383965893901109e-01,5.402314406373682765e-01,9.659569865936930011e-01,5.544781933500085858e-01,2.700721191231098689e-02,-9.925034337753210062e-03,-7.816430703938278546e-01,-2.242901067242454582e-01,-4.358169179065088938e-01,8.951091269745862222e-01,-3.682822232749162206e-01,-1.044194406269986219e-01,3.059697553177264662e-01,-3.018825705724852149e-02,-7.937919994426968495e-01,3.976408939408066640e-02,-2.201489978399578246e-02,3.888533351613841504e-01,6.807695773469294442e-01,-4.607954055377283531e-02,8.302166633146317309e-01,4.294019807692023849e-01,9.741204587456883113e-01,-3.664521753377380509e-01,-9.726247786318895638e-01,-1.327606133570408575e+00,4.601796944320513116e-01,3.485093061900140232e-01,-3.013782243288957163e-01,1.362114124544394900e-01,-2.214946063741085602e-01,-6.861898510488144698e-01,-5.873508121257154518e-02,-1.276736271694272340e-01,1.102615885000781226e+00,7.147883262129631765e-01,6.060429484285145829e-01,2.445898072719217831e-01,8.768422840199480151e-01,7.614269816059712204e-01,8.865459833778267518e-01,-4.701216960554340241e-01,4.302861938857382995e-01,1.104214732567571078e+00,5.584659915373916261e-01,9.980785080625935723e-01,5.670535680613976171e-01,2.176801546609587537e-02,-5.463262708583486171e-01,5.594995520385432908e-01,-9.755436989979638929e-01,-3.363960203140618499e-01,5.274464524823604394e-01,-1.787222324947482233e-01,-4.157314448690147546e-01,-3.750816128620018675e-01,-7.440994152192529354e-01,-1.033659283443259413e+00,1.338503880140260727e-01,9.182789337129033946e-02,-3.749763321944050154e-01,-4.755125059278493271e-01,-3.245067658782475051e-01,2.855237514262472520e-01,1.444289065301843367e-01,-7.558325797949794200e-01,7.498307364425049748e-01,-8.890266181087026487e-01,-1.010557075454044940e+00,-5.024618248316093938e-01,8.702227151159680485e-01,7.739931004002089665e-01,9.439556219223736722e-02,5.720733062260488500e-02,-6.987329609861490931e-02,-8.593272906853774984e-01,-9.357089358773756915e-01,3.105663909729397543e-01,6.924950342040157025e-01,-7.947770427266475091e-01,-7.156743818039827676e-02,5.249730983842195720e-01,-2.048118367855796818e-01,5.601136341362340509e-01,6.146351302344567058e-01,-1.310139842723234693e-01,-9.432337800149637186e-01,2.462167088957378791e-01,1.015498142238073331e+00,5.870714844659032927e-01,-2.304380504852862055e-01,5.086091820728073642e-01,-6.001806225085789537e-01,-2.096721112179018021e-01,-1.743481289166923590e-02,6.026596423018750759e-01,-8.992420259801811033e-01,2.988891661653318432e-01,-7.226416400083340852e-01,-5.345337068627701305e-01,-2.929593892959103663e-01,1.429538794081140485e-01,-9.132817287180596821e-01,4.952547030633204783e-01,6.294836294534109644e-01,3.845887988635754984e-01,1.006413292527865710e+00,-7.408990350346543741e-01,-7.391133202483181064e-01,-2.032453473678320632e-01,9.587744656580020342e-02,-3.085658248890539301e-01,1.050960139215392081e-01,1.809452387833547851e-02,-6.687070351551791525e-01,-2.518135214871721761e-01,1.952722067430018582e-01,1.210566399618085848e-01,-6.242794707241510199e-01,-2.463338005268871644e-01,6.269379581460423623e-01,-7.762282922363720195e-01,-4.994246323984378733e-01,-1.120500548922218204e-01,4.661951115217800035e-01,-1.451152739739346997e-01,-2.412486812568674643e-01,-4.988923826356351232e-01,-3.417622702228011455e-01,2.653867610478075068e-02,-7.385456116319502051e-01,4.270281818398694029e-01,6.270316193201257438e-01,5.481103159939353098e-02,2.804048764664145502e-02,-4.535839058726267581e-01,-7.633768133527041311e-02,-3.145968527143350180e-01,-2.443297466980458299e-01,-9.974841467328225963e-01,-1.050367887789156240e+00,-1.039037067071539644e+00,-8.690707143541090418e-02,-9.892576753998895134e-01,3.408414799522104244e-01,-2.180339929768295160e-01,-7.318014812899019395e-02,4.961562113249101680e-02,7.273052429443981337e-01,2.196988942995297123e-01,4.959263973645922779e-02,-6.994633985532738851e-02,-5.357580161444364109e-02,-3.994073075083960644e-02,-3.364972032274871627e-01,3.723565722504131315e-01,-9.282404085562065976e-01,7.590255346434670036e-01,-5.501201235205804840e-01,8.254033760440483425e-01,-3.611849171643748968e-01,1.458126846437453883e-01,7.108405509560057345e-01,7.632086514583220627e-01,4.131744133927385820e-01,6.038132208810077506e-01,2.815448473455898770e-01,-6.508624594980858546e-01,-1.142198751006468616e+00,-7.893740611036488275e-01,8.084626518753813551e-01,-3.385526252860712182e-01,6.491872532554293640e-01,3.267889002401376530e-02,4.474842578927122894e-01,7.839807498354965931e-01,2.064709045109860697e-01,4.274325422961908205e-01,1.056239682108590205e+00,5.217515066505801213e-01,-9.907927536442682204e-01,-7.777804407735995351e-01,6.583791986435340304e-02,-4.586299574303744908e-01,-9.151286066884014581e-01,-3.881062037153099054e-01,-1.788864722714686162e-01,-5.557824551186328899e-01,6.327438720010452045e-01,4.712349747095009311e-01,2.096422483678326287e-01,-8.049146134791530793e-02,-8.316864884657334533e-01,7.121135452569086199e-01,7.523883761494143396e-01,9.084004136641039562e-01,-2.657478753465595256e-01,6.978567098560845006e-01,2.639576292112617573e-01,3.816200736532007753e-01,1.868535397137681131e-01,-7.913327357030374154e-01,-2.427080660065772111e-01,-2.454802488521280468e-01,-2.567447772006638540e-01,-5.470428457394886923e-01,-1.304164645853813642e-01,-3.913722905595932722e-01,4.829874302596923186e-01,-5.814730479634494173e-03,2.700112854380862792e-01,-4.952539757631660988e-01,5.534825079977040430e-01,-5.001803806680162889e-01,-5.201988958277158348e-01,-2.223614189250228967e-01,5.119664994431197963e-02,2.455142947495566330e-01,5.091755190460701685e-01,-4.724633170720817787e-01,3.508749141438238239e-01,-2.576527193592532683e-01,5.136656201001044836e-02,9.046217176180058051e-01,8.801162318682411723e-01,1.985672895085442702e-01,-9.374355368681283052e-01,6.781761174248494006e-01,1.089203663042059844e+00,-4.177485022701823980e-01,4.522765363106561187e-01,8.055216397792712701e-01,1.067181360741844554e+00,-3.461622944794613410e-01,8.185814636169279623e-01,-3.501906828020831530e-01,-3.226144316673267287e-01,1.234123515941894095e-01,-5.144926974967859445e-01,-6.396792274977861625e-01,2.140210623544274438e-01,2.875214622284436028e-01,4.529779016724561624e-01,7.136627335351400925e-01,2.840998709719839699e-01,-7.724007366886540549e-01,-5.801654277640555524e-01,-7.709477735122727271e-01,1.069301196603345661e+00,-6.220471755075982490e-01,-6.003513480668328794e-01,-4.393840689636510088e-01,-6.742919934080434663e-01,-6.819353723045454840e-01,5.335023749275465965e-01,1.286688963884529968e-01,6.889256283236027123e-01,-3.324255141300665184e-02,1.956854799706453929e-01,1.035557826368530554e+00,5.883683070459431175e-01,-2.421124750673713799e-01,7.865025797857400081e-01,-1.259351627492134584e-01,-3.783510229665678626e-01,7.944718967173375335e-02,-6.015668902893397257e-02,6.930643679118784206e-01,4.113147138350579934e-02,8.887266049998406026e-02,-8.745405134930029911e-01,8.205806304883731528e-01,-3.603146724106396914e-01,-1.594431570847734403e-01,-2.426844687443504775e-02,6.085591259897422667e-01,6.609481855137774309e-01,2.651487121012310877e-01,-5.230256483236075393e-01,-3.581136759134846970e-01,-3.551557047478716145e-01,2.166281822126082945e-01,-6.891282078789863208e-01,9.982199711631237760e-01,-3.599122571467893716e-01,-5.242710847860242440e-01,9.124539787802087298e-01,7.104093605447276971e-01,3.505194486808015375e-01,4.919463800141513632e-01,1.392825790591159241e-01,1.010194827372915105e+00,-9.194374832127722996e-01,1.162082242855585479e-01,4.039933629057194109e-01,7.652103527905486091e-01,-6.688216692132126218e-01,-4.797752111537950670e-01,-9.328057195618345565e-01,6.975550400882409019e-02,2.469170865673328552e-01,-3.154048952129449024e-01,-3.906488757457530214e-01,-7.871129673082000178e-01,-3.582941536851591002e-01,-5.966739961336080533e-01,5.214908254685433897e-02,5.663293186168776305e-01,-8.378564300769231199e-01,-2.172942073094443760e-01,3.358289484768018918e-01,1.324160418576774967e-01,3.089467148663652130e-01,-4.842773131908881257e-01,4.755821545812715101e-01,-7.865753530962834583e-01,9.142462728229031610e-01,-5.714268055581026573e-01,4.427085623867176856e-01,-2.683863840198858711e-03,-4.636589484746356793e-01,-3.208758667081161309e-01,2.043745046179526806e-02,3.817218759463973932e-01,-8.959688434758058539e-01,-5.828179046556101195e-01,-6.454227872407176658e-01,5.050099606071624114e-01,-3.769721299270966525e-02,-2.707850258089919970e-01,8.827119582755440508e-01,-2.354989809318963068e-01,4.258383276471013890e-01,-9.138733805982403036e-01,6.844228992783649712e-01,-1.013605349254731891e+00,-1.415267975497606079e-01,3.369113250644337199e-01,6.823747787076870353e-01,-5.426477552205346555e-01,9.928846547883170004e-01,2.231400912189434871e-01,-8.449675253032840061e-02,6.080109982862973439e-01,4.267196002292985568e-01,1.013448829901201359e-01,-6.531794349083480666e-01,-1.771541259481008712e-01,-9.676007547487042171e-01,9.298293376151484102e-01,-6.966491899500862894e-01,2.506597684186894215e-01,-1.294151548167029597e+00,-7.864219851316757159e-01,-7.969425634707890671e-01,-7.136569293033904193e-01,9.610108963952689043e-02,5.555489022051964820e-01,8.182517050731685782e-01,-1.350947296886568227e-01,5.766355821140590754e-01,7.680956080487501003e-01,8.238571734236910249e-02,6.832449307026280394e-01,5.167617628986386213e-01,-5.681767701092920175e-01,-8.012705040859214867e-01,-2.669506172675573663e-01,-4.927209588902712878e-01,2.309795495922200570e-01,-3.268167258233254380e-01,3.035296489024845168e-01,5.685224279270798542e-01,-6.961895543336319436e-01,-5.513535600565881989e-01,-6.422735643779988735e-01,1.140802571168954699e-01,-4.456842920812141284e-01,8.694554110358712062e-01,4.807046088423213015e-01,-8.808787078140862814e-01,6.033088354166565859e-01,5.757535898837419230e-01,4.071207113234167063e-01,1.087166328918794722e+00,-5.728042652831124570e-01,-3.377430110503991112e-01,-8.217764155694010642e-01,-6.039220216003484687e-01,-3.958661266980569304e-01,3.184301933842587778e-02,-3.183614896974914510e-01,-4.720031891370297661e-01,-1.046106328140401498e+00,2.363843956378187117e-01,-2.020069341364504334e-01,2.166635847058866748e-01,1.120327259087690874e-01,-2.521364320834337813e-01,-1.896308479927572843e-01,-4.082517902564153367e-01,-6.937119812813243858e-01,9.712240524710132883e-01,-4.550218368931708834e-01,-7.973809238698399415e-01,9.557105532055049091e-01,-3.201067896955478997e-01,-6.541722177916245995e-01,-1.164133353294810158e+00,-1.192312226528907254e-01,5.013672556430692762e-01,6.252224570615667609e-01,4.020176051287291386e-01,-1.555298868884083530e-01,1.014767114090428191e+00,4.603768695693806756e-01,7.532933794536794680e-01,-6.018582652265295208e-01,-7.027599534166644180e-01,-9.066349705125368308e-01,-7.574690264207464274e-01,-1.002365029507421346e+00,5.189196779537834647e-01,1.385123822893468970e-01,-5.790672008857481456e-01,-1.019433715082529446e-01,4.690205586070454458e-01,-7.986381960728571316e-01,8.547944176254902438e-01,-5.832424998631152713e-01,5.131076608989632026e-01,6.992239823530292941e-01,-1.419092134094461499e-01,8.556339677879044592e-01,5.848291360044814979e-01,-5.581531240945420969e-01,5.668101190537354617e-01,-3.168433323704397675e-01,1.022200930125402030e+00,2.454493979292340644e-01,8.380426742400867712e-02,1.210038292131136339e+00,-2.322957903636841889e-02,8.162831565242509857e-01,-4.073827227561094833e-01,1.459554806452367237e-01,6.245446213575691630e-01,-2.865019567765054176e-01,-3.126937884022245456e-02,-8.076177043216846430e-02,-3.535753480526183656e-01,1.217257306862944283e-01,-4.559902569122490368e-01,-3.500196031282906683e-01,-9.124384404424680517e-02,-1.546387216727669045e-01,-7.783674965355840136e-01,-5.653328688266714419e-01,2.347229773156471466e-01,1.714551764726860578e-02,-3.923555335336555983e-01,6.245934486479266523e-01,-4.648483196336068435e-01,-2.273338942305898336e-01,1.787995949921151184e-01,5.513169135396696063e-01,-3.961835398055353896e-01,7.395113866630457222e-01,-4.366833801931664372e-01,1.856212529667440325e-01,2.094986004332753948e-01,6.089354160853982512e-01,-4.851233807620983218e-01,4.367687659847586945e-02,-8.173453180734466805e-01,-8.120488225527328074e-01,-2.863624874557744171e-01,8.855662394290750861e-01,-1.497341226436454398e-01,-5.866927028673154521e-01,-3.200776720270564479e-01,1.462548259986607042e-02,6.432741600965660167e-01,5.489485422062713171e-01,6.946256890355352320e-01,5.848044377318295517e-01,-1.460630310423587375e-01,-6.078502015881889764e-02,-5.519357888844514948e-01,-2.834131204694926298e-01,9.250797955926367555e-01,4.350593152944633446e-01,-6.242022442758855538e-01,6.762114526928613145e-01,1.221973070967956820e+00,1.025040178267357271e+00,-4.904591782491494745e-01,5.305467098257149461e-01,2.682917708556802339e-01,1.057053487047561857e+00,-9.307633050227208660e-01,-8.635118611525364196e-01,2.976600363224789492e-01,-7.461845316534261308e-01,6.872746463663148564e-02,-8.430892378287002664e-02,-2.258251175789404916e-02,-3.942348865168854993e-02,1.537384896670788703e-01,-5.347257734699444320e-01,3.555191158703055465e-01,9.184116725336851639e-01,8.746276513351727289e-01,2.914847367791559285e-01,1.867247848128995580e-01,6.867056950588315001e-01,7.975879656999452783e-01,1.578429088547761081e-02,-1.915071205787023390e-01,7.195386235486487259e-01,-7.323418019072331919e-01,-5.388335658921719618e-02,4.772715801141068082e-01,5.366867924730680528e-01,-3.576557669155663866e-01,3.819940622297626764e-01,-5.114735869439034355e-01,5.746561218971497215e-02,4.035977635092148352e-01,6.652487193632788953e-01,-5.580842322410378697e-01,-7.632925116079739558e-01,6.082452823189039570e-01,8.050224169349623482e-01,6.329006990435760427e-01,5.409525569568691267e-02,-3.150311219895467474e-01,-5.597078491075443418e-01,8.722197668864338782e-01,-1.001132229271082252e+00,-6.107067504374045219e-01,-2.732932983802955906e-01,-1.296554884381441619e+00,-1.100513097633665005e+00,-7.404304997216189232e-02,-9.947472314680015637e-02,-6.126316121743320409e-01,-9.429604037417376183e-01,5.949495472900508952e-01,6.484509883391519069e-02,6.559887123910552731e-01,6.127939756376711289e-01,-8.067606692251396705e-01,-6.746052121409086277e-01,-2.651953597680588026e-01,9.661806518440275715e-01,-9.010735091317872980e-01,6.761452072157689841e-01,8.377054478380209224e-01,8.982636441526005155e-01,-9.633652816451291345e-01,7.763854403919751013e-01,9.123883492013051821e-01,-2.062688608940191348e-01,-3.916029677969610212e-01,8.076192949139381072e-02,-4.185468858404249870e-01,-6.337214660228037699e-01,-4.059172804516181787e-01,9.361243416754376490e-02,1.908828802709356121e-01,2.737015665476580720e-02,-3.019197916491461187e-01,-5.242146767173855304e-01,-5.495264225330678265e-01,-1.163587343516350847e+00,4.440459398923385925e-01,2.538869276382995643e-01,-8.179118744252635853e-01,9.609843529727438716e-01,-2.887824911941728190e-01,-8.460314531855728237e-01,5.432824649518520205e-02,-7.807957764544563029e-01,-5.712529688568289687e-01,-9.720865812316332732e-01,-1.696233371010194835e-01,3.358181034129727460e-01,4.262618714687044924e-02,-6.088790806290607094e-01,-7.529522973632937211e-01,-7.121168444614044413e-01
-5.323001512575941119e-01,-8.841296618858641709e-01,2.160358897535693268e-01,-5.571535972048098362e-01,-5.425453806699921389e-01,-7.064362564186044136e-01,8.203062804432708077e-01,7.088174152954858087e-01,1.602259116621871649e-01,2.440014239744693059e-01,-6.982001468785523635e-01,8.032222057444572405e-01,1.125951649113181352e+00,9.922094907698979505e-01,-4.567841345655273555e-01,-7.069499486669971189e-01,1.015032286729215860e+00,-8.177674447612812703e-01,6.635818925880471175e-01,-7.782315837234463629e-01,-3.587257931701541280e-01,9.176382119087410638e-01,7.063314577532057159e-01,-7.477531880887650084e-01,-6.365623064408398868e-01,6.444617421637667265e-01,-4.952726334818269294e-01,5.810409388909539841e-01,4.770777063810785479e-01,3.086346553349338939e-01,-8.745302297027267580e-01,-9.210209109478734169e-01,-1.918838819272414009e-01,7.279786805335646260e-01,5.522236433208932427e-01,9.291779147701980657e-01,8.201393326987024279e-01,5.563123634704350007e-01,3.801249024942668364e-01,-8.281899358027310365e-01,3.637968833973285743e-01,1.943953601425320310e-01,6.356192987831955632e-01,9.399407635998118238e-01,-4.666039740613847076e-01,-6.645403622358855844e-02,2.651052481806524530e-01,9.461908758225573424e-01,2.444699811959075847e-02,7.016823370454777775e-01,1.901861146175042871e-01,-6.881224873235356476e-01,-4.653449816951844009e-01,3.725369386091508805e-01,2.070955634180422777e-01,-5.649796069768224793e-01,-8.030110642184964398e-01,-4.992874593002453176e-01,2.862549547906890757e-01,8.493723982393108773e-01,7.320536447922394441e-01,-5.479382430413655136e-01,6.705926884571645763e-01,2.960182244166209009e-01,-6.483151232855206558e-01,3.993581837524119993e-01,3.159877887398298002e-01,1.045869358559546658e+00,-8.295214846799838782e-01,7.872512664911306413e-01,4.009753477468866456e-01,-8.385530017542948134e-01,-2.906272219532146997e-02,7.096705618083433142e-01,7.340089246840023063e-02,1.895546404531224180e-02,7.324351020763114617e-01,9.851639486884544716e-01,-2.586583062873668570e-01,-9.319793229952140212e-01,4.659992424625124530e-01,-6.853370901557989114e-01,-4.952637662180099376e-01,3.936525257075457890e-02,5.742951317809892320e-01,-9.171253106439695157e-01,1.491331050859407148e-01,4.568310734475101720e-01,4.361169755520005742e-01,4.432581156444206916e-02,3.876308909104387856e-01,8.508966827719544046e-01,4.409128358911008627e-01,-6.872593165557897565e-01,-4.725365879582549278e-01,6.064284810313321783e-01,2.220906480637283714e-02,-7.326923419219419920e-01,-8.131763427886581352e-01,7.492585754921438079e-01,6.262018191423478486e-01,-4.988136279084791624e-01,-8.239350561564974251e-01,-3.269679693106827129e-02,3.151899486072841094e-01,-1.745385975863372185e-01,9.500983657776395086e-01,-8.380937369603940201e-01,2.494524569462327479e-01,2.880933222988559805e-01,-2.542944001762720840e-01,7.299691571152843172e-01,5.164909806816770921e-01,1.824255182689268617e-01,-1.959956772453049223e-01,-4.464771577247162448e-01,2.595776760988273146e-01,6.401787844421495954e-01,6.891839879156860249e-01,-6.029715530807658874e-01,-7.391037865010212649e-01,7.920929318980322043e-01,1.214110088263635340e-01,5.676718817850027188e-01,-1.383822153425825763e-01,7.957383390640316856e-01,-4.444361814035105995e-01,2.232688172137272664e-01,-3.319611788543213593e-01,-2.622686191149135038e-01,1.068064134523243114e+00,-8.201629625263753276e-01,8.891025984714370223e-01,1.928477121053699325e-02,7.208384978089388273e-01,-5.224175420891681298e-01,-7.416999864419698829e-01,1.818262576333040947e-01,1.503363372568946033e-01,7.829838395566351972e-01,-1.046659146327669321e+00,-6.038515434557170103e-01,3.548925305666736918e-01,-3.043348281857224946e-01,4.666782686683330628e-01,-7.748946710379819303e-01,3.177510954849949720e-01,3.309192437487231131e-01,8.650506489745357630e-01,3.228922809836055063e-01,-3.058788520070879202e-01,-7.595130372811303987e-01,1.450135685512017880e-01,-5.907003146776240721e-01,-5.136363605101648133e-01,-7.013140683155065780e-01,6.615526773204246647e-01,7.948775825261268357e-01,-6.080863576695247907e-01,5.862666516117732984e-02,-3.721803826578724134e-02,8.495771243145204821e-01,-9.473354398749496141e-01,2.376302165352854046e-01,4.301036805721778628e-02,1.807424039879612643e-01,5.064745582020040437e-01,3.505563969285012127e-01,-1.778806883531713900e-01,-7.491513607604876057e-01,-8.858078456791811106e-02,-1.703834544212744773e-01,-2.803583563772187315e-01,-1.618035715267074071e-01,-2.209108226705812792e-05,-6.630095270235806248e-01,-6.007147283509043367e-01,-7.494785941636348259e-01,8.037647633803833846e-01,5.030719186521228625e-01,2.341229853485489731e-01,9.642624529514756127e-01,9.510206646577102907e-01,-7.956562693888146187e-01,-7.954721261796344756e-01,-6.612986928424402500e-01,-7.700504881378920086e-01,9.787870550295082461e-01,1.689148824815295546e-01,9.634537350919903931e-01,5.584113250645165172e-01,-4.236215702659091309e-01,-1.150975628787434951e-01,6.150054753858924528e-01,2.504004963368181014e-01,6.686105908440499457e-01,2.789758633688583234e-01,4.692134574166910710e-01,-5.446490500142077140e-01,7.386804590503942558e-01,-6.749049035089704773e-01,-3.457442359798242881e-01,7.184078844375684225e-01,-7.103175842771329851e-01,-5.097296033733587084e-01,9.268727026871872443e-01,8.413732034479013411e-01,1.689313857753358405e-01,-8.606524296966047149e-01,5.156567895926333911e-01,-2.531558069286067303e-01,-4.455982275184280916e-01,2.794787284433666863e-01,1.475951723740877020e-01,-1.029503329329386929e+00,-1.363270961510912316e-01,-8.984700268434973047e-01,6.587444549589364096e-01,5.187117865009064355e-01,-6.130409749203673542e-01,4.607710367900420545e-01,7.555670715812136118e-01,-7.959948654179461736e-01,-1.230652738767656074e-01,8.562113808632548784e-01,-5.668422129650517727e-01,-1.819721605961893973e-01,-2.462632318980490301e-02,6.802443278577783303e-01,-2.756351870792776992e-01,8.727216792972338766e-01,-6.996487778478287234e-02,9.736291263842880017e-01,-6.330163061836404648e-01,-4.527967065060981566e-01,-2.603052105869446131e-01,5.512444998864926005e-01,1.274819612405247160e-01,5.684997811227140430e-01,7.815815540973725106e-01,-8.266701339887442268e-01,1.831750650249865386e-01,-1.082945291358852868e+00,7.256201864648196276e-01,1.513997116115901043e-01,-6.791814653649205225e-01,1.015453991486732210e+00,-4.239600462541871506e-01,5.562110234416262067e-01,2.074441826600659511e-01,2.741331088228126864e-02,5.503077885193203844e-01,5.782021101891888365e-02,-7.999383391397537624e-01,-7.016819248198773451e-01,-2.893803043729014854e-02,-5.618340185532609832e-01,5.057317929658757816e-01,-2.532413923654749932e-01,2.991810320820436631e-01,-5.576565600550129065e-02,-9.193718863562684307e-01,-9.518492617732824401e-01,-2.041628274536807508e-01,7.421281946521720574e-01,5.113691908721870183e-01,-5.394065957806319922e-01,-5.343332125449065106e-01,-8.766628988855640348e-01,4.077725598064126378e-01,-2.529234229635241027e-02,-3.065274886913646468e-02,-4.307186990489444284e-02,-2.990075956749362052e-02,-5.710037764850022235e-01,8.788671803165283292e-01,-9.743726745372716103e-01,-1.478802364532472713e-01,-8.995300929002307544e-02,7.210835601166443176e-01,-8.527547032178817155e-01,-1.472810596197199062e-01,6.224848500418169728e-01,8.771886643750451684e-01,3.155793070216315454e-03,5.261258277829288232e-01,-1.917017512399569745e-01,-9.089635582029955696e-01,2.463278887972394082e-01,-5.969716226564624195e-01,-7.351867337132382829e-01,-4.415746159016207401e-02,-3.430743834401828729e-01,-1.969450586633993139e-02,6.508831018604803731e-01,6.008519380003386479e-01,2.883998560892830354e-01,6.301039368993504031e-01,-9.864716052467596974e-01,-4.680116412421782557e-01,3.735107488258654351e-01,3.539283257463416432e-01,8.924929822981364502e-01,4.389264159753125671e-01,8.387031228118447812e-01,-6.203068666362644423e-01,6.930385820229870708e-01,-4.540229512181435667e-01,-1.340776948445218386e-01,-1.658260702545245047e-01,2.552777521726564136e-01,-1.025363289053169702e-01,-2.181937898415339250e-01,5.158729749029252742e-01,-1.357768828815471840e-01,-6.083367952282924263e-01,9.396190084452171742e-01,8.137002115375802092e-01,6.286571134862608545e-01,2.304494990677918020e-01,7.476533161033179775e-01,1.569920130442991335e-01,-9.374223322208584674e-01,7.176790909226795634e-01,-6.067984196302141781e-02,-7.694945614615041896e-01,7.818468298727305754e-01,1.205774314642788086e-01,-1.073239801469302757e+00,-7.300706010268638302e-01,-6.939528419984650753e-01,-3.286225657992814519e-01,-3.443758972787311912e-01,8.230465143125271776e-01,8.776892580791281206e-01,6.388260748950155277e-01,-3.739910005416279271e-01,-8.997082511623754053e-01,2.489624170061960073e-01,1.833362549349943083e-01,6.949384654629616742e-01,-3.349059691640782210e-01,-3.555444208432274045e-01,-7.035522393149065135e-01,3.973049363946056789e-01,6.061284524040448929e-01,-3.188697491064713674e-01,4.962432379701937069e-01,-8.347568381664842718e-01,-6.733592463989931387e-01,4.716731160477500850e-01,7.369178613788650578e-01,-1.428339318399098334e-01,-8.959828300117851363e-01,-6.809215469152922751e-01,-9.958254308403465815e-01,-1.019403435170973538e+00,6.004282784016286983e-02,7.289779114008534400e-01,8.907474196160769520e-02,9.055007516222585151e-01,-1.000958838349023328e+00,9.284361174285330476e-01,-8.322112448141205654e-01,-4.352473602828703658e-01,-1.891250147146039118e-01,9.544988655860479065e-01,7.346390057876722723e-02,-4.954574783166035834e-01,-8.081243172239127581e-01,8.868642855517626655e-01,7.345580626306689176e-01,1.875667895766945925e-01,-1.736225789250347429e-01,-3.713985342031266290e-01,5.118836154641247527e-01,5.027415194749910166e-01,4.721763316625644108e-02,9.550576824328727010e-01,1.598663709234899059e-03,6.790536384822480898e-01,6.808691257723803458e-01,3.421633558349267412e-01,1.034146352313466410e-01,-8.294985181545061481e-01,7.830039640203372286e-01,8.909491657059394054e-01,-2.128121626856770698e-01,-1.492333545997557784e-02,8.237124750857234279e-01,9.830182524958061552e-02,-2.355370399059867059e-01,-7.058360586938358106e-01,9.587921046169339823e-01,6.687768204961594964e-01,5.723986901812846417e-01,5.249954363983072581e-01,-1.117303696037227900e-01,-6.291333783274767333e-01,9.626347561438735045e-01,-3.093868622341937047e-01,-5.882168877394303719e-01,-4.944439720864620691e-01,7.691115558848599099e-01,8.425650635604461369e-01,-8.979877739967558892e-01,-9.785956945575823296e-01,9.575155778082774516e-01,-1.907583735706744887e-01,-9.219687077037458378e-01,9.903922131533156314e-02,8.269899153054267593e-01,7.851713635895445353e-01,2.603598218595021829e-01,-1.087461803971734031e-01,-1.032395103466706265e+00,9.067014319263606570e-01,-5.412133939114003311e-01,-2.347293809792325991e-01,7.952643373802068538e-01,-4.826319768153729955e-02,3.851817889736198763e-01,-2.163051272916892143e-01,-4.715469925040978727e-01,-6.038729567622985739e-01,8.512896479455733800e-01,3.894466845697658886e-01,2.959984785156399845e-01,6.845765956417868559e-01,7.179333232971001344e-01,-8.146532783056709137e-01,8.047408135048327305e-01,3.256842780710413887e-01,2.016682922153771942e-02,-7.078817299402216934e-01,4.674676439267639871e-01,-7.253459386275576959e-01,-8.959873597674818946e-01,-4.573679506185898691e-02,-2.968440195559204908e-01,-4.219079112275196941e-01,1.917341523342080689e-01,-2.986546875106896315e-01,8.459511981103928768e-01,8.637431078131097006e-01,-4.128776095118821821e-01,7.961739108047407587e-01,1.137944722886263665e-01,-8.856390018674994424e-01,3.529671307488502913e-02,8.151039641172781736e-02,-1.812284502004882225e-01,-3.394584295201122370e-01,-5.476158974389517820e-01,-4.602856691318079063e-01,6.697676655312893024e-01,-4.153749040409169258e-01,-7.451627116484452751e-01,1.450510765424584125e-01,6.367748831230931605e-01,-7.680272621853037052e-01,-2.690531715210410235e-01,-1.093653227737051203e+00,-1.090180744279754865e+00,4.071026677431204832e-01,-4.098113001961030122e-01,-2.898462437231882349e-01,-8.334770766188567825e-02,4.371451126917909047e-01,-3.797443132123953236e-01,-4.791366891204246192e-01,-6.444787750486338229e-01,2.466273900600223223e-01,7.574600629477832303e-01,4.528071256903750674e-01,-6.419760498918654079e-01,-8.580868200169687876e-01,-1.008775911618217808e-01,9.142090134669422774e-02,-7.670098653822343682e-01,-6.575439173951689309e-01,-4.577261218524372177e-01,-4.458340324978180558e-01,-6.354319448078974419e-01,-5.227239603278419633e-01,4.877559688531425408e-01,-6.986123318652220915e-01,6.981742026593482087e-02,3.120625350364559791e-01,4.178579089569554039e-01,-4.898620841490553546e-01,6.079255881713088172e-01,4.521966505964510330e-01,9.242750379593330790e-01,-1.231478555635700384e-01,7.461423246996554681e-01,-4.229999814044357320e-01,-1.322929571278295691e-01,-6.501348785150602438e-01,-9.018617565756708032e-01,-1.026120025028513627e+00,4.981749326152472568e-01,6.390148685316212607e-01,-8.611618237376807983e-01,2.839862367834007917e-01,6.213923022693254583e-02,-7.790356923294725622e-01,-8.050062712565830836e-01,1.356654814165262068e-01,-7.847811127755385252e-01,8.659741022157431134e-01,7.778690182718817070e-01,-1.254878812605742522e-01,9.526003338864791337e-01,-3.923732802017576571e-01,-6.273846053466520800e-01,-7.826333693111129364e-01,-7.339684460536783916e-01,1.146608598449808981e-02,-7.789742787424627224e-01,4.872761734922919502e-02,-7.154301144811363311e-02,-8.607598617150195031e-01,-5.569991503365816499e-01,9.142088281756036716e-01,3.160376697896404852e-01,5.940383721904224368e-01,-1.006901421712636413e+00,-8.482560751134560206e-01,-6.475841704047825553e-01,-5.182622371462487498e-01,9.522301387142186879e-01,-9.457854152008954296e-01,8.976093860464011698e-01,-8.430069655598501077e-01,-3.114012741519665561e-01,-4.348625218833134798e-01,7.741351476058407899e-01,6.049267005453761170e-01,-3.015991625932827255e-02,-6.244888442376524962e-01,9.493010494534694921e-01,-6.809695203468700830e-01,3.103661614437909222e-01,-8.276487578400483214e-01,5.031158551684655061e-02,7.223525303408888654e-01,1.652622500809488582e-01,-9.223319569817400865e-01,-7.523899071325889087e-01,2.761334826183457491e-01,1.392450202143317717e-01,-6.216113132750345632e-02,7.685942852482912091e-01,4.516651373317444665e-03,8.698044314396639054e-01,-8.270704913213152709e-01,-6.111427395756494629e-01,-8.311542821493795863e-01,-4.705529593762050600e-01,8.161572295137332622e-01,-6.298391157118508055e-01,-2.352737929840091266e-02,6.786178934037733201e-01,2.309740536886471240e-01,1.442663925016329229e-01,9.777516800588511581e-01,-8.214711352350481111e-01,1.033745965285949753e+00,-8.334856329640231154e-01,-3.308500132414942674e-01,8.087843185652821010e-02,-1.218311157906320497e-01,1.186027530063861052e-01,-7.442154392694786402e-01,-6.072341804103333907e-01,-6.254552786338731796e-01,-4.298068813589590031e-01,-8.599920663410028920e-01,3.843024693274743053e-01,1.539107249287276491e-01,9.991338826788425109e-01,4.361950023416361066e-01,7.533746050257734694e-01,7.054932416267911677e-01,5.974207401909473747e-01,-3.431582835031152245e-01,5.805896520560287488e-01,8.161903878218422781e-01,6.900127495825257862e-01,6.951157045858045169e-01,4.934399676187535277e-01,9.252823013399705809e-01,4.649985347453994278e-01,-2.242176978209598215e-01,-3.256771464622463252e-01,-3.317781433866277552e-01,2.289261519549935786e-01,-4.649664739085858645e-01,4.180846711138619942e-01,-9.170826424430268409e-01,-6.492460406211633117e-01,-4.611912816482784810e-02,9.048968693332716251e-01,-1.085451287152319866e+00,-3.410845224155567568e-01,2.376171285973721903e-01,-9.038962405643534703e-01,-6.321630454083646544e-01,2.212836030058321912e-01,2.895072373047989367e-01,-6.329149890120664423e-01,9.946324250461707761e-01,8.564213503270292627e-01,-5.013403648709950644e-02,5.137990687413720448e-01,-4.791236725096613136e-01,4.415757350729663244e-01,-9.261110652839565915e-01,-6.845329633255101687e-01,-4.972329500318394269e-01,8.596463525625361868e-01,-4.054623918752853773e-01,2.499635144946736331e-01,-2.548207507342927225e-01,-1.578472015892813107e-01,-7.029856879451337193e-01,-9.994982341977303175e-01,-5.096528290047872695e-02,8.850240329120261373e-01,7.547213919501123414e-01,7.688257597047226666e-01,-6.977763471522993588e-02,6.806833243766748920e-01,9.726658592692241090e-01,4.202589866427199339e-01,-3.743037013011832337e-01,-6.205570930735984092e-01,-8.991901823161591034e-01,-8.059464591809406553e-01,-3.421228703834428564e-01,-7.735904055747060415e-01,2.131286288775614546e-01,-7.000132756038414117e-01,6.931756209717615524e-01,-8.923149784545999497e-01,-3.898430948626572801e-01,9.076784778538469212e-01,-7.567710725545770956e-01,-9.352681289759753325e-01,5.911355294637032909e-01,2.565149615333279232e-01,-6.479783381893980954e-01,-3.014214679385168738e-01,5.132735904069622018e-02,7.821064867949472088e-01,-3.487490121025281220e-01,-2.425372933703014433e-01,3.185564301960165379e-01,-4.486884912705079165e-01,5.588109892450652261e-01,-9.302489938593357932e-01,-1.087624633865911794e-01,-7.279102700326847142e-01,6.763913235981089400e-01,-7.213768981426033067e-01,-8.699677194521446832e-01,-9.422361244758964416e-01,-1.741285691363501087e-01,4.458063748954093630e-01,3.354859237418086337e-01,9.099923861990204532e-01,-2.638072696903258629e-01,-7.223412003006750570e-01,-1.860239716727066922e-02,-1.140258732378836848e-01,5.154925260701453960e-01,-5.318114452024079730e-01,2.293961164162053035e-01,2.327901460515570120e-01,1.607277339107366643e-01,2.604536811233817972e-01,-9.467193893566936413e-01,9.033239344255566960e-01,-8.340278430325293035e-01,-5.704862900883356236e-01,4.775625354117927768e-01,-4.763498760561212242e-01,-1.003287935422598309e+00,5.779162640455637323e-01,-3.226685709375434197e-01,1.433304159150789736e-01,4.481185716856889711e-01,-4.898620793750153024e-01,5.660632381755151821e-01,-5.267508951501299191e-02,-5.754480189596650197e-01,-3.262927668974757167e-01,5.210749968666348320e-01,5.468325085601417612e-01,-5.171850342941634038e-01,-3.113057192131210571e-01,7.510817389775389374e-01,9.419523206974498297e-01,-8.057719216574922294e-01,3.538986351457260593e-01,1.698669272348038162e-01,-8.808627683983135670e-01,4.841029702378429889e-01,1.005189520530486158e+00,8.774131078897312586e-01,8.131299567826290320e-02,-5.749454357614514066e-01,3.922924717021283869e-01,-3.524580035396524536e-01,3.363830949056862418e-01,-1.482156212423151598e-01,-6.217783626368593719e-01,1.745520296952954298e-01,3.111148673774296047e-01,-7.456947715870140270e-01,-1.051728362732419209e+00,4.479026740002409190e-01,1.359905538386270707e-01,9.248265982624200854e-01,3.448910319436673810e-01,-7.918794623799678689e-01,-5.036227541911703076e-01,-4.866436826113687553e-01,-3.771431718452880055e-01,-8.336108724837167916e-01,-8.417721931000310409e-01,-1.394222451710077082e-01,-7.139649022479681584e-01,1.058415458385980612e+00,-4.607308801582863933e-01,7.281359677309994227e-01,-1.807695973482629503e-01,4.321279415698447424e-01,-5.375763133323234744e-01,1.120323889661249961e-01,-8.710357411244651349e-01,9.354565679940890499e-01,6.592842656490383035e-01,-6.935136171253061255e-01,7.474156266882401312e-01,6.112639932057934988e-01,5.463435700373527881e-01,6.320439087406092282e-01,-1.116586997236257650e+00,-7.126156499974940495e-01,-3.738245409804772934e-01,-1.534549630649598428e-01,6.125433010135121759e-01,1.352309367513400140e-01,-4.370861890556092533e-01,-2.153871010057336055e-01,8.197236660539306552e-01,4.106086438184480825e-02,7.300257410265972857e-02,-9.070758571438876372e-02,7.955588754648978966e-01,-7.559355795145812351e-01,-5.619146562383250249e-02,-9.262636394316543786e-02,3.964673913209845191e-01,8.279219089635798667e-01,-7.342783380205577526e-01,-5.981185837881913825e-01,2.534746187593215350e-01,-2.378562040470240668e-01,6.266442648879874122e-01,2.756684774243902125e-01,5.008709500937403858e-01,1.736860412911517271e-01,2.960915335751406197e-01,-6.370071320524569591e-01,4.190401306718868901e-01,7.799223144821167963e-01,-4.837341444899615484e-01,8.342060414680105840e-01,6.260305319133167012e-01,-4.216208961877114247e-01,8.137168578072802028e-01
7.922167008658315135e-01,-3.821293611460110928e-01,-6.877216744584647989e-02,-6.907845368176178669e-01,8.482471454897827501e-01,-4.901399502343802284e-01,3.879503561756837693e-02,1.997706945332397843e-01,-8.432023793916186838e-01,4.715931225677651994e-01,6.333903066244777058e-01,-3.421657191649227214e-01,1.071887829228357625e-01,5.323933238646778587e-01,-1.291757011057245164e-01,-7.583909829559382088e-02,2.089722547291674171e-01,-4.966780761318658199e-01,1.482956617731034654e-01,1.409978064700135540e-03,4.583610321327769577e-01,8.802284727918204821e-01,9.392056687051474340e-01,9.840334765636171710e-01,6.761173065230770274e-02,-3.542023302148504804e-01,-3.018154751614510883e-02,7.182526308384202807e-01,1.036378754335258279e+00,-8.886751282882262570e-01,-6.815581673474218061e-01,1.084536867801141891e-01,3.234038152241974773e-01,6.399341445338996293e-01,1.094609738621896144e-01,-8.948941492032222444e-02,-8.021209676043654646e-01,7.374258953339520861e-01,9.258520867258805687e-02,-8.572834679550713766e-01,-2.406089921764544351e-02,-7.472840429569566068e-01,-1.544228790267656304e-01,-5.803271060067857201e-01,3.506116301185078776e-01,-7.160583882682651780e-01,-6.546273046777887350e-01,-2.915382422358874792e-01,4.848764596233647861e-01,7.381981376379310733e-01,8.296045549821013942e-01,-5.897689100883392044e-01,1.062341082398679859e+00,5.792969893032520190e-01,-4.294042563314302147e-02,-3.959638376400660964e-01,-1.784791975885357540e-01,-6.652675129856391312e-01,3.686924866498966780e-01,8.768496668303146224e-01,-1.200592515508139696e-01,-7.841237477210249995e-01,-5.258090826901192782e-01,-2.747045663408884675e-01,-8.369062332044161501e-01,3.323341577502389455e-01,-1.778665849602910631e-01,6.734808283673312523e-01,1.398170827671295080e-01,9.867305748899707352e-01,-1.580194874609182343e-01,-1.840186926940997891e-01,1.076966814263244476e+00,-1.400879690786377418e-01,-6.326571077599956183e-01,-6.790031794208388760e-01,-4.388040169426885018e-01,1.096387089603785947e+00,9.947701292714140608e-01,7.800819545924553289e-01,6.634146927407080785e-01,4.775673563793794707e-01,-2.952414544568200405e-01,5.202111936856694818e-01,8.155636160079750285e-02,7.531286777369445851e-01,2.902635991214123079e-01,-4.417219255518704535e-01,-4.755065212557726406e-01,1.123618541783060615e-01,6.571804641409617620e-01,6.305155530317552159e-01,2.808862708499459959e-01,-6.007460168348945917e-01,-5.128448477527012273e-01,4.491085188201830447e-01,5.302854828766091488e-01,6.969363751024970632e-01,1.185181919000917627e+00,-5.212952717009172732e-01,2.881404141377547634e-01,1.340620226977724538e-01,2.921723731878580477e-01,7.837289186198473923e-01,3.799386420167430445e-01,-3.331984763260982252e-01,9.506641900222456698e-01,2.800573699440424558e-01,1.060188170259773188e-01,8.930646844873284529e-01,7.511973839406429487e-01,4.517354446186325756e-01,-6.697358067253293967e-01,7.896414101505591088e-01,1.620980509150306281e-02,5.547511589044256536e-02,4.652826825954656242e-01,-6.326423434054921913e-01,1.017154227319783333e+00,9.611922245797185349e-01,-5.724978853956245173e-01,2.140448991095581788e-01,1.252384966058090576e+00,3.184554810107476097e-01,-5.881089135686373703e-01,3.243177077358280758e-02,-3.431301903428371491e-01,-1.527560838482140415e-01,6.428077166647782059e-01,1.006775640987471743e+00,1.937815886145639876e-01,-3.885977618107134823e-01,2.532489750922087279e-01,5.574582307722424357e-01,9.571378049895017393e-01,3.361604929040089007e-01,9.031342971783558049e-01,-2.957652085789730934e-01,-4.156066302686539649e-01,3.584592389633104448e-01,-7.716316533960168034e-01,-4.662555890491800747e-01,4.550653704646677733e-01,-5.678509921007441896e-01,6.710855087064075963e-01,8.697912479773047822e-01,-6.989925432639602088e-01,-2.213068443232219656e-02,-6.310113814510743824e-01,-1.115760105087952869e-01,9.328796298108509299e-01,5.215644556901462003e-01,4.248806675548844058e-02,1.403808802461915750e+00,7.259503643665948802e-01,-1.049381220193243314e+00,-9.281748053251377695e-02,8.060777854527340081e-01,-1.105512950021646928e-01,6.082398183580404183e-01,7.363634111369835589e-01,-1.060271996667336569e-01,-4.677847522227174953e-02,-9.741120592776890685e-01,8.199835803984729665e-01,5.803975670474968013e-02,4.171258813242578189e-01,-7.826502583755614584e-01,-5.526988882081984578e-01,-5.455232965353422614e-01,-6.847184591640497198e-01,-8.002338445842364090e-01,-6.762601327394820450e-01,-2.560578444748815019e-01,-8.230314508904226223e-01,5.387056769922539123e-01,6.724650164690157972e-01,-8.467049448321013472e-01,6.789150474550895709e-01,2.026931446862552111e-01,-9.097810366490612921e-01,9.164543620500353871e-01,2.989641815835278882e-01,-8.871143180316604093e-01,-3.330206946262677659e-01,7.320615762914205460e-01,3.291862033861555625e-01,-6.028269830304652244e-01,1.053557633172384350e-01,-1.636389293441283810e-01,-3.349003729978181076e-01,-3.441031193874373728e-01,8.164432538307537790e-01,7.823135747772606008e-01,1.090528524186081955e-01,9.918549975180274147e-02,-3.057326504795237487e-01,1.210661214271732955e-01,-8.636915532558917530e-01,-1.565735360958212252e-01,6.675574105479413767e-01,-2.731768968702598110e-01,1.057142242327010706e+00,1.030941696433371968e+00,8.252114805105128514e-01,8.027164389870453456e-03,-5.909325288672034188e-02,-3.786079779509267662e-01,-1.057783283555841836e+00,-3.113819571920946050e-01,2.680558880458612861e-02,-1.339567126252648732e+00,-1.843054057326753314e+00,6.905806177679234548e-01,6.566013264627100776e-01,-5.694626065923733549e-01,-4.000362276797679306e-01,5.696839012708967420e-01,3.883724439556132668e-01,-1.657467007983393914e-01,5.262109818398261751e-01,-3.315448753103868440e-01,7.188652688259095092e-01,-7.540674448762660909e-01,-8.500968162005458906e-01,8.731325623446040129e-01,7.893453169909500078e-01,-6.212854379458743193e-01,-3.554710271824125800e-01,-6.122283123883379696e-01,-5.268890920203155304e-01,6.262263368639643391e-01,9.943885395806649763e-01,-3.162589348239631115e-01,4.165518346083332268e-01,-7.581592483851024022e-01,4.899875455781300682e-01,5.543886506784009294e-01,-5.495960918124561667e-01,-1.138508594636064464e+00,-1.159776960134235591e+00,4.180292189714840401e-01,-7.931814467309138417e-01,-8.090353381222439300e-01,8.389950685583548451e-02,3.167970763273682960e-02,8.416168990233372504e-01,8.130193778917299552e-01,-2.895925597687482589e-01,3.923406499914432466e-01,-9.706788162285628907e-02,7.121261081131737836e-01,-1.209219761234947565e-01,1.452786675067334055e-01,-6.299011805040781731e-01,-7.225838013279722860e-01,-2.176569314768173613e-01,-1.005415651273105393e+00,3.914428063407811020e-01,-5.511114863110203599e-01,-3.735964141653513870e-01,-3.973522097273946563e-01,9.840193924531558389e-01,5.023722939520007813e-01,2.667652574042161384e-01,-1.202591850158613695e+00,5.508162320645527688e-01,-9.073492950830052139e-01,-1.291266354109897430e+00,-1.149727197413546120e+00,-2.926436079999618356e-02,2.864451059859591808e-01,-9.452126345918241412e-01,2.470284892742006244e-01,2.317162917746545814e-01,-1.557146340447603805e-01,-4.965810945786460762e-01,8.089790986550090546e-01,1.781311777251078088e-01,-7.618953836935876689e-01,-7.875711119317783115e-01,6.727309624400688026e-01,4.491006669726552714e-01,-6.333018827236217008e-02,1.003227522712097364e-01,1.613141631717893987e-01,-4.500276338572078427e-01,8.554895730711378210e-01,5.804253864268797969e-01,-4.039217318056264605e-01,-5.458101535748314248e-01,-4.365981592083234553e-01,-1.640226391318166110e-01,-1.004666563221851217e+00,1.281431234023500398e-01,-6.862920867716478801e-01,-2.843246801658733114e-01,-1.205933479887743909e+00,-8.726537027668125335e-01,-9.425128881137618819e-01,-4.446964863569167203e-01,8.906574094597762281e-01,7.274738799732258787e-01,-3.908010376529955643e-01,9.658215730763262119e-01,-8.956998954499515442e-01,1.711083994515368578e-01,-6.338058657432412701e-01,-8.491985093445242327e-01,7.258601147220000716e-01,-1.880113418919588872e-02,6.378208573471865206e-01,-7.619352543035678993e-01,4.502680664123174803e-01,-8.022799729691935944e-02,7.764694064169537224e-01,1.173805164348218799e+00,7.607120346389663057e-01,-4.891737873109384682e-01,-5.859484965994207067e-02,1.303206950904124417e-01,-6.614983796942002225e-01,7.150134202695701546e-01,7.353826807814595190e-01,-4.376559333096752269e-01,-2.875624757036705503e-01,-4.306365265685119792e-01,2.150743797808135349e-01,1.602717987528025356e-01,4.521015276908676439e-01,1.717916077127779051e-02,-2.108051584158698588e-01,1.480716119808968556e-01,5.044497132615934770e-02,2.715651935553869412e-01,5.841312694906751757e-01,-1.008915408432605743e+00,8.131073588936883478e-01,-3.743324507719399397e-01,-9.872493975599837546e-01,4.362368320960376411e-01,-6.031845558182237221e-01,6.176908302462461586e-01,1.959739208947285927e-01,3.018337521828501901e-01,5.778916054766192190e-01,-4.252060917404250628e-01,7.610247881297573791e-01,-7.892199964118773448e-01,-6.225304093357775237e-01,-4.042639449720423772e-01,-2.263450350851651735e-03,-1.770560100287459915e-01,-9.690232115897563503e-01,-3.503148607724000663e-02,3.104326719960939784e-01,-9.888792707230776857e-01,-3.984329004707906630e-02,-3.226470284006272560e-01,4.443327732157081877e-01,4.707475507709126816e-01,-8.357320845421462030e-01,8.162235375346019728e-01,8.350111057044125040e-01,3.375155356483640068e-01,-4.616708460097830313e-01,2.110617618854081501e-01,-8.900330160279734670e-01,-7.093158100735037774e-02,8.429908444046174676e-01,7.591867025630678611e-01,-6.530784061789750572e-01,8.799251544969241001e-01,8.593904364587605649e-01,-8.603629457485325593e-01,-3.987041737120813334e-01,-1.008691950449085217e+00,-6.288246324145351229e-01,6.207981481736138951e-01,-1.283344174603004539e+00,-1.102793982728803579e+00,-5.243844078203229175e-01,-8.388507102468762966e-01,6.479578834580419500e-01,4.857038262183707156e-01,-6.924558700182784632e-01,-8.074806818533181163e-01,-6.252233870510288671e-01,3.015558685313332946e-02,7.426964973023937322e-01,-1.516634634676368720e-01,2.007572716631473020e-01,-1.022893157342601000e+00,-2.168533205196799402e-02,-3.223486611022292059e-01,1.852201200230540190e-01,7.614995959619377253e-01,3.232954136435328141e-01,1.029795872624222453e+00,-4.045378437633839197e-01,1.192847325107090128e+00,-5.071681990814252972e-02,-4.393126273749772270e-01,6.710128557850890685e-01,-2.780754831910606795e-01,-3.993709645672247621e-01,-7.602641828194210971e-01,4.999124120300455498e-01,-9.713211537408972251e-01,1.848472662598207028e-01,-8.936335395496672884e-01,6.473910465789776136e-01,-5.734856388620875878e-01,-8.705836154473086674e-01,-6.544848321547762637e-01,4.348798015876013667e-01,-8.872784405113813555e-02,-1.244443722675328212e+00,1.815889813933050101e-01,6.189602131833384924e-01,-4.844502290613281192e-01,5.665509854369219500e-01,-6.445771217310710677e-01,5.268023435853692593e-01,5.195790752971113369e-01,5.187655802082062895e-01,-2.696240929541148246e-01,3.809873963759743409e-01,9.519983839433368011e-01,-4.751187903337659169e-01,-1.240795029063153365e-01,8.014350097476499735e-02,-8.085903870386271786e-01,-6.608464102951954189e-01,-1.237084499407689497e+00,8.368451483394856449e-02,-4.266822317601906001e-01,-6.564221492584176865e-01,1.316686939964548109e-01,-5.236927896326342147e-01,3.556411907135286210e-01,-8.542287028756537781e-01,1.722692187351775317e-01,-1.062876953019711079e+00,1.833128318466038797e-01,-2.183265503113713812e-01,-2.792179608368716703e-01,-2.773747896747214003e-02,-2.804088210864316144e-01,-7.725300839873087133e-01,8.309236401033823771e-01,1.044183477249290559e-01,-2.406367063573321141e-01,-6.151616064613657509e-01,-4.110726809246672553e-01,7.463963562740758562e-01,-2.485373795289083088e-01,7.866090423903281392e-01,9.230403125025113953e-01,-7.314736037323342766e-01,1.286210988903872462e-02,-6.795032190655070359e-02,-6.976344631174745403e-02,-1.157246235002110879e+00,4.123689524983765176e-01,7.619064548905297996e-02,3.757968443548929116e-01,4.934709111023202199e-01,5.099285513723047503e-01,-2.039609007646698002e-01,-3.158449923541266080e-01,-4.989101951005157076e-01,1.791636697551923438e-02,-5.815129951125984631e-01,5.146318123793950372e-01,4.964370496393827326e-01,5.908264608142390628e-01,8.477792642351572594e-01,6.414947227831083731e-01,-2.182321595752395038e-01,3.285213087757809514e-01,-3.415000491014874018e-01,3.689987329768461555e-01,3.028433980877165421e-01,9.211270798737656307e-01,-4.769348354286487845e-01,3.640280129736587211e-01,8.101414029046587473e-01,7.623006521896520393e-01,2.074807370477753377e-01,-1.086982297314035506e+00,-4.839615842073691776e-01,5.839266551291965035e-01,-8.853915275053539924e-01,-1.001288551377848224e+00,8.591262249798252426e-02,-5.984847802009229945e-01,-8.695537669546158366e-01,-7.522025095483701740e-02,-1.024328519703224805e+00,-9.045648064790389187e-01,1.940516337664430768e-01,-7.441471179302464600e-01,-5.771769726253924704e-01,-3.807458620816978612e-01,5.808383730147165247e-01,-1.030185580522572808e+00,5.809362449083638191e-01,-9.379188716613573451e-01,-4.071097117137896237e-01,2.814634736396690595e-01,8.595509803637966240e-01,1.083526189827483055e+00,-3.188525018606812034e-01,2.803769884519030087e-01,3.382902820200484606e-01,1.092721420667054355e+00,-9.016390121218897935e-02,3.123891036492371653e-01,-6.770658628428350978e-01,-1.206409508225195770e+00,-1.163188821828680997e+00,5.216657023925977965e-01,7.350326834432195922e-01,-7.041358910483457301e-01,8.202707610938272387e-01,-5.190587328632466635e-01,-4.226457897707826539e-01,3.092570689213010038e-01,2.773833602444871760e-01,-5.459248185937311953e-02,1.740887814117348942e-01,4.227265649127245895e-03,-7.489345805005173107e-01,-5.132428815346138373e-01,-8.804427223934587765e-01,6.595169230907853564e-01,1.251668588587683678e-02,-5.727321127859333894e-01,-6.969454499080425247e-01,-2.061303691168176466e-01,-8.605780065047793359e-01,5.565806221528003112e-02,-7.466160433259017015e-01,5.142933729580089208e-01,5.214033204699401736e-02,4.539717639805395701e-03,-2.542159784613515772e-01,4.156881972530403202e-02,-1.019826540753463240e+00,-1.401725662454029742e-01,-4.483766653748886416e-02,-8.851943793174597008e-01,-6.097184200368552798e-01,3.484782004416099865e-01,-3.668733450045568723e-01,8.527817205883453378e-01,-3.312034490249116114e-01,7.055937409358332690e-01,1.083075334746528950e+00,-9.710947149669011402e-01,-8.630809838701932746e-01,-1.777867852984121588e-01,-2.897606730230632699e-02,-6.260541341581318808e-02,1.646452895702607833e-01,6.272888213228124954e-01,8.641049353850018822e-01,1.057731969097685409e+00,-3.358952588928198479e-01,-5.553809656552653046e-02,-9.247641953619313571e-02,1.903406457630380799e-01,-3.139902023186225133e-01,-9.304116254034412448e-01,7.832934172169201403e-01,-4.686987518217687609e-02,4.818344681987118960e-01,2.651297583463140817e-01,-7.448576924487791961e-01,-2.726381836360481925e-01,-1.435432828832394203e-01,1.388113332401246458e+00,9.819623735957691557e-02,1.155495185498948141e+00,5.312395217701026962e-01,-3.053088732548237538e-01,-5.648710266657767098e-01,-9.069745139029241621e-01,-5.835412121854512968e-01,2.292465246695684633e-01,-1.890672389291732092e-01,-9.612408931387619315e-01,-4.526426105401858829e-02,-3.820148096226707590e-01,8.456677730272665894e-01,8.467023438859641038e-01,3.599669165825418182e-01,7.490070589172909132e-01,5.426687703071928492e-01,-7.091904913307061076e-01,-7.054898226167571895e-01,-2.490951052446097047e-02,-1.765531454490021634e-01,-2.945575710909181799e-01,4.590151155923936632e-01,-6.266265711641270109e-01,1.439859109935365256e-01,2.393963842983330148e-01,-3.930353790528965940e-01,-4.734610693040503665e-02,8.794508890903985909e-01,-3.184218038358292979e-01,8.487113173079722239e-01,1.137002791213231889e-01,1.863713106763102700e-01,3.106279552152102497e-01,-3.483579172947047220e-01,-7.314727935799213432e-01,6.977624422141902594e-01,-1.223416530490714499e-01,-8.405211417358819936e-01,8.175267152354788458e-02,-3.183887962140884154e-02,4.597933670640071968e-01,5.657512198239031398e-02,1.012798478859000761e+00,-2.149951601243456911e-01,-4.129168017174915661e-01,3.242736256984656285e-01,1.267771811718068742e+00,6.363165042987981579e-01,1.074730529788208599e+00,-4.955762782208495421e-01,-4.565311665964458948e-02,3.262602039474232773e-01,3.057783157596105084e-01,-6.391635160934158177e-01,2.477049803012845164e-01,-7.002108155014522550e-01,-4.291728626997008689e-02,-7.329146824754243505e-01,-5.483840675068211157e-01,-2.483606610320100716e-02,9.031269959418194437e-01,3.948351988468432605e-01,1.084503471777958250e+00,2.222445482690013352e-01,6.584330034330234671e-01,1.435178120383018563e-01,-6.619242087480394776e-01,-3.117806445794357173e-01,7.000025382840402433e-02,-1.356197630529017151e-01,1.246724158092514356e+00,3.067893137561627515e-01,7.780810003178573186e-01,-5.561664284194202112e-01,9.183607841180269071e-01,1.101892421218445411e-01,-8.152916022739684077e-02,1.008031467295716910e+00,5.723010819651074277e-01,-1.300384748923015366e+00,-6.173633580518604891e-01,1.823158182370497593e-01,2.954913108130038241e-02,6.641622964309182864e-01,-9.441839360045950480e-02,-6.879569961221240204e-01,-6.386762881444649764e-01,1.816281220702527788e-01,-1.470602588618131479e-01,-3.540434203106964661e-01,8.624906673548664582e-01,-5.665370474381276056e-01,3.373502959285413216e-01,-2.574123461018364423e-01,2.134016463055263269e-01,-7.951158503695077151e-01,1.079922667460634644e-01,3.200117090681222076e-01,-5.220469091618608060e-01,3.869450218678956999e-01,3.321115958298904713e-01,-2.561727355092954239e-01,4.531664192495974963e-01,-3.552982358009946773e-01,2.415017574961058344e-01,-2.202096873840381913e-02,5.085425769258390405e-01,6.057378398343906678e-01,-4.795702633710260399e-01,4.570745330054628575e-01,-4.265735716042958203e-01,-5.653660421758162080e-01,-5.832761362211765777e-01,-8.535357753793767488e-01,-5.726174676185645795e-01,-7.142965484440748636e-01,3.200769369903236350e-01,8.243825077298801984e-01,5.679694520881295450e-01,8.921382957388521162e-02,-6.235439555749252571e-01,-4.879251491862942047e-01,1.525296957215732108e-01,7.411307564327661579e-01,-6.532722248192989190e-01,-7.842689646510017099e-01,-6.579513233045092280e-01,1.866337296686267078e-01,1.002828379452707308e+00,-8.091865174873982269e-01,3.519276767626582370e-01,-4.760907061824407593e-01,-1.131298108188656615e+00,6.289454608847431238e-01,-4.388858026632802556e-01,1.417794111875239349e-01,2.874542357727777886e-01,-6.536438799466466332e-01,-7.715875949771872078e-01,1.395707717220070684e-02,3.230171213026775678e-01,2.799373011584205262e-01,-5.121377899964274505e-01,4.797127648779105913e-01,-4.573200228820666902e-01,-7.093228456402199678e-01,-1.052282782495638003e+00,-8.171288334163010481e-01,-1.096439098003260115e+00,-6.630399203317351997e-01,-7.652035221697901513e-01,-3.131264858216576963e-01,3.985576216874678335e-01,-4.232682689588631586e-01,-3.887760847076153770e-01,9.651378271114031682e-01,4.920950817610015293e-01,9.765921959933981933e-01,-7.428769071475370411e-02,8.526213159895555949e-01,-4.185887468289677948e-01,8.886997745164690876e-01,-2.694387765241880728e-01,-2.907015470231720800e-01,8.045928636153167890e-01,-2.602343112275017911e-01,-2.220287449542428515e-01,-9.057030277222919423e-01,-4.452126376602160707e-01,9.257369444006194881e-01,6.762258288944469342e-01,-7.732944858853686432e-01,5.399499882341757262e-01,5.492443594442935062e-01,-9.604636654733389456e-01,1.352663381774724949e-01,5.715398995659979470e-02,-1.065721420598196634e+00,-1.417176599932177039e+00,6.315642513439020389e-01,8.749803713780640591e-01,2.880895367935190077e-01,-5.798549727821287192e-01,1.002720980111804883e+00,5.934428125358522932e-01,4.339458621400410498e-01,2.651820298726540459e-01,-1.464755242904633992e-01,6.884231098580131381e-01,6.618354517220187416e-01,-2.744267985386507624e-01,5.693501482060715491e-01,1.486316765237231385e-01,6.279822047313585731e-01,-9.125632550093292217e-01,2.451462290157968849e-01,-6.179748528796977780e-01,9.477014194274438474e-02,1.020598785760348015e+00,-6.994948639611499042e-01
-7.808083128610783241e-01,1.503145867607722508e-01,-8.733402589008772976e-01,-7.699552914727416653e-01,-3.246781628677944138e-03,4.875097041250984198e-01,-8.508793821594294871e-01,-5.710407819081240177e-01,8.635343403255687500e-01,2.866895642964324420e-01,-2.645275195430823456e-01,-3.293402735127889391e-01,7.551886346568613684e-01,5.124971649802280149e-01,6.525411845417502521e-01,-2.678390179509396729e-01,-1.906834526726339518e-01,-8.861758539527353484e-01,5.861048872438562318e-01,7.387021057256993872e-01,7.613508261498383445e-02,-2.783296913456363986e-01,-7.300304943677710101e-02,8.630313041644510630e-01,5.679470740786302096e-01,4.824078664372456471e-01,1.091958706813893620e+00,-2.190393564918654001e-01,-8.549527745978185989e-01,-9.572397058527821745e-01,-2.167634530533292248e-01,6.797289045280030528e-02,3.544152616160640146e-01,8.553356885583307534e-01,2.914036050670333888e-01,-1.716326201871888613e-01,9.111436770354066628e-01,5.170221291874240732e-01,3.643558154698249285e-01,3.457892587866817635e-02,2.427275756070591262e-01,1.567163331127948978e-01,-2.248941390588393985e-01,4.405627440973829967e-01,6.581670985421662623e-01,5.503421587910262147e-01,7.582537062187301169e-01,-8.126492202600370529e-01,6.943964162926204997e-01,3.639001160188712891e-01,4.149631410004216425e-01,-1.004871902118584570e+00,4.460455929523737817e-01,7.275916223778110536e-01,2.376277399272357926e-01,-6.460847418357176242e-01,-6.538449203951973709e-01,2.593086079302672417e-02,-4.148532631068689858e-01,-1.025740351061056765e+00,-4.263498419427141362e-01,7.968371041603691252e-01,5.847821473604233322e-01,2.932645769450532569e-01,-1.891306846725461163e-02,-6.678543191616270747e-01,-3.231537709809333414e-01,-9.034671232922382167e-01,-9.040074957441102121e-01,-1.378434541790826362e+00,5.375149732857908980e-01,-8.171044914418330585e-01,1.065775989538975677e-01,-7.938110028306696320e-01,1.147400372740501995e+00,1.804863806520141667e-01,2.746828868440600036e-01,-2.375023619003702180e-01,-9.018308393139553569e-01,-4.796667512461821326e-01,4.336293871312252302e-01,-8.292028462976909486e-02,-3.786258340567062453e-01,-3.967986231045564360e-01,2.322586486713346110e-01,-1.717346128779886072e-01,-2.223120538367754084e-01,3.056731799660354285e-02,1.871695768633829526e-01,-8.240885508868299736e-01,-5.962160038105722704e-01,6.631088003145242382e-01,4.801949771574703374e-01,-1.025532467929640923e+00,-1.006251905267096181e+00,-9.891973127940117960e-01,-1.481675129029289772e+00,-1.090633622993638197e+00,-1.071788822335693475e-01,-8.705711542837605288e-01,-1.395086066911677414e-01,-4.163323596129908100e-01,6.785178448077134883e-01,1.918860202953748817e-01,-1.799549035228373561e-01,-1.398916031554754968e-01,-1.001553425644778006e+00,-9.103839182421542553e-01,2.366610228561524254e-01,5.296660338424594716e-01,1.217633903667370898e+00,-1.768700881033927197e-01,5.410064768868515506e-01,-9.234275430218936709e-01,-6.237637220063081411e-01,-9.347415954085410705e-01,8.502515962923694604e-01,-9.562827968509884924e-01,-3.272922402367528516e-01,7.948583198745932110e-01,2.343340706565878728e-02,-5.321884554879657836e-01,2.039830114809370876e-01,1.156296718072079566e-01,5.416634127421979250e-02,-3.698126382657314082e-01,3.804235581931045274e-01,-1.369850488215486051e-01,-1.262816179347790557e+00,-3.517773184637267292e-01,1.396797330984796415e-01,1.005799770588241548e+00,3.160109690462288290e-01,9.946181492831530635e-01,6.056745487505645065e-02,6.704974919243295028e-01,4.295168112845424435e-01,1.067186842261959034e+00,2.754074269813790513e-02,2.417634232651020565e-01,-9.884264614082303169e-01,-1.032797112737184886e+00,7.300716041212017560e-01,-8.985346764347041937e-01,-7.908385531570147897e-01,4.283449334616366566e-01,3.497560202574986898e-01,9.931672032112313919e-02,-9.812221220086847495e-01,5.904822648425970266e-01,2.757058610803020393e-01,-6.970703472294179082e-02,-6.256435798247078628e-01,-1.331046146341333003e+00,2.022401208705416550e-02,-1.376593314142830593e+00,-5.025647091231381092e-01,7.857254455737439081e-01,-1.677778042901418021e-01,8.920626971042503461e-01,1.314395187953363520e+00,9.748875379771451133e-01,-3.132860263334645845e-01,-7.423357717598089156e-01,3.312158346716407853e-01,3.142092914937569953e-02,4.518558312518172193e-01,8.259311040532480996e-01,-7.931735716248400347e-01,7.070605084733866397e-01,1.154206448435760313e-01,8.594373532810904992e-01,-1.132155678353384820e-01,5.655021902341398343e-01,-2.611111212817583405e-01,-5.349167474899858554e-01,5.959691966978515332e-01,2.999433989884470741e-01,-2.115563908244906810e-01,-5.916337070613052473e-01,5.226554366278002295e-02,-1.044095178248257039e+00,-6.453962551209391219e-01,-8.252011981323036371e-01,9.318791878345906721e-01,4.131062607973443046e-01,-5.881637804963689709e-01,9.306735632101842404e-01,1.335851664148235196e+00,6.810820371642982707e-01,4.965070363679077725e-01,-1.823065391708423022e-01,-7.461820886200509761e-01,4.095038802228056496e-01,-2.826352719198693686e-01,-3.760739188631889718e-01,-8.451892180585536263e-01,-4.950608897463225633e-01,8.555353556436430251e-01,9.209965185077569894e-01,-3.842191200767701154e-01,6.805989882789778012e-01,-1.436696587518207675e-02,-9.988351542964488683e-01,-7.847974171772614804e-01,-7.927537363666493642e-01,9.205204769708474899e-01,2.969585774242904930e-01,-5.267144049194374400e-01,-7.933179325716854802e-01,-3.830253179222196241e-02,8.867508536410779740e-01,-1.325111455702056296e-01,-7.584586793342926736e-01,-4.785274963960051142e-01,-1.030983317732138804e+00,-5.997265580738626589e-01,1.117150038045706603e-02,1.380983750819667899e-01,5.757160585186572588e-01,-1.931052993071239593e-02,2.249515993358479071e-01,-6.814428346405511094e-01,-4.475852717453725482e-01,-4.168820963241109956e-01,-2.315779948646495834e-01,5.589729617265484229e-01,9.702007702378212528e-01,4.189031461730196582e-01,8.963161376815970138e-02,-7.016501462096014219e-01,6.178543017276115767e-01,7.217436758975429578e-01,6.290395267370871846e-01,8.197522693634736735e-01,1.093450921079304992e-02,7.712736202284874443e-01,-8.241725092358102023e-01,-1.000443132008765890e+00,-3.562704872511146537e-02,6.673221693611743888e-01,-8.991447877905920372e-01,-3.936168017818000853e-01,-1.828938303547505626e-02,1.629255209202164212e-01,-9.931774501407395483e-01,-1.194264346397504006e+00,-1.740767048653577842e-01,-4.446393210356203718e-01,5.880509536064177506e-02,1.048737670194297422e+00,-5.443354268004535479e-01,-9.170599130363589202e-01,-9.237631757226748563e-01,2.832576929576219316e-01,-1.557787174290414800e-01,5.942619839537069959e-01,4.862186644082776010e-01,5.846663316626549145e-01,5.339996431264796284e-01,8.242450100561790061e-01,-5.055236093975326028e-01,6.525716889782726682e-01,4.339875423218641504e-01,4.380135800495603138e-01,-1.316542797444375301e+00,-9.838854139375630137e-01,2.088047224568979291e-03,-5.682450347587053585e-01,5.548891785380638542e-01,-1.092636869487308982e-01,-3.852132882153503912e-01,-1.029126789590562696e+00,-1.004182113516502106e+00,-1.106153110947985380e-01,-7.119494546903660792e-01,-6.115868208210625268e-01,1.073210958065772269e+00,9.783869790638224373e-01,-5.216168228870934342e-01,-9.285312696696044199e-01,-6.612146915387340229e-01,-5.505035467693328854e-01,-8.893365970159421430e-01,1.602186630447551274e-01,1.031626173621090548e+00,1.169548782839678669e+00,-1.296751552019319575e-01,1.602894586307009206e+00,1.203312325943559857e+00,-6.039651113197532784e-01,3.802363824134135650e-01,1.101275716002571292e-01,6.127165384717446761e-01,-8.475885125308550982e-01,9.258602942356140841e-02,-4.735550320924731826e-01,4.664709892879533859e-01,8.321499971067636281e-01,2.540233999388545327e-01,-3.291676244117855421e-01,-6.070446922358794239e-01,-3.298709052974659328e-01,-3.635505842383991992e-01,3.281093177992036591e-02,-5.479306594690502852e-01,1.065943579340882907e+00,-4.083965447332805754e-01,6.498513256571839536e-01,-9.180277238470909706e-01,4.493047630398621511e-02,3.339836053051436493e-01,-7.190517616573384174e-01,-3.720336764557971021e-01,9.174113841019371218e-02,4.529961047119572537e-02,1.202683166895266664e+00,1.038661024771838776e-01,-2.835572004605739216e-01,-3.371490847897921916e-02,2.824487524744129230e-01,7.212478946046773087e-01,-6.720793414774816066e-01,4.835655169041904594e-02,-4.336151602532278271e-01,-6.444396776019208906e-01,8.435454409876169679e-01,1.160414359205084456e-01,-4.595648294207488327e-01,-7.561041874198308754e-01,-6.018627491528742990e-01,-6.651939845354697400e-01,9.972252717678327105e-01,1.061754490370738102e+00,-2.785837442379894835e-01,-1.056194569562907692e-01,5.904874903493262384e-01,6.522011799870545135e-01,5.098232299024996195e-01,-5.046091810234740738e-01,-1.001131303015882074e-01,4.706528326352375502e-01,-4.368084121440866108e-01,-2.041175820153902920e-01,2.985773832221295943e-02,4.296724113109565146e-01,6.063964732839195459e-01,-2.877468137478607635e-01,8.450273079031446199e-01,1.251909898413078870e-01,-4.945750997618751921e-01,3.362246533236695201e-01,1.962965891538879792e-01,-1.368378458017544652e+00,-3.601232994714690383e-01,1.095437515432447162e+00,-1.540453390019897242e-02,9.265529197556084950e-01,-9.154230261921084688e-01,1.365701884390196463e+00,1.477482680927550307e+00,1.037936584020237862e-01,4.915035716410021127e-01,-4.567659796154147633e-01,-4.520895648510916409e-01,-9.234659933839004520e-01,5.024279072504607146e-01,-5.184818490153819681e-01,1.301998564788345580e-01,5.920766174831493256e-01,-2.074570877566639382e-01,-2.752105428579454394e-01,1.057968131086533425e+00,9.548380200497630366e-02,-2.370776892872467900e-01,1.255813082716837004e+00,-8.248557689070742382e-01,2.785118704129581624e-01,1.624536940203853974e-01,3.188714949755142025e-01,7.414331524835957588e-01,5.018328211227225388e-01,-4.934168443087598166e-01,4.845292242087129719e-01,4.766459077689122470e-01,8.157804084002526768e-01,-4.419638145149169528e-01,1.001088976103885475e+00,1.195737480375289596e+00,-2.205901299170727192e-01,5.825727735246484240e-01,-3.144556019504223671e-02,2.261144526167515878e-01,-5.587223341461419190e-01,-6.179449400815225646e-01,-5.820597803009990023e-02,5.360486372751710471e-01,8.218804991503311230e-01,-7.366415432374483485e-01,-8.992179314525995393e-01,-2.489115708704148777e-01,5.291898738761267040e-01,7.803529040480364776e-01,3.583942163996670649e-01,2.624361682931128370e-01,6.246230066831737204e-01,-3.734930138927424759e-01,1.217689588501607301e-01,1.152022866801724721e+00,-1.404849744864844485e-02,-1.410224027098133659e+00,1.347095227478380119e-01,6.540807006646218724e-01,-8.690284652180596536e-01,6.165779503194073197e-01,9.105101466080182115e-01,3.956811305866151374e-01,1.164876499315327801e-01,7.932473069601798654e-01,-7.947780599908906840e-01,-8.408582624467169087e-01,-2.095520034570379133e-03,-6.054712604850061020e-01,2.183807705069236160e-01,-4.642847780715200767e-01,6.896105944006212241e-01,-4.116768583416871574e-01,-9.532121950077817596e-01,1.065082199899538340e+00,-9.618031750668017965e-01,-1.043031293980599683e-01,-9.784469854440756495e-03,8.616142625836826774e-01,-1.540230517847092084e-01,-4.983610659037421980e-02,-3.451382936923522715e-01,-7.798051219387437394e-01,-6.870823071116732850e-01,4.272336697082701473e-01,-7.921229177269929755e-02,-8.831138343333652663e-02,7.833335329470637598e-01,2.390758865327244909e-01,1.054885145901310439e+00,2.780789207834841736e-01,1.117069030943971919e+00,-8.874201469890879990e-01,7.085108219719159495e-01,-8.449185068603141113e-01,9.011979660034229178e-02,6.621633128103138199e-01,-2.905386749191744000e-01,2.673190381827383333e-01,2.236448287482091790e-01,-8.079319925785986012e-01,7.172008192393489745e-01,-2.544875862190670857e-01,-9.691019575026811328e-01,4.210425248789544939e-01,-6.891104074900211707e-01,2.356453702758946334e-01,-7.653140362511461348e-01,-2.735855251506422170e-01,-5.934998392328567629e-01,-6.527717552282880087e-01,-1.266821344752958378e+00,-8.170834573733807282e-01,5.585043481231631857e-01,1.090439364197859806e+00,3.025439366904248417e-01,1.427936587297377602e-01,6.400286698170546407e-01,1.608976002928407534e-01,-2.794981463616449946e-01,-1.024151616008211335e-01,-7.615248946248394102e-01,-7.658511646477252077e-02,3.869183652596233647e-01,-7.476903016149339942e-01,6.524489184682195908e-02,-8.980305695782249409e-02,6.752321429064339631e-01,1.513962839101158087e-01,-3.632744422288427533e-01,1.510018527343112982e-01,-1.453774040502287257e-01,5.001947275125008252e-01,-1.094389829955299959e-01,3.861110318650171624e-01,9.634620458536562460e-01,-9.838069696900617611e-01,-9.922455941160330806e-01,-3.979987465689607262e-01,4.960101575174177269e-01,-7.683171807049152813e-01,1.064380015009566971e-01,-3.334839086098554967e-03,-6.619537508054704755e-01,3.569519742752981784e-01,1.031353901206434776e+00,-8.110653983878927109e-01,-2.726124728995801827e-01,-8.067041495530010708e-01,1.014047957897845409e+00,8.720443023308532826e-01,-6.344955921581300062e-01,-9.847697946025216753e-01,6.194778749102907156e-01,2.078934337373790631e-01,-8.855948544356246899e-01,-6.036520435323451395e-01,-1.300035211574369076e-01,-1.593476679697267973e-01,-7.736845211681391277e-01,-2.700406123021277249e-01,6.011366177361762153e-01,6.583530317902148987e-02,-1.376006464511557059e+00,4.584448887995566657e-02,2.338015425392440394e-01,2.207203201568829765e-01,-1.277677197716644786e+00,-1.279545046016420384e+00,7.879858850647410984e-01,4.807779481509312225e-01,2.814708322931879780e-01,-1.034233253456571688e+00,8.345380849839688642e-01,6.836261586072740412e-03,2.182243022027253174e-04,-4.608568533864389472e-01,-8.144018134410990761e-01,1.033674812497310302e+00,2.364328422051832912e-01,5.979808878390054927e-01,1.010174754187319890e-01,-1.009852700501391753e+00,-2.215910816953955143e-01,7.464265626956376187e-02,1.960307695878499012e-01,-1.298223011894221068e+00,-4.009648817161837742e-01,-2.218891312349578482e-01,4.555434425658804187e-01,7.281204248274816271e-01,-9.469739773297374263e-01,9.334438261903456047e-01,7.992100209635757402e-01,-3.535051584390732082e-01,6.953136514807918556e-02,1.052813572652697260e+00,7.758521923765390182e-01,6.552329005989521171e-01,1.160724122629825050e+00,8.414369002676352904e-01,3.404618678079372462e-01,-3.057253307269627296e-01,-3.087786476217984077e-01,6.015912006034809245e-01,-1.688977739551569546e-01,6.344871755901096977e-01,-8.280496775158943112e-01,-8.282799587907638816e-01,-4.199777660166659765e-01,4.203724917462020039e-01,-6.388541170764309163e-01,-2.950525970344325399e-01,-9.776156839281618938e-02,4.983782922540218596e-01,-5.998841162129072702e-01,9.506212008693243343e-02,1.061079325510731336e-01,1.127570631668650458e+00,9.560283072061045440e-01,1.436726323886263312e+00,-6.992655292981868609e-01,-2.825508863903450699e-02,-7.528688874443214551e-01,1.832538601324463501e-01,3.859567951735350944e-01,-5.179467240541781869e-01,-6.161535722701189793e-02,1.005667216582413426e+00,-1.575641233988732057e-02,2.338558644848668933e-01,2.630573882994365342e-01,6.426656582755222447e-01,-1.034620392463912603e-01,-1.470218708998443854e-02,-3.703996980675066109e-01,-2.178956004604484797e-01,-2.366841690073182569e-01,-8.286061884689602808e-01,7.336950921171558893e-01,3.802337375578374590e-01,-1.450886694506998142e-01,-3.915182349305859622e-01,2.946169318797067782e-01,8.209158372776429458e-01,9.056748895954124245e-01,1.284914995834969487e+00,7.306468367310160472e-01,9.950570755346158647e-01,-5.319518327569188187e-01,1.274092704359003347e-01,-1.553963481971147864e-01,-2.025708866703379019e-01,-2.374905640304300070e-01,7.932113921727151906e-01,-2.248034197132027859e-02,-8.530301957907452381e-01,3.741566452212939375e-01,-1.247105380340245873e+00,-9.658896315050270465e-01,8.676019658338389728e-01,5.820552800944914784e-01,1.023727036231866450e+00,8.088792836847580325e-01,-8.400489859933829573e-01,-5.729230363125491499e-01,-3.791124933714691281e-01,7.841558557457553036e-01,8.545119349188746716e-01,-7.683051500587478877e-01,-6.895102082007964484e-01,-2.052909145184265427e-01,-5.803694323850502323e-01,-3.073347936701391614e-01,4.858023113151010985e-02,9.402704130243021430e-01,5.722391514742892760e-01,1.104518180302241026e+00,3.666216650816648270e-01,9.193143332521580557e-02,-2.457504021826796281e-01,6.408137682719073913e-01,1.120300781351216024e+00,6.261938613873864190e-01,-8.503455326893494259e-01,5.798636114154941401e-01,-5.069246660167963103e-01,7.936465022928068658e-01,7.061993552340541935e-01,-8.875451029108224477e-01,6.716822439988074933e-01,2.987955147923306298e-01,4.412477531007499842e-01,-8.251343603458977105e-01,9.270721972937471245e-01,-3.414749401630641779e-01,-7.218354086866720642e-01,-6.501565360451733167e-01,6.687505065507863555e-02,6.524116729665088155e-01,-7.633866575646462982e-01,-3.234361336566435319e-01,-4.048941791542879920e-01,1.072017644025061500e+00,4.120484716782849555e-01,-1.445402592102190409e-01,-4.960099090056173110e-01,2.820139308337977768e-01,-2.772877862332018273e-01,-5.064836864614519207e-01,-6.879282535667886611e-01,-9.331453921912599148e-01,-3.985644442809535559e-02,-8.980326952896977577e-01,-6.438925742727550361e-01,-1.784669561076574207e-01,7.118039588443846322e-01,1.160579188127728728e-01,6.755755361261342462e-02,5.133260644558675923e-01,2.762963712427909946e-01,-9.037878443171563914e-02,-4.658373681426221102e-01,4.677902150425301553e-01,8.203679652609223716e-01,-4.230908879486670049e-01,-6.239262178262571235e-01,-4.467514597143345534e-01,1.237002296388404060e-01,-1.023413822834746911e+00,1.163234862941398412e-01,1.278855428077367018e-01,-3.696801101405243206e-01,-3.229745561262946651e-01,4.945663665939246667e-01,8.243148275727179008e-01,3.248630848211506161e-01,-1.701478630507400114e+00,3.974236825240071158e-02,-1.198439888411175547e+00,-1.559349638110687775e-01,3.562130241703498346e-01,-1.750879310856100768e-01,4.705967080879196462e-01,-7.192996311678512278e-01,-1.022493918177617145e-01,1.273000395099942228e+00,3.543506801771081349e-01,7.004537553542390382e-01,-2.599547572327389755e-01,-3.435811415890717146e-01,-4.039968228023293473e-01,-1.197734278358167509e-01,3.607850749854367711e-01,3.278910880165722408e-01,3.341425271927188079e-01,1.849073138815300610e-01,-6.515420552248908370e-01,1.480283316023136564e-01,3.067891608219521782e-01,-4.184714269740279491e-01,8.765492131204695170e-01,7.305969529415733410e-01,2.463721018383329131e-01,6.408600491238236607e-01,1.194575526383532815e-01,-1.274730825072706963e+00,-8.160866480695067038e-01,-7.842263371818190831e-02,5.715759099908714058e-02,-7.822756767654672760e-01,3.545319999012094270e-01,5.064812362679391722e-01,-3.361066708174769158e-01,1.037894575089855914e-01,2.471297850537069740e-01,-4.316880501967984007e-01,7.923032479838117981e-01,8.654277037228486069e-01,6.578233459175641951e-01,-5.166744730613660463e-01,-7.038702626592029388e-01,-3.919217743514510910e-01,4.947877834175249956e-01,-3.275021940035843238e-01,3.604351675804752242e-01,8.939677745996381653e-01,7.664090596956626422e-01,-1.061712072559230224e-01,1.292587410009135851e-01,-7.111599259536228734e-01,8.644896762386913291e-01,5.563388092802846741e-01,-3.793072787616821873e-01,4.786303463382811652e-01,4.148429647022756073e-01,-3.396868784459960988e-01,-4.686859667427091813e-01,-3.366261509107305594e-01,-3.470114391594878445e-01,-4.310853476295600228e-01,6.586082189642735729e-01,4.824431592015095832e-02,8.578744385047752941e-01,5.561297180176619781e-01,-2.685114085421039243e-01,-2.723272208790802895e-01,-1.435478731509930717e-01,-7.825973884709170880e-01,-1.070794244174727794e+00,-1.141427665343866193e+00,-6.595174230629023970e-01,1.977224950984471374e-01,-5.602143792703256908e-01,-3.202301250919065145e-01,6.921067895421663119e-01,1.020646527456562813e+00,-3.028397755952964496e-02,1.876482670486983029e-01,5.499075585972956759e-01,-9.653745687611605675e-01,-8.981817179252284955e-01,1.108717861688198192e-01,-7.187798765075014140e-01,-3.074805377965755468e-02,7.345173371650576266e-01,-3.007243127280251338e-01,-3.094652217225474788e-01,-5.788705706131065387e-01,7.298089402690716154e-01
-1.388135777309265351e-01,-1.047847352977996138e+00,-2.044488075973682484e-01,-3.374047824070793844e-01,7.894046902684485056e-01,-4.983732227859331843e-02,-7.967176055334883600e-01,4.040293851215101539e-01,-9.510529680431015209e-02,-6.515437344494247052e-01,-4.376003144098575826e-01,9.299945150399449023e-01,-8.237417999969511850e-01,-2.685298607585535624e-01,-6.763193793166448753e-01,-6.660517632253135645e-01,9.362392702696455959e-01,-6.499093051198077120e-01,-4.069539112660452984e-01,6.241738191145670411e-01,8.135783149389597124e-02,3.180016755177416665e-01,4.170723465377585426e-01,8.416164370487820845e-01,7.584965227433404511e-01,1.515343804678157547e-01,-7.306886183910692445e-01,1.138198716844431191e+00,-1.001717974006220313e+00,-3.182813243582309770e-01,-4.830248128540611668e-02,1.453778214093971177e-01,3.795958831894664653e-01,2.131456390951608493e-01,5.309317404385313077e-01,-5.078334229516691112e-01,-2.958804218443604750e-01,2.314756372811719032e-01,1.963719695267110155e-01,2.388278481822608129e-02,-7.270307652269781817e-01,1.613913903631482016e-01,-3.005619800568557487e-01,-4.279467199188031756e-01,-5.865003358349004658e-01,-3.910743353194738314e-01,1.008597916923647198e+00,-5.928239561456573048e-01,-6.781880862906281004e-01,7.696560753415429001e-01,1.211918327116517091e-01,7.631857922693860985e-01,7.216141896650394294e-01,2.484492479876367899e-01,9.264379090905257019e-01,1.102684158685414362e+00,-5.542919524402516868e-02,-9.810112150790187835e-01,7.365117795002285028e-01,-6.904475994776652914e-02,-4.191706248256216738e-01,2.617638845909754930e-01,4.342734350554652845e-01,2.657280323679668821e-01,1.808746529980217455e-01,-4.142972185647723071e-01,-1.267277692002001521e-01,1.327590980643983676e-01,5.452363288374394434e-01,-3.136756874153282526e-01,4.936823934603413733e-01,-5.358016400535020596e-01,6.012046536169318722e-01,-2.150578815234762894e-02,-4.645415229856951211e-01,6.531019021174753192e-01,1.321593929042386373e+00,3.392188517424117866e-01,9.656756186258003138e-02,-5.906286511517867543e-01,4.355541232005864516e-01,2.564753569258707011e-01,-1.197133704739733184e-01,5.376680820371301239e-01,-5.444970165051320476e-01,-2.939225235589880691e-01,-4.688277007375341587e-01,-9.448651097131434140e-01,-4.259897047995199193e-01,-4.113190883468216541e-02,-3.677677819244035140e-01,8.341735375884818948e-01,2.634255222258997664e-01,1.135818114556406272e-01,6.212718992333245149e-02,-1.106228584930482262e+00,8.000140625521841020e-01,-7.856064031738068110e-01,4.492669274481148056e-02,-8.535523996823155546e-01,-1.167632016745293155e+00,-1.190457770283766259e-01,-4.447380487794202475e-01,6.925487995906740579e-01,1.254931364918671521e+00,3.193975943818867513e-01,5.482274076603892432e-01,5.685952783742767025e-01,5.908426659923247115e-01,2.608885227408284102e-01,3.327236217252045880e-01,-5.934131081139440989e-01,6.708679450076250605e-02,-1.090259134321203360e+00,-1.667658029655411100e-01,4.610190638501736604e-01,3.306366800884725787e-01,-2.870019402637307704e-01,-2.590175778781081961e-01,-6.637945469751437011e-02,-3.400405049800748203e-01,1.019161836765534623e+00,6.882923576054978954e-01,-1.085839992073907245e+00,-1.429331787875632642e+00,-6.500599401565020363e-01,-1.338224764915937115e+00,-6.557030860270791905e-02,1.577747706898998958e-01,-1.217131026953296891e+00,-1.266664645927030042e-01,-2.020167669526823362e-01,-4.558213085911068663e-01,-3.374999232821494499e-01,-2.351315577914334376e-01,-4.155902862781707952e-01,1.971989570271645287e-01,1.101548458902591454e+00,-3.648700928856356968e-02,2.847389462020635462e-02,4.972775523678099052e-01,-7.601031362358741106e-01,-4.396546068064772772e-01,-1.429309224279523005e-01,-8.566406179804507415e-02,-5.521243183375303953e-01,8.163285264051028944e-02,9.955962886945506352e-01,2.067828019880414980e-01,6.730404720432582311e-01,8.658890381991142249e-01,4.718516358229639107e-01,-7.692066652902248558e-01,-9.755229091070982683e-01,1.893620073332098475e-01,-1.310021194521471255e-02,-5.973760572169020122e-01,-1.305366411711971431e+00,5.387272097524606895e-01,-3.519951327226390758e-02,9.192198692395830983e-01,1.536849615371854993e-01,6.761798071371388774e-01,1.238821783671693488e+00,4.443882951724125729e-01,5.380114667363149472e-01,5.657624986702591841e-01,3.208630392039279466e-01,6.795338109125071968e-01,-6.002386409281622592e-01,9.505835256403233346e-01,8.744218209962622002e-01,4.672966712134948297e-01,-7.999223102659545059e-01,-6.405949801513159958e-01,1.057214735246696513e+00,-5.431252104283894148e-03,3.494673966817100075e-01,-8.597805081852487319e-02,-8.311010580207032206e-01,-6.937382682703837622e-01,6.142950612692020806e-01,4.990648263361548986e-01,-4.573807688259128867e-01,7.913965400810475392e-01,-5.085179799308280346e-01,8.096264636462956465e-01,-1.915715574887537354e-01,4.747356875075124383e-01,9.198519044453354887e-01,7.300049450963966846e-01,-3.455057316814075241e-01,-5.035771952041648847e-01,1.028097295178060477e+00,2.810763809474222663e-01,-2.366239644576251799e-01,6.909697249347214187e-01,8.808804056552431705e-01,8.935050095682799398e-01,-7.998872978358385621e-01,3.738054476539541815e-01,-9.087643103005047518e-01,7.785075356093267007e-02,-5.465652811746001261e-01,6.184443553097956903e-01,-2.134878812654488200e-01,7.566408747593814654e-01,3.724881325980023417e-01,7.803030360653098740e-02,7.236815252449264879e-02,-5.900742930997634472e-01,-1.656466920747711458e-01,6.049720342376572156e-03,-1.127357858471387475e+00,2.277557783010205894e-01,-4.795458954531840456e-01,2.557393304991338601e-02,-1.138334108484382989e+00,-4.895585676140392084e-01,5.958115808864494767e-01,-1.782349443587069870e-01,5.178057669568286725e-01,7.988621204705866896e-01,-8.710805798098172348e-01,2.932397077089027859e-01,5.951090841257420383e-01,3.055585895432606433e-02,8.727739510788561361e-01,8.008100168055903856e-01,8.079748719715879046e-01,-2.867415804361184706e-01,-2.684654901464493260e-01,6.124401148909754955e-01,1.079900668331909452e+00,-1.186270852207049087e+00,-7.443188323558738162e-01,-1.117913439008427490e-01,3.674897554985059878e-01,-1.913070184145034824e-01,1.030620113326373932e+00,-8.723891609570251227e-01,-3.633400521518584132e-03,-1.553782107457838180e+00,-8.499505203999218050e-01,-9.863267089644192076e-01,-2.441524855615922474e-01,6.854126305463686952e-02,4.695152702004227740e-01,-1.012309468316912264e+00,-9.299952485787797984e-01,-1.889449054763994162e-01,1.890972529720659767e-01,-4.954849312162041830e-01,5.570650261883395293e-01,-5.268887892185773053e-02,-3.272426492755658445e-01,-8.900903585749081470e-01,1.018032906324011000e+00,6.125708805324351358e-01,1.017330365064195580e-01,-2.373584219579100429e-01,5.963396319225521269e-01,7.649804340263546276e-01,-8.422727247546057949e-01,-9.081800616854629471e-01,6.473228409911480075e-01,-5.567055074912727886e-01,8.339661188592706331e-01,-9.421128579264197167e-02,-3.291153008171250338e-01,-1.459190969135857330e+00,-3.137594169220849216e-01,1.868404779800219018e-01,-1.964662178432694806e-01,-4.132891001079210813e-01,-7.039487338788974480e-01,3.409643652492451160e-01,6.382642141001984570e-02,-9.919499795308416024e-02,2.233212978737633414e-01,-1.458922312725427495e-01,-1.156639833329073941e-01,8.218976576499903430e-01,-8.380286197135895510e-01,5.190341444445494279e-01,1.014179862616447769e+00,-4.180753628212980355e-01,-2.363296371794973427e-01,1.834135913581116939e-01,6.485013649911544054e-01,7.119665993261097281e-01,1.126469709545942222e-01,6.287145110566306760e-01,1.310821259960682182e-02,-8.106807071699441147e-01,3.994016877527613585e-01,-3.749246505515534955e-01,-6.899364745006417721e-01,-1.035936024256353116e+00,-7.056938551065193854e-01,-7.248310553303446424e-01,-7.119989210713383310e-01,-5.347044544035015612e-01,7.176839772472908274e-01,-1.430986346093119144e+00,-8.662944056812921234e-01,5.605551007519563589e-01,1.132428792108204352e-01,6.387375246706351595e-01,-8.371714076682436056e-01,2.279892534140403049e-01,5.179054357458845459e-01,-1.035205884676345112e-01,4.454621851519786624e-01,6.886531154211158468e-01,1.103097104453940325e-01,-5.514416601236121762e-01,8.085340629100957743e-01,-5.188441709625528642e-01,-3.810652980715100169e-01,-6.020006252230496457e-01,1.874849299632502016e-03,-7.875332033645187080e-01,4.945638277097706426e-01,7.461968622931157702e-01,-7.790738982411449243e-01,-1.031724506611624514e+00,-3.358448599768969478e-01,-3.116122565079691431e-01,5.520398943516595658e-01,-6.669604683032145376e-01,3.552822797214702510e-01,-5.696782759903982196e-01,1.036583733094515875e-01,-2.775228574035252804e-01,-5.009983459143628748e-01,7.863697766360752128e-01,-7.537063592507593501e-01,-5.857117146671270147e-02,-2.696684052153482461e-03,5.689849266859666604e-02,-2.173087254680222957e-01,8.603443861199715492e-01,-3.720738567472522962e-01,-1.005420733629316526e-01,8.193336509559208114e-01,4.104477527678383475e-01,-9.305329464298826014e-01,1.796322044840619747e-01,-3.289112841861868697e-01,-8.925075410157613520e-01,1.608036884750073670e+00,-1.134530502082993636e-01,-5.813516295862422578e-02,5.169097085011069570e-01,-5.537984534777448120e-01,2.754265625031945275e-01,-4.452268039595508875e-01,4.539538500198255222e-01,-1.199476074358378497e-01,-4.318119382135215956e-01,-3.528240878099658806e-01,1.072187748561277632e+00,-2.348643949521322105e-01,7.371809901086880945e-01,6.515918643104012808e-01,8.544076206833844944e-01,-6.936242989275286375e-01,6.209612236222338266e-01,-1.027736631987772098e+00,-4.510677333119834653e-01,-7.617280500295089407e-01,-2.290199164923722164e-01,1.335148945789862207e+00,7.136583194268725228e-01,-7.799042674743715819e-01,1.849593604459546792e-01,-6.388152568818996624e-01,-1.174339764207483094e+00,-6.504881418583032503e-03,-1.746249359539330803e-01,4.701917528989588146e-01,3.041285832764826780e-01,1.301307362745588170e-01,-4.178582076535628520e-01,2.582123439166446599e-01,1.038476728861409404e+00,-5.318926429306269910e-01,-6.032227858796609388e-01,-4.042147994211708339e-01,-6.470211251235945538e-01,-3.922823933738974755e-01,5.591414185647834989e-01,1.847009462547172798e-01,-4.318057432308219923e-01,-7.386573054267612237e-01,-2.602104681804619513e-01,-4.849675591257768259e-01,-1.037976597212586366e-01,-5.214466716934309520e-01,-4.188896453288525334e-01,1.510248013829551983e+00,1.744708451194321386e+00,1.778037081036261791e+00,3.173962001980707437e-01,-6.347379671496812259e-01,8.880021616893406522e-01,-5.655811553934728675e-01,6.474101712333427683e-01,5.776303199036733060e-01,5.591370087868344774e-01,2.118144786078816344e-01,-3.895156704641579704e-01,1.500616186659319284e+00,5.394205533729140578e-01,3.377523843625085953e-01,-3.726059201725198666e-01,1.166613892759085225e+00,7.560972645335731768e-01,4.763948227499499311e-01,-8.536222346434414465e-01,-2.919740997761437473e-01,-5.031862450995245872e-01,8.612236674393000668e-02,-7.055242534884637040e-01,1.333579756137404371e-01,6.966199712286301748e-01,-8.633948253444491128e-01,-3.189305552465125926e-01,3.273317425724870389e-01,5.722710962105576060e-01,3.421545241623989986e-01,-7.020044205027227424e-02,5.169244342593840580e-01,-1.365449384684945811e-01,-6.051603905169500308e-01,-8.926369293937901073e-02,8.210133953044687627e-02,-1.154941271572100137e+00,-1.358244562255167764e+00,7.273978215923282420e-01,1.200763782259498758e+00,4.124221377564103452e-01,-7.274579706208517127e-01,-3.731983267245546076e-01,-6.233164189056519255e-01,-4.944647641517813108e-02,-4.724542556898844170e-01,2.254559353980930270e-01,7.394238206030653293e-01,-8.411165962158825282e-01,4.240894641502014895e-01,4.898297951698927788e-01,5.960821535925955872e-02,-2.910729622693355445e-01,9.526732810888818292e-01,-2.870393254664030391e-01,1.009268322112563121e+00,-5.184242203346847155e-01,8.754605310011945862e-01,6.408104140560914042e-01,6.515653662888037934e-01,1.245687845680513828e+00,-3.990466717237087235e-01,-1.793999787520643707e-01,-6.398768396598402131e-01,-6.521286852087785357e-01,-3.922734916516224524e-01,1.198782425959431241e-02,9.782739902046452274e-01,-7.403490905743737027e-01,6.575812482197042064e-01,-5.107853491107678945e-01,9.193654281509019421e-01,2.805239424424250672e-01,-8.419468162420840063e-01,7.439337116340425382e-01,-1.610615469882360762e-01,-2.698490760136271205e-01,1.199433902027656068e-01,-5.682064908540443993e-01,3.885171347976000833e-01,-1.419883641158164456e-01,-1.080642536165983714e+00,-6.734667544799298744e-01,-4.810842750064254214e-01,-7.160635886505145598e-01,-4.758619749419655265e-01,2.001737890592951707e-01,1.028677942630653319e-01,1.330281699203568424e+00,5.985679817985095630e-01,-6.485783308730462826e-01,2.108342067075676673e-01,-1.841599360615827352e-01,6.070839079319420017e-01,5.928794356187326864e-01,3.816427010300958433e-01,3.204887907260838831e-01,-2.086394214140210035e-01,3.686318610641339255e-01,2.732270540823134586e-01,5.200687988753112112e-01,-9.069335368200465153e-01,2.010298610491942362e-01,-6.227829355281188084e-01,-1.751704169641612741e-01,-4.770358405732181839e-01,-3.249216992688476746e-01,-9.920825475726945397e-01,-1.000142183923718564e+00,1.027972886141053227e-01,2.405236362264601691e-01,-1.168411921670496761e-01,-8.943860133052711214e-01,1.361571382317157686e-01,-5.919031945897778452e-03,-2.452665863513328048e-01,1.547954811739958858e-01,-1.476630143252450900e-01,-3.980779842795122841e-02,7.559314127448046872e-01,-1.003686748633782377e+00,6.540667501323291222e-02,-6.726398729754642369e-01,1.565356366854462056e-01,-1.323195813985155074e-02,3.598887108708627713e-01,4.621536735789412154e-01,-5.657326964253834856e-01,-9.106538537995069182e-01,-1.336136812593127499e-01,1.483129679848222970e-01,-8.599929172303464320e-01,-5.452732516193659930e-03,2.138519423932457864e-01,-1.446668304467689792e-01,5.463900622561803644e-01,-1.640702175083701142e-01,-5.059900946699356084e-01,6.266815530320412053e-01,4.932875380838024348e-01,2.228158891826297408e-02,-9.373383508213567472e-01,-6.000444247720946311e-01,4.459072240112428864e-01,-3.690904347858180445e-01,2.715326314390456020e-01,-5.520956292043851521e-01,3.591118065420036976e-01,-8.275709578318993787e-01,-1.042943182191218732e+00,-1.175901880250565634e+00,-6.912250402018563777e-01,-7.636312579412348756e-01,-1.079496728728953192e+00,5.249943318672226633e-01,2.289320232776088093e-01,-3.670913534292850611e-01,-4.501296452073557663e-01,-1.369409294196855008e-04,-7.714475260872004359e-02,-5.933750192927522704e-01,6.292375992550567343e-01,-2.240925130800978937e-01,-5.146685950234914930e-01,-4.625528315162802384e-01,-6.534298066120020065e-01,-3.222559537590282686e-01,-8.925302436306737919e-01,-6.961986064370866423e-01,4.483456231647117152e-01,3.119557380129940327e-01,-2.432103582760229699e-01,-2.527888925772785872e-02,3.402974291652472449e-01,7.187793878358750277e-01,2.219522352451303304e-01,3.055491413974217862e-01,-3.168918048154538702e-01,1.352391980597755609e-02,-8.134728358953575988e-02,5.731056940080542228e-01,7.724084985533964387e-01,6.611346589753955838e-01,-1.100487496047751312e+00,-6.482380177053344017e-01,-1.972452171092163309e-01,-7.904879227771878236e-01,7.606421420658825427e-01,5.568740105982298294e-01,-1.211256717322339582e-01,3.824560526888705070e-01,7.360334001348054489e-01,8.007190403163195747e-01,-6.230598002066399799e-01,-1.919742377674672484e-01,7.841733138884922349e-02,-8.984979914173774063e-01,5.667455198455855214e-01,3.692662559973905467e-01,2.891948859182870701e-01,2.853623452903047419e-01,-6.027439312916331726e-01,-3.137954433281135436e-01,-2.234272043294822652e-01,-3.753407049868985323e-01,4.479375231142618263e-01,-6.109414215194967079e-01,-2.467594909626096011e-01,5.824592797485812490e-01,-3.553126502983885437e-01,-4.519217326401169244e-01,-2.508707187763364321e-01,5.215738360546929853e-01,2.450423253249913169e-01,2.092125958656126938e-01,6.349823662546479897e-01,8.539845545921671555e-01,-9.645135901663286215e-02,1.201161452339696067e+00,4.625529049830439665e-01,-4.993322522096323990e-01,4.922171956985057495e-01,5.240534656460762442e-01,2.920062014085534896e-01,1.030657030367006177e+00,-7.677111261236690964e-01,-2.010154482633641215e-01,-8.447511174029431746e-01,7.597967387120629912e-02,3.728450715889014555e-01,-6.524387098887521885e-01,-6.695976124437232058e-02,-1.031449282409965668e-01,8.261754403832013427e-01,-3.825751875128882151e-01,-3.795934502348498052e-01,8.470742262706582038e-02,-1.616611638957203556e-03,-2.769446498614963059e-01,4.092559443100471372e-01,1.426028344441571116e-01,-5.513842416133892810e-01,4.451025688048036444e-01,5.822139621830427769e-01,-8.596443771332327177e-01,-5.988904321765180505e-01,6.191819945275319759e-01,4.785090006705492449e-01,-3.167023565679033537e-01,8.907774599838885754e-01,3.043807223088917935e-01,2.537947864225399419e-01,1.904643510510189708e-01,7.572719411913408916e-01,-1.055819511247507503e+00,1.769190102528122033e-01,-5.234161346516644775e-01,6.995965627807056997e-01,-6.930029125890188602e-02,-4.347336072709107602e-01,-1.980654728940597215e-02,6.703657036628084542e-01,-3.625846616855333271e-01,1.664624096969735956e-01,1.629523818118754075e-01,-6.821386039524505174e-01,-4.775203201209038961e-01,7.409032330761694540e-01,-1.887338671596743289e-01,-9.455652564094975399e-02,-9.252791306414489547e-01,6.277476998071690462e-02,-5.148429117535155974e-01,1.049493357477808281e-01,5.279261070036428416e-01,-9.613934790403267927e-01,1.182995552608251261e-01,-4.272124672254285493e-01,-5.145923642951856225e-01,-2.547477528683444459e-01,2.454885156531773638e-01,7.757652234729131013e-01,-8.906964340846891259e-01,6.896874258184484408e-01,-2.670028808840019252e-01,3.416175591661783084e-01,-7.973949356159755197e-01,-2.943766556820099356e-01,-3.965771235331437827e-01,1.036633266016965677e-01,4.546992693758665216e-01,2.639823953430245340e-01,-3.323816676377546742e-01,6.810716960147541466e-01,-7.705043501756113633e-01,3.030619955583760405e-01,3.532257757006381782e-01,-5.591249933810146233e-01,1.210338983045360500e-01,-1.804343484060467670e-02,4.866315291730422543e-01,-9.545858037115412253e-01,-1.201882887674340650e-01,-9.211669774820733236e-01,-2.203661736151739658e-01,6.539674082891155926e-01,-5.183730406658462186e-01,1.605531589375723545e-01,-1.888933108710171282e-01,-2.037467387211247261e-01,3.511126064035203220e-01,9.878825661005574688e-01,-8.828191908070957827e-02,8.344819442739778714e-02,8.872497696382954935e-01,8.567139113831790942e-01,5.695277752558011164e-01,7.171211668152271956e-01,3.364908227852272393e-01,-9.151044053095320763e-01,5.855854559106404844e-01,-6.764243299808168075e-01,-9.696720128602358546e-01,6.784463053731691895e-01,7.743426518182603413e-01,-5.663332046223151783e-01,5.889180744562491077e-01,8.868273133174793266e-01,1.006324773735650657e+00,1.015731324031977856e+00,-3.732751108007127949e-01,-1.461345732842573575e-01,1.238340043038598515e-01,-8.763782278645914081e-01,-4.000351664340495716e-01,-8.495314248424216119e-01,5.446122879906539760e-01,3.262965793358811317e-01,1.250304256694796945e-01,4.557593220699079350e-01,-1.660958522028488094e-01,1.970876958168845949e-01,-1.936640793263119942e-01,4.810353731245339826e-01,-4.031060926694698954e-01,-1.070519215618323861e+00,5.526713619842307246e-01,-4.877724219987245591e-01,-4.167506159558062029e-01,-3.336252423629158803e-02,2.170831520010006455e-01,1.412134459818878696e-01,9.518029863060883944e-01,9.237488017188270062e-01,-3.178013071084753727e-01,1.313404689804259728e+00,4.515041717420598122e-01,1.067301165839719790e+00,2.165600115186445962e-01,-4.665833624982819172e-01,7.391867439325030542e-01,6.409255642861493296e-01,1.466204774336037353e-01,-1.349536213665610163e+00,-5.649815165395158933e-01,7.415837328852830090e-01,4.446147251441625037e-01,5.168489994199230164e-01,2.328162837965371823e-01,-4.696174186625501346e-01,-4.500947640594861188e-01,-1.708701610115029024e-01,7.692013216396155206e-01,2.588634986274107042e-01,3.113968553016132068e-01,-2.527986917543496026e-01,-3.620638937568105842e-01,-1.046480745757164682e-02,-5.896138737606259062e-01,6.876272167694653936e-02,-6.429564638317947223e-01,3.831207452305611660e-01
