akj:
6.812517529196425725e-01,3.227388730130266725e-01,-3.730938129098207434e-01,-1.843667669537701059e-01,9.564875068828073701e-01,5.325588694343550422e-01,-5.020959940412386135e-01,-3.514552444046200597e-01,8.335569143689255389e-01,4.723201262051433535e-01,2.179905822699319262e-01,-8.238978962707678433e-02,8.081877722273385078e-01,4.157173230854999818e-02,5.149250338799308269e-01,1.041498094292270804e-01,-5.469020768625462159e-01,-1.334127851426238631e-01,-7.562294791851419395e-01,7.004858805627607321e-01,7.896235830458899763e-01,-2.395253281027437675e-01,5.570125406540872293e-01,-7.834556190586463575e-01,2.560461550802088371e-01,1.001807730324111523e+00,4.326895407785968060e-03,-1.149570618476365158e-01,-1.792493182476027902e-01,8.896377928245357003e-01,-2.427390501344644513e-01,-3.453165190637774717e-01,-5.252515551692047424e-01,3.493917609010152581e-02,-2.048355648307500221e-01,9.428948487092767561e-01,7.418354848230891696e-02,-2.030224768642927835e-01,-9.920957980099827100e-01,-8.683636561156716782e-01,2.098509148578217298e-01,-3.321175761635539181e-01,-1.086936193866785832e-01,6.347255584466173772e-01,7.841300196479221718e-01,5.212481645036863565e-02,1.465076794460077603e-01,-8.401092850371556509e-01,-6.137012819191175472e-01,-7.475444678118529085e-01,-3.309151415553202719e-02,7.352330536684535955e-01,-4.821537603822441675e-01,-5.301562096413193759e-01,3.181170079121450334e-01,8.218719934846566710e-01,8.993213948390640367e-01,3.353952550847831837e-01,1.098105986949660329e+00,6.052372354327864024e-01,-1.728646182606671522e-01,4.989935857314672929e-01,2.358797653528062754e-01,5.696137421334009909e-01,-7.303477344423718876e-01,8.915830244799521909e-01,-9.220475730059110031e-01,5.289498222481819889e-02,5.446484225064569112e-02,-2.783631910665766429e-01,-5.809297425483697097e-01,-3.107524352426873637e-01,7.470680621629000040e-01,-3.919346922802563471e-01,8.472637266124632971e-01,7.141611684322690667e-01,7.045952778650652615e-01,-6.934398186334340686e-01,5.138978836855069288e-01,-9.868277988811072765e-01,-9.640897836549405797e-01,-3.838797953086580117e-01,4.021131408777995353e-01,9.723919260770150785e-01,4.602369142342752420e-03,8.966706117606145776e-01,7.531017263105614923e-01,3.674408252706642397e-01,-3.207237423762577255e-01,5.607090576036631857e-01,7.885162150141958870e-01,-8.079304619686721312e-01,4.168580367857205315e-02,6.413034783151781992e-01,8.324736708304013300e-02,7.051673091511527769e-01,9.156154575641066440e-02,-1.521485462811097977e-01,-7.115983586414231787e-02,-4.143521379387349879e-01,5.514190268671862460e-01,-5.622521642908735462e-01,2.981965224262911884e-01,1.194373903082512012e+00,5.493275905732022402e-01,5.732632101996866236e-01,-3.105000625793703437e-02,-6.904017378833126051e-01,-5.954303821024994336e-01,-3.327550712344961026e-01,-3.861043242585602275e-01,8.643903452763121997e-01,-3.222460500689574014e-01,-3.360076207052786756e-01,-5.273662270166266930e-02,-8.222287211282026664e-01,-8.070709185105842121e-01,-3.868246596277342686e-01,-1.114788940501610648e-01,1.069528783274294126e+00,-6.437707095447209316e-01,7.088809264098722140e-01,-8.132210017930989743e-01,2.522936637751020950e-01,-8.749042415768149006e-01,-1.863177904224294357e-01,-1.322489641976756669e+00,-5.977303880069744224e-01,-5.434679536760781415e-01,-7.381044459373158062e-02,3.248484436694289990e-01,5.506300973002326016e-01,1.763860075621837553e-01,-1.443842143419522550e-01,-1.583833247248166709e-01,-5.489275590646618408e-01,-8.238605512678658371e-01,-3.952929564418966590e-01,9.383970464733220052e-01,-6.293060168207628702e-02,1.992278246050388502e-01,-4.282296351476867491e-01,-1.054571376811241634e-01,4.031251635184969206e-01,-9.058375969493626112e-02,4.725154418171055859e-01,5.116807785357732064e-01,7.526873531285070973e-01,-4.668046761309617709e-01,1.154277089161997560e+00,-6.688075457072198970e-01,-4.452430047390553702e-01,-5.711250729613958077e-01,-3.887685480198395660e-01,8.231149322662923984e-01,5.972388742962115860e-01,-2.939723649323244814e-01,-9.816570901622456713e-01,-6.853293456098557002e-01,-9.736625601349796488e-01,-3.624098944818271995e-01,-7.752072311892158618e-01,-5.343671660585767036e-01,-6.780006634326153359e-01,-8.883736006698839116e-01,6.284535216894757137e-02,-2.643399557539212741e-01,-1.874333086047021701e-01,1.729145347345937556e-01,7.721595789927327980e-01,1.861871297067034248e-01,4.673494186276261897e-01,5.409992595508847923e-01,8.263473520983378728e-01,-6.237494464673338790e-01,6.647671365116920583e-01,4.432959526470896527e-01,-1.161632379843445251e-01,9.574326393108490985e-01,8.177459861804250441e-01,5.261212372270031024e-01,5.553764966499152855e-01,4.568200811234503222e-02,8.854862754076457954e-01,8.805172954349859138e-01,8.388206573367381624e-01,4.108875919544699440e-01,8.870828276359633557e-01,4.596602096572429130e-01,-8.194843675193134169e-01,-4.871318440492996560e-01,-5.043149741919520368e-01,-7.752095608249507386e-01,5.515826820698829236e-01,1.008340349161850336e+00,5.884132081783967072e-01,2.273420542236901515e-02,-7.402716314851119292e-03,-7.808646959700447088e-01,-2.224567738481700307e-01,-4.393543800308037373e-01,8.926348113670530271e-01,-3.602069527577365093e-01,-1.052292264257071452e-01,2.976393689061599956e-01,-3.620521110667424686e-02,-8.187419637997713773e-01,1.832090375651165143e-02,3.547369263407066514e-02,4.139964050630740577e-01,6.788263461668191390e-01,1.030326282503862476e-02,8.293152310266559413e-01,4.374471120274980307e-01,1.064905537717124151e+00,-3.263156293037034472e-01,-1.113718947479249266e+00,-1.488964115031069513e+00,3.078079212170994894e-01,2.211079022631142477e-01,-3.787764170047310808e-01,2.164585180428816591e-01,-1.812493460087638286e-01,-6.815323992120982943e-01,-5.830988320925770824e-02,-1.258285338633464701e-01,1.109704233256303407e+00,7.216514056849754333e-01,6.102276355981998135e-01,2.489670798866327472e-01,9.087517464154506452e-01,7.831074968001257020e-01,8.759797839829962518e-01,-5.021651152795369999e-01,4.253887873389368135e-01,1.099304340592561768e+00,6.044405590113371973e-01,1.039275692840252008e+00,5.438333374622632554e-01,6.277117198387367758e-02,-5.590335971012787564e-01,5.110001450465021522e-01,-9.824996015149106698e-01,-3.347362581094824874e-01,3.786752478690137425e-01,-3.108014062016587475e-01,-4.796054088608497357e-01,-4.121700665522601281e-01,-7.737422085597467358e-01,-9.997692297655448312e-01,1.401774820708202862e-01,1.074552641022769317e-01,-3.747691213449231840e-01,-4.708098821671240497e-01,-3.093531516327674424e-01,2.948696466137811223e-01,1.469840060165452378e-01,-7.518126761963290772e-01,7.904886670187630804e-01,-8.748900142545977809e-01,-1.004780293849051986e+00,-5.242609404774267734e-01,8.959764901618432198e-01,7.740241634311209040e-01,1.162966979560665082e-01,7.406605162854038027e-02,-1.232233953952931171e-01,-8.656780648407333967e-01,-9.194835395326009797e-01,2.881541384056605093e-01,7.236354628958405755e-01,-7.970073610118763030e-01,-9.657677302804208719e-02,4.728087962627245955e-01,-2.662570652555513728e-01,5.091019485005450207e-01,5.798744824781540963e-01,-1.401496130206874857e-01,-9.304848422245263206e-01,2.733002399823862283e-01,1.008539503312494645e+00,5.843560833120112763e-01,-2.288228031150079389e-01,5.104402822774993798e-01,-6.247280938364743186e-01,-2.082701632263510572e-01,4.277819103234610509e-03,5.957513251114369135e-01,-9.418761681345451109e-01,2.445706661304303531e-01,-6.958603200137595257e-01,-5.438794107669560063e-01,-2.769336050674874317e-01,1.572974070746489816e-01,-9.516617757925120991e-01,5.388198781324404774e-01,6.399452212580443167e-01,4.195774055247437073e-01,1.111978239035727123e+00,-6.195011990163786786e-01,-8.456835513612583899e-01,-2.824791962502957721e-01,3.365388130365368213e-02,-3.465298425234491497e-01,7.683999628575916008e-02,4.633579965095055431e-02,-6.620204521171532130e-01,-2.385248130138091782e-01,1.850709203635832190e-01,1.166252453489195345e-01,-6.214822480943719141e-01,-2.379826470776777725e-01,5.957761565384313007e-01,-7.868409348751094212e-01,-5.157929286890451381e-01,-1.960245293102746145e-01,3.617180081546692016e-01,-2.287260707926794534e-01,-2.342866493549605744e-01,-5.377700093449542251e-01,-3.714499194454804476e-01,9.574210319295402283e-02,-7.488538778889060055e-01,4.280980410364709221e-01,6.003518563667339381e-01,4.080311467000992398e-02,3.621070963049673186e-02,-2.845316030932529272e-01,-1.578621442136892150e-01,-3.281707314470090342e-01,-1.903117259946122408e-01,-1.027418017260716576e+00,-1.091272367689230194e+00,-1.031274126017455606e+00,-7.907568860641393804e-02,-9.688903593848451345e-01,3.258014515274931799e-01,-2.290267647898817926e-01,-7.609725928841211406e-02,5.327321083635189192e-02,7.443100484102073144e-01,2.105772366359783820e-01,2.218574073234969371e-02,-1.089321206904767941e-01,-9.224164098872572604e-02,-5.904491436548211375e-02,-3.279144992380687018e-01,3.596795889800163959e-01,-9.891346508085330225e-01,7.841339988401433425e-01,-5.474401945091955657e-01,8.050230221195222580e-01,-4.282165504856248472e-01,3.354600302040049165e-02,6.038765832424584090e-01,8.858598705303180054e-01,3.970446425325737105e-01,5.443557280632750350e-01,3.818951554089022316e-01,-6.456844325226704928e-01,-1.207817502583729885e+00,-8.165944021935538366e-01,8.211380847224064583e-01,-3.241761949496514417e-01,6.353980247206559850e-01,1.750800274696369396e-02,4.341000122019339491e-01,7.761505218883838486e-01,2.493747672734496768e-01,4.345918843850117286e-01,1.051269741824310433e+00,5.312097793155322600e-01,-9.823102475538827427e-01,-7.162595467401784433e-01,1.630383242146692113e-01,-4.623724401749204072e-01,-1.012295565134776920e+00,-4.853950263815755006e-01,-2.790929758835818397e-01,-6.214711328701668647e-01,6.193729282101025913e-01,4.267545033169343194e-01,9.949919070804442989e-02,-1.074511071848255200e-01,-8.573777627437730864e-01,7.032049379294738056e-01,8.567072464816509747e-01,9.212056214065027504e-01,-3.000158650765283319e-01,6.665052742060860735e-01,2.527010373702068824e-01,3.831043725525409283e-01,1.745240906297258754e-01,-8.069863129095620202e-01,-2.629237092155999878e-01,-2.644926558880326128e-01,-2.205714188752696814e-01,-5.451022851177372841e-01,-1.510733066013477122e-01,-4.033802301883140373e-01,4.726696563361180714e-01,6.462443801626040207e-02,3.182351884912270612e-01,-5.870779800756190658e-01,3.887399430227191366e-01,-6.685379378691159724e-01,-6.954812078542352838e-01,-2.473205937253581399e-01,1.254088911072127888e-01,3.186818488896888124e-01,4.553108518562815066e-01,-5.549648882785874759e-01,3.842394935625444430e-01,-2.336978019439657772e-01,1.515252296592638492e-01,9.367880226401008592e-01,8.897574758514774640e-01,1.884982960948035080e-01,-9.600609829318716981e-01,6.750487304070876826e-01,1.063369577493785911e+00,-4.420092949759125700e-01,4.315002573321729540e-01,7.923815296986584933e-01,1.124400744281038422e+00,-3.212075452003969600e-01,7.758942583607424393e-01,-3.484727923127395322e-01,-3.690450398729132608e-01,1.125739183016266770e-01,-5.352380872047851623e-01,-7.467284832564450303e-01,6.548720638694070784e-02,1.882086479952006508e-01,3.797434602222026778e-01,6.507874914986619963e-01,3.822838985874730255e-01,-6.833963077227344085e-01,-6.246985299582333839e-01,-8.753550599891390949e-01,1.046454481738564590e+00,-6.106479079493206674e-01,-4.856930370843554057e-01,-3.554928553877467201e-01,-6.903545803521363711e-01,-6.900012481306950773e-01,5.310020510563441265e-01,1.497713840567729271e-01,6.525259751898867533e-01,-5.852972430110957303e-02,1.772773961966747636e-01,1.040860342500836255e+00,6.535125170605288192e-01,-2.041621660714705300e-01,7.484797336515419675e-01,-1.202492677210495742e-01,-4.164507331334384999e-01,4.770502556398000665e-02,-8.874243190300027881e-03,6.678370948600230728e-01,-1.070377037398951015e-01,-7.185115338049409550e-02,-8.751649263359990716e-01,7.871547118324833114e-01,-5.013195190234865928e-01,-2.151195436071338674e-01,-5.491464906662600620e-02,4.788622545504332417e-01,5.782366528672875372e-01,3.015405511678853068e-01,-3.706083445177035252e-01,-2.290482775337217836e-01,-3.112939597373184375e-01,1.999304907934133790e-01,-6.774975690997040445e-01,1.035146338857298121e+00,-3.948951409241603372e-01,-5.403478362723300732e-01,8.964219674793476589e-01,7.175931573976291888e-01,4.157084805060581867e-01,5.255307995804350263e-01,1.449176329350822245e-01,1.040903628610235998e+00,-9.307394074252524074e-01,1.032150928130981249e-01,4.529102191438698632e-01,7.874121547159518286e-01,-7.303294697132838298e-01,-5.637981497692314825e-01,-9.763600063582612565e-01,1.833962475387039548e-02,6.111919163813223088e-02,-5.012954542199885566e-01,-4.534450390411148835e-01,-8.246894588488172806e-01,-4.064980824512435809e-01,-5.963399776167880306e-01,1.994034511437938473e-01,6.565173468127660783e-01,-7.512924327820960091e-01,-1.372241857178783109e-01,3.342257581736405858e-01,1.478056192727810469e-01,2.731218072996937085e-01,-4.996936316645592124e-01,4.440765821487008824e-01,-7.859986450522378210e-01,9.830413321655014913e-01,-5.255431052625014754e-01,4.606281394698023557e-01,3.736882969981282498e-02,-4.575555029883610070e-01,-3.351572603292660713e-01,1.344068616247427461e-01,4.904264916164959853e-01,-9.015016362201502265e-01,-6.783962671811735179e-01,-7.472977438492990343e-01,4.132022916932041046e-01,-1.374260152771222265e-01,-3.630454858076612723e-01,8.747889198106089115e-01,-2.067204822747167881e-01,4.235745994619334320e-01,-9.184684907687773459e-01,8.171376913351360294e-01,-9.829598460646270519e-01,-1.142771066775725847e-01,4.747419296982597903e-01,6.970329119446053712e-01,-5.525968226539764716e-01,9.642960523842469822e-01,2.132401122744387589e-01,-1.322730920145606948e-01,5.929429062849335130e-01,4.872066538449380535e-01,1.468751511972389290e-01,-6.370334443680426562e-01,-1.491015856996240063e-01,-9.593391073696501126e-01,9.190493239171430018e-01,-6.173413125754271258e-01,3.216386221505301846e-01,-1.381029689902230739e+00,-8.418118254355929642e-01,-8.953434724060217453e-01,-7.179679099371500950e-01,8.281680574996187760e-02,5.235189684767280749e-01,8.990623219138635935e-01,-3.011408592766335462e-02,6.045720250582504729e-01,8.222147650860202051e-01,2.183356762118578431e-01,6.725079309362322899e-01,5.513286044729394098e-01,-4.503557065517888591e-01,-7.922820698189013688e-01,-2.647377428787673348e-01,-5.345897231024145935e-01,2.012562101615140431e-01,-3.849399310315558820e-01,2.707617256263843974e-01,5.819660846359546724e-01,-6.676914793092756373e-01,-5.414617559281424963e-01,-6.638419263435748618e-01,8.915561314409690963e-02,-4.521591090251523282e-01,8.830648315606298704e-01,4.725640261966143618e-01,-9.575218788517135815e-01,5.971766779358309574e-01,5.411847794069839512e-01,4.361100709365375305e-01,1.113668553952577245e+00,-5.813543046950297999e-01,-2.330719647844328446e-01,-7.551409509585454982e-01,-5.648558466391006005e-01,-3.170606893515812708e-01,1.427770547882853958e-01,-3.104774466362292817e-01,-3.961835146594540058e-01,-9.931313025836553399e-01,2.241041646127814035e-01,-2.003227150790963529e-01,1.732230515589958664e-01,7.635173413281109989e-02,-2.992593884398276338e-01,-2.179892698684248453e-01,-4.024432993480367426e-01,-6.820566596489846534e-01,9.623386242093109333e-01,-4.770667645087745545e-01,-8.221588353314343012e-01,9.818982830768820946e-01,-2.901541560559919852e-01,-7.145019931883589415e-01,-1.256517067556864209e+00,-1.215118900038539979e-01,5.436971723747970886e-01,6.585379923885877895e-01,4.143099376821481328e-01,-4.927519641571921627e-02,1.114265689521619862e+00,4.894423560720722599e-01,7.841504455383103700e-01,-5.293925313829714874e-01,-6.498360846949727820e-01,-8.857636069920660216e-01,-6.870775878256372149e-01,-1.020405607842518325e+00,5.150909440884559043e-01,1.517128214968001543e-01,-6.113833977020540766e-01,-1.179572302725674926e-01,4.294244854259903765e-01,-8.076477901293437345e-01,8.752052853039954394e-01,-5.704395511789193129e-01,5.100733297551188761e-01,7.308762057316110505e-01,-1.150553440380783915e-01,9.192493662965842693e-01,6.287914588637611990e-01,-6.220866919276748508e-01,4.858619355208055879e-01,-3.255832618707903414e-01,1.073214902724892283e+00,3.023693690240871201e-01,1.540855281404251986e-01,1.305550415678595089e+00,-5.292734498420560707e-02,8.068887416141460323e-01,-4.276269795981469390e-01,2.221891497395800108e-01,6.489956881159497648e-01,-2.434666057043830267e-01,-1.238125626844752136e-02,-1.034710426197633093e-01,-3.538395082124352609e-01,1.372471099660746707e-01,-4.804924072812081226e-01,-3.630629203633883861e-01,-1.230944449159777909e-01,-1.630767287218152506e-01,-7.796891986820868592e-01,-5.678029108658808610e-01,2.400878104152175119e-01,5.386000869621161702e-02,-3.723921889745814284e-01,6.596569663746465473e-01,-4.141301405558511228e-01,-2.553075658218857957e-01,1.647198521613148225e-01,5.594439835990830945e-01,-3.443159308294052035e-01,8.345689905686194399e-01,-3.776410756685430470e-01,1.276484807053794857e-01,1.526301696178307410e-01,6.217892244865587115e-01,-5.020604453645119980e-01,1.359383198311688024e-01,-7.928842145719170453e-01,-7.510613256021251294e-01,-2.873897107166084597e-01,8.948861268244576728e-01,-1.476531632678130812e-01,-6.010415199363722261e-01,-3.392391766526541841e-01,-1.147771599213913592e-02,6.138078724040000322e-01,5.043469280367202101e-01,6.578159783524811788e-01,5.451785003625111425e-01,-1.828567982160172189e-01,-7.563716376918565298e-02,-5.455028427349479792e-01,-2.760564169434531756e-01,9.583068916130653703e-01,4.161384193677804544e-01,-6.478817699383079276e-01,6.336935077297384256e-01,1.258427387278655107e+00,1.080893492456918237e+00,-5.352399984313465087e-01,4.453677718594926116e-01,2.067482487801884095e-01,1.024568771529143829e+00,-8.978035650466519302e-01,-8.390884344840761067e-01,3.065975479681387617e-01,-7.196947254862691157e-01,5.575979924634113377e-02,-1.259108289004635950e-01,-5.612441292939454596e-02,-1.085139696748493310e-01,1.604725744444501778e-01,-5.283822912136915129e-01,3.465129141337328633e-01,8.837880220547683630e-01,8.790251216907438714e-01,2.633189502519138747e-01,1.189803600533580197e-01,6.488930476307988027e-01,7.717241680931178349e-01,-3.396380239222600989e-02,-1.850468999498609546e-01,6.816448429466480663e-01,-7.935795329143492394e-01,-1.378638199329264291e-01,4.846014922315808326e-01,5.630541150793646477e-01,-3.755683010364795904e-01,3.265302550841914786e-01,-5.787392389144956351e-01,7.741981496220616543e-02,4.871652998544040436e-01,6.674414050399438691e-01,-5.037816899904659085e-01,-7.213958988476676382e-01,5.940530362181549728e-01,7.607910027872913927e-01,6.152288336507945044e-01,4.384447998998604323e-02,-3.079767266336523313e-01,-5.655245274501636832e-01,8.376060806528204949e-01,-1.031420915695493878e+00,-5.953314443069546158e-01,-2.953551088303085770e-01,-1.381472733441743372e+00,-1.187468909082733282e+00,-1.749321326911430219e-01,-2.238142936955515860e-01,-6.437803015339638169e-01,-9.761046766311858303e-01,5.399724579070651620e-01,9.489977962885797055e-04,6.894609708787987623e-01,6.716577540835295679e-01,-8.341869274240130139e-01,-7.600105334692388581e-01,-3.346146338138318299e-01,1.034394740833773696e+00,-8.441140001198323972e-01,7.650001862308468681e-01,9.205789972911371244e-01,9.314742427566868876e-01,-9.325036904181142061e-01,7.882237813272300331e-01,9.106124373759503232e-01,-2.521430221347033540e-01,-4.197790421489377422e-01,3.892104916163761225e-02,-4.707115976902884746e-01,-6.587959796470719276e-01,-4.035442685578843891e-01,7.712287190991104491e-02,1.312324548631604026e-01,-1.160206136809835975e-01,-4.157625272535966365e-01,-6.311805649076528413e-01,-6.418814693517278513e-01,-1.229658487387699228e+00,4.305929866301300701e-01,2.638682812512677667e-01,-7.192681350522485140e-01,1.031050316676451528e+00,-3.163565785208317105e-01,-9.359975388386609918e-01,-3.451088715533441598e-02,-7.365336555587758127e-01,-4.904245418466710027e-01,-8.602664414049353558e-01,-4.863014122878515227e-02,3.981534643652087091e-01,4.036814613380949879e-02,-6.050212690500740287e-01,-7.504988905385213682e-01,-8.002496928984720315e-01
-5.512384652397814833e-01,-8.897504072810513698e-01,2.002695134919031950e-01,-5.897170488910942199e-01,-5.663539185101367224e-01,-7.164934583284332525e-01,8.127610529649321736e-01,6.992317420384740467e-01,1.538745418093196149e-01,2.432987573197388509e-01,-6.916155684943634530e-01,8.163659474514192160e-01,1.140159750209777112e+00,1.008969108385558977e+00,-4.351767287488507163e-01,-6.854950924882500241e-01,1.028241628386965090e+00,-8.019521079167901689e-01,6.837078807081855558e-01,-7.541090341947886966e-01,-3.380717787651655870e-01,9.294545587272284859e-01,7.306116270873095342e-01,-7.231400904241470640e-01,-6.099406850042536909e-01,6.612387594023012571e-01,-4.470530501465792561e-01,6.446307785658520473e-01,4.595368179075828841e-01,3.033389502233619361e-01,-8.916694156897603252e-01,-9.550592926799365001e-01,-2.141577280977176034e-01,7.191542305834460747e-01,5.492183414073908976e-01,9.185635493429961107e-01,8.067603867521838668e-01,5.622300129163444460e-01,3.863771822344650442e-01,-8.113410758106778253e-01,3.793438285966165280e-01,2.129652302374320239e-01,6.507965907526660487e-01,9.541598698916889942e-01,-4.497624127380112635e-01,-4.974465290259571376e-02,2.838685578512521457e-01,9.718786887814132580e-01,5.119069802911306588e-02,7.170927386844669904e-01,2.067987385624193153e-01,-6.741073769373226998e-01,-4.473748986463534361e-01,3.845476217734976054e-01,2.357095308174573245e-01,-5.064589208494724160e-01,-8.195282796178713358e-01,-5.034351193995855178e-01,2.658786631063113637e-01,8.130477652037348957e-01,7.137294366746474994e-01,-5.543396656375324527e-01,6.664331839711046257e-01,2.870003570751588073e-01,-6.670110490960957650e-01,4.191042025418202921e-01,3.355004442826249322e-01,1.053266700611091400e+00,-8.101880561200649478e-01,8.045602842447174829e-01,4.277559416761187450e-01,-8.343457587219516025e-01,-1.666786762899440111e-02,7.159660169899134674e-01,8.375499732091599980e-02,7.958711821533408226e-02,7.603430750075148570e-01,9.888887910171358930e-01,-2.372583317369429123e-01,-9.223761606210371111e-01,4.832938869452660935e-01,-6.809873572259607100e-01,-4.826226600861206473e-01,9.415623893682872891e-02,5.603564439486808935e-01,-9.203915792599194345e-01,1.275585955368456759e-01,4.224684881329146546e-01,4.254656653590463411e-01,3.882405831806885754e-02,3.741880149015627821e-01,8.391561321137510632e-01,4.250720022247582719e-01,-6.703720923680865917e-01,-4.299440413983273146e-01,6.221934815381049422e-01,5.294727383485738764e-02,-6.963842662959355279e-01,-7.714967258093742286e-01,7.554846447191150283e-01,6.040035459220501890e-01,-5.185039600577338037e-01,-8.027501882622922746e-01,4.626162004265714500e-02,3.859378626766331033e-01,-2.008089939868190898e-01,9.849270888981851435e-01,-8.023389900598755231e-01,2.723276730336713358e-01,2.770398972314989106e-01,-2.461626133082795986e-01,7.748986418921050001e-01,5.064855037029150076e-01,1.776686183130077035e-01,-2.183879645760533061e-01,-4.841294713825151086e-01,2.518196602319006105e-01,6.379795635968646961e-01,6.639759385281416293e-01,-6.316693509001888307e-01,-7.557544288067212790e-01,8.201448391403828309e-01,1.670057720596510864e-01,5.887311533927431784e-01,-1.135951677675393207e-01,8.484559329884225898e-01,-3.679501804316369640e-01,2.418374930185577532e-01,-3.537049481980808485e-01,-2.972895659489062647e-01,1.087405204324098262e+00,-7.413068850642567931e-01,9.634117173360987607e-01,2.263506511605656302e-02,7.494628834179951626e-01,-4.716507673003300094e-01,-7.068741994345746349e-01,1.651890639293067953e-01,1.579861069668515028e-01,8.067739052905557040e-01,-1.054682412831642546e+00,-6.126578094905099636e-01,3.329885608793993756e-01,-3.394965404194077441e-01,4.521504593411472817e-01,-7.853904693121519509e-01,2.894232498496179251e-01,2.985740793399339621e-01,8.345130406220000463e-01,3.344156867477114936e-01,-2.886625877732496570e-01,-7.282356613852064564e-01,1.915194239557575784e-01,-5.358060820267708246e-01,-4.122748543487061990e-01,-6.849132279839362791e-01,6.670780393019331012e-01,8.058307365525230193e-01,-6.357630004352295972e-01,1.023106863352603590e-01,1.700427529597976078e-02,8.420463335840823182e-01,-9.348701018568984500e-01,2.970162647681943713e-01,8.495028918331541667e-02,1.611579752806506505e-01,5.072117452895652523e-01,3.538235905071469012e-01,-1.822735608412137109e-01,-7.582345925435034495e-01,-1.167133903215884644e-01,-1.936719873680803894e-01,-3.048673770950261486e-01,-1.855726847539020119e-01,-8.450910386322894527e-03,-6.786123858138105591e-01,-6.187291728497411603e-01,-7.404208280946201759e-01,7.925980148709376172e-01,5.389603903118326267e-01,2.826055697383766385e-01,1.029711466561843869e+00,1.012880447020222396e+00,-7.659842212843251952e-01,-7.768407619503299166e-01,-6.632658294342568261e-01,-8.033146458212866436e-01,1.025560381868647619e+00,2.243842917160347172e-01,9.381483107747587979e-01,5.235350329815026127e-01,-3.774196945107123335e-01,-4.792899917977756774e-02,6.092599267009406461e-01,2.362181069818917734e-01,6.469109143264185624e-01,2.775095855363528541e-01,4.611303760843711852e-01,-5.771608570389334947e-01,7.245692747294665281e-01,-7.037208097236065107e-01,-3.753954400091965571e-01,7.318217558922628374e-01,-7.277140227199780931e-01,-5.139907681734081635e-01,9.255420082262773018e-01,8.429019469145349053e-01,1.876213868176058175e-01,-8.346821693677134446e-01,5.963412688050651056e-01,-1.886332610602819981e-01,-4.293498680446250493e-01,2.920045695814163511e-01,1.271799696978131444e-01,-1.045185436120603883e+00,-5.902841789125297389e-02,-8.666564029695092986e-01,6.526430859080991631e-01,5.326959821871281031e-01,-5.840359228369329525e-01,4.965652710522026059e-01,7.674887904723585175e-01,-8.054459884749538556e-01,-1.376699314965705301e-01,8.577587640237790412e-01,-5.701813226781440314e-01,-2.146345108778668076e-01,-4.150776497850364871e-02,6.535708499807306726e-01,-3.066158003084262229e-01,8.773797295716485589e-01,-9.213519137013628790e-02,9.558621181769900721e-01,-6.722147684712291849e-01,-4.619286475231252354e-01,-2.463178933786684399e-01,5.447145091645342330e-01,1.489374768919030090e-01,6.196118688267657770e-01,8.180008029479721721e-01,-8.017076623841338234e-01,1.900492186093714897e-01,-1.095051742177784337e+00,7.235357778268098894e-01,1.436605736400119737e-01,-6.688151297615404500e-01,1.057909654617186002e+00,-3.952302325547621953e-01,5.578885731936719106e-01,2.094070817383872629e-01,3.486280913893054223e-02,5.628495616023442283e-01,6.418530749886738884e-02,-8.034571903797859127e-01,-7.274383057679740805e-01,-4.321981771837432595e-02,-5.698519069366110301e-01,5.084854088214829648e-01,-2.562858774802401207e-01,2.969819220883629374e-01,-6.802564195214431952e-02,-9.613553298774489830e-01,-9.568503080934760430e-01,-2.069428707627879449e-01,7.415836524460434065e-01,4.963847614468520630e-01,-5.254628852106838499e-01,-4.710048163510802688e-01,-8.448390355925876616e-01,3.848264506165081644e-01,-6.943834611947337365e-02,-8.519665748941109007e-02,-8.672289827118487282e-02,-4.712243709396787827e-02,-6.045501186905112290e-01,8.753347948147843782e-01,-9.655604285828395250e-01,-1.432460103402608265e-01,-6.244104346230660435e-02,7.660668434130946114e-01,-8.462272243931265869e-01,-1.558269261705257369e-01,6.007852887547072696e-01,8.648688605075484093e-01,-8.275641798707376959e-04,5.373471614402873797e-01,-2.227925242039364429e-01,-9.092269518245637006e-01,2.461583810933830885e-01,-6.235470575444816976e-01,-7.385524291438519962e-01,-4.870726866232204938e-02,-3.657707548399606878e-01,-3.404420584429845159e-02,6.401424983030626903e-01,6.207413598488815687e-01,3.440903401680335261e-01,6.359033140598839839e-01,-9.984362446462220486e-01,-4.933273043802458013e-01,2.968037699000598550e-01,3.267847915019233551e-01,8.315657501433982857e-01,3.910723299624040972e-01,8.632418272222983635e-01,-5.964329427418399998e-01,7.101386979331412164e-01,-4.245499455478278783e-01,-1.307825128454928876e-01,-1.769318679547945417e-01,2.318046747450977219e-01,-1.144717994852546411e-01,-2.285738526003123772e-01,5.206756522971641710e-01,-1.743302084291591114e-01,-6.083040584391378180e-01,9.409465749356423769e-01,7.905190118121726561e-01,6.191379248254300638e-01,2.274691613311038418e-01,7.114277224467557836e-01,1.283427692410895604e-01,-9.736963992325377015e-01,6.703405826941877255e-01,-2.134912811398794949e-02,-7.528512140370985373e-01,7.916900375078548269e-01,1.043942826132304713e-01,-1.172247896849599513e+00,-7.613844686732750278e-01,-7.089794816226656637e-01,-3.854346226371555550e-01,-3.071172817030792812e-01,8.311555603183297114e-01,8.705228717364912328e-01,6.449803007021641665e-01,-3.714092984579501211e-01,-9.152895660273538958e-01,2.218994635348934819e-01,1.676241535719460718e-01,6.667316015830260234e-01,-3.464629468820555336e-01,-3.866907074292511015e-01,-7.184805842943570164e-01,3.610581267982800324e-01,5.802687834791041555e-01,-3.309043663763244214e-01,4.949405194486837245e-01,-8.699489218300279214e-01,-6.849097509772738013e-01,4.091847189652739747e-01,7.101182484532767569e-01,-1.088002306728907687e-01,-8.792228903457541822e-01,-7.051965933001257403e-01,-1.043854890669058566e+00,-1.080050351057582070e+00,3.029415736136438844e-02,7.457859927307421977e-01,3.017045692045006167e-02,9.597848922984298925e-01,-1.009610628380315234e+00,9.168164390252661056e-01,-8.163080603939455449e-01,-4.328128646794680567e-01,-2.076670093287423524e-01,9.320991252423853624e-01,4.096116825173426457e-02,-5.368805384989133733e-01,-8.186235972877532463e-01,8.494559751991167529e-01,7.052440598197836641e-01,1.367651683697114484e-01,-2.036047756287339694e-01,-3.882329528558702836e-01,5.062948954110491062e-01,4.458033599342514641e-01,4.872536261289333454e-02,9.231513220037725898e-01,7.673593929557917873e-03,6.955742846611870922e-01,6.910917423994956676e-01,2.914209437803020331e-01,5.608163556408309047e-02,-8.384582463291831989e-01,8.049951389755450881e-01,9.118175505660616187e-01,-2.621222274158903631e-01,2.373276485715140188e-02,8.090856951665597041e-01,1.008360717276102075e-01,-2.126804646874268789e-01,-7.042623243203719463e-01,9.417734656862785103e-01,6.495570659424989568e-01,5.423379591537244027e-01,4.930841723431088619e-01,-1.028522622319609642e-01,-6.422325802356975144e-01,9.185637463578425477e-01,-3.313798186801175660e-01,-5.895223730788771155e-01,-5.159251983952584109e-01,7.443957866991176564e-01,8.065511512933393190e-01,-9.177197594207961995e-01,-9.417544923918841349e-01,9.546359492429574711e-01,-2.037860880006963915e-01,-8.768245372348832944e-01,7.945867590763731891e-02,8.182090627244132941e-01,7.710200979621977257e-01,2.519626562925928459e-01,-9.978111257327088035e-02,-1.061307364271998344e+00,9.278649826788730737e-01,-5.594347144911795411e-01,-2.184831925466796665e-01,8.268654281241885062e-01,-4.635854379856917812e-02,3.673973706049205590e-01,-2.292281696449491868e-01,-4.881539264992178495e-01,-6.376042381922978342e-01,8.512200361778650137e-01,4.015857503783801241e-01,2.417767815587464342e-01,6.550881293944632588e-01,7.295900858685241408e-01,-8.444141708295468396e-01,7.803759943398863586e-01,3.040907895191317656e-01,2.101895524218751199e-02,-7.009551172220436221e-01,4.515184301982927417e-01,-7.370456681320968206e-01,-8.600737019486095480e-01,3.414949869723330703e-03,-3.057891007760458746e-01,-4.576298941493125993e-01,1.603915568997807684e-01,-3.167967028003965124e-01,8.081946220214438759e-01,8.660690113266649170e-01,-4.307274490055122418e-01,8.035109566632229194e-01,1.306101855600721173e-01,-8.863891527042261353e-01,1.513013422723744235e-02,7.390597764480277831e-02,-2.011264834871787366e-01,-3.809736197634062127e-01,-5.722302782667751941e-01,-4.494016656150068290e-01,6.515414534465063801e-01,-4.137196931753506224e-01,-7.157204138429669182e-01,1.550688163434549294e-01,6.282814470595811107e-01,-7.725407281309997209e-01,-2.498052653015248314e-01,-1.124877761200159032e+00,-1.134683475399324015e+00,3.927571079020419353e-01,-3.759017041290833028e-01,-2.553476445736316824e-01,-1.070836543494008003e-01,3.709620688255117482e-01,-4.209730273568633163e-01,-4.856953012480328957e-01,-6.735948560208959712e-01,2.417754268299387443e-01,7.441099657688696745e-01,4.538717444526260136e-01,-6.254679493388972666e-01,-8.545761179269317775e-01,-1.201775460084791164e-01,8.105691477747500873e-02,-7.877764784658090047e-01,-6.969834436071434824e-01,-4.852800038332527599e-01,-4.432307265943140617e-01,-6.344492552522082995e-01,-4.965710666456858990e-01,5.230168040988864009e-01,-6.513070340017441673e-01,7.816283022043658824e-02,3.018876894893237628e-01,4.132599464923465971e-01,-4.934359821261384282e-01,5.892350791563443213e-01,4.477449568140703939e-01,9.733881868754610256e-01,-1.198522869352045273e-01,7.266295115591906439e-01,-4.771069030766126318e-01,-1.692894859964444165e-01,-6.412258987165552204e-01,-8.957950998372001816e-01,-1.032743830486878789e+00,4.776037168176541226e-01,6.544144929133718369e-01,-8.284894963735335294e-01,2.908311192231010089e-01,5.218091875741238950e-02,-7.830383891436564214e-01,-8.205116124694390445e-01,1.096519292982765237e-01,-8.181739963167333762e-01,8.534914123140371345e-01,7.723520987347275435e-01,-9.983450104311847317e-02,9.798412257265314285e-01,-3.927144375468190618e-01,-6.133534339331837559e-01,-7.891247288295764051e-01,-7.468614627941463358e-01,4.875636123787568943e-02,-7.574264596702438013e-01,1.315229974606017989e-02,-5.741529108092277567e-02,-8.476182305042708753e-01,-6.004558004607073451e-01,8.650579307049541811e-01,3.288095933515706726e-01,6.157302608394326082e-01,-9.950429503463606995e-01,-8.741434181106000345e-01,-6.608104271902258686e-01,-4.821929739536506831e-01,9.897003886977232545e-01,-9.447136590366806974e-01,8.838357389108318918e-01,-8.491621265636354332e-01,-3.175464879065083013e-01,-4.560825953258103582e-01,7.458943839120660835e-01,5.767790000919001958e-01,-5.066519474713183924e-02,-6.125057991232787380e-01,9.566738112937117622e-01,-7.042949532116922207e-01,3.176707763966915565e-01,-8.200305041484621249e-01,2.342587764678631668e-02,7.568912849401746579e-01,1.624288070197508760e-01,-9.670458485757180700e-01,-7.688620490342834568e-01,2.756600685318951749e-01,6.880328109997389807e-02,-6.471746645225774641e-02,8.215936032072593820e-01,9.250382919642710644e-03,8.504682774971977777e-01,-8.647453178019062214e-01,-5.872127940337091845e-01,-7.821131798465739138e-01,-4.225709095282733641e-01,8.135768629925734796e-01,-6.481921490907859296e-01,-3.207191203529671103e-02,6.911587265347717279e-01,2.250132975452278639e-01,1.290705852532396392e-01,9.600634015884794703e-01,-8.331444046641048873e-01,1.039841437025309734e+00,-8.342619396771446816e-01,-3.383647092586030691e-01,1.071040816500259951e-01,-1.149478703841173288e-01,1.169713086384776141e-01,-7.192997318857679012e-01,-6.109540355897996600e-01,-6.697148725490146282e-01,-4.640077724800556469e-01,-8.767247081916600404e-01,3.369108137062221120e-01,2.018007916548310576e-01,1.019051117009091234e+00,4.170422427829291179e-01,7.214904725564244004e-01,7.083857644109056162e-01,6.360600446026016819e-01,-3.004666181901921584e-01,6.134221159854531535e-01,8.043698377745515105e-01,6.690308896645212888e-01,6.949105256478137482e-01,5.093401350184493248e-01,9.314564640907752047e-01,4.479370158241956501e-01,-2.340680117874983646e-01,-3.437541376365800816e-01,-3.246399582986368992e-01,2.144584716511096500e-01,-4.662597176969120460e-01,4.463797487087938221e-01,-9.077429864257672287e-01,-6.134180894929294192e-01,-1.844627255163579227e-02,8.767682003301854321e-01,-1.168696186615787891e+00,-3.765075493652472738e-01,2.234035764984188266e-01,-8.878119742631778166e-01,-5.507043886449815018e-01,2.092820129068589385e-01,2.655644886968610008e-01,-6.504519075195674960e-01,1.020225878252509322e+00,8.756866746341778196e-01,-2.983749994815378462e-02,5.368170744297470209e-01,-4.883519172621977877e-01,4.269123536290022614e-01,-9.192831745404482779e-01,-6.774762172308872454e-01,-4.939468346839126500e-01,8.429810536317672298e-01,-4.108683965289235962e-01,2.336872434081813665e-01,-2.391665930329216205e-01,-1.608033656863434857e-01,-6.885424436494022027e-01,-9.735076571236336296e-01,-2.190414014100237200e-02,9.384555268870494737e-01,8.017684595270609949e-01,7.070451793412727559e-01,-1.715809953251073439e-01,6.478525846869999105e-01,9.629068760600816290e-01,4.844238048210263714e-01,-3.122301095000363236e-01,-6.583658614695392375e-01,-9.606493719984462443e-01,-8.228353091063136393e-01,-3.278180903338764329e-01,-7.658607384212398062e-01,2.241783624378791417e-01,-6.683591558644925712e-01,6.872500973468274044e-01,-8.988136712139924711e-01,-3.837519412502381488e-01,8.972006216117055510e-01,-7.641131634898330471e-01,-9.425576389378998998e-01,5.965739762997841478e-01,2.401596587346399303e-01,-6.466354296950930225e-01,-2.927077929080402208e-01,5.331012175154437038e-02,7.943125141795426281e-01,-3.237044903339115209e-01,-1.761137123587553088e-01,3.909616040276316928e-01,-5.322242992023932251e-01,4.852741595266651387e-01,-9.529810411382835245e-01,-8.349636105502382388e-02,-6.635137019870849251e-01,6.832419034903084443e-01,-8.009001485872502268e-01,-9.455495288873562165e-01,-9.648717229189399669e-01,-1.707970500865658714e-01,4.499780266406557816e-01,3.506851179916173344e-01,9.474966154881007130e-01,-2.694215569140961386e-01,-7.327070342063317643e-01,-2.057975733548208716e-02,-1.308711834421708853e-01,5.101975821450294157e-01,-5.560786432253984612e-01,2.221162118661224039e-01,1.989386889876814946e-01,1.282000483349058917e-01,2.497937001524240253e-01,-9.617121419194751830e-01,8.998002450231817884e-01,-8.131538151189883212e-01,-5.236787152651453114e-01,5.181895517942907148e-01,-5.653952571716546194e-01,-1.048047807803084375e+00,5.863749347309220594e-01,-2.826801153583359816e-01,2.070054860568750488e-01,4.122955403392996043e-01,-5.826991932063082524e-01,5.234862700330307206e-01,-4.974012035680322463e-02,-5.525244113249722089e-01,-3.017911203284810995e-01,5.350072640307618199e-01,5.675503145090651236e-01,-5.233982177738638608e-01,-3.253686111901347155e-01,7.340440295778464241e-01,9.298193787669695176e-01,-8.293868876028647197e-01,3.460653850677103960e-01,1.744238798223637366e-01,-9.347616501283843027e-01,4.588522795322521608e-01,1.019283014225460748e+00,8.699239370813933725e-01,5.995598661565723630e-02,-5.899305470130892237e-01,4.155594777798546358e-01,-3.343201885259197148e-01,2.763980542455832801e-01,-1.742683340007350756e-01,-6.160127929467734686e-01,2.308240728432771616e-01,3.291652578239205318e-01,-8.189524746186347404e-01,-1.121345000881019294e+00,4.519594790156036823e-01,1.773055233568991973e-01,9.597169348400739208e-01,3.650024672153810990e-01,-7.972486451334436230e-01,-4.937293330950510151e-01,-4.843125225302336023e-01,-3.738265594462490959e-01,-8.274793626235071864e-01,-8.593495012790389742e-01,-1.865225602414754269e-01,-7.074895452038955090e-01,1.083938201278070279e+00,-4.972899032140598030e-01,7.057217500683956590e-01,-1.620352321838731124e-01,4.265148847474022897e-01,-5.477886289765786509e-01,1.064967013485572933e-01,-8.330088582008564613e-01,9.366483523432074243e-01,6.316071786784863695e-01,-7.300281859634095705e-01,7.751660706211823681e-01,6.923064138915105969e-01,5.204330602376141535e-01,5.330117472242104082e-01,-1.160618568438290144e+00,-6.967065228718991587e-01,-3.561503522319752202e-01,-1.710191222431547975e-01,5.889893919827202673e-01,1.197600761913644313e-01,-4.373063206509441581e-01,-1.867491685493483100e-01,8.583706320190713779e-01,7.739175786058914708e-02,9.827804589871691476e-02,-1.048154374136755496e-01,8.003147758520109400e-01,-7.481970663271702016e-01,-1.006608880830840852e-01,-1.531199237672876412e-01,3.573389289982571992e-01,8.056313577139185833e-01,-7.556822387083891313e-01,-6.038064299101633114e-01,2.872052330925521368e-01,-2.374760592055453756e-01,6.303159685061753281e-01,2.560502715747732805e-01,5.619830428112535525e-01,2.536748331845440907e-01,2.635715296018221743e-01,-7.089223692093483686e-01,3.994563128661601792e-01,7.687401778716965728e-01,-4.985027412206302078e-01,8.074863872025668243e-01,5.935290154751110547e-01,-4.352625171902503309e-01,8.353123008323057874e-01
7.851831246103881945e-01,-3.838668084194720165e-01,-6.981586037620540752e-02,-6.504853823468668139e-01,9.016999558658054248e-01,-4.575364663039180324e-01,6.271520067081690075e-02,2.269275309297944243e-01,-8.260482786426320834e-01,5.040736439433119997e-01,6.550076066787441365e-01,-3.550511176226403554e-01,9.280372436992177787e-02,5.132829348686094306e-01,-1.473517006899204840e-01,-1.096725501163971356e-01,1.810105338843934208e-01,-5.101024566499762214e-01,1.375746342693044966e-01,-1.822823674118357468e-02,4.419712917306954925e-01,8.665008832332455890e-01,9.342252813952444113e-01,9.837053100397953331e-01,6.624801144559908095e-02,-3.521216668858051513e-01,-1.590228671998326904e-02,7.140334046473968410e-01,1.028932265967853033e+00,-8.895800996574844133e-01,-6.819004042553161726e-01,1.499065098974007582e-01,3.683489983169048743e-01,6.686860499871345453e-01,1.351908126437250113e-01,-6.036482677497229804e-02,-7.860629092105756444e-01,7.673374405942435805e-01,1.120060229509013128e-01,-8.691613521686849531e-01,-2.612549607545024133e-02,-7.657117343497217288e-01,-1.782403149954694399e-01,-6.525706164372416795e-01,3.134505208771145024e-01,-7.341412526407968819e-01,-6.424524404224010166e-01,-2.880683283430096053e-01,4.493933648099405209e-01,7.351676115726968330e-01,8.250047571352058240e-01,-6.072485194799998043e-01,1.055572237414278858e+00,5.739740881042131315e-01,-2.656293198450014950e-02,-3.992925840261342119e-01,-1.956850602343610523e-01,-6.694056403868869909e-01,3.696140434878998904e-01,9.212155919853286523e-01,-8.682256825366543862e-02,-7.626030156732601650e-01,-4.943931871573736814e-01,-2.388024629771109408e-01,-7.930706876685050810e-01,3.691445631124160021e-01,-1.628437600589303647e-01,6.622341711912594908e-01,1.350299687271913907e-01,9.705208850955677757e-01,-1.793126189248958058e-01,-2.520583476999144756e-01,1.064922800427639649e+00,-1.251594938775945631e-01,-6.360586559843955934e-01,-6.847491753561574246e-01,-4.827148578723614025e-01,1.109482677679643592e+00,1.032525035237818578e+00,7.697658273582643762e-01,6.524848496147391819e-01,4.781552336264182079e-01,-2.735448238155683831e-01,5.359676860280910837e-01,5.672515269245748809e-02,7.415854699481909673e-01,2.886035655295086100e-01,-3.951166478667720861e-01,-4.476515819061756551e-01,1.294181703793987059e-01,6.968661487371214935e-01,6.815890446121253277e-01,3.307940159458059859e-01,-5.472944937445581859e-01,-4.868673395274745741e-01,4.173002388770352677e-01,5.183541767879505935e-01,6.935516708050603052e-01,1.203322161133975721e+00,-5.478017215170900567e-01,2.665775750674271305e-01,1.873269038725735025e-01,3.272384014171872968e-01,7.634028381787756334e-01,3.576358819471738282e-01,-2.820788791881013724e-01,9.913274880799269884e-01,2.700882686798944388e-01,8.693388652941362593e-02,8.767099137464570147e-01,7.665738163555954054e-01,4.615109887058219118e-01,-6.958554612193638134e-01,7.726158659520958594e-01,2.137686454028480884e-02,1.000097026499810193e-01,4.854962274079894224e-01,-6.179969626339304467e-01,1.052048394180487234e+00,1.018795918164683290e+00,-5.269954378645133053e-01,2.743413723957942585e-01,1.283538262871568136e+00,2.799634077334698379e-01,-6.044808808357989838e-01,7.111006620996872252e-02,-3.132693165643141708e-01,-1.465009151694367240e-01,6.036674838512885444e-01,1.061528038084980752e+00,2.834812285266896104e-01,-3.534083151402883094e-01,2.649365600293536738e-01,6.434629187816597318e-01,9.934825371020852280e-01,2.879609900183331406e-01,8.911504935045034825e-01,-3.201273907108847516e-01,-4.166975110332870602e-01,3.517759541853135996e-01,-8.005440771728457028e-01,-4.875082765803870899e-01,4.683247032476165472e-01,-5.190488936007079390e-01,6.919984219519506041e-01,8.937093463259583315e-01,-6.502770142103623252e-01,4.152705587174898572e-02,-6.183309451462215556e-01,-1.191704453095079053e-01,9.156921335330767686e-01,4.695194927286527875e-01,-2.229694742076553798e-02,1.443729013779667225e+00,7.516452217966155258e-01,-1.098659643728332913e+00,-1.495401803043389932e-01,8.565560696403714536e-01,-4.010070956548158344e-02,6.868127183217215270e-01,7.590671996218470996e-01,-2.445427346938778765e-02,2.391662850220008588e-02,-1.013781805509798684e+00,7.770100603700467179e-01,3.494164465390097590e-02,3.979546082150543507e-01,-8.108950707107951406e-01,-5.842539672854335508e-01,-5.606897208429308943e-01,-6.631772289259532105e-01,-7.476598562514172874e-01,-6.396838597581798735e-01,-2.324410970717692981e-01,-7.892093572015317360e-01,5.785243610806296566e-01,6.754108732169515905e-01,-9.144308965329071004e-01,5.743184317399839811e-01,1.629916469725644079e-01,-9.780509548131552933e-01,9.186858942893955104e-01,2.847278003862702134e-01,-9.497729287642544538e-01,-3.951282968689190378e-01,7.709172682181455460e-01,3.833054207887772735e-01,-5.427541389906511693e-01,9.911350069506624783e-02,-1.141373887199135240e-01,-2.286703338432796440e-01,-3.284546387480639651e-01,7.509212009313306346e-01,7.299143555686306017e-01,8.434836502979374540e-02,7.973923726714993165e-02,-3.323658763109924030e-01,1.064620212208338967e-01,-8.362761723128110392e-01,-1.019932683706765569e-01,7.116730312860077845e-01,-2.964213327758446481e-01,1.039274005229564146e+00,1.042462273912673432e+00,8.706914391365807582e-01,-7.667424521553244110e-02,-2.109100846324903633e-01,-4.149610636047930123e-01,-1.094150663114096478e+00,-3.393439001184000992e-01,-1.893283849869501281e-02,-1.426723538905295019e+00,-1.967319228824474076e+00,7.644941801943783144e-01,7.262373163003116305e-01,-4.905696544198231424e-01,-3.789553304422261237e-01,6.146677524879627930e-01,4.791620164585818631e-01,-1.147408057898770817e-01,4.615603129024389295e-01,-4.079597113521354901e-01,6.661102245795518240e-01,-7.796600454181304984e-01,-8.747311972505346089e-01,8.535698757522974800e-01,8.198880798387575553e-01,-5.676898387216009478e-01,-3.329209889118339705e-01,-6.535413948542712070e-01,-5.470013928947022874e-01,6.312601871725015412e-01,1.068794183734049108e+00,-3.343394876146940642e-01,2.737333510058365671e-01,-7.676175147177033420e-01,4.748294103480626971e-01,4.897213199752925572e-01,-6.287392851511741654e-01,-1.232044356402876017e+00,-1.253442507123040173e+00,5.003904617666361521e-01,-6.450522770206423839e-01,-7.276519951554378807e-01,1.204318569827183688e-01,1.102073149295754173e-01,9.207069885682762633e-01,8.562463585373312203e-01,-3.356068878382656995e-01,3.236332371624767168e-01,-1.632925735916490595e-01,6.835908089670490462e-01,-1.499790533273111792e-01,1.250756504875411013e-01,-5.959513012069554971e-01,-6.672949798188598791e-01,-2.234956289472411206e-01,-1.029357677940075488e+00,3.911273745437791050e-01,-5.589578444670945112e-01,-3.452008056400819869e-01,-3.753083969095030170e-01,9.146123659794421767e-01,4.984571401661508916e-01,2.795716582259258343e-01,-1.263041129968361043e+00,5.195516520972573993e-01,-9.212002172569576652e-01,-1.327231851842311627e+00,-1.144033485266992667e+00,6.744181531046204714e-02,3.008632345224554472e-01,-9.445421844535177858e-01,3.149822347379449550e-01,2.824928902898229954e-01,-9.170864972862020903e-02,-5.126207104582585217e-01,7.412974646070948914e-01,9.608418564503766468e-02,-8.016820178759902493e-01,-8.218127128395850134e-01,6.517423199265512945e-01,4.821497551092255307e-01,-2.007991986377181265e-02,8.161060070240989950e-02,1.320019433897672290e-01,-4.002783980831356447e-01,8.760897438179612307e-01,5.689090314807646598e-01,-3.767525544371303492e-01,-5.600053998960095036e-01,-3.849280017208777660e-01,-8.588583448778643048e-02,-1.006116972661925901e+00,1.928463977029489795e-01,-6.771573813968280176e-01,-2.600510852559534958e-01,-1.199390311455273306e+00,-8.738892914997153927e-01,-9.773196522273412956e-01,-4.386059011289189513e-01,9.265484384533563267e-01,7.426780333906163323e-01,-3.684862754854530964e-01,9.882897443004236004e-01,-9.425088831761365693e-01,1.064752975824492381e-01,-7.007224273158998429e-01,-8.863946672961464657e-01,7.105973744342638510e-01,1.113595395633740388e-02,6.714604632790582839e-01,-7.872359873213086168e-01,3.811059169928039392e-01,-7.428616868355482350e-02,7.858506758480370280e-01,1.158615288929724763e+00,7.767482851852727244e-01,-4.637827651745355384e-01,1.791664112939294479e-02,2.541058831641950788e-01,-6.033667075032497218e-01,7.598580840313443607e-01,7.798888678967776933e-01,-4.421567715253009734e-01,-2.755267223091117379e-01,-4.546089623094563548e-01,1.534942551284236567e-01,1.699448695206336457e-01,4.525065948602192134e-01,5.930136691357469625e-02,-2.152044932845222636e-01,1.600736878313495926e-01,4.817359963250218702e-02,2.308973281762197183e-01,5.180585806764053114e-01,-1.044644811648224758e+00,8.059431313971453514e-01,-3.381662687667273959e-01,-9.597908893420543652e-01,4.009311453714577977e-01,-6.801145192976735254e-01,5.976382089976212120e-01,1.897687501400174004e-01,2.643214035382255300e-01,5.502117005037393538e-01,-3.561858064712815075e-01,8.039563620372077724e-01,-7.605722600999800243e-01,-5.407644965497909739e-01,-4.657838312226973976e-01,-9.844063249902890167e-03,-2.108346271478129808e-01,-9.919007477129296868e-01,-2.584816032079415710e-02,2.438228637115041897e-01,-9.998119420975823957e-01,3.591352636929185846e-04,-3.070247497218294153e-01,4.453915386476804961e-01,4.733604805499792012e-01,-8.390134987250077447e-01,7.482370486894039940e-01,7.572082641269237691e-01,2.959402558450102694e-01,-4.612251490918441998e-01,2.456596489583710019e-01,-8.814682279221600636e-01,-1.277136369809833139e-01,7.528231212079672385e-01,7.068059833924685842e-01,-6.796483017264139947e-01,8.458471842958013021e-01,8.516070677470066741e-01,-8.241979287800218490e-01,-3.986476170527619156e-01,-1.007532681442404154e+00,-5.432756352465153427e-01,5.627183813198992635e-01,-1.274148739437808153e+00,-1.082656698479203206e+00,-5.168332544920388738e-01,-8.448733474120425635e-01,6.348631526704116013e-01,5.311214851933740988e-01,-5.984536618471961722e-01,-8.273568772937156535e-01,-6.387524257751037160e-01,3.274506424019205109e-02,7.079283283141465377e-01,-2.104019072454621775e-01,1.152802532583055567e-01,-1.068884519757621998e+00,-1.887378063685856214e-02,-2.913720758239540798e-01,1.955035495509876431e-01,7.107107864850770174e-01,2.617740161209937688e-01,9.743163520943562972e-01,-4.397858581900369601e-01,1.165686832746329893e+00,-4.798878748211090478e-02,-4.225423106600769141e-01,6.642860437589571676e-01,-2.335044736475670180e-01,-3.679903109299348385e-01,-8.088456288935225169e-01,4.695664185391160150e-01,-9.070540172238616972e-01,1.889507473514409341e-01,-8.527184624502884835e-01,7.032054036977405387e-01,-5.205331326884092835e-01,-8.590939133120433224e-01,-7.143693208589081411e-01,4.056801240284708121e-01,-1.128380430258076328e-01,-1.318112900522245168e+00,1.513045431198766499e-01,5.693096086076316897e-01,-5.269920649582989780e-01,5.863891097691213972e-01,-6.173898780290644206e-01,5.222070226606899679e-01,4.711197502501073275e-01,4.659786713260974933e-01,-3.053470270005187448e-01,3.739209166822674013e-01,9.379106036095292698e-01,-4.647082160467820855e-01,-9.167899753633518278e-02,7.935462397054898753e-02,-7.868989617133187453e-01,-6.175019819645740649e-01,-1.321464744069341446e+00,1.665194647411116086e-03,-4.054966226207544766e-01,-5.985239790007755856e-01,1.873286045816244527e-01,-4.835737154583216180e-01,3.331784554636711415e-01,-9.239598212669574151e-01,9.073432911361814512e-02,-1.123715343522944554e+00,1.185533779207748745e-01,-3.083107933820154467e-01,-2.990300161517229216e-01,-3.229116841428333190e-02,-3.080705205400831592e-01,-7.417863397022373961e-01,8.436877682965353564e-01,8.513140574370363367e-02,-2.916854493864852182e-01,-6.869282046528983887e-01,-4.545209364885016701e-01,7.438442709321145818e-01,-2.497171690298427005e-01,7.926828108639505377e-01,9.523306715331941730e-01,-6.977887078832195611e-01,2.070382866541778388e-02,-1.871058475998334594e-02,-1.133130089031854776e-01,-1.219938716756929109e+00,4.538236596694826819e-01,1.449734764051298641e-01,3.962091379625078402e-01,5.594586297068613323e-01,4.768892499542650154e-01,-2.565068096353140814e-01,-3.329413176056331136e-01,-5.433215934415170922e-01,-6.392859116533351760e-02,-6.588798201345382743e-01,5.336623544224992077e-01,5.199069524297587064e-01,5.712483670715691186e-01,8.847530829111546202e-01,6.523273129123916547e-01,-2.369262181643511378e-01,3.041568268799324515e-01,-3.705510007425312224e-01,3.398275482712567186e-01,3.001690688970263809e-01,9.118411485278772322e-01,-5.056589873406652780e-01,3.549276792593247243e-01,8.561725095788732531e-01,7.357731220669615491e-01,2.004894994412542431e-01,-1.096371743496630025e+00,-4.992579621545271684e-01,6.520420611235279162e-01,-8.642384811042566062e-01,-1.049934730055414489e+00,1.020684429778988406e-01,-6.315137291297484579e-01,-8.703048506182745614e-01,-4.350485465737098656e-02,-1.077844802183798745e+00,-9.769377786658524077e-01,1.755157645259405319e-01,-7.050633109939928866e-01,-5.413493198942540552e-01,-4.015601424462290625e-01,6.239395599485253463e-01,-1.016509829165173295e+00,5.668846973126167033e-01,-9.476213728713349660e-01,-4.160656420901863162e-01,2.644681698965697381e-01,8.418851308873305239e-01,1.047760456348130198e+00,-3.776165715261536326e-01,2.618404399712904174e-01,3.775006154262732783e-01,1.110576611017651372e+00,-8.417759170892984144e-02,3.057492906286888856e-01,-6.742566524546071971e-01,-1.186437225214402647e+00,-1.186405319472744635e+00,4.746471200765352005e-01,7.308365075119057641e-01,-7.334801941150035365e-01,8.520528343171286378e-01,-4.800878625696598512e-01,-4.817455835701672795e-01,3.187566440916814181e-01,3.070953355918458194e-01,-2.359749983810731019e-02,2.211338759261619602e-01,-1.852517569781186521e-02,-7.075837327609173499e-01,-5.002418723980412985e-01,-9.067436109348747664e-01,6.226249238606634817e-01,-2.336630768858242307e-02,-6.011003940113625044e-01,-7.247357365268598528e-01,-2.094294720878044636e-01,-8.744557458958548413e-01,1.161120099693815390e-02,-7.465299078898307572e-01,5.536990308229841062e-01,7.054406674523347465e-02,1.529758649638102673e-02,-2.452468215349753455e-01,8.392396243143306067e-02,-1.014797685117102777e+00,-1.421209125085478864e-01,-4.689149101523267665e-02,-9.385385928067184746e-01,-6.170586802736379717e-01,3.773646127560619234e-01,-3.726738812468287643e-01,8.947486172223930723e-01,-3.051776138120718684e-01,7.189208287366448680e-01,1.113031295026410961e+00,-9.695619554666184969e-01,-7.979232774577228460e-01,-1.716461659763316439e-01,-6.150813739901930810e-02,-6.818976369628849954e-02,1.559629029030866754e-01,6.030492872785909730e-01,8.478695278894843312e-01,1.073426729614027852e+00,-3.364567107644823585e-01,-8.689696430787535730e-02,-6.625569816403432954e-02,2.332946639160866642e-01,-2.828847444942489409e-01,-9.453110568461493557e-01,8.127743575300683254e-01,1.735481136827391260e-02,4.884219444486987971e-01,2.465721415212309142e-01,-7.505023379057066402e-01,-3.351561017456936020e-01,-1.364550401593778994e-01,1.396798025268034538e+00,8.277583984418072915e-02,1.170755759466898471e+00,5.147568272886746676e-01,-3.180101026784049045e-01,-5.736682392268283026e-01,-8.768852926652342950e-01,-5.155767384361910066e-01,2.349019392913894166e-01,-1.884421130154475266e-01,-9.521712230127334919e-01,-2.043954211893098116e-02,-3.806213611917178552e-01,8.606821020699196856e-01,8.643024477171885600e-01,3.565300639324650578e-01,7.696183664473055241e-01,5.901298361655474833e-01,-6.409639131335413964e-01,-6.867971516640908325e-01,-3.115577994329989022e-03,-1.284301967205181139e-01,-2.389330912369887761e-01,4.430822028326706352e-01,-6.492843651660920035e-01,1.361719065671004036e-01,1.836206913569236876e-01,-3.684516294234112532e-01,-5.309922640641841912e-02,8.248949141473710389e-01,-3.453231565897096900e-01,8.322951140905130440e-01,1.102029718437481237e-01,1.433476486379784143e-01,3.460247214857248288e-01,-3.231040051119791756e-01,-7.528120257174671925e-01,6.900834594843380243e-01,-1.227714797467692048e-01,-7.907593790972053949e-01,1.048402487712500331e-01,-2.331500408059583584e-02,4.478498454153023167e-01,5.097093733786600689e-02,1.009346083668897220e+00,-1.762666290024636206e-01,-3.475280173176257259e-01,3.507492695148529682e-01,1.305742134257997122e+00,6.618860146430033398e-01,1.112533100481779558e+00,-4.996240412902638317e-01,-5.873281429852680174e-02,2.961110617585540061e-01,2.827660719333434103e-01,-6.387179954678881000e-01,2.620989172172992765e-01,-7.189440716464764458e-01,-6.285558218840196776e-02,-7.438811211338890450e-01,-5.513482838357106619e-01,-5.138983830908891437e-02,9.457600164900740181e-01,4.219929335833812467e-01,1.097923074221686113e+00,2.307197993926934643e-01,6.736530005244342201e-01,2.313583761409477857e-01,-6.482723620327281999e-01,-3.397276519918113746e-01,9.450857040244699248e-02,-1.093713293362636035e-01,1.269268447524186882e+00,3.398340370031979196e-01,8.026562663937021336e-01,-5.431209837652334338e-01,9.297624299318691943e-01,1.321257871900235470e-01,-4.459381924764065780e-02,1.023570814076262936e+00,5.966399672923544673e-01,-1.357588493792538431e+00,-6.406309671737834277e-01,1.788550999214522097e-01,3.160811846293229421e-02,6.379528373055294299e-01,-1.066912513661967821e-01,-7.157604481555122078e-01,-6.512765960974674639e-01,1.680226298051891720e-01,-1.373299639630923552e-01,-3.176548132099549782e-01,8.725029924085623279e-01,-5.458035701458043842e-01,3.640636330090925576e-01,-1.763158842251214553e-01,2.189678552212536433e-01,-8.120181041943028699e-01,1.341251295744512462e-01,3.293688782153688654e-01,-5.174135460362250249e-01,3.766319731710977003e-01,3.675781017016567787e-01,-2.167977205370416605e-01,4.369087260829462860e-01,-3.504918557682553115e-01,2.428284793850614132e-01,-1.203078480785596711e-02,5.813625380394721320e-01,5.925856645972336079e-01,-5.402598684623096670e-01,4.294763669145825191e-01,-4.796381802360095703e-01,-6.072705722936846406e-01,-5.815888986720544329e-01,-8.672150627111961940e-01,-5.779680790077059704e-01,-7.154178280634325704e-01,3.371622301837446933e-01,8.631697845955910164e-01,5.709289955823199092e-01,1.073017551201997377e-01,-5.778646494825466773e-01,-4.498736288392318206e-01,1.416461080886973201e-01,7.614784524852989955e-01,-6.577602324421913949e-01,-8.082301096783645056e-01,-6.855401061036078270e-01,1.838319053299029837e-01,1.061146693864809087e+00,-8.067879492507045169e-01,2.998885978102389105e-01,-4.924284953396229625e-01,-1.154027215933539852e+00,6.543078110657210011e-01,-3.487028699030733092e-01,1.767270666447816052e-01,3.043414880522869459e-01,-7.028310665647384825e-01,-7.892601450124001605e-01,1.521861721266984206e-02,3.559378330827540071e-01,3.069464189458409042e-01,-4.863213496924495005e-01,4.919706995504673497e-01,-4.279200464039664698e-01,-6.841396184004127079e-01,-1.059721673113047657e+00,-8.168028818778068079e-01,-1.089792275617899930e+00,-7.460432090963859952e-01,-8.492914316871778002e-01,-3.327046151204844926e-01,4.096133388579498158e-01,-4.022090088757680482e-01,-4.206802409126115805e-01,9.513656670749061073e-01,5.114680139569116601e-01,9.477827018381097535e-01,-9.530953972236734517e-02,8.555467069543897241e-01,-4.420850373092341523e-01,9.357235723259563764e-01,-2.357103871253335148e-01,-2.006032934546456148e-01,9.030396040890388276e-01,-2.733925531916385210e-01,-1.947519348741547363e-01,-8.668244307625095901e-01,-4.189907051741974531e-01,9.529924884942746477e-01,7.190553922925602137e-01,-7.394767048080645999e-01,5.564820387821650671e-01,5.626599436596750881e-01,-9.915316133982404745e-01,1.224516305815329109e-01,1.014336387282223882e-03,-1.204656450031788228e+00,-1.520712904216806605e+00,5.705243854756540944e-01,8.412972700922886071e-01,2.639707928398818404e-01,-6.111898007809198896e-01,1.004271111146288753e+00,6.234670599372484912e-01,4.273150222916890506e-01,2.942646138893264540e-01,-1.236189380560001466e-01,7.106058868815389173e-01,7.485259371145720486e-01,-2.224462372699803903e-01,7.289908292260242062e-01,2.023511622813461142e-01,6.153102002159887007e-01,-9.260886471375705531e-01,2.467532683158820961e-01,-6.093103834407144204e-01,1.213215596947037622e-01,1.058834721270829116e+00,-6.838304075253086589e-01
-8.300681261567240954e-01,1.384256266237456900e-01,-8.479384165472295676e-01,-7.435993347695432076e-01,1.550970711553358375e-02,4.994450381901289759e-01,-8.185747750796467104e-01,-5.316857809221900988e-01,8.904613813244544041e-01,2.914615287398836241e-01,-2.309824492772806215e-01,-2.946117098504710263e-01,7.943433359905828217e-01,5.512087565619864238e-01,6.858533022711075233e-01,-2.411124843071331125e-01,-1.476490652710983620e-01,-8.521401397118825161e-01,6.238389744953838356e-01,7.770498482179746258e-01,9.333183580842535632e-02,-2.561400642745939593e-01,-7.347550681683315266e-02,8.403288345473964860e-01,5.236045824109960556e-01,4.384019352559764826e-01,1.079567721750089415e+00,-2.347819148693882363e-01,-9.058293017844778472e-01,-9.596951088607658109e-01,-1.905522928693327567e-01,9.354256010561477763e-02,3.732829443519646295e-01,8.703454840320965502e-01,3.234799153057495436e-01,-1.348479117427122398e-01,9.486719142747057631e-01,4.668494788799546491e-01,3.824086009102050099e-01,5.823661938540768135e-02,2.792041127386064026e-01,1.945415005701927880e-01,-2.303172681669737321e-01,4.881487309464427327e-01,6.848352723682071819e-01,5.349270723848019715e-01,7.716207160204681115e-01,-8.070717696781567474e-01,7.033812382164502663e-01,3.962535566349431049e-01,4.386566689588179968e-01,-9.832021993083077671e-01,4.423598750226313547e-01,7.082214465645715329e-01,2.395090616321079446e-01,-6.607736066610750969e-01,-7.094528489491164214e-01,3.025315299695470819e-02,-3.877765923114069313e-01,-1.004053619939505593e+00,-4.131994598399042484e-01,8.116871247742166728e-01,6.200093240774235959e-01,3.317686983010121327e-01,3.727364571050958975e-02,-8.200384610571851418e-01,-3.802800037266017008e-01,-8.924714080733270327e-01,-9.200188607794580475e-01,-1.383543808058263824e+00,4.718536641833678269e-01,-7.563986511814734248e-01,1.528610874645605633e-01,-7.688077415716728646e-01,1.175363618409041244e+00,2.004223737131601291e-01,2.545921458957740025e-01,-2.217126826207727330e-01,-8.684937101756949884e-01,-4.317226597112100439e-01,4.505482711725859457e-01,-8.340872824412882969e-02,-3.859484625414832948e-01,-4.482011455664413058e-01,1.726315242669726746e-01,-1.719833064937707490e-01,-1.961935975500977147e-01,4.699091868851758280e-02,1.999757358754989389e-01,-8.111014510875603767e-01,-5.588825017826649644e-01,6.869045868785923492e-01,4.901337255641518009e-01,-1.165201602612476073e+00,-1.071606249827651514e+00,-1.000657129306425475e+00,-1.581122361992921332e+00,-1.153887147096123389e+00,-1.768295455928971804e-01,-8.066216670027248625e-01,-1.309521444137392576e-01,-3.847995309787582974e-01,7.201969580866629528e-01,2.260598609560063033e-01,-2.722404029116303747e-01,-1.162423410718638334e-01,-1.015821441350352794e+00,-9.069914715025489960e-01,2.629307314005616680e-01,5.634301534450553151e-01,1.215130792002955484e+00,-2.264964567121725281e-01,4.832461628407478949e-01,-9.222136414928108206e-01,-5.971162437289937452e-01,-9.255030556395453800e-01,8.624449212843137147e-01,-9.496391743715550948e-01,-2.692483050584142390e-01,8.172893868196510203e-01,1.044118114304172854e-02,-6.691757981873072136e-01,1.656622514956929693e-01,1.433534149438886740e-01,-7.376525827884787556e-02,-4.166209314295851729e-01,3.166903264631407144e-01,-1.140595501206470991e-01,-1.209128494500040674e+00,-3.801610744687820009e-01,1.694782647611623450e-01,9.993174828122144415e-01,2.528664566962611771e-01,1.052589593106658672e+00,7.143119434357589337e-02,5.960207565140341890e-01,3.883340638301330805e-01,1.136595619726798123e+00,2.267676199490946398e-02,1.915025973995087838e-01,-1.032980508228112493e+00,-1.013813153698991387e+00,7.601318089506053921e-01,-8.791345634875364912e-01,-7.654153114025248339e-01,4.668582418933353018e-01,4.136440038302245936e-01,1.600270189173668423e-01,-9.947264207903936395e-01,5.158582992907058129e-01,2.553173436173345467e-01,-4.474149599427754836e-02,-7.422207346686017226e-01,-1.351963938096659712e+00,5.385005154596854415e-03,-1.345234419453311236e+00,-3.930854651796295562e-01,7.315172378780567808e-01,-1.170017782544505308e-01,8.945502469896593478e-01,1.351930404283222309e+00,1.130381042926167368e+00,-2.509526311450075986e-01,-7.492916101320523659e-01,2.225920590462296955e-01,7.165945762544663478e-02,4.436029533808965586e-01,7.821014920399009807e-01,-8.242509155865676007e-01,7.395821255747868639e-01,1.382286679302982269e-01,8.945595707987650247e-01,-4.552700175440842212e-02,6.216035208715731120e-01,-2.556015466633392852e-01,-5.082367124437694450e-01,6.139350762856191634e-01,2.538448666741947579e-01,-2.091894749756383898e-01,-6.408396356376477865e-01,-2.720255310171182037e-02,-1.100302231265081199e+00,-7.136627019681743844e-01,-8.103944647317286032e-01,1.019322620230165288e+00,3.939617950744092045e-01,-5.910804620878349347e-01,9.081742139265777114e-01,1.342629603883592315e+00,8.616323312237166299e-01,6.162472727816519225e-01,-1.286623358390263372e-01,-8.678060428424529960e-01,3.697832248722160986e-01,-2.542279361952530237e-01,-3.692115647569030323e-01,-8.707608082399216354e-01,-4.583691485048449477e-01,8.864705011322411288e-01,9.543479777117034324e-01,-3.005436352849117920e-01,6.727071062047664807e-01,-7.043353498827110981e-02,-9.954308477280430223e-01,-7.036906226502963602e-01,-8.429286111788069080e-01,9.090805110071097372e-01,2.800694881667437630e-01,-5.097764134441350459e-01,-9.183204596458145463e-01,-2.214854456244340353e-01,8.362258380316051065e-01,-2.117366978704851577e-01,-7.809972374927703909e-01,-4.693580041266791070e-01,-1.106528093617971553e+00,-7.169138673682405871e-01,1.361106793955147755e-02,2.257658252735746662e-01,5.871358697381222624e-01,-7.202735686491829048e-02,1.570648871059859286e-01,-6.417991236956772649e-01,-4.210780718155450741e-01,-4.456036648042306925e-01,-2.052344151463857957e-01,5.939009913898584125e-01,1.022485914045391464e+00,4.775859633715142105e-01,7.720643945353480864e-02,-7.556471133976575549e-01,6.096574095994364839e-01,8.227656797010807210e-01,6.749133393144879367e-01,7.821272183909709907e-01,5.175707372229430142e-02,7.348086445899713048e-01,-9.808702918116650737e-01,-1.136684547067122519e+00,-7.335950820163905650e-02,5.051352340677495167e-01,-1.010806513796101314e+00,-3.841147682398962093e-01,-4.023093396689418622e-02,-7.690985133926744703e-03,-1.120094232276059198e+00,-1.198957990540178375e+00,-2.201922821556373533e-01,-4.623073788055977462e-01,1.026631212503736033e-02,1.079550375358230729e+00,-5.491390430469300643e-01,-9.465389825037356930e-01,-9.086092595767609748e-01,3.211915663627928352e-01,-9.757487186707211602e-02,6.180927506089597401e-01,4.959475782514704556e-01,5.676371292147638359e-01,5.115177465528472078e-01,8.910102903565043642e-01,-3.496761502253415976e-01,6.405215943923192601e-01,4.406139407321543189e-01,4.416865058010271960e-01,-1.370620223900516743e+00,-9.521778264446297824e-01,3.403971843483333953e-02,-5.428387455877314860e-01,5.602655473330858671e-01,-1.036070502798375377e-02,-4.184234436841590687e-01,-1.072852646368959828e+00,-1.037622418692019099e+00,-1.328427335109849949e-01,-7.772033577513478564e-01,-6.333216462942163894e-01,1.053800217039980724e+00,9.855924810624995258e-01,-5.969919464464981118e-01,-9.512583947520312222e-01,-6.410846251831900933e-01,-5.184447791986387388e-01,-8.230416565741660584e-01,1.861396697780902942e-01,1.062058647091794095e+00,1.282884432846121081e+00,-7.956522596966268679e-02,1.722382080715099351e+00,1.335536039092748206e+00,-5.606149112330911510e-01,4.044021314097360764e-01,2.560712618893462023e-01,6.292460137826753064e-01,-6.775730042193405245e-01,1.709397268969808925e-01,-5.368868882455467562e-01,5.020742549746211036e-01,9.230235569878985080e-01,2.631333509831234596e-01,-4.696876349245742155e-01,-5.959912649015800534e-01,-3.367475015176513153e-01,-3.800368353728011406e-01,-1.871333457649368079e-02,-5.727057723322104277e-01,1.077854644113327653e+00,-4.937807753628939422e-01,6.333127923422604555e-01,-8.943559515823360506e-01,6.658809039047139389e-02,4.090406112019762119e-01,-7.151694807023091238e-01,-3.855603733704429659e-01,1.929224960405875600e-01,7.596664049218410097e-02,1.262332222970268925e+00,1.470722128144904828e-01,-2.747350912846179827e-01,-2.012528629580364811e-02,4.088554643550479373e-01,7.602272507040584992e-01,-5.039160642100702914e-01,1.062626419358660007e-01,-6.266858923090340427e-01,-6.505256938108038289e-01,8.619385204738052586e-01,1.747076739022199454e-01,-5.438410281179311134e-01,-6.482110913657014306e-01,-6.250082954352922382e-01,-6.695698519043553620e-01,9.726743785585308943e-01,1.058986409408507967e+00,-2.512680493233366286e-01,-1.569880536021640849e-01,5.701042714970295799e-01,6.605642988524202952e-01,5.117274287846006464e-01,-4.578140265845965229e-01,-1.021537355526189322e-01,4.558484409707838636e-01,-4.369180147229987377e-01,-3.151994781816556124e-01,1.542913194418098211e-02,4.290282612593978584e-01,6.273871640647999959e-01,-3.621726413751682472e-01,7.518106855788588838e-01,1.172578973368197247e-01,-2.759707177139471557e-01,5.468952826462059047e-01,1.982112636573190867e-01,-1.464357723887933949e+00,-4.027712397596879823e-01,1.228461432345271831e+00,2.657741607789744151e-02,1.040407349330140674e+00,-8.343428730727524556e-01,1.401693552873883641e+00,1.434641070129882845e+00,1.351232210716528936e-01,5.220285998473208622e-01,-4.851537381443128960e-01,-4.716584728602787879e-01,-9.134830747107890447e-01,4.954007194645859702e-01,-5.056856748548684832e-01,1.046339271508587437e-01,5.917778351311502316e-01,-2.566270655471374895e-01,-4.009705768383499125e-01,1.052213012504279233e+00,1.210128968574769176e-01,-1.078536078991151476e-01,1.256794536287817010e+00,-9.720072093369623856e-01,1.635543896526031882e-01,2.259691464399690985e-01,4.032265212948802913e-01,8.618797101870947497e-01,4.961240956956018411e-01,-5.383604802999208960e-01,4.845136501875974555e-01,5.105783053003680738e-01,8.125421770467262661e-01,-3.247092830773301020e-01,1.022641623594067850e+00,1.147887216969022628e+00,-1.671022001787617339e-01,5.903127082827349659e-01,-2.897709797002173682e-02,2.073451219010479796e-01,-5.483619732529515511e-01,-6.310997904310660100e-01,-5.372056948230669732e-02,5.111181437568542707e-01,7.515102498004880838e-01,-8.244136163132838035e-01,-1.004902703879829495e+00,-2.912806712972158540e-01,5.415943770076853125e-01,9.687151394417298222e-01,5.095340337020390908e-01,2.318231819157423046e-01,5.034030443276981126e-01,-3.940174614728569336e-01,1.401187865207127736e-01,1.367080118962151758e+00,1.537194133207653024e-01,-1.394745287505409603e+00,9.999806969354128883e-02,7.576122202230430869e-01,-9.058952194050203799e-01,6.714188699545462491e-01,8.674499191168848489e-01,4.128210932781546938e-01,1.533659235460923809e-01,7.765381921449466818e-01,-7.833092625777554607e-01,-8.571303872552297198e-01,1.573014295776923796e-02,-6.168847325662992764e-01,1.989561411409143665e-01,-4.751734996688252166e-01,6.635249609131893545e-01,-4.833364860968429322e-01,-1.018327382282072202e+00,1.034792974707812396e+00,-1.057166968762455861e+00,-5.205466190850527829e-03,8.313607072782126794e-02,7.650265663711376396e-01,-2.092700430729487748e-01,-2.212194246549215731e-02,-2.703465291712606744e-01,-6.324146918142247165e-01,-6.211829872248600948e-01,3.346116687441201831e-01,-7.482954731555632732e-02,-3.259142443931940802e-02,7.891514491053042146e-01,2.731972323932348456e-01,1.064092598156839431e+00,2.780440282901273097e-01,1.132080936120435588e+00,-9.306515293336387051e-01,6.990242494907826787e-01,-8.588936133889241153e-01,1.079057317892258283e-01,6.371139186850557357e-01,-2.997826082571732331e-01,2.632698447541499953e-01,2.723374490569827056e-01,-8.050887356438384268e-01,6.916860388106923496e-01,-2.496619009877247553e-01,-1.074778869361105560e+00,3.966963822242594029e-01,-5.910383324859282972e-01,2.261830056438497993e-01,-7.949129632765035147e-01,-2.231272624706904240e-01,-6.028689888711122880e-01,-7.351790937300139994e-01,-1.282041545390943060e+00,-8.431151227333464337e-01,5.450894237444698920e-01,1.083153880183763240e+00,2.942170597599527704e-01,1.421533164736941135e-01,7.090475977123076312e-01,1.860506506502879465e-01,-2.675295980457631506e-01,-1.204112489165295868e-01,-7.542148183171499820e-01,-9.100837279602977392e-02,4.004886481426243594e-01,-7.836785911703963992e-01,5.876375495748898531e-02,-6.653573251488639761e-02,7.093074369782810251e-01,1.739170225450755169e-01,-3.550076049175425741e-01,1.677239751869880058e-01,-1.897149524095409490e-01,4.372763682069802371e-01,-2.878575215174017030e-03,5.171808004546507576e-01,9.941506971148248439e-01,-9.909306216456794658e-01,-1.131643158744314093e+00,-4.829112063949119182e-01,4.503562159010792154e-01,-7.489514853317162935e-01,8.056217286378147824e-02,-4.997244145858798642e-02,-7.278461290057798294e-01,3.358521359493948921e-01,1.026813683533545296e+00,-7.513591177345180228e-01,-1.943529552182912123e-01,-7.996619275838311447e-01,9.942228837385470586e-01,8.593972577061065321e-01,-6.333774291114095956e-01,-1.019796432023701849e+00,6.058729313376257641e-01,2.444810275472089622e-01,-8.942360583101763849e-01,-6.022383268111906052e-01,-1.182261720225316615e-01,-1.556324351758727464e-01,-8.333772252179558748e-01,-2.256483990806770756e-01,7.767778130232448897e-01,2.515820848969635426e-01,-1.391725438257539471e+00,-8.692484433641387009e-03,5.405838944940225682e-02,1.983754714728820090e-01,-1.349268644206591983e+00,-1.361192607788154207e+00,7.410447724809895442e-01,3.908457666449806633e-01,2.673660507449879820e-01,-1.019024523375208435e+00,8.093849566016051433e-01,4.531717640117934737e-02,5.269029290544582911e-02,-4.785536673634016025e-01,-8.761817126763744579e-01,1.024610085374138668e+00,2.415334305535353776e-01,5.707968092765034474e-01,6.307983066855005205e-02,-9.819601904625633315e-01,-2.920884233903212057e-01,8.426834754275314143e-02,1.725962513927535302e-01,-1.330343456246453337e+00,-4.187942172184289658e-01,-1.119596130987232097e-01,5.641680873844814315e-01,7.253743185602369303e-01,-9.859315705528580720e-01,8.565768045501075401e-01,7.150149001407020144e-01,-3.669201093105591283e-01,-2.762993133376374574e-02,1.032190578845063378e+00,7.498497570059029504e-01,5.831024703624412275e-01,1.236668624223600466e+00,9.025009315319898473e-01,3.885540818042346189e-01,-3.015394235255827726e-01,-2.716637148650677402e-01,5.281846927303694983e-01,-2.674227114670119088e-01,5.803733148887042503e-01,-8.526533643952772801e-01,-8.813837552925020136e-01,-4.874834810252974271e-01,4.169220144643792647e-01,-7.181478142098273176e-01,-2.929367446832749078e-01,-1.404606555300552673e-01,4.327250961803550955e-01,-5.812702672351284239e-01,1.080181376029040186e-01,1.357476093948046802e-01,1.093655573448661267e+00,9.548311592231685241e-01,1.405171647961300563e+00,-7.198470636494443964e-01,2.988277217186044790e-02,-7.158788256610962852e-01,2.283103457477383691e-01,4.083314174848242661e-01,-5.348912121587219293e-01,2.421576326887609626e-02,1.115195872647935849e+00,-7.793617314172418195e-03,2.187938945286005132e-01,2.824752054027370729e-01,5.519307215247463150e-01,-2.026629683222755940e-01,-7.208764736389342009e-02,-4.215093705271836244e-01,-3.075668719442212207e-01,-3.309616612538098246e-01,-8.502736637452948942e-01,6.941521423696650483e-01,3.799308938574215699e-01,-1.752985139431871286e-01,-4.535785103733568913e-01,3.145660701306203233e-01,8.715027553579056674e-01,9.487560616926100643e-01,1.299230960325631568e+00,7.743490376291610744e-01,9.712848279093185822e-01,-5.180432351176612604e-01,2.566866063247549290e-01,-5.914035550141794745e-03,-1.349574702101064283e-01,-2.241226162714435866e-01,7.966053703722802970e-01,5.914944182816995327e-02,-8.462760381530091136e-01,3.127636548184739018e-01,-1.258346290232544629e+00,-1.011949320704511823e+00,8.199247242037528416e-01,5.416802977202880287e-01,9.932808056416170261e-01,7.576051371457115380e-01,-9.193364011179036011e-01,-6.551329705159845140e-01,-3.874275585192590299e-01,7.812709820197997201e-01,8.733829646060868868e-01,-7.860638870780585208e-01,-7.228136914829227377e-01,-1.683661079866986543e-01,-4.450266965014567644e-01,-2.653863668605895287e-01,1.320458356645451969e-01,9.875509260824661961e-01,5.668888441645727472e-01,1.195169663235734481e+00,5.226144789563322846e-01,1.926305605436471613e-01,-2.157731697963961581e-01,6.548332853011712418e-01,1.178708884636211485e+00,7.124330703305298274e-01,-8.998967050762394226e-01,5.730397478514336340e-01,-5.178664744376005880e-01,7.658057446101130816e-01,7.180685175157612843e-01,-8.782859822537767425e-01,6.403665217899157103e-01,2.555910087807631292e-01,3.835282872959602241e-01,-8.616572915453354353e-01,9.291370029490046978e-01,-3.322054729050487598e-01,-6.736028755922425226e-01,-6.663072290980901480e-01,5.541434445012616977e-02,7.042731266098993803e-01,-6.539252423376689105e-01,-2.841849208523995474e-01,-3.282579825459732148e-01,1.122058518994021981e+00,4.316446852615882790e-01,8.108815277275163019e-03,-4.353856398962142049e-01,2.543401175584459883e-01,-2.912609770686088173e-01,-5.391927641275835459e-01,-6.486437177860501224e-01,-8.322848154304735013e-01,-5.082147400770321150e-02,-8.166289068410239604e-01,-6.799866471918797339e-01,-1.712531418457065302e-01,6.939386909015093918e-01,9.147276514482693965e-02,1.809551305857971457e-02,4.606076095548603533e-01,2.198024895393168032e-01,-9.364600036511167014e-02,-4.611896163408902294e-01,5.315995150947075976e-01,8.647797177833969062e-01,-4.586795150704772173e-01,-6.590473699393252227e-01,-4.318958553560385827e-01,1.526032716370740727e-01,-1.042123950561881784e+00,1.601510612484819129e-01,1.436364287809441809e-01,-4.366790631167457026e-01,-2.991087497783639360e-01,4.523646099404040055e-01,8.048565412758510451e-01,3.041709424315597321e-01,-1.869560308213356725e+00,9.111561094525627569e-02,-1.159983416038581350e+00,-1.182619617045897326e-01,3.987063302164120526e-01,-2.458122437731826149e-01,4.276158895656838044e-01,-7.453242461176853295e-01,-1.139127696353754299e-01,1.255671943007838909e+00,3.006317764355745936e-01,6.341545101879129120e-01,-2.651761383791456095e-01,-3.430149581087975075e-01,-4.420288279224754424e-01,-1.306494203174851654e-01,3.712496096231329701e-01,2.111993528374495332e-01,2.271868403471508091e-01,1.659797191756214874e-01,-6.702046199036334473e-01,1.333778005382185994e-01,2.163762809878830295e-01,-4.758347327864891341e-01,9.215097411333822430e-01,7.765794506822196741e-01,2.816783604213106140e-01,6.961392380116371292e-01,6.888392530082768084e-02,-1.193431192747545833e+00,-8.039227003494432422e-01,-6.568799584212180187e-02,-4.147162606187068667e-02,-9.139126031213792301e-01,2.735681903956110328e-01,4.951331707298807783e-01,-2.777942078542862681e-01,1.384472328962897125e-01,2.718469598155100475e-01,-4.267207082864893919e-01,7.796530172963790362e-01,8.836781905494591749e-01,5.929197876264812317e-01,-5.524420507214981013e-01,-6.765195888009439829e-01,-5.769705960346495077e-01,3.283743329096185382e-01,-3.676185666756058845e-01,2.878067356323051884e-01,8.472518194102218736e-01,7.072906507802667608e-01,-4.896707590748809041e-02,2.539595781742246539e-01,-6.458102218164539776e-01,8.940461700978451498e-01,5.874714627876091999e-01,-3.723016405040683319e-01,5.770951615250212718e-01,4.716253455428115471e-01,-3.121117882295446067e-01,-5.503143829156003086e-01,-3.637882977464850787e-01,-2.857297146236906782e-01,-3.905284559174316827e-01,6.729687256314601518e-01,5.409492457037875547e-03,8.588956783704060349e-01,5.856557970864265661e-01,-2.632473648020686174e-01,-2.968301232798882805e-01,-2.280709606358825026e-01,-8.328612853897154888e-01,-1.070236751794080066e+00,-1.308994963484859664e+00,-8.349056753949366527e-01,1.380695797597379371e-01,-6.192237869550819562e-01,-3.724756352103738011e-01,6.528283105076488901e-01,1.169943413097776164e+00,1.738009467922783102e-01,2.791407263890151591e-01,5.272058047130563363e-01,-1.059659132555982319e+00,-8.668683088368442924e-01,2.099409621678846594e-01,-6.942436728305879656e-01,-1.689182895914146916e-03,6.856888253987879489e-01,-3.222811459446778826e-01,-2.921975690699487038e-01,-6.644609044041825952e-01,5.536955064831912132e-01
-1.065776298013671325e-01,-1.045163594852924538e+00,-2.202348808459587137e-01,-3.657269617278079976e-01,7.691265912144981121e-01,-6.059808578756748637e-02,-8.275713622750888732e-01,3.662640249912682000e-01,-1.261673167553502561e-01,-6.725558561907767352e-01,-4.589896994886800141e-01,9.220403935026608711e-01,-8.285584710443018031e-01,-2.904326663406538445e-01,-7.062756909672105454e-01,-6.720718816657550443e-01,9.336352554923008640e-01,-6.550180882122464965e-01,-4.165664187635044757e-01,6.205927697703382817e-01,8.968023199520631927e-02,3.304728964781605272e-01,4.248225742965079932e-01,8.588449698875739724e-01,7.764941988771564274e-01,1.653785890750431031e-01,-7.202122975133365967e-01,1.181687741718939533e+00,-9.718730747310897478e-01,-3.239609531539869858e-01,-6.692952755186057368e-02,1.137828513288812460e-01,3.681558650469269889e-01,1.966942480908062951e-01,4.919269191253664020e-01,-5.451859733218454851e-01,-3.238681197726728800e-01,2.260634061044655141e-01,1.669701670114890624e-01,2.067508972689769201e-02,-7.160125149370384356e-01,1.512405523169370880e-01,-3.367806444518451903e-01,-4.470102292229992669e-01,-5.804240023502575951e-01,-4.037620633300749162e-01,9.933505206061669091e-01,-6.006573703914810380e-01,-6.599487324948132283e-01,7.585817846428892786e-01,1.089339926036714673e-01,7.796869960471094485e-01,7.332821011565372471e-01,2.640468892661826938e-01,9.361879734826950017e-01,1.134968727989833948e+00,-2.401695530678200213e-02,-9.917070696400961394e-01,7.187085621622364418e-01,-1.026168471392679554e-01,-4.328387979532163921e-01,2.324437885573416296e-01,3.913573361429498743e-01,2.315302078228882732e-01,1.616090384610267827e-01,-4.047235314668557460e-01,-1.545945780671376946e-01,1.225972091401233144e-01,5.366663316495002833e-01,-3.337690263126816270e-01,4.275870237199763668e-01,-5.860443859187879356e-01,5.938804441950830126e-01,8.222014855825800564e-03,-4.612794101696668370e-01,6.656050529012639272e-01,1.368254960559432298e+00,3.243765504983897041e-01,5.122943351074013552e-02,-5.820680043092565370e-01,4.398117388822876950e-01,2.666329959340431599e-01,-1.066844997345544471e-01,5.472350595466761725e-01,-5.153289596623158442e-01,-3.087607134467202363e-01,-4.855492680375205761e-01,-9.794996365728045884e-01,-4.454160316923456708e-01,-7.515873235206220471e-02,-4.126735013019143250e-01,7.991910772961523524e-01,2.334146361841941408e-01,1.186771784929032403e-01,3.173351144561843695e-02,-1.150436280695423585e+00,7.612887061430241298e-01,-8.626044470949530973e-01,-1.191006637845813260e-01,-9.431378124698948096e-01,-1.172088966985389780e+00,-1.047353950571600217e-01,-4.392215229977961544e-01,7.121610001412999047e-01,1.299883966690094983e+00,2.817522450956211899e-01,5.123203415868433641e-01,5.559792453349996499e-01,6.158065628293738492e-01,2.813779393854837774e-01,3.526521497187805609e-01,-5.956658860492590746e-01,9.134741180355011869e-02,-1.107932914856967432e+00,-1.869119681386769982e-01,4.196910039875007548e-01,3.156879097481165575e-01,-3.261777003374124462e-01,-3.119604148094067275e-01,-1.169501949708100647e-01,-3.902078323586404829e-01,1.048230679468995730e+00,7.202707933503812443e-01,-1.151979567867282173e+00,-1.498717275313393271e+00,-7.327591939323809811e-01,-1.511104014743079427e+00,-2.570701922180721466e-01,1.458009251510943294e-01,-1.224741821340147752e+00,-1.070773206244640535e-01,-2.624970325237468427e-01,-4.094844177351139591e-01,-3.968217397965924098e-01,-2.393569672725868458e-01,-4.007533265628812069e-01,2.615597077013216420e-01,1.152812345739319788e+00,-1.307923463784104985e-03,1.386202161018611559e-02,5.235295284706169561e-01,-7.677177945628882449e-01,-4.629893608645245795e-01,-1.841050927835271300e-01,-9.993208826297779457e-02,-5.692607232054016642e-01,4.520116323721955209e-02,9.412695063482754421e-01,2.211966755615723812e-01,7.547288463993201413e-01,9.683356551079823626e-01,4.629776738186651697e-01,-7.733238328882090507e-01,-9.933205342477495758e-01,1.679749151890217729e-01,-1.913152637800786260e-01,-6.103261485323596691e-01,-1.275143550740766907e+00,5.668829350015875956e-01,-9.541833047177342153e-02,9.777960320325795873e-01,1.588519386817310586e-01,6.258847487340941651e-01,1.258412994541282304e+00,5.570944827067183525e-01,6.021465272936877833e-01,6.058501610954150074e-01,2.962009264971905975e-01,6.983966148945777164e-01,-6.057006113316226736e-01,9.211804783750980885e-01,8.368975413109766004e-01,4.643371210355438095e-01,-7.807344515857622680e-01,-6.549759109627808495e-01,1.022861995940003821e+00,3.566841807712796408e-02,4.622691027279721143e-01,1.203784973557581878e-02,-8.619683945534897251e-01,-6.682422153079680127e-01,7.011100648945507441e-01,5.513588770807872352e-01,-5.484199852523050644e-01,8.042725353195449012e-01,-4.526739069803923377e-01,8.603974278958022026e-01,-2.452536130629885402e-01,4.551617824190082318e-01,9.123159487891461250e-01,6.650882852796313749e-01,-3.534239479763499059e-01,-3.472372110108595256e-01,1.095677160437911191e+00,3.190101219017215661e-01,-2.612522208900091014e-01,7.007825673692905655e-01,8.695899632995631734e-01,8.564474190649810081e-01,-8.376046950580048334e-01,3.844469879891823094e-01,-8.847850331527095102e-01,8.266401438279220859e-02,-5.546547604637590556e-01,6.021794553377746162e-01,-1.326343171605660898e-01,8.582311108716267345e-01,3.881379877442791004e-01,1.525097818258711393e-02,1.607013815461346695e-01,-5.346605740786760652e-01,-2.283130700359492227e-01,-3.524898453874455995e-02,-1.103339237315145382e+00,2.444519493744277128e-01,-5.526246227457298765e-01,-6.394511839945725418e-02,-1.200475633534154429e+00,-5.436094052994057124e-01,5.766496206994742302e-01,-9.126957985532850592e-02,5.857385121004995421e-01,8.402317599476418764e-01,-8.967273373643754875e-01,2.864786345597952200e-01,5.841304213917591914e-01,-1.876731183893457075e-03,8.498138632078725552e-01,8.105444770222761663e-01,8.338711054521159571e-01,-2.645345590091292554e-01,-2.362391968342154591e-01,5.679946898026920765e-01,1.058915137354059066e+00,-1.123395471832632220e+00,-6.878585013075748655e-01,-1.599521045994762580e-01,4.978768663196537214e-01,-1.260548403122689343e-01,1.000469605425046815e+00,-9.193670774722270123e-01,2.612729928060792198e-02,-1.665354106225509501e+00,-8.866579768883109391e-01,-1.067290726463736794e+00,-2.680502360886119484e-01,2.893591384631369334e-02,4.521112422537489350e-01,-1.016711434726923047e+00,-9.292025919396692535e-01,-1.793251303019455234e-01,1.273671660830764385e-01,-5.009814734568819317e-01,5.513475868885451270e-01,-8.236301148971111874e-02,-3.578003191835077978e-01,-8.674343000711951523e-01,1.047286699988342784e+00,6.294873707333595858e-01,1.435131939123559519e-01,-2.443190351564799023e-01,5.383142095120818649e-01,7.708754516792450939e-01,-7.870371896594405836e-01,-8.763251394593473131e-01,7.358436959221956730e-01,-5.486333362320418017e-01,7.188738271290041615e-01,-1.613671760852737336e-01,-2.585120602778787080e-01,-1.554357719297767115e+00,-3.576046759540406628e-01,1.572012411126757492e-01,-1.776958930766377731e-01,-4.522689180609685833e-01,-6.658759271878886832e-01,2.976733329379993021e-01,5.418794024135159364e-03,-1.341871642906391771e-01,1.483497515031083347e-01,-1.495372742354746098e-01,-1.147905082302173863e-01,7.951430047710011939e-01,-8.556882046108980067e-01,5.653881962411866358e-01,1.042591000972085125e+00,-4.492642715632743089e-01,-2.213785239063591759e-01,2.018717617337041359e-01,6.069783960971836256e-01,7.496248072170337284e-01,1.763131493909740333e-01,6.920530801672468701e-01,7.209332901460234477e-02,-8.553741737146252078e-01,2.967504408753391942e-01,-4.481012713134235326e-01,-6.586459771514475703e-01,-1.050199293266469436e+00,-7.229332262686217758e-01,-7.424228841177241689e-01,-7.355149199934007953e-01,-5.700504781976306612e-01,7.507960294713919014e-01,-1.479102598833877735e+00,-9.105156421169746661e-01,5.563936113734779809e-01,7.340408501529037399e-02,6.414489503341036514e-01,-8.320018425270612195e-01,1.987809992339986120e-01,5.087381620550707195e-01,-5.718100856041936908e-02,4.971411911570279840e-01,6.376518480723747384e-01,1.449728723923928708e-01,-5.160935001519060261e-01,7.577819953548161624e-01,-4.899067092527176759e-01,-3.785356811871495308e-01,-6.342507878222751749e-01,2.003728308297489033e-02,-8.189792016580649259e-01,5.599195297883082789e-01,7.869389515034594940e-01,-7.808821663801981394e-01,-1.011073264282322803e+00,-2.969958520110789202e-01,-2.770269540045632861e-01,5.530232610290887196e-01,-6.380284578767903003e-01,3.301034949568465438e-01,-5.924374025286298640e-01,6.682235097892821885e-02,-2.804333278561718101e-01,-5.143036061988219831e-01,7.933438790813643893e-01,-7.590002636445202233e-01,-8.602289295803580704e-02,-1.155316722076507249e-02,6.923334341960757365e-02,-1.845923186754281631e-01,8.426826864388510252e-01,-3.089850023387102351e-01,-6.699388807340397878e-02,8.335672768879357486e-01,4.062854997492988951e-01,-9.431440983507244358e-01,1.718183474474496986e-01,-4.019775656006386311e-01,-9.716360071219969363e-01,1.655982627007413832e+00,-1.062893459139639535e-01,-4.642432692151172297e-02,5.547981686215812669e-01,-5.514230669809272456e-01,3.251006782793873229e-01,-3.925807105088361948e-01,4.903209168602459256e-01,-1.733396735616541673e-01,-4.322091829207065361e-01,-4.263055327690769003e-01,1.104748610815976972e+00,-2.282497413205593906e-01,7.478290749913165669e-01,6.476332692893359555e-01,8.412357402979496745e-01,-7.077682062352594894e-01,6.378346753030845750e-01,-9.629775612696888087e-01,-4.118791666276802599e-01,-7.228527630222643108e-01,-1.925279669377826797e-01,1.405630630858575536e+00,7.156857141031770508e-01,-7.593330254275398872e-01,1.208175393780721169e-01,-7.059322489070460893e-01,-1.255997662599409814e+00,-2.543244023123350170e-02,-1.889296836397452717e-01,4.596200866228168369e-01,3.975663726563535838e-01,1.951287158855136428e-01,-4.104710382860261020e-01,2.685876852907358447e-01,1.041715854813549669e+00,-6.326006242726311957e-01,-5.921105867698298608e-01,-4.624848594911318278e-01,-5.999982910996439767e-01,-3.681748556819524620e-01,5.774412940902088343e-01,1.768491061748187765e-01,-4.371835712826088183e-01,-7.651614663114190140e-01,-2.447735772239899854e-01,-4.157916116253271288e-01,-8.854132518235365013e-03,-4.591861948774702551e-01,-3.699526835832271932e-01,1.588877218894704679e+00,1.852736344971904314e+00,1.889367864442593081e+00,3.157801700634661479e-01,-6.862670815371363364e-01,8.691811197037589976e-01,-5.716595769424710483e-01,6.437795991453333366e-01,5.741695282543092249e-01,5.642947786023402301e-01,1.611384362660050751e-01,-3.563500579823200565e-01,1.552571566800168501e+00,5.783527192488263635e-01,2.853993218068635040e-01,-3.310359318295573172e-01,1.191217016987168975e+00,8.050180713156991352e-01,4.946137628443226242e-01,-8.207876528021921247e-01,-3.017822562531919939e-01,-5.163675629764418185e-01,4.112507960862368805e-02,-7.084703788392608947e-01,1.789376189316936872e-01,7.862137450174881970e-01,-8.549629698027002567e-01,-3.957963359805350412e-01,3.276219660342712947e-01,6.949610195549527081e-01,4.859066678862229982e-01,8.703985920143884891e-02,5.568807561274323747e-01,-1.938382478511460616e-01,-6.075512774695205342e-01,-1.270685274640982049e-02,1.253889320254472362e-01,-1.246479734386309879e+00,-1.489447584717153106e+00,7.378247697416222550e-01,1.218610600168818614e+00,4.238319236515769584e-01,-7.261451839111772166e-01,-3.463280181054201878e-01,-5.784795654517178587e-01,1.775362269698988263e-02,-4.261176353664733463e-01,2.428964814035829145e-01,7.026091537701353307e-01,-8.779044872664037991e-01,3.521150550105427990e-01,4.655933419658918049e-01,8.456564255014645259e-02,-2.209604762049278137e-01,9.748932770699265671e-01,-3.456957520590476229e-01,1.013218575369503549e+00,-5.092909814880958175e-01,9.566445684055024934e-01,7.915465069151957911e-01,7.733801121096234299e-01,1.216552931191773768e+00,-4.592496344075679415e-01,-7.460449062407108201e-02,-5.703714043256445931e-01,-6.933829524981163228e-01,-4.235870156168683454e-01,2.160185790019063592e-02,9.743382335955896867e-01,-7.613370841855742199e-01,7.041745923799831441e-01,-4.807698253568380431e-01,9.518290371134070504e-01,3.703602827641272466e-01,-8.082832083049799055e-01,7.385330779981496008e-01,-2.258451340378341554e-01,-3.114973312020020701e-01,4.530519446267811806e-02,-6.081346536082027354e-01,4.143087979343336169e-01,-9.725799848748001297e-02,-1.074723006904792388e+00,-6.913976846844991364e-01,-4.336387547755313210e-01,-7.136573119978693036e-01,-4.575018194396884286e-01,1.586086223924425831e-01,1.766418515234375597e-01,1.421019593941615700e+00,5.670925331953871051e-01,-5.904512941868028664e-01,2.743648357742909938e-01,-2.157885315835202933e-01,6.121070186163775073e-01,6.089171179055886673e-01,4.095382693104298588e-01,3.110325892934726055e-01,-1.219654638237891997e-01,4.067878263028932295e-01,3.245455859256514142e-01,5.486871159889084026e-01,-9.106692082220313456e-01,1.746480557654407628e-01,-6.978104815242922587e-01,-2.163125323604559169e-01,-5.526707071590922782e-01,-3.644339460651521700e-01,-9.969221274790989185e-01,-9.648738017231118791e-01,1.000811417132990988e-01,2.269263426863999122e-01,-1.321636890231037420e-01,-9.358619319471106479e-01,7.253637521854237880e-02,-9.424308936190244068e-02,-1.826435218340380640e-01,3.318780669281719553e-01,-1.335187717315960976e-01,-7.977361698331304762e-02,7.901373687780948174e-01,-1.027393044868212924e+00,4.539946989675152506e-02,-6.657686630606537426e-01,1.979756088493905830e-01,1.157638416542468122e-02,4.368182418226363994e-01,4.775114159270233971e-01,-5.269090931654042409e-01,-9.815378632982970641e-01,-1.820405274315810285e-01,1.113688221955311114e-01,-9.309401747449993492e-01,-3.185207724496928045e-02,1.677210796664725390e-01,-1.716329049649314986e-01,5.507111173681713545e-01,-1.292380071779299644e-01,-4.939150158474100993e-01,5.725822288345973066e-01,4.839796933935123779e-01,7.157658566323542651e-03,-9.909865309478169682e-01,-6.225130317159626170e-01,4.670298475728625887e-01,-2.839701159695414145e-01,2.239717246567153042e-01,-6.090249786023735901e-01,3.742401003527687231e-01,-8.325590456935760830e-01,-1.066094405631346831e+00,-1.228822475846049755e+00,-6.399769481116397429e-01,-7.636952912877533750e-01,-1.094641767825389245e+00,5.212221662100012809e-01,2.604423845501682711e-01,-4.401407006284935863e-01,-5.027579361559798565e-01,-3.755818524758868654e-02,-1.422276771277516672e-01,-5.958217788023346673e-01,6.458954494359724352e-01,-2.321328621339039666e-01,-4.974725097156176279e-01,-4.137274351552933105e-01,-6.408614196210207226e-01,-3.690450989140453553e-01,-8.577183101116603314e-01,-7.071059303618708602e-01,4.023033557747476285e-01,3.290542485111720428e-01,-2.439707485661530284e-01,4.138577500990882341e-02,3.343395399452884220e-01,6.991808059726839497e-01,2.630787919103163008e-01,3.200815467583371654e-01,-3.813481275759286193e-01,-2.744600047694625497e-02,-1.550210641463888733e-02,5.355644189266348665e-01,7.670571824101972691e-01,7.103090462415455608e-01,-1.094668541372257664e+00,-6.630314102166011692e-01,-2.273114297848606857e-01,-8.027342590370137865e-01,7.186778507181094122e-01,5.856946456339708895e-01,-7.607610033717522591e-02,4.191169074964539165e-01,7.548994992924198399e-01,8.698562097660283987e-01,-5.749582299953792663e-01,-2.005328829134490620e-01,9.519144193433856649e-02,-9.081073071954632869e-01,5.751131587901993081e-01,4.135527724581622988e-01,2.774349095220114414e-01,3.245818229526423737e-01,-6.171030083070133676e-01,-2.860140429779307047e-01,-1.553902851294711451e-01,-3.757226311213891501e-01,4.233221133782577028e-01,-5.423226623024256510e-01,-2.113736128604948861e-01,5.164485075524211100e-01,-3.035179878479120630e-01,-4.065596187552431018e-01,-2.768419961386254791e-01,5.212664257113777122e-01,2.334446783631390909e-01,2.126578112864452585e-01,6.233905415177846132e-01,9.183549327014473018e-01,-1.507451368835638870e-02,1.245369569968266976e+00,4.709595655792715441e-01,-4.501326350934692910e-01,5.590167180372612732e-01,5.411566116746899802e-01,2.434908524856572165e-01,1.023607540714846831e+00,-7.742769521582890668e-01,-2.111458883046679058e-01,-8.353456967923009735e-01,4.583161379168237959e-02,3.412474554418185035e-01,-6.106855168782927556e-01,-3.776426703999316570e-02,-1.194570388570746766e-01,8.864933464898067106e-01,-3.844972534944362530e-01,-3.550935918706900618e-01,5.646054143999962999e-02,1.533416961922582158e-02,-2.550328988433762101e-01,3.954429793577750041e-01,1.473576694506368578e-01,-5.080284278280509103e-01,4.145108048878546891e-01,5.608302500615574004e-01,-8.309760725973800444e-01,-5.643683724491124210e-01,5.780883000608556532e-01,4.291587332690082746e-01,-2.995999570794732891e-01,9.367218991464821842e-01,2.869919474445711272e-01,1.869263570868739399e-01,1.333382563482130301e-01,7.036017782118011432e-01,-1.124523447951052635e+00,1.936228952758486388e-01,-5.173465137091025623e-01,6.963858501178019633e-01,-3.137525841718586533e-02,-4.106741805645968690e-01,2.768608260032872498e-02,7.234394955599141586e-01,-3.687210986068726326e-01,1.897611924232991687e-01,1.624696167541144765e-01,-6.963982132858553831e-01,-4.788568035510163967e-01,7.542411246923503843e-01,-1.703600463236903395e-01,-4.505094231288971768e-02,-9.874466448098446758e-01,2.709376507111771817e-02,-5.160351359288509743e-01,7.717590787918177098e-02,4.639815644374509773e-01,-1.042885863554768644e+00,1.077463035274364433e-01,-4.184669018560192577e-01,-5.170877428270823639e-01,-3.233018599273715377e-01,1.834028845972991428e-01,7.890101075385732576e-01,-9.335656522125962420e-01,7.002281244680444994e-01,-2.251909366797095191e-01,3.597395256182306933e-01,-7.477918950658712927e-01,-1.849439269695199173e-01,-3.708489678186900340e-01,1.436982210130941240e-01,4.840089517758508486e-01,2.691858045996268767e-01,-2.995680655864001452e-01,6.649935768500939703e-01,-7.958784720364144860e-01,3.354248284326897256e-01,4.240750989059716702e-01,-4.908155944799638681e-01,5.436893693298357894e-03,-1.114298076578798397e-01,4.397545520928605178e-01,-9.992341721946084165e-01,-2.110842286438162907e-01,-9.754334611698841639e-01,-2.509867800359623646e-01,5.806947325498588164e-01,-4.998276081364336765e-01,1.647612204758375221e-01,-2.129133757777797453e-01,-1.977846991245787167e-01,3.164136623350789490e-01,1.083459828949348225e+00,-1.126922271108863997e-02,1.541573169515594866e-01,1.005003938357789561e+00,9.037765964699571164e-01,5.483047357774405439e-01,7.131359480222756453e-01,2.616779245844735313e-01,-8.637655545966851367e-01,6.112127732161541926e-01,-7.162114179416052551e-01,-9.706430565632604424e-01,6.968711908916948028e-01,8.504116807555768265e-01,-4.998949984407697333e-01,5.244598255934013187e-01,8.375021594950382564e-01,1.018413693393320996e+00,1.021245732544260099e+00,-4.028615912915221031e-01,-3.284747206131759939e-02,1.618237064957738780e-01,-9.025915965395203688e-01,-3.315716401936874003e-01,-8.060446019857805400e-01,4.900240633787839029e-01,2.771593832062090867e-01,1.347635383307893009e-01,5.196887054007256479e-01,-1.338415768305729336e-01,2.383521555782805168e-01,-1.375456001735515243e-01,4.465372098965079140e-01,-3.923689698771045120e-01,-1.139456098961094010e+00,5.060876108991457789e-01,-4.588778716425138682e-01,-4.236179828096808264e-01,-3.565158594323346308e-02,2.096621690717504760e-01,1.466068293590533367e-01,9.291427390607625014e-01,9.147428219473205946e-01,-3.338361869611487509e-01,1.356975349555811894e+00,5.450675026430151782e-01,1.114352793434471245e+00,2.482662174774358244e-01,-2.893930910395594025e-01,8.291980000391530048e-01,6.417214751389520577e-01,2.229558408899660338e-01,-1.350958756585811438e+00,-5.914171335600997281e-01,6.663772539926220428e-01,4.340851828782295585e-01,5.622495638623239422e-01,2.147278372603086682e-01,-4.623606440426921149e-01,-4.105189093547041979e-01,-1.986455792845883972e-01,7.420035894263224963e-01,1.561914771236512234e-01,2.368439056281439747e-01,-2.506851737765802834e-01,-3.259961397264538041e-01,5.500170067611956370e-02,-5.980574286556278318e-01,4.520344740176568399e-02,-6.722822912941763818e-01,3.257868699944252988e-01
