akj:
6.831232325714929887e-01,3.244738095761970365e-01,-3.707150577509892297e-01,-1.815065460392710495e-01,9.586602717375857230e-01,5.349829710607862943e-01,-4.991996044854045689e-01,-3.482512943092478941e-01,8.370801272740044929e-01,4.767798721167599840e-01,2.208176063083013563e-01,-8.025496606189971849e-02,8.110357187735439677e-01,4.412930881907951852e-02,5.172324666288821149e-01,1.045726195026824151e-01,-5.453816570292002730e-01,-1.305961696443552200e-01,-7.550576345130423084e-01,7.022147545668876445e-01,7.903342600346895397e-01,-2.394901543661777654e-01,5.571004067209703869e-01,-7.832315568214200940e-01,2.556683903316776529e-01,1.002435334917742615e+00,1.019027954200653341e-02,-1.043551605758513134e-01,-1.782914453131681232e-01,8.911628872278037905e-01,-2.398728209445947501e-01,-3.429232980112071338e-01,-5.239383903298301393e-01,3.638460586948371461e-02,-2.025349351733952141e-01,9.455525570893320575e-01,7.758079462672921867e-02,-1.986963375182583535e-01,-9.909760999621398669e-01,-8.689955299322529303e-01,2.125513433108114081e-01,-3.310154796558275603e-01,-1.079514655226264802e-01,6.337682238514237287e-01,7.837932889216545629e-01,5.468455724917362787e-02,1.465771558237357608e-01,-8.400187497581937945e-01,-6.126950550240977122e-01,-7.473425611766295606e-01,-3.310193600932918867e-02,7.354097997890930438e-01,-4.820839772922704825e-01,-5.271827892827198880e-01,3.255264985557366209e-01,8.318493125075651085e-01,8.998146373337894133e-01,3.367304426583271337e-01,1.100046562316089771e+00,6.067220763287520802e-01,-1.711430488632404434e-01,4.997432254195660062e-01,2.371615413598457955e-01,5.716750480065084794e-01,-7.257892555144292990e-01,8.966412830141340384e-01,-9.220570390252619264e-01,4.776374218727584553e-02,5.353949677463858831e-02,-2.763930924409326861e-01,-5.798070482795631975e-01,-3.115211694846894419e-01,7.440628616622703140e-01,-3.871739327199363867e-01,8.479519067097421869e-01,7.163577499782139979e-01,7.082511379665329398e-01,-6.897629185744065250e-01,5.148765661353983392e-01,-9.865862717824068762e-01,-9.640392285756513857e-01,-3.783829105743912180e-01,4.125590283868846853e-01,9.813557093731909431e-01,4.689797519605858230e-03,8.969072494215611924e-01,7.543063303915997775e-01,3.685442778300873634e-01,-3.196224338116248620e-01,5.623728726883491236e-01,7.891625297766217129e-01,-8.080691481597468417e-01,4.510276497457680472e-02,6.473304172364826581e-01,8.656726366083836166e-02,7.009379148697593154e-01,8.734317596282097085e-02,-1.515427698631459652e-01,-6.814057298576445265e-02,-4.062791061006904569e-01,5.506072835217284966e-01,-5.560115979933177854e-01,3.043001332512367818e-01,1.207218821904618711e+00,5.563721805010610755e-01,5.809725754796740693e-01,-2.620764665733187060e-02,-6.873632318276313713e-01,-5.949769765023648072e-01,-3.257770598529373118e-01,-3.767719292098069550e-01,8.726889577838018441e-01,-3.229631727645677075e-01,-3.364002050210174177e-01,-5.199476853214562294e-02,-8.217709503659283987e-01,-8.065064197120600520e-01,-3.859276968866302004e-01,-1.107513196576562914e-01,1.068906519306987546e+00,-6.404934843727738691e-01,7.141191278553726818e-01,-8.119944700809258453e-01,2.509018179825841521e-01,-8.782322750136023481e-01,-1.869656256576043007e-01,-1.321585078263879831e+00,-5.908591262385669562e-01,-5.390958713306684968e-01,-7.208316985599166893e-02,3.355386846059287276e-01,5.674522600100152525e-01,1.899632403919724599e-01,-1.454627422598695763e-01,-1.569120682056168448e-01,-5.445667539298526538e-01,-8.254942436635823722e-01,-3.910292565876429816e-01,9.475711578640921839e-01,-5.398906280779104672e-02,1.980963515925336649e-01,-4.287436551018298792e-01,-1.047521610890106980e-01,4.037938208162981102e-01,-8.982237018869296263e-02,4.725406478757434581e-01,5.111148189710363887e-01,7.519443560042538000e-01,-4.646678730830205994e-01,1.157746734560620050e+00,-6.709300873131016640e-01,-4.482931547164272779e-01,-5.735486213776920250e-01,-3.863545068884906564e-01,8.277095913389236337e-01,6.048415815554812891e-01,-2.815633271896276768e-01,-9.801765437694609506e-01,-6.776518827701886183e-01,-9.662852231393834757e-01,-3.458133610350048182e-01,-7.744172419143280361e-01,-5.413622703069562725e-01,-6.761245975009050335e-01,-8.921204069031467565e-01,6.177326351248129538e-02,-2.553190030148844158e-01,-1.766316377081741107e-01,1.714652812981855012e-01,7.711547292343909898e-01,1.861832880307753013e-01,4.678728016275919832e-01,5.417697221826395237e-01,8.262843016686671760e-01,-6.251502555119456961e-01,6.628213813815680977e-01,4.429422241345770117e-01,-1.162662333485346700e-01,9.578694584083555785e-01,8.141215821600589209e-01,5.264428312202338311e-01,5.593541091463539727e-01,5.031174998942406634e-02,8.951439162131724636e-01,8.865990613199475900e-01,8.442190848935845482e-01,4.212895181663899313e-01,8.952394355510673307e-01,4.648783489461818519e-01,-8.211359386669574434e-01,-4.998657399297155024e-01,-5.113748686299507407e-01,-7.845718533950696294e-01,5.513818844984956780e-01,1.017790243574527409e+00,6.007940550006826141e-01,2.096948690817219962e-02,-7.851711708648220767e-03,-7.806439145518760947e-01,-2.218118933048119357e-01,-4.395556519923987659e-01,8.914286037093792636e-01,-3.604773284854193571e-01,-1.045258030114885467e-01,2.940382666205643702e-01,-4.046391321447977835e-02,-8.197910424977619126e-01,1.644839844927206349e-02,3.579562274421549395e-02,4.117985795234975765e-01,6.756209877200886060e-01,1.856252522750709635e-02,8.283864857229752410e-01,4.434376349057780886e-01,1.074378907628404711e+00,-3.248569718067250700e-01,-1.127661260236904273e+00,-1.507214578133900806e+00,2.898900106088568851e-01,2.095404624452853193e-01,-3.849730735338413590e-01,2.214348011535492711e-01,-1.726952013001840924e-01,-6.742420319873975165e-01,-5.930736272676929294e-02,-1.259565662223947891e-01,1.110418828643925826e+00,7.230044804143217485e-01,6.105317785562102140e-01,2.478582469461182991e-01,9.110169893145876330e-01,7.863389886161930020e-01,8.726089638093893486e-01,-5.084696164367307203e-01,4.258579223706672190e-01,1.099948495030639295e+00,6.035807605352369043e-01,1.036686620206832332e+00,5.359367132341956719e-01,6.457112902027739576e-02,-5.624271090466330669e-01,5.122759129771415898e-01,-9.851852675177017460e-01,-3.375037383186818563e-01,3.650647854160161132e-01,-3.260618606989757473e-01,-4.863233497089621271e-01,-4.135740811204498546e-01,-7.783421958716771893e-01,-9.990470988621847903e-01,1.439818083474092569e-01,1.119583944312655815e-01,-3.759903990835523069e-01,-4.709898971823274216e-01,-3.081066989121633015e-01,2.953774041925846250e-01,1.466652343471115116e-01,-7.531902061622803846e-01,7.928827127451197887e-01,-8.726714223709073348e-01,-1.005388231708536306e+00,-5.283635381124323072e-01,9.000969888058379942e-01,7.764644110924598941e-01,1.147125815821678219e-01,6.786868382111845011e-02,-1.364894563246387138e-01,-8.715643493120048824e-01,-9.165381433932197064e-01,2.934857997562480003e-01,7.213329515294396588e-01,-8.009427469408902933e-01,-1.001019860523435223e-01,4.643139011915585201e-01,-2.700391192579165711e-01,5.079262127091613843e-01,5.737837294941506849e-01,-1.440916739409573155e-01,-9.278155917720610768e-01,2.758028749909359201e-01,1.006528520673242388e+00,5.834110029030660227e-01,-2.287276692919283094e-01,5.095882561424784907e-01,-6.279461295566032275e-01,-2.098334523464169821e-01,3.896603686152734676e-03,5.957674257321825539e-01,-9.447317268762056575e-01,2.370396834052344859e-01,-6.917987185034253361e-01,-5.400127860765303600e-01,-2.798229777389951156e-01,1.496327483013161208e-01,-9.649444939850633229e-01,5.377963035923855051e-01,6.500355752507379625e-01,4.307175655929260105e-01,1.116996374782935231e+00,-6.107506979897292521e-01,-8.574603333821608775e-01,-2.964478839021116308e-01,2.835604748918935797e-02,-3.486267170717968211e-01,7.040159270640142242e-02,4.711715973580709454e-02,-6.622257599799487027e-01,-2.375631284233947205e-01,1.824708343742976469e-01,1.156649077567129674e-01,-6.210536476828200092e-01,-2.380173193116520702e-01,5.913228691131858783e-01,-7.896014071981991567e-01,-5.199874623478408786e-01,-2.066486740110344000e-01,3.514810082759036169e-01,-2.370971187818460835e-01,-2.325877747133315021e-01,-5.382140032019854248e-01,-3.789851353696906955e-01,9.491151527209966410e-02,-7.606069517533540214e-01,4.223561181087525651e-01,6.084121631536681951e-01,4.864214572511212781e-02,3.664390133245234299e-02,-2.746576298813801498e-01,-1.666821429047451175e-01,-3.327246693923142651e-01,-1.871672438128303417e-01,-1.031232276740120968e+00,-1.098437384094769209e+00,-1.031368970502504645e+00,-7.854695955716739508e-02,-9.668489973650439273e-01,3.226368321388746185e-01,-2.307251856344407215e-01,-7.586021881534324440e-02,5.339946786159960324e-02,7.427769213686963301e-01,2.071994046116505117e-01,1.801368359650806425e-02,-1.162588713816377628e-01,-9.631879220393241292e-02,-6.033206419767445788e-02,-3.289851664845523938e-01,3.611548079532972966e-01,-9.948055961179305129e-01,7.811619504002863534e-01,-5.571849508098535297e-01,8.023597351808263722e-01,-4.244298328496748374e-01,3.007606581559253006e-02,5.999798055465113134e-01,8.971938723220767020e-01,3.932570912397099216e-01,5.375471067211655685e-01,3.866898761529436457e-01,-6.482572396933666825e-01,-1.216364041312130606e+00,-8.181929715435781736e-01,8.228724556943727286e-01,-3.235479645380132108e-01,6.321612895745475358e-01,1.548706076974423057e-02,4.336076088787789162e-01,7.748299105678257970e-01,2.498207287047087832e-01,4.332576062950392326e-01,1.050278237907463774e+00,5.314455452612290021e-01,-9.799224194609625904e-01,-7.098053942376075787e-01,1.688895381520267580e-01,-4.630710081706038150e-01,-1.019642175105095472e+00,-4.936964105726943663e-01,-2.927726859776270119e-01,-6.245564042274585059e-01,6.245693085560443114e-01,4.287008947100365286e-01,9.977503103484856861e-02,-1.012878515184900269e-01,-8.593599849264068613e-01,6.980398935198234289e-01,8.577863224832252831e-01,9.196072830189836456e-01,-3.035101994932259406e-01,6.658460330208274547e-01,2.509256649651802618e-01,3.816235581263286991e-01,1.715774707468109839e-01,-8.088916818405754716e-01,-2.644304091886833796e-01,-2.672445185398075740e-01,-2.202211220756418175e-01,-5.465416678720260713e-01,-1.532507081020386963e-01,-4.052186775382741746e-01,4.740106656530497231e-01,7.542425292672630399e-02,3.216016135937790899e-01,-5.986962212166871966e-01,3.717326482872848059e-01,-6.812888611259920735e-01,-7.066694569551417171e-01,-2.421945754213675472e-01,1.343376787257324068e-01,3.258078090108493807e-01,4.531352067232921055e-01,-5.583955024812968793e-01,3.904551117530460358e-01,-2.336809924475939104e-01,1.506201483450745060e-01,9.348727482992517102e-01,8.925408057833524866e-01,1.903207648813249331e-01,-9.640165637758202344e-01,6.723105944700016323e-01,1.059426828348991156e+00,-4.445833263994708462e-01,4.292297141373586644e-01,7.902787927136079027e-01,1.127762489277353231e+00,-3.208564820197731815e-01,7.725624983136801793e-01,-3.496137753071001386e-01,-3.717232189495922601e-01,1.152813019834981467e-01,-5.378766973883044589e-01,-7.610473876537864335e-01,5.229813578180372846e-02,1.819158015434045039e-01,3.791286622155234376e-01,6.532406722035540847e-01,3.973183992483713123e-01,-6.759811254017903392e-01,-6.304639133107610149e-01,-8.834634257374832655e-01,1.049327575925929512e+00,-6.111409921103586607e-01,-4.868062091883008091e-01,-3.524396734457556635e-01,-6.895064693799478617e-01,-6.888003312987155402e-01,5.296035110509745847e-01,1.498217256125856656e-01,6.476410927429019360e-01,-6.128999555968751844e-02,1.749658970663426349e-01,1.040671912360035867e+00,6.578197954945500525e-01,-2.036161073957237500e-01,7.450825502551436941e-01,-1.188855427854546426e-01,-4.163381371220327698e-01,4.772434341213919323e-02,-7.768941631348633657e-03,6.607077991252511273e-01,-1.221601485224203254e-01,-8.091800825865327895e-02,-8.688323943871772981e-01,7.926666084055243866e-01,-5.032496460207563915e-01,-2.172972164595095568e-01,-5.981059534629037944e-02,4.678095876672672682e-01,5.780471881064145334e-01,3.063786275697383821e-01,-3.661439024350122140e-01,-2.196021564081982458e-01,-3.065789996420594243e-01,1.962694988303168020e-01,-6.769707523403744043e-01,1.036273716627908348e+00,-3.990950500457234318e-01,-5.421341233859168218e-01,8.941928849760995002e-01,7.176113710614476782e-01,4.193675664913058543e-01,5.263388097355800044e-01,1.461328764157683868e-01,1.045260713353847626e+00,-9.280706069937696423e-01,1.035131805530851018e-01,4.546783335197379095e-01,7.865831976815136350e-01,-7.353099875442133948e-01,-5.653012184943531082e-01,-9.717428413959490197e-01,2.353726661865959691e-02,5.902701311533600087e-02,-5.155541598114173896e-01,-4.689914637784542983e-01,-8.301767109855322513e-01,-4.032476817037118910e-01,-5.911177956656500365e-01,2.042630007222274169e-01,6.594788775127596869e-01,-7.472750086485420162e-01,-1.337143061349179984e-01,3.322176055466400380e-01,1.456371948836145402e-01,2.689747557380976484e-01,-5.013820898819064675e-01,4.398743358483885313e-01,-7.873240112209071162e-01,9.871961561040447641e-01,-5.231904172108785556e-01,4.635621480839450803e-01,4.345742934265307833e-02,-4.531877267646298724e-01,-3.361213427752673399e-01,1.378416236375078485e-01,4.930641408161582917e-01,-9.018691665179203731e-01,-6.780332294676486571e-01,-7.452326029085034609e-01,4.164616998465962561e-01,-1.384407858924830981e-01,-3.754469681799177949e-01,8.648489921980569983e-01,-2.086873911436450402e-01,4.286823973551311395e-01,-9.152343942377398900e-01,8.228001099960047249e-01,-9.895402415023796250e-01,-1.189735927276055483e-01,4.856592045913111777e-01,6.956516128020048262e-01,-5.560318219745959967e-01,9.606249905588537530e-01,2.121925147011837764e-01,-1.383563910487567716e-01,5.903223403084283394e-01,4.915575618988110573e-01,1.505499843096026746e-01,-6.336264335587800112e-01,-1.430425476558786213e-01,-9.550495492874911951e-01,9.181061096055957993e-01,-6.174885866151160752e-01,3.232221190751458084e-01,-1.390529306927034803e+00,-8.411092119782950238e-01,-8.939114800397741645e-01,-7.157364774365365667e-01,8.121798012312952952e-02,5.168023886372844489e-01,9.024520544476364314e-01,-2.380198307467593782e-02,6.080059548049135953e-01,8.296961691523087046e-01,2.245358123042349163e-01,6.621794122471663657e-01,5.483476738585510990e-01,-4.411653866103322219e-01,-7.949302345306655804e-01,-2.664585333510400833e-01,-5.403547795636886031e-01,1.966431598520108071e-01,-3.929044498880103764e-01,2.655517528979721154e-01,5.801701546754259864e-01,-6.660631618214498673e-01,-5.380684237157736804e-01,-6.633927525118359370e-01,8.910122719158088123e-02,-4.535128921682335390e-01,8.794833371808790101e-01,4.686517017262408769e-01,-9.668895564635935358e-01,6.000501279624175233e-01,5.417335853043985239e-01,4.384180896753810952e-01,1.115114957252927086e+00,-5.836413198108816314e-01,-2.259871531980217341e-01,-7.520132433027023611e-01,-5.590359686786278148e-01,-3.076564594487356530e-01,1.441996752930140291e-01,-3.160706981536697824e-01,-3.936742426458336719e-01,-9.915204092081767451e-01,2.185944294676684663e-01,-2.019490982767100651e-01,1.678279749765069495e-01,7.161980611052301549e-02,-3.052222387781760027e-01,-2.229082476599616724e-01,-4.052067611592905516e-01,-6.823375075940666390e-01,9.648675681042007124e-01,-4.763204821732512362e-01,-8.228271039528848307e-01,9.848647482718752011e-01,-2.879968740388817450e-01,-7.221801513367704928e-01,-1.268310726557669188e+00,-1.193598762856343393e-01,5.494509355681500562e-01,6.631275731432916265e-01,4.135150810984719594e-01,-4.154934992809755645e-02,1.119609447415313319e+00,4.913169620826281503e-01,7.934635442636358560e-01,-5.233922106581974099e-01,-6.559847654025210417e-01,-8.920876542271841680e-01,-6.847266932592692701e-01,-1.025502562873292334e+00,5.115455111273348177e-01,1.517132842384432689e-01,-6.142854014001081220e-01,-1.188339357927911816e-01,4.246825662090633613e-01,-8.099473070377053441e-01,8.762067843307591586e-01,-5.683298404407559623e-01,5.135434730406983617e-01,7.389300172856215765e-01,-1.083893107517325677e-01,9.271275370762235291e-01,6.329840561601052240e-01,-6.302898683725410844e-01,4.736205503381287207e-01,-3.241364310159342010e-01,1.078069485668088356e+00,3.088226979536932704e-01,1.565832970319587236e-01,1.309366539950596042e+00,-5.865954760377995597e-02,8.098594027558306818e-01,-4.240803019199654855e-01,2.249517321797843972e-01,6.400084353653135993e-01,-2.465060067392597087e-01,-1.343659486038960120e-02,-1.073957189010878721e-01,-3.562244312804828117e-01,1.375190156827211796e-01,-4.794775740062698355e-01,-3.609133337580843204e-01,-1.240353141375108992e-01,-1.612967787598436897e-01,-7.771124334040870885e-01,-5.638516230682605324e-01,2.471143345141268433e-01,6.522130320464521180e-02,-3.644165743901136012e-01,6.658877161711502790e-01,-4.073234863316095300e-01,-2.588537062674173828e-01,1.608278747166458633e-01,5.623068520833280903e-01,-3.395918287778684763e-01,8.443388853462125976e-01,-3.775062357910934363e-01,1.154785118890274964e-01,1.460581726847448858e-01,6.294396839775359132e-01,-4.982859730262417242e-01,1.359118410473839911e-01,-7.982115978913709720e-01,-7.506957127768389970e-01,-2.880712971185963589e-01,8.955068764450618835e-01,-1.488039965080366622e-01,-6.041030082390269618e-01,-3.373786700555284623e-01,-1.156499816760278056e-02,6.139473215445911958e-01,5.026120446414610310e-01,6.562634134763436489e-01,5.445453503761928937e-01,-1.817469106254796518e-01,-7.074244246809684167e-02,-5.389396388288593132e-01,-2.747615508995531752e-01,9.633723507965258337e-01,4.152078165942711951e-01,-6.510193463849460738e-01,6.326222541570827307e-01,1.263692882074605617e+00,1.086914213051068945e+00,-5.427416829063960169e-01,4.334878054047650586e-01,2.013606803063144879e-01,1.028876847874959699e+00,-8.974122912733117907e-01,-8.486650993123328046e-01,2.998170278779301867e-01,-7.204331308332583284e-01,5.498006586033248044e-02,-1.305002240975527972e-01,-6.023592276005182433e-02,-1.176505886373792331e-01,1.665945346061552257e-01,-5.218710475380234914e-01,3.521017826324052691e-01,8.850732855291100210e-01,8.814256418707037133e-01,2.629992967169177964e-01,1.162529358139102742e-01,6.491033985720384702e-01,7.795903764287732685e-01,-3.204929801844211973e-02,-1.834863522026587146e-01,6.778206380966222966e-01,-7.995669446177475770e-01,-1.395694659531838966e-01,4.883911551900766423e-01,5.658084405265277894e-01,-3.798935613324049831e-01,3.178275069330853686e-01,-5.817817516329274463e-01,8.481080384787706428e-02,4.870360023052371368e-01,6.613018621859169111e-01,-5.023944759798454340e-01,-7.152976499541794375e-01,5.939293843898516556e-01,7.532548173095177102e-01,6.106400667651865621e-01,4.041881180706605181e-02,-3.013453507866984404e-01,-5.594300676540525652e-01,8.421078054119573997e-01,-1.030182981016917632e+00,-5.924857316767433435e-01,-2.970448147707429598e-01,-1.387727771803265009e+00,-1.192391135041735772e+00,-1.699533638848943762e-01,-2.229463856853800274e-01,-6.444697168842293822e-01,-9.790365772503268893e-01,5.380212789602417667e-01,-2.710451591282015326e-04,6.950891695881393773e-01,6.758315395823176752e-01,-8.396862006783393229e-01,-7.702169155712148552e-01,-3.351035663554799982e-01,1.039429901755055230e+00,-8.465939473612732469e-01,7.703938623810524522e-01,9.269994513782974233e-01,9.365608662183163569e-01,-9.317590216525316604e-01,7.860366991455637331e-01,9.083508575160661458e-01,-2.583123670980716491e-01,-4.163891397936438366e-01,4.193699182756374655e-02,-4.681456439926656721e-01,-6.572171080876664240e-01,-4.002121562359505780e-01,7.798245897067213050e-02,1.275680377237170260e-01,-1.233430652004898070e-01,-4.135552519681396366e-01,-6.329356140691264621e-01,-6.451647605398487251e-01,-1.233852075742187360e+00,4.329288752015806319e-01,2.677979009790076304e-01,-7.090586192733945303e-01,1.036301970481791956e+00,-3.201181591249337988e-01,-9.426673357970786205e-01,-3.781435214988446147e-02,-7.345311851744743548e-01,-4.875018379262424650e-01,-8.520930787886795699e-01,-3.869509033189853092e-02,4.043104081494793833e-01,3.658282119510142261e-02,-6.049630817664117810e-01,-7.490927917079298615e-01,-8.092061171747125803e-01
-5.541829357129243183e-01,-8.917985582703166214e-01,1.982133817679083421e-01,-5.922556361884138143e-01,-5.683089379067394198e-01,-7.170974701598641365e-01,8.126346716783260371e-01,6.985868397289890508e-01,1.537881252070143479e-01,2.442732186132896000e-01,-6.901743097700954177e-01,8.181330004804936440e-01,1.141643368546284787e+00,1.010935616040006035e+00,-4.329287796733524152e-01,-6.829832062380722935e-01,1.029828619731760098e+00,-8.001431571949664256e-01,6.863157058377302722e-01,-7.502570081960400206e-01,-3.337883401628946034e-01,9.317897299792290422e-01,7.321542809119806483e-01,-7.213019233090771642e-01,-6.019745942258899474e-01,6.723368087354074651e-01,-4.344678182724523996e-01,6.569126679969005123e-01,4.564420499340768322e-01,3.012576625452841328e-01,-8.937452338555957887e-01,-9.577569558643660441e-01,-2.161994594026777072e-01,7.184756240389225113e-01,5.493442068456607652e-01,9.175758659031915121e-01,8.054048020166935107e-01,5.637740760306113597e-01,3.879889597778065635e-01,-8.090581072274223295e-01,3.811494885581464542e-01,2.152973395465107853e-01,6.539182166087672554e-01,9.558980041298213992e-01,-4.482447143845230686e-01,-4.836483512292698295e-02,2.855395015976023854e-01,9.752063819055621918e-01,5.535394598898933649e-02,7.202241772268063169e-01,2.080196002481494166e-01,-6.735461653766935397e-01,-4.426595890703711178e-01,3.947309131717459119e-01,2.455284904982185379e-01,-4.949959123082158241e-01,-8.228112373821068193e-01,-5.055344445876323034e-01,2.635038316520197377e-01,8.098736886106818744e-01,7.119871639744800307e-01,-5.546809776205740006e-01,6.660901511885303217e-01,2.859233096250060613e-01,-6.687167691692406102e-01,4.217366856632592809e-01,3.378825663262812196e-01,1.054523838887048814e+00,-8.069276069143148655e-01,8.055855300091360194e-01,4.352327581866792805e-01,-8.326163637594905520e-01,-1.594404937701282901e-02,7.153105557846475282e-01,8.310855457735953633e-02,8.458005281696198696e-02,7.635074707231173097e-01,9.909466153503065922e-01,-2.341805631610131277e-01,-9.223148150425491965e-01,4.861615666443644956e-01,-6.726604127598416749e-01,-4.754361338877085008e-01,1.064189004780466130e-01,5.571651416076437435e-01,-9.224033336139416672e-01,1.251384628592560055e-01,4.194957611670455666e-01,4.245826566811499170e-01,3.857206778850533202e-02,3.724892515013937810e-01,8.375358970770344635e-01,4.239720746244737826e-01,-6.676320055219315819e-01,-4.254986962420230778e-01,6.246901442923489256e-01,5.854671623083856219e-02,-6.925065327777296664e-01,-7.616008189694712938e-01,7.582217988011963339e-01,6.007294906236438914e-01,-5.223466805983606465e-01,-8.009029796324931283e-01,5.103552493829736914e-02,3.960815220821028992e-01,-2.004144668917385297e-01,9.902395333632049157e-01,-7.988248085974550827e-01,2.733003723694928389e-01,2.800182827945441044e-01,-2.386995735758242754e-01,7.873133403684668963e-01,5.033702438970704129e-01,1.757206396118355662e-01,-2.207216014272116722e-01,-4.874795775571950096e-01,2.509007651272899264e-01,6.378135509362728994e-01,6.604308472254599716e-01,-6.352147942345482967e-01,-7.567454195376577264e-01,8.244810272290639119e-01,1.712853516404416188e-01,5.918006611017034846e-01,-1.087385431644675438e-01,8.546822435757552849e-01,-3.539271459120129082e-01,2.467060008294981177e-01,-3.557226845306813989e-01,-3.029599776809173139e-01,1.089837830921430939e+00,-7.378749930108090549e-01,9.725870497639980128e-01,2.619985058174978051e-02,7.538600538612756363e-01,-4.668929564716786662e-01,-7.071851176099762659e-01,1.643679091087047461e-01,1.670627745927913133e-01,8.176792237689740617e-01,-1.057531547380026415e+00,-6.145852659498003412e-01,3.309202192503224449e-01,-3.428517970401310233e-01,4.499739796041165585e-01,-7.866422185761153818e-01,2.857371345521799721e-01,2.947662994975947526e-01,8.319025979554866002e-01,3.356108941746634988e-01,-2.882192940267251369e-01,-7.244085775213739975e-01,1.990959384476285177e-01,-5.293495200627732489e-01,-3.969685261311506341e-01,-6.807674277961305309e-01,6.671012375855642773e-01,8.060581659672921839e-01,-6.393727313675392487e-01,1.035154529904095955e-01,2.365777263085487581e-02,8.419247255067381364e-01,-9.342746879271073279e-01,3.022921928959015347e-01,8.609152857331499320e-02,1.573297769873844565e-01,5.127231461475262320e-01,3.601509258777474409e-01,-1.847310846418523944e-01,-7.599272663656303495e-01,-1.190832018858940522e-01,-1.959017645877256242e-01,-3.074511173638366790e-01,-1.887664822352080884e-01,-9.498652695365202708e-03,-6.806019767723142655e-01,-6.204057599488980168e-01,-7.402909390206060536e-01,7.892977040368658326e-01,5.426846353847802895e-01,2.900187688404591846e-01,1.036810575244784927e+00,1.023820717146928239e+00,-7.590383832152263199e-01,-7.752736097404708815e-01,-6.647297593010931260e-01,-8.080663258664638748e-01,1.026945089704753844e+00,2.308125582909542062e-01,9.357137651524081168e-01,5.191145949679835114e-01,-3.750339410300581044e-01,-4.229927424205052328e-02,6.083670181019107392e-01,2.349767190575843823e-01,6.401040040864317548e-01,2.750584277302882130e-01,4.597351969296294971e-01,-5.795290758844314771e-01,7.233029898212961495e-01,-7.065054958064209689e-01,-3.797542316617393832e-01,7.320841763859518014e-01,-7.310960309531373547e-01,-5.141658986831033618e-01,9.245830876788511121e-01,8.413527439894968873e-01,1.878692813185152133e-01,-8.305899580093147883e-01,6.039011205057707166e-01,-1.784417180552713422e-01,-4.230515531875640445e-01,2.930366668222055826e-01,1.240817943211105778e-01,-1.048373383263554448e+00,-5.441718533589211260e-02,-8.621473276894580096e-01,6.531146469555814127e-01,5.346925301279792375e-01,-5.839608914606518875e-01,4.973782405261868989e-01,7.705799341573761341e-01,-8.057613170399680058e-01,-1.447871929102443056e-01,8.555584587130822261e-01,-5.710104719018256336e-01,-2.168469173977186915e-01,-4.320046753071905138e-02,6.504395031258901616e-01,-3.116103064744626949e-01,8.757355906141232049e-01,-9.697798894205930664e-02,9.544932075703620455e-01,-6.760616140218441705e-01,-4.632213909151797759e-01,-2.461596345726246304e-01,5.445192060387097355e-01,1.489396584834924708e-01,6.267193403537951735e-01,8.269838528772336383e-01,-8.001613833347721583e-01,1.899500494842032983e-01,-1.097456121814846197e+00,7.213481447407623648e-01,1.454528843037042329e-01,-6.672027261957896860e-01,1.062426039458286953e+00,-3.943864172353719333e-01,5.545156110598632448e-01,2.088028813543832407e-01,3.575411007130684798e-02,5.637061113287040737e-01,6.237577621498805597e-02,-8.045149922710355117e-01,-7.289128276403017415e-01,-4.386080440992018437e-02,-5.712740351648181170e-01,5.075904727468814048e-01,-2.570984514832283518e-01,2.945098666435249646e-01,-6.886887782400033520e-02,-9.641704458053746984e-01,-9.582933935784162527e-01,-2.088919128041961670e-01,7.451529054450322098e-01,4.972702504610296281e-01,-5.225756808075634474e-01,-4.579778642430487046e-01,-8.429680790968516746e-01,3.794772075326293126e-01,-7.468390216091756739e-02,-9.021132437329867915e-02,-8.681824140736008055e-02,-5.007584201148159581e-02,-6.096068530899297899e-01,8.723422506407272348e-01,-9.678640353042576860e-01,-1.449185753340070104e-01,-5.835681786522811665e-02,7.755752892184258895e-01,-8.479009338175117483e-01,-1.572725148788453875e-01,5.993574413431588255e-01,8.650292486903911060e-01,-1.833498502584711507e-03,5.376476993458048081e-01,-2.256427593038723423e-01,-9.106014973419884750e-01,2.466604611726163632e-01,-6.242316250611150696e-01,-7.402171475960273028e-01,-5.331351743503464496e-02,-3.674354991256333913e-01,-2.794680743773268403e-02,6.437421685906361546e-01,6.278336865639698727e-01,3.520091141116920008e-01,6.289838503602277475e-01,-1.002168993730438773e+00,-4.936547113452004476e-01,2.922410996177810527e-01,3.188999095771720693e-01,8.217423810042738808e-01,3.833866024618344803e-01,8.636678468774420248e-01,-5.946782770256668904e-01,7.112836417663085387e-01,-4.208526698450746339e-01,-1.327339609544254673e-01,-1.786033161356087862e-01,2.297439210249475061e-01,-1.144529146725303259e-01,-2.296586645185922648e-01,5.198429742540977561e-01,-1.786636659365835322e-01,-6.085500942854830120e-01,9.407724022222335725e-01,7.884034439096060387e-01,6.173017609344966239e-01,2.233693550879158329e-01,7.050489499237679869e-01,1.268169675484807080e-01,-9.728839752337348212e-01,6.693362175269733649e-01,-1.180409002406231263e-02,-7.546176429661052287e-01,7.881685667546023399e-01,1.040745043764278732e-01,-1.180141519688417073e+00,-7.734064006032608241e-01,-7.162106441917919231e-01,-3.925622842894592734e-01,-3.025988328224640256e-01,8.316166089792683680e-01,8.670364841075717255e-01,6.431188452362229802e-01,-3.734251813075681881e-01,-9.171401358803012993e-01,2.189869451083579222e-01,1.664660780812058649e-01,6.641898508132000334e-01,-3.491830084130630452e-01,-3.911447131614396167e-01,-7.210029965733042445e-01,3.558932962847780601e-01,5.763300402085065333e-01,-3.339556567475706617e-01,4.941135273476640610e-01,-8.735392286157975805e-01,-6.862002310114871939e-01,4.032449915226220538e-01,7.066016203093856696e-01,-1.058829298215177295e-01,-8.745914313312481703e-01,-7.062040039552112125e-01,-1.045329241460686065e+00,-1.086113144969993227e+00,1.828436303188809078e-02,7.417641163228546608e-01,2.319847460265039851e-02,9.669111330289980044e-01,-1.012316398705047860e+00,9.131675754922912169e-01,-8.163885684727899550e-01,-4.347438331897438557e-01,-2.096976534542424608e-01,9.292265856877760521e-01,3.728343132357455486e-02,-5.404840843755314150e-01,-8.205411790497086910e-01,8.433949799804073555e-01,6.995641728881214494e-01,1.284592856951631556e-01,-2.085240072030118408e-01,-3.908844968729721092e-01,5.063878020066288066e-01,4.422723255058476077e-01,4.984656048786911126e-02,9.179948741243721955e-01,6.121099812288384630e-03,6.890602363325603053e-01,6.901659180475304689e-01,2.931971232272838623e-01,6.003387552789249404e-02,-8.384355445854547728e-01,8.000862829831769663e-01,9.105123080520655110e-01,-2.691658742540922744e-01,2.639007718991381521e-02,8.052411814602579154e-01,1.005743525934510024e-01,-2.118954348956201827e-01,-7.060205134663831705e-01,9.401813444987879853e-01,6.473974735120677781e-01,5.391532732333645939e-01,4.912017840339824581e-01,-1.021958926260959771e-01,-6.457380364988766219e-01,9.114954946896345334e-01,-3.374356387374537469e-01,-5.912519639777275016e-01,-5.191189929465837016e-01,7.384000483280915850e-01,7.995316967930300445e-01,-9.187215630691489832e-01,-9.393690311202427257e-01,9.541031864477397262e-01,-2.091253715349671305e-01,-8.750197483929184061e-01,8.262750091630713389e-02,8.285574856749231554e-01,7.719835054216522829e-01,2.431093948977809394e-01,-1.025667088141333921e-01,-1.065694918275379655e+00,9.278742985302925739e-01,-5.633741006393988560e-01,-2.158635447194769685e-01,8.292940056939064331e-01,-4.814916177777669309e-02,3.658440160165398192e-01,-2.303223854847040175e-01,-4.900026865584321545e-01,-6.391968579928083427e-01,8.521386970653457293e-01,4.012518992981167210e-01,2.354258109648734998e-01,6.503260520662190736e-01,7.283621199713186112e-01,-8.493840153054098563e-01,7.776191556550672290e-01,2.998644344648832005e-01,2.371750312514575923e-02,-6.977020031167323610e-01,4.474565539051741925e-01,-7.364098995172791984e-01,-8.580047887921662397e-01,1.060206982841623881e-02,-2.977789096487008513e-01,-4.569909336570990854e-01,1.495355521714397951e-01,-3.236973997694704841e-01,8.018814482085871997e-01,8.640818140318209384e-01,-4.342610436584857236e-01,8.041411840937771061e-01,1.312810769021676427e-01,-8.882688391606354816e-01,1.353694247465765492e-02,7.347522147123836112e-02,-2.030911797036810684e-01,-3.830218938050482524e-01,-5.736273409943253299e-01,-4.491448251718523355e-01,6.495836982808906868e-01,-4.145555048123080732e-01,-7.163260563600526432e-01,1.571612660179085019e-01,6.299553150366582477e-01,-7.739871917282805658e-01,-2.453732586251486381e-01,-1.121851962306557038e+00,-1.135426920335500078e+00,3.980706625019270195e-01,-3.737195431982206495e-01,-2.528668037529830936e-01,-1.025799531219372396e-01,3.681692637449973660e-01,-4.316726316490205884e-01,-4.918796397620072147e-01,-6.798563657662197723e-01,2.393874682550108102e-01,7.419456870964155071e-01,4.528251369797047787e-01,-6.241299616390431071e-01,-8.558046288401588431e-01,-1.212557253719027256e-01,8.028887560247205402e-02,-7.896234784241991100e-01,-6.984225369626644309e-01,-4.868688436467033531e-01,-4.434024231328631549e-01,-6.341882545900935364e-01,-4.942187859669139316e-01,5.241986904568417538e-01,-6.464794291490115752e-01,8.011406599981353571e-02,3.005394371005175036e-01,4.142790807056953573e-01,-4.884638768184876856e-01,5.965784885304568075e-01,4.507300455578692189e-01,9.768621219965171187e-01,-1.216415296474142871e-01,7.271491655600792470e-01,-4.794077336053544913e-01,-1.803424636648471024e-01,-6.472659896970678339e-01,-8.972985726932571904e-01,-1.033615924753381821e+00,4.741982929575890848e-01,6.551791783615221743e-01,-8.250856897474478924e-01,2.895474729973974704e-01,5.157155262180117966e-02,-7.835877176036518676e-01,-8.218184882096331023e-01,1.099335530627309071e-01,-8.197495261097421659e-01,8.511810664767087697e-01,7.706855578586467859e-01,-9.800687717818028222e-02,9.810654504070643878e-01,-3.928757576586422440e-01,-6.094587715882325840e-01,-7.905101905950308039e-01,-7.493254131007338614e-01,5.824790935073526077e-02,-7.493084217146747106e-01,8.308157009637145290e-03,-5.674731768654164843e-02,-8.474711536875075835e-01,-6.061710976126126749e-01,8.623610934753426216e-01,3.248311831637621383e-01,6.108997806444163015e-01,-9.955965065496181765e-01,-8.774365951514818684e-01,-6.637411024971376916e-01,-4.792404108407252727e-01,9.924420623845672251e-01,-9.467610347925515812e-01,8.819403432696377720e-01,-8.506538579199617311e-01,-3.182567413884194729e-01,-4.558806900016759700e-01,7.440842980448684196e-01,5.719049775698734628e-01,-5.489899987907739809e-02,-6.125620732480877573e-01,9.559521483090415161e-01,-7.070601911151640495e-01,3.212108580127003288e-01,-8.171273036793009759e-01,2.076580799425069637e-02,7.661688037400257167e-01,1.646492384152659083e-01,-9.720499181849249215e-01,-7.722353247742949067e-01,2.759699767679744675e-01,6.111107991123212319e-02,-6.549458529116033989e-02,8.200727241221900110e-01,4.884088348215640321e-03,8.460118416133728392e-01,-8.701759145699974329e-01,-5.853096718920850483e-01,-7.770805766541559745e-01,-4.179323065782239444e-01,8.166210234315540717e-01,-6.454435619556937453e-01,-2.955927093400377223e-02,6.959647474584417237e-01,2.297918671277040525e-01,1.323854151412563740e-01,9.603325454507628534e-01,-8.321020650857852141e-01,1.043997549561719085e+00,-8.332946844335696879e-01,-3.376025658955802422e-01,1.137941599620788530e-01,-1.097355311965001606e-01,1.188697613327353575e-01,-7.130347654418021097e-01,-6.114299661197357683e-01,-6.760242322124494496e-01,-4.695493602790338228e-01,-8.767785715483191744e-01,3.329399989170837015e-01,2.061333637927080242e-01,1.013295756567155648e+00,4.139022475278435476e-01,7.152278563879481688e-01,7.084730570676952555e-01,6.420443357454335143e-01,-2.950296786047951203e-01,6.164481143096917082e-01,8.082168742432073172e-01,6.734030399976980164e-01,7.005738080093759645e-01,5.170829638755385371e-01,9.394426043514303437e-01,4.539225669805831420e-01,-2.291819855354839397e-01,-3.385751422726348547e-01,-3.148421625424112080e-01,2.139278916403899444e-01,-4.663754925333135071e-01,4.542164708611202140e-01,-9.039090005910960235e-01,-6.075529451376727730e-01,-1.252109276573041413e-02,8.725815258823990117e-01,-1.178258781874659933e+00,-3.793989995767717560e-01,2.247944999036154967e-01,-8.858913618048190886e-01,-5.424301781632564490e-01,2.089199005693016808e-01,2.704388692439874120e-01,-6.462108855195158874e-01,1.030939019081934527e+00,8.838613589129475923e-01,-2.655371598691226576e-02,5.390355841705123385e-01,-4.848316645617208875e-01,4.309719153660864222e-01,-9.132040873465158137e-01,-6.713148950065502829e-01,-4.881277028591551881e-01,8.477773608615291057e-01,-4.057288418027639731e-01,2.376277005866860026e-01,-2.299153778194227005e-01,-1.610879611139903744e-01,-6.878264385097916378e-01,-9.674567876638477948e-01,-1.773442631767538358e-02,9.449732178065192167e-01,8.104090627305070571e-01,7.002262475627419880e-01,-1.801015257366830602e-01,6.491253486471872947e-01,9.650193294792150933e-01,4.905798097512303890e-01,-3.043624318669764239e-01,-6.559745193568470301e-01,-9.593393903517796195e-01,-8.198580279513566493e-01,-3.225157281918284435e-01,-7.644286472371430996e-01,2.230060390842960871e-01,-6.663336156890884432e-01,6.912374082443347723e-01,-8.941480858966263101e-01,-3.781585915209607629e-01,9.007970592342637861e-01,-7.607030710411910590e-01,-9.375960217020790077e-01,6.016920342103500019e-01,2.422450722084959762e-01,-6.409925362791497605e-01,-2.919415921764978439e-01,5.117464407300855583e-02,7.963377671975148120e-01,-3.209000972229371640e-01,-1.687205765244150502e-01,4.029788339845189471e-01,-5.404432722789392907e-01,4.804818471042263117e-01,-9.519871227338612130e-01,-7.873914381621065217e-02,-6.561832404596219526e-01,6.852149586578116791e-01,-8.078021085728289696e-01,-9.526552752794272827e-01,-9.677858615360621641e-01,-1.692498742351441210e-01,4.506074629010786148e-01,3.498068371526475429e-01,9.507747967025415026e-01,-2.661216549168616274e-01,-7.296447781189827619e-01,-1.678097171284882380e-02,-1.287646923908529473e-01,5.121634852333573074e-01,-5.557625039035491987e-01,2.219893643396991800e-01,1.960435282598300688e-01,1.259935363352011339e-01,2.509630020722307675e-01,-9.660770900056111499e-01,8.986020755603575383e-01,-8.096191845568991852e-01,-5.196309126811959889e-01,5.261274906799978668e-01,-5.730218519049579129e-01,-1.052058042836036211e+00,5.881932092649033716e-01,-2.776582747499531378e-01,2.159368040425121149e-01,4.083111208360782896e-01,-5.918006816198121411e-01,5.211917731884451177e-01,-4.848960532521282701e-02,-5.492487848075148227e-01,-2.990780600226141672e-01,5.342883816530686891e-01,5.689976215641004975e-01,-5.206298097702746208e-01,-3.236709755854731418e-01,7.345430599160248653e-01,9.313389971786404375e-01,-8.306172335958165176e-01,3.459794803689556497e-01,1.722372705088057454e-01,-9.421908525140978430e-01,4.548524216898603423e-01,1.022968469357959265e+00,8.658776783373195451e-01,5.711971215551509690e-02,-5.888160684941967649e-01,4.161477225357582688e-01,-3.282777547135908303e-01,2.727320526847335502e-01,-1.797390358752974648e-01,-6.168229739544041079e-01,2.376889488982431298e-01,3.339883446349243834e-01,-8.257859180044531122e-01,-1.128953087630540253e+00,4.528582589683125548e-01,1.835208732029729173e-01,9.650835873573412327e-01,3.673737792686012638e-01,-7.982870477047389057e-01,-4.920594559071131968e-01,-4.794864600681107425e-01,-3.697764463683904101e-01,-8.246140606857060851e-01,-8.588649707256551524e-01,-1.897808624011489975e-01,-7.061827089999856977e-01,1.085752377137955582e+00,-5.017400836541486830e-01,7.001907962750086867e-01,-1.595826580935720829e-01,4.220454191336955874e-01,-5.480586310966361063e-01,1.096922277738030110e-01,-8.280454346250081255e-01,9.422174355748713648e-01,6.303528991675890758e-01,-7.391496103269900031e-01,7.755706160867558152e-01,7.032262973571350440e-01,5.218451397077756848e-01,5.254632286229750093e-01,-1.164202476616492232e+00,-6.951377074118244570e-01,-3.519687390957421669e-01,-1.702546498005308995e-01,5.875793614445867785e-01,1.193795021409658624e-01,-4.367433348254880499e-01,-1.786699952905679845e-01,8.663692691131392731e-01,8.378334607053945782e-02,1.030733853203055078e-01,-1.054790644750352863e-01,8.000345973758711260e-01,-7.469657625247249078e-01,-1.050860866903882140e-01,-1.625429879837293479e-01,3.523304669276614565e-01,7.975930124006882505e-01,-7.586128193688729260e-01,-6.001489701030895407e-01,2.922891645353943857e-01,-2.345396509618801750e-01,6.298250793756275945e-01,2.485768132276624243e-01,5.676231980529126142e-01,2.635104266115817495e-01,2.614353392499870754e-01,-7.104152136469240597e-01,3.986845259300445532e-01,7.674747750288297699e-01,-4.965456184286829999e-01,8.093062725282342829e-01,5.915247052389874804e-01,-4.357222553320291847e-01,8.366719839395361236e-01
7.884722887326689467e-01,-3.788795281143784721e-01,-6.874523072215792119e-02,-6.484295966804967115e-01,9.064813562853887285e-01,-4.546420745232390148e-01,6.429925901306285385e-02,2.289318592398334185e-01,-8.255327330100388217e-01,5.061113968443837763e-01,6.561624713908330575e-01,-3.568038773951922593e-01,9.091597182506842845e-02,5.107539565470500253e-01,-1.490037566813518788e-01,-1.137238230194813488e-01,1.783167668400522654e-01,-5.112487400126568549e-01,1.367420311323225557e-01,-1.990783743238195083e-02,4.405851016261577713e-01,8.657345348271272556e-01,9.346176846321057052e-01,9.850519246550181185e-01,6.193746468121529708e-02,-3.614604360034354702e-01,-2.246201330205729180e-02,7.055216311240631866e-01,1.032439512944507198e+00,-8.846791244482946626e-01,-6.813054176985046118e-01,1.519804935632396992e-01,3.723805051094855045e-01,6.711872731779855439e-01,1.370376308584235758e-01,-5.807911282388916047e-02,-7.855951674742386315e-01,7.687038781249749819e-01,1.131826135254851706e-01,-8.703622035587607053e-01,-2.635464760236820234e-02,-7.686954839139922280e-01,-1.823619069590009245e-01,-6.613564967215596058e-01,3.095763549452357211e-01,-7.363023828819422745e-01,-6.417044069136892404e-01,-2.875710086811653632e-01,4.459395983720694234e-01,7.351247384882988456e-01,8.245905731308335040e-01,-6.078537036004253435e-01,1.053092421204482099e+00,5.645895261280056143e-01,-3.203505951226885695e-02,-4.072211026846341286e-01,-1.928442814308959363e-01,-6.649911133266132035e-01,3.697617837014566811e-01,9.236134112724638801e-01,-8.404377340558433218e-02,-7.612472801194062333e-01,-4.924809869365583959e-01,-2.362537063952381833e-01,-7.901156946660659042e-01,3.705536152810864903e-01,-1.625130858973954373e-01,6.613386534550057538e-01,1.348231395510886832e-01,9.686358459311088520e-01,-1.859357647531652558e-01,-2.611520972555152476e-01,1.065145763349409913e+00,-1.224804749892067501e-01,-6.388411769826343178e-01,-6.857506201321402761e-01,-4.870809169787386206e-01,1.110472199223399237e+00,1.036083171340223430e+00,7.700749699942939230e-01,6.513298641636497965e-01,4.706802245943095264e-01,-2.779661159567209383e-01,5.293647688326170719e-01,5.898889947381001642e-02,7.447004583557786939e-01,2.876608408611930345e-01,-3.924983465192083409e-01,-4.455283501843543270e-01,1.300007542363567359e-01,6.990166370903143633e-01,6.851496201606720460e-01,3.339876600005576845e-01,-5.439254702073886838e-01,-4.844668127143210712e-01,4.136082163938904488e-01,5.188454523302408194e-01,6.944439637359808293e-01,1.200828479158001505e+00,-5.533766122596038839e-01,2.643102164771213292e-01,1.945383435427279761e-01,3.283400458106846553e-01,7.622336770066572287e-01,3.514985936242876474e-01,-2.795563305825475298e-01,9.960229444342352245e-01,2.710328827146427644e-01,8.603274661453974570e-02,8.701368992736999708e-01,7.607486744821716496e-01,4.535118968638392478e-01,-6.933885029425986835e-01,7.749006272596546951e-01,2.048541432059721237e-02,1.024229412235781872e-01,4.866080753181866725e-01,-6.175028432393263600e-01,1.053803826516806152e+00,1.022362614960939053e+00,-5.230443827843067606e-01,2.811144418918086751e-01,1.287903718884916504e+00,2.755055400285560396e-01,-6.018139970526652505e-01,7.817981213085554992e-02,-3.142596778081601094e-01,-1.498251741623526923e-01,6.007536162262292478e-01,1.068735099900457675e+00,2.917121333556328411e-01,-3.482639431420346821e-01,2.606349198791812483e-01,6.497379188169974951e-01,9.990982767580118828e-01,2.848827416102599486e-01,8.905279820419647052e-01,-3.246951313615888957e-01,-4.254783216489466668e-01,3.411485977580664963e-01,-7.982161608850385504e-01,-4.860263648306140105e-01,4.677668190466104936e-01,-5.160551337429570840e-01,6.930948419020679374e-01,8.951072460392985874e-01,-6.470601730985592326e-01,4.669470454775159762e-02,-6.164553449377081495e-01,-1.188419998908648578e-01,9.152058011496441159e-01,4.632002748053871688e-01,-2.369433882166159175e-02,1.452076699537198090e+00,7.520073556778873458e-01,-1.108896969478834871e+00,-1.523083590055821779e-01,8.648537831054621261e-01,-3.298984310334265174e-02,6.950901836955317714e-01,7.545859706472592965e-01,-1.767997246015639429e-02,3.491647509266394139e-02,-1.013748938250631504e+00,7.721394719555250141e-01,3.233049633788234040e-02,3.891723506209502359e-01,-8.233096172565455007e-01,-5.822089158219874161e-01,-5.591150916446269159e-01,-6.630793335639553199e-01,-7.439334682684263234e-01,-6.372793243441945421e-01,-2.309690188403576427e-01,-7.851013945239406766e-01,5.850227144602876406e-01,6.764222739830431097e-01,-9.214146665090467980e-01,5.628436401912479958e-01,1.597425897731162558e-01,-9.801623081549220018e-01,9.231573595555001566e-01,2.821501476939317632e-01,-9.598937490712263765e-01,-3.954883264868058190e-01,7.787967945927440905e-01,3.893469235426785247e-01,-5.352140146565013135e-01,9.099932276236512296e-02,-1.112963689825888502e-01,-2.129809424613005320e-01,-3.204550830720621080e-01,7.447654929410486568e-01,7.243794471579740879e-01,7.975202049327430320e-02,7.680552267930716714e-02,-3.302889974369716541e-01,1.076995493622402017e-01,-8.353317993018714027e-01,-9.773946470028425926e-02,7.148753292840521745e-01,-2.978372243605815761e-01,1.040414361069492255e+00,1.047948462495815747e+00,8.773299681911500558e-01,-8.551628968447723411e-02,-2.277570100987896806e-01,-4.183891629654013511e-01,-1.094869894369947971e+00,-3.401396005188923599e-01,-2.567633177486664323e-02,-1.438141813627128007e+00,-1.972082145018835941e+00,7.781139713951082948e-01,7.348036039009351317e-01,-4.797438155785355707e-01,-3.841296733210081138e-01,6.162330827651150145e-01,4.951585166384299130e-01,-1.023456335935977179e-01,4.590404361269702638e-01,-4.157759780678096373e-01,6.591366581127654500e-01,-7.795756221319928292e-01,-8.724183521773012373e-01,8.536190393314510017e-01,8.216913957805812574e-01,-5.637591298287770725e-01,-3.319988786527973690e-01,-6.558384400612314868e-01,-5.454254656317517602e-01,6.366859542294830421e-01,1.080474412494592862e+00,-3.364688914584578194e-01,2.574030868927305593e-01,-7.691165176945958804e-01,4.750178599538707469e-01,4.881571252565644614e-01,-6.361558135783544898e-01,-1.243439177855550914e+00,-1.256999809708221338e+00,5.143035904599035923e-01,-6.279361046513811662e-01,-7.198856110004340225e-01,1.162516707388874249e-01,1.172879311700807115e-01,9.387560817533603386e-01,8.672820913726840830e-01,-3.346478027886516937e-01,3.176967596105991776e-01,-1.701305177442498651e-01,6.809137384126962012e-01,-1.483350107252180694e-01,1.236204277372091459e-01,-5.941421691904631430e-01,-6.630358603229089542e-01,-2.256200696820513107e-01,-1.030879675444032806e+00,3.941064784457501968e-01,-5.559332863182938622e-01,-3.383445537012261806e-01,-3.750674417046313547e-01,9.052668091835299746e-01,4.978434415160779558e-01,2.828743464036700406e-01,-1.264171477360692686e+00,5.198192825516044779e-01,-9.238516028433387817e-01,-1.324973279263526038e+00,-1.138073668182782550e+00,7.953399509463131289e-02,3.009967541622631804e-01,-9.530060486020595079e-01,3.221004076030586916e-01,2.957140427389260973e-01,-8.111928337951471168e-02,-5.123280844645188292e-01,7.358871243420096464e-01,8.637303662816997463e-02,-8.104952534359020078e-01,-8.211305837071363189e-01,6.488994983276845652e-01,4.829376464929912016e-01,-1.735835397940247229e-02,7.771589619616030287e-02,1.292677659957299219e-01,-3.942120149101644433e-01,8.790209169345296614e-01,5.695130123107396969e-01,-3.781449193006994891e-01,-5.647442837640733737e-01,-3.757726655657230297e-01,-7.253182000145642905e-02,-1.005087955361517738e+00,2.013969876705541118e-01,-6.751757403604683461e-01,-2.598080294335505247e-01,-1.192276444476991770e+00,-8.733084207106763808e-01,-9.831737025991292844e-01,-4.416645673373434944e-01,9.325920939476332050e-01,7.479226402855750910e-01,-3.654498967220816130e-01,9.899762458315218838e-01,-9.465660023384923072e-01,9.956847276551730741e-02,-7.104046623921352888e-01,-8.863904376557200093e-01,7.076303023084195010e-01,1.123545865962943119e-02,6.727712037755047003e-01,-7.924696899561413099e-01,3.741160530596039369e-01,-7.315571903919304564e-02,7.864534311127917565e-01,1.155875790387757895e+00,7.744715037549765313e-01,-4.616016679273663437e-01,3.005451642912749036e-02,2.746106783850771338e-01,-5.933018210572938989e-01,7.624630354396082499e-01,7.840584313376929293e-01,-4.488849461509118455e-01,-2.694934883848398299e-01,-4.566478338903571244e-01,1.445257255690873266e-01,1.686917511409390114e-01,4.565477406737382671e-01,6.419303550014804349e-02,-2.176021652105235293e-01,1.604417517982193730e-01,4.791192871065077380e-02,2.287074691135266846e-01,5.121106571798387241e-01,-1.044673901652574344e+00,8.036879073572088528e-01,-3.371557169051301872e-01,-9.599197284707340350e-01,3.954523801574985065e-01,-6.867252335173440470e-01,5.965210474732028922e-01,1.874440918535636991e-01,2.579761426829429993e-01,5.455364139352617547e-01,-3.458678148833327914e-01,8.118435425067095368e-01,-7.529783404334198238e-01,-5.247355151686813324e-01,-4.732668608462310966e-01,-9.819323338465014289e-03,-2.138261723308677309e-01,-9.937976810635662517e-01,-2.573432700801019102e-02,2.342770350875036378e-01,-1.002910686029083731e+00,5.340478892924887741e-03,-3.071918283739511479e-01,4.429750669409748820e-01,4.713414426391309697e-01,-8.395849804435168151e-01,7.429682621425583999e-01,7.509668423094859602e-01,2.947551998593241351e-01,-4.628982055162592646e-01,2.463556885694629661e-01,-8.841356892084893948e-01,-1.342582313948608164e-01,7.453386611908210391e-01,7.033630261739934886e-01,-6.828448226947192445e-01,8.427133880552505341e-01,8.525442754218534036e-01,-8.201676115310636561e-01,-3.961302610275135305e-01,-1.007386112280198143e+00,-5.277509994588304165e-01,5.622990512666793395e-01,-1.270747810706923442e+00,-1.073078708480712296e+00,-5.124005137724212400e-01,-8.483932067703687796e-01,6.282336023379990753e-01,5.350420620273989014e-01,-5.912634026840258850e-01,-8.331589004518024089e-01,-6.433020592740337218e-01,3.012289042211958867e-02,7.048942704482729082e-01,-2.141162446664239549e-01,1.079490466733955961e-01,-1.071455720949599844e+00,-2.138301621175596121e-02,-2.915051230192827192e-01,1.935445094938832988e-01,7.034836518110892944e-01,2.582093135307216292e-01,9.721993824271666362e-01,-4.412593587215236646e-01,1.164346158738817305e+00,-4.489837866817147222e-02,-4.176424832501518525e-01,6.659517847304818883e-01,-2.272883789613538152e-01,-3.599375743746097700e-01,-8.067111725685502943e-01,4.677415651497362492e-01,-8.909506477198357866e-01,1.955474292532929370e-01,-8.516285613280437650e-01,7.041862399902627523e-01,-5.177324919508505818e-01,-8.614625856862011544e-01,-7.259061002448969901e-01,3.992780531581902048e-01,-1.146212228580155562e-01,-1.324454508280784593e+00,1.512266259748522024e-01,5.674958142396649974e-01,-5.299996585181291353e-01,5.847172375849473136e-01,-6.180151985494023448e-01,5.181247764872696226e-01,4.627574238067481138e-01,4.639250163676215677e-01,-3.042209175266508137e-01,3.750017867839575691e-01,9.361159384106182424e-01,-4.599874082486209992e-01,-8.199869811729337821e-02,8.107792365358940101e-02,-7.818998253690072620e-01,-6.093372629462673329e-01,-1.326979533671039047e+00,-3.390554708476678416e-03,-4.007373445602615547e-01,-5.897325047394655906e-01,1.907528257913821690e-01,-4.856568743955053669e-01,3.284622963500100079e-01,-9.322644216133277872e-01,7.549749608616687646e-02,-1.132053113098453245e+00,1.149783862965585435e-01,-3.146081454881621831e-01,-2.968578386463758267e-01,-2.873438707109434928e-02,-3.105770778634520113e-01,-7.422201338544565097e-01,8.420537787839690314e-01,7.899710248428522263e-02,-3.003185800861947197e-01,-6.916138694020981248e-01,-4.548812611095670033e-01,7.441727731253646727e-01,-2.502372318706277965e-01,7.984573809896847729e-01,9.589275691330827467e-01,-6.916802334403845398e-01,2.631113618546176980e-02,-1.556883890676501007e-02,-1.208202859287960534e-01,-1.224713204787791332e+00,4.546893952470036915e-01,1.524678705498606901e-01,3.966029433266443083e-01,5.593281083986720859e-01,4.724707031410779190e-01,-2.631033368681739981e-01,-3.372948122100425383e-01,-5.452465871394259755e-01,-6.857522079939414039e-02,-6.609952917099177760e-01,5.422831689759483043e-01,5.268431597550338186e-01,5.694126622753123979e-01,8.851401464860603197e-01,6.504635043533005812e-01,-2.433643378550198744e-01,2.976397786018432634e-01,-3.711142737137307357e-01,3.420720644348187456e-01,3.022272501813711432e-01,9.113375049409577766e-01,-5.041593710367006098e-01,3.565796501377904160e-01,8.633947350608009996e-01,7.342660306914217117e-01,1.948533102031019815e-01,-1.102448269084656429e+00,-5.049137641296782553e-01,6.586233713373607079e-01,-8.580299273304514696e-01,-1.052841994218610688e+00,9.971397796691253146e-02,-6.387409255995343260e-01,-8.703229171171625866e-01,-3.334843205595769411e-02,-1.080053723342937921e+00,-9.807145049534200520e-01,1.810750895188835974e-01,-6.937112628888897348e-01,-5.323831848309519277e-01,-4.038538939106154912e-01,6.242912935050896062e-01,-1.018737815048948114e+00,5.607798585153509485e-01,-9.523869473166115540e-01,-4.146627747272277342e-01,2.682579058085868828e-01,8.432744547430168769e-01,1.043927982315199676e+00,-3.802500026302037539e-01,2.637587010379623953e-01,3.831667718792245436e-01,1.113887905860170724e+00,-8.345579166650900216e-02,2.997761989033176921e-01,-6.753614758063259949e-01,-1.179419077691211237e+00,-1.183329154968737473e+00,4.734554355090715982e-01,7.314644157591726481e-01,-7.398328057308887207e-01,8.610761272667382116e-01,-4.664262294344282966e-01,-4.857952518132652164e-01,3.262699857040549656e-01,3.186531686045325773e-01,-1.498502645390205508e-02,2.306215036323664147e-01,-2.019404656641263923e-02,-7.062689271917073075e-01,-5.010338025997957967e-01,-9.125029984004381367e-01,6.153804531478778150e-01,-2.550920019546231918e-02,-5.992287653592730523e-01,-7.244069434998057222e-01,-2.085099875025889227e-01,-8.713590061586631297e-01,1.112044921212962043e-02,-7.450212625343268780e-01,5.554030409997896545e-01,7.305209271881844824e-02,1.313892445407068878e-02,-2.428376982073738866e-01,9.634322923117441539e-02,-1.008463462794390031e+00,-1.378036894888817754e-01,-4.390401907456065178e-02,-9.440735191588577324e-01,-6.113093854601602262e-01,3.859062188561838691e-01,-3.689657293579763908e-01,9.070966049236712792e-01,-2.962318743509343433e-01,7.241111548138905452e-01,1.119916778686501635e+00,-9.733494037898378082e-01,-7.965512219983026387e-01,-1.760240556991450045e-01,-7.026041694956089434e-02,-7.578781785694552187e-02,1.511169835421911356e-01,5.994576180297085388e-01,8.453080720076245891e-01,1.073048931443237208e+00,-3.335968266566473051e-01,-8.838338994693512030e-02,-6.410233703053290488e-02,2.323826384642703191e-01,-2.803789242537912396e-01,-9.467523725587719818e-01,8.210202429963572301e-01,3.207122972240823711e-02,4.950626815126293878e-01,2.484245448905529619e-01,-7.484890740657290653e-01,-3.421697458725790897e-01,-1.305215135783915625e-01,1.402067641924854335e+00,8.708378728585679240e-02,1.178194142599152672e+00,5.160100859832321696e-01,-3.182672438828401118e-01,-5.730897608113963981e-01,-8.803694392557434023e-01,-5.166159665739210594e-01,2.294545693551855725e-01,-1.948695121986439849e-01,-9.602275167830472968e-01,-2.682673077826965707e-02,-3.870243422849307113e-01,8.561765657903619431e-01,8.586840643161214315e-01,3.569312020860143653e-01,7.729549289627506425e-01,5.924136841013850630e-01,-6.357542045619415383e-01,-6.871329057886710334e-01,1.419557377426747301e-03,-1.164019912562259673e-01,-2.263826791251171144e-01,4.469742130045851192e-01,-6.475773160652564808e-01,1.379686490653655451e-01,1.774896494694651328e-01,-3.646294309726033633e-01,-5.516072786905453634e-02,8.157366595113927366e-01,-3.509824104953349067e-01,8.276962732298489556e-01,1.088024654410600645e-01,1.392543207261805471e-01,3.434773870436645948e-01,-3.287764492289749207e-01,-7.609173246497903387e-01,6.829017448336963669e-01,-1.301929755525292332e-01,-7.926932936988279055e-01,1.010371517093401617e-01,-2.780493075804117697e-02,4.395250031478404318e-01,5.024861595197058217e-02,1.011364240859347285e+00,-1.729906010362200763e-01,-3.385864366224620170e-01,3.529425098385757797e-01,1.313210705321678384e+00,6.729552607559166066e-01,1.123596727656275718e+00,-4.948138112531979549e-01,-5.576624595641684057e-02,2.950824566842705221e-01,2.804335683614164743e-01,-6.411431485719519818e-01,2.605662334089376975e-01,-7.227366321166960317e-01,-6.431831675794270897e-02,-7.446160469964139272e-01,-5.500096239351490723e-01,-5.088834677934617884e-02,9.433780916005514161e-01,4.171944948122243702e-01,1.093933308743818333e+00,2.256080061157463290e-01,6.689261204588476950e-01,2.353208661309339200e-01,-6.523019185807882314e-01,-3.478476608677988358e-01,8.949194844654943803e-02,-1.058410250325954038e-01,1.276278838441615493e+00,3.460341746988010447e-01,8.092208624989714050e-01,-5.414307059592449178e-01,9.317637486531082924e-01,1.427378670423992968e-01,-3.462748418754672125e-02,1.030151745131631325e+00,5.995416113585132489e-01,-1.364424166722694620e+00,-6.431576021702929413e-01,1.799745875341127455e-01,3.272216779824420330e-02,6.377974626494203880e-01,-1.051397761368506600e-01,-7.174209586900334168e-01,-6.500380641350298472e-01,1.698520069913054265e-01,-1.430911406676867170e-01,-3.199002114705404853e-01,8.667768504296665677e-01,-5.501208989136152638e-01,3.622967105771311425e-01,-1.721909537947718394e-01,2.188679265871122936e-01,-8.182172597198655861e-01,1.307976673504591125e-01,3.281858274771345951e-01,-5.129713910349391615e-01,3.789416070215315679e-01,3.757983767672761766e-01,-2.107904521688840627e-01,4.333978426191834044e-01,-3.464675922051430046e-01,2.460788366888012890e-01,-1.042824620732962955e-02,5.846965431889949993e-01,5.868923971207670176e-01,-5.455929332460323078e-01,4.269790547530675218e-01,-4.878123518666326319e-01,-6.116078184775497473e-01,-5.790715402120713007e-01,-8.677094167295336113e-01,-5.780547563512463682e-01,-7.140277261389204044e-01,3.328250799727818232e-01,8.612305429603208662e-01,5.645799872120231822e-01,1.022165192049371146e-01,-5.779238389607198600e-01,-4.472416777700830015e-01,1.435995358062572558e-01,7.616220075129168654e-01,-6.633770458255312530e-01,-8.131771199624491242e-01,-6.831234639339558434e-01,1.866782514550634764e-01,1.071680377022954378e+00,-8.069580563338726309e-01,2.882301757729368030e-01,-4.941115842867430663e-01,-1.155411908382245612e+00,6.542250175771819887e-01,-3.442344560043478774e-01,1.716736004419382455e-01,3.041294175754447604e-01,-7.100420472059300048e-01,-7.930394778006873979e-01,1.355719496340407164e-02,3.594746857426392439e-01,3.107137373948259951e-01,-4.825233868164970907e-01,4.958911895162263495e-01,-4.302798077847977964e-01,-6.865604543622072509e-01,-1.064090274009068748e+00,-8.205211506326939297e-01,-1.092507752474020766e+00,-7.510189084337177690e-01,-8.525875919500157663e-01,-3.316979610833881709e-01,4.104391393292874390e-01,-4.011508458710033587e-01,-4.143736007585374082e-01,9.563568099174473147e-01,5.146727662141939996e-01,9.414637999238330002e-01,-1.036225799087146793e-01,8.555851645947194495e-01,-4.434431484857987438e-01,9.398385667404244304e-01,-2.389768023812873232e-01,-1.971519955764996779e-01,9.119431109150577530e-01,-2.736531815442696525e-01,-1.893251524666590413e-01,-8.612582422754608835e-01,-4.145710540123515031e-01,9.576146191180239242e-01,7.263124298580750926e-01,-7.319008673262289433e-01,5.515004771876962364e-01,5.593289724039068878e-01,-9.974915116425099315e-01,1.189922049083566996e-01,-6.870901506435844221e-03,-1.214347784641554240e+00,-1.525099234256274361e+00,5.692535028878326075e-01,8.392435159889077845e-01,2.625243546177464249e-01,-6.033603777644737098e-01,1.016266171965664933e+00,6.312016027022959719e-01,4.242070760793879014e-01,2.928638241395403186e-01,-1.205273786298158567e-01,7.147236284002022044e-01,7.569475482433938307e-01,-2.196419319811147575e-01,7.458544726429278127e-01,2.058992282179184785e-01,6.146639529955736370e-01,-9.257585726790130698e-01,2.479416263058639991e-01,-6.105124817432990847e-01,1.243602237988555709e-01,1.065790431335587485e+00,-6.781285966702649270e-01
-8.360860668164837861e-01,1.351293581845413039e-01,-8.489851309828787551e-01,-7.456269401157487042e-01,1.267924823689556280e-02,4.962455196734953389e-01,-8.197757755181194206e-01,-5.321486574722368301e-01,8.885594025668721585e-01,2.862739996315562530e-01,-2.326540656349429803e-01,-2.946457467334581692e-01,7.955843252958155754e-01,5.531955031778851284e-01,6.874006256913869350e-01,-2.411374609935504065e-01,-1.460229831582740556e-01,-8.497898463432433935e-01,6.264052280243455062e-01,7.799921921134905789e-01,9.259582101409158383e-02,-2.509749861050117326e-01,-6.218575414973345067e-02,8.495345973210052248e-01,5.114994665852377054e-01,4.132480880206247931e-01,1.062599489624158400e+00,-2.500641391648121825e-01,-9.117394113435403069e-01,-9.618070694474043503e-01,-1.913202709461522266e-01,9.143532326635518681e-02,3.708769066984777263e-01,8.680456456381022701e-01,3.228271718576857241e-01,-1.350613247955393115e-01,9.486888173156601267e-01,4.573083596430911335e-01,3.795807158641726908e-01,5.733833097718949584e-02,2.804447216897838491e-01,1.959935928386127568e-01,-2.379414470849249286e-01,4.883573153796746946e-01,6.849820633814833748e-01,5.327787055371807634e-01,7.721703701746749360e-01,-8.073701638250131429e-01,7.032117956952773641e-01,4.009952081634566290e-01,4.497014483775461091e-01,-9.686402757246748152e-01,4.429176582681149665e-01,6.902334026245948717e-01,2.299876729635289829e-01,-6.741933000100355233e-01,-7.154320551416012419e-01,2.929265530485908667e-02,-3.880716750441334240e-01,-1.006003381684725584e+00,-4.156731345317999926e-01,8.094104404765032346e-01,6.200010284249660719e-01,3.316063804514502444e-01,3.882561283945714509e-02,-8.371920512659540847e-01,-3.878243702941185367e-01,-8.942260492359668245e-01,-9.248217085782487468e-01,-1.380987742188854339e+00,4.501401131124290744e-01,-7.591515802113595335e-01,1.562974356541566578e-01,-7.650544322655128404e-01,1.178110278864023197e+00,2.000326126741348576e-01,2.490959700077453043e-01,-2.197317769074449145e-01,-8.584932453151378207e-01,-4.146466771581138744e-01,4.625250764528874847e-01,-9.304689158938686533e-02,-3.946293229626145482e-01,-4.701661755717513880e-01,1.665811431758223993e-01,-1.733536159819419054e-01,-1.963362987589223063e-01,4.482369956521590343e-02,1.978578553960239905e-01,-8.130176945400682254e-01,-5.584350872220240625e-01,6.849153082872107001e-01,4.862831338415344873e-01,-1.180995552646568303e+00,-1.076416131013119504e+00,-1.002326550904759195e+00,-1.593507804758824697e+00,-1.155894783457238839e+00,-1.994805273391479228e-01,-8.112084183201444532e-01,-1.288715339760983236e-01,-3.794885403736388829e-01,7.267262548523362176e-01,2.315938912479110212e-01,-2.947161444157384569e-01,-1.188446364126483773e-01,-1.016006095394079267e+00,-8.953437223055124017e-01,2.841208464300220560e-01,5.685260124354054589e-01,1.203245409707172087e+00,-2.537441655179309419e-01,4.778810996042174852e-01,-9.233940250348650070e-01,-5.970422222974427484e-01,-9.281409697535365488e-01,8.608035925760794127e-01,-9.520118946920597125e-01,-2.662878230312276662e-01,8.145959924087033954e-01,5.675049948106112435e-03,-6.825802247895186303e-01,1.650480959953835036e-01,1.483038309071106620e-01,-8.921873985756467729e-02,-4.159840657122164109e-01,2.943141036507231911e-01,-1.256957281127024928e-01,-1.200508877527786789e+00,-3.775805794548650063e-01,1.790046221975953589e-01,1.006086165927934761e+00,2.350557103633857670e-01,1.057609266333785270e+00,7.375419914368147589e-02,5.986396454011846391e-01,4.081770490150452013e-01,1.157972274917014932e+00,5.714110687984464212e-03,1.626360883503651378e-01,-1.036660444187548658e+00,-1.013252507283812109e+00,7.606472214587681746e-01,-8.801129984903579562e-01,-7.649999798333749768e-01,4.678491834575073116e-01,4.178499781763473364e-01,1.627880247617524423e-01,-9.970263860763075581e-01,5.115291310771747924e-01,2.555243382487678017e-01,-3.704230097708085395e-02,-7.561142113450817215e-01,-1.347952401315398507e+00,-6.806174587795166611e-03,-1.357843535069734431e+00,-3.797354642236894784e-01,7.282077728559519514e-01,-1.075711087497190216e-01,9.002324165197350681e-01,1.344667961890954944e+00,1.145985999025612934e+00,-2.405478763495805528e-01,-7.400089252009535157e-01,2.324983608624543729e-01,9.421421381963741848e-02,4.355938331633718574e-01,7.626108121717570798e-01,-8.264736600361799468e-01,7.413463463387744978e-01,1.377309977640954475e-01,8.952756067326471667e-01,-4.164763257718921696e-02,6.258343934799269759e-01,-2.551924576421283897e-01,-5.082014118279863935e-01,6.146605807463929594e-01,2.527255686457073880e-01,-2.077825013569121193e-01,-6.415066915419525007e-01,-3.639957659664528472e-02,-1.099445281257292795e+00,-7.279972532416146835e-01,-8.230082383771750720e-01,1.034197452841183473e+00,3.944335731287104130e-01,-5.909868281822653335e-01,9.130835715066848435e-01,1.340041354321158673e+00,8.816412171778875706e-01,6.304684645063000081e-01,-1.151502735177765274e-01,-8.658413576114475374e-01,3.774900951812769634e-01,-2.407680486088588090e-01,-3.515801062990847603e-01,-8.720691882462717759e-01,-4.556034073015757246e-01,8.866908503184062207e-01,9.543798654957933447e-01,-2.957628531721887000e-01,6.730673505811635149e-01,-7.406757949032025112e-02,-9.976385273899599504e-01,-6.991714832438665761e-01,-8.461507995769746993e-01,9.098561650240696297e-01,2.812516699917373408e-01,-5.089698600939428497e-01,-9.252731579036619358e-01,-2.490454493099576450e-01,8.181988054139716082e-01,-2.101452704875045596e-01,-7.783309429243686628e-01,-4.673080110765600037e-01,-1.107900545466669495e+00,-7.324995408730649027e-01,1.810416763288779513e-02,2.358354842938855944e-01,5.948726758930921177e-01,-6.409206780852810814e-02,1.582948685961554913e-01,-6.273142327258620643e-01,-3.946086776444088784e-01,-4.473190914212172298e-01,-2.030100767704592635e-01,5.946606442219155575e-01,1.024117681019607318e+00,4.806772654831735214e-01,7.873100693377019232e-02,-7.589103259779426125e-01,6.080112089078493209e-01,8.309896995558885280e-01,6.789458321586798739e-01,7.781633026680379039e-01,5.879482210778510382e-02,7.291662940062525466e-01,-9.866362761475657717e-01,-1.155754202646043227e+00,-9.236791845183417449e-02,4.924330923229153778e-01,-1.017118251278927854e+00,-3.813126421848654357e-01,-3.858243664237159809e-02,-3.240746285770009644e-02,-1.124282035429105875e+00,-1.195899622974485377e+00,-2.178093684695514010e-01,-4.513159398094194752e-01,1.569753254024819009e-02,1.088713985549659924e+00,-5.431253523176485798e-01,-9.477588650203226939e-01,-9.073639927861074650e-01,3.226765487093110618e-01,-9.566624271935462998e-02,6.190636515977306908e-01,5.006357554813415378e-01,5.670337044648043889e-01,5.114714733721255069e-01,8.996176468860298536e-01,-3.367948718659847795e-01,6.350083237468677755e-01,4.405660414902276556e-01,4.310038592801330171e-01,-1.376376858504621881e+00,-9.497553619101835043e-01,1.858875961431011650e-02,-5.361508155635137385e-01,5.655714297013261227e-01,1.803143760692656108e-03,-4.199106571541529331e-01,-1.086788987706384990e+00,-1.036438061396688148e+00,-1.366345341653537604e-01,-7.846951704262918881e-01,-6.300364869818275704e-01,1.059286818606794744e+00,9.829888929068011372e-01,-6.180760661102946418e-01,-9.519406240399795882e-01,-6.397198183894208245e-01,-5.162882791965689444e-01,-8.200596473334389458e-01,1.876827890255846898e-01,1.068044189199379490e+00,1.294672161506411845e+00,-7.001075630023112506e-02,1.739161562554865537e+00,1.345915669858066543e+00,-5.598827027873268802e-01,4.101205967502498106e-01,2.665000541130604361e-01,6.125292912222728425e-01,-6.718665162492106768e-01,1.607359725569074971e-01,-5.462385675751187941e-01,5.135219896618230528e-01,9.310150638638856613e-01,2.624802731029456382e-01,-4.940391178291219099e-01,-5.966635847311482221e-01,-3.397237491481008842e-01,-3.852899807025002010e-01,-2.576952074647772747e-02,-5.740760580214857578e-01,1.075364874183138530e+00,-5.103083817292218827e-01,6.331734435015654583e-01,-8.923832611184923103e-01,6.815540060899914765e-02,4.138873247102136110e-01,-7.162150085263074839e-01,-3.839155801962961245e-01,2.026620529394225212e-01,8.068210999026351193e-02,1.272287157913089217e+00,1.523552157202138491e-01,-2.749855366841092996e-01,-1.706579823756870090e-02,4.292054957927521341e-01,7.555248870028717922e-01,-5.037887982666328091e-01,1.003086078625214372e-01,-6.563560816704039347e-01,-6.505175468244787096e-01,8.632651931479676799e-01,1.750123415213581113e-01,-5.595508593040705581e-01,-6.395684712405521610e-01,-6.321129052916691915e-01,-6.752100724887644123e-01,9.619547155564898144e-01,1.054892032375604138e+00,-2.462346530909920173e-01,-1.584081736565133847e-01,5.698339426983529687e-01,6.611997418253500181e-01,5.112896649827400886e-01,-4.544478564421612354e-01,-1.040299547234407596e-01,4.563487790928700272e-01,-4.355994262111120841e-01,-3.235528809550630158e-01,1.622665158249834982e-02,4.285165176424132749e-01,6.235247859200599985e-01,-3.755692400110439699e-01,7.392107049310545630e-01,1.150856897855857264e-01,-2.637235932689468432e-01,5.667745038578796413e-01,2.011746474945174112e-01,-1.484794680215727469e+00,-4.105153154735795007e-01,1.233253899723833591e+00,3.069918708662891169e-02,1.060578009048610326e+00,-8.338538727375741644e-01,1.396540085220808747e+00,1.421289654244362266e+00,1.352928426140272700e-01,5.306171226938606322e-01,-4.790470415738289356e-01,-4.718384428406943720e-01,-9.124025682752321398e-01,4.945555122995204944e-01,-5.049872113922755368e-01,1.007611543941726862e-01,5.927411577558411304e-01,-2.594342070977931902e-01,-4.090126683482970815e-01,1.055081263215987386e+00,1.183383792682067698e-01,-1.067974271476898468e-01,1.248970319092984615e+00,-1.001072783691283385e+00,1.492766976233359522e-01,2.324447040036434764e-01,4.104755500776636201e-01,8.819106672396059832e-01,4.993523859607657545e-01,-5.496724859811911168e-01,4.734661118954703873e-01,5.202965319123107335e-01,8.209464509596934301e-01,-3.244728626484251199e-01,1.017095287683976945e+00,1.137452881286699746e+00,-1.654572503975591247e-01,5.947650900847186728e-01,-1.963782864710591353e-02,2.068597865466740848e-01,-5.473804809334446020e-01,-6.328562710420322368e-01,-5.306524713998778120e-02,5.067519924367525075e-01,7.476257557284078370e-01,-8.296035375816962487e-01,-1.012952652054640357e+00,-2.911554147959579675e-01,5.355557264254485750e-01,9.761047171081609353e-01,5.271870112225992555e-01,2.328799337733707397e-01,4.841848377636245870e-01,-3.908552672788219162e-01,1.407306976817426225e-01,1.392416748124972958e+00,1.770606659476175460e-01,-1.393321038012468316e+00,8.236292721641104431e-02,7.692971578432991064e-01,-9.044253395312081834e-01,6.618258166061310455e-01,8.538808801841478724e-01,4.103511536845107499e-01,1.542146252875965795e-01,7.767068433541683969e-01,-7.774636519681108471e-01,-8.570492536946927586e-01,1.745561966198648160e-02,-6.181401556576179290e-01,1.971402639916095545e-01,-4.784665813882420515e-01,6.636331402882502672e-01,-4.823763484458806761e-01,-1.023640698191093046e+00,1.033320025042112622e+00,-1.067967606383780632e+00,-1.562857295733243411e-03,8.972074178482472573e-02,7.560749660274401762e-01,-2.187305285929869170e-01,-2.050091244050500361e-02,-2.476469074553132588e-01,-6.186663143344749427e-01,-6.038814079800692847e-01,3.287912865126977335e-01,-8.813018033276187602e-02,-3.259804367349947163e-02,7.904593387073683974e-01,2.623613589604332219e-01,1.057882315689196107e+00,2.749734779779432481e-01,1.134040118618496518e+00,-9.346907419040186848e-01,7.006557634960628445e-01,-8.585466299527085843e-01,1.106629668676969158e-01,6.352127189836085375e-01,-3.010683814365289201e-01,2.603752915388414801e-01,2.782507712038063130e-01,-7.949739274858071969e-01,6.952359291424696774e-01,-2.444856311376180369e-01,-1.077467737843983198e+00,3.857230576029144764e-01,-5.848637457784736648e-01,2.333427328894329411e-01,-7.919718794166707987e-01,-2.231565992430773748e-01,-6.013304590721348930e-01,-7.495541954660681627e-01,-1.271657258539119262e+00,-8.375430899478408797e-01,5.347771936778928925e-01,1.073318137038122178e+00,2.909376294215736403e-01,1.357040028377968222e-01,7.138427162801970205e-01,1.873592347878908770e-01,-2.636197977422664041e-01,-1.202178097812381524e-01,-7.516574338399202304e-01,-9.004463055932590554e-02,4.028494034863365214e-01,-7.872543249503621832e-01,5.675717536278580139e-02,-6.748236566992715790e-02,7.138604602176474856e-01,1.846476051100704729e-01,-3.472570498389607740e-01,1.745136443449432917e-01,-1.836315922436875525e-01,4.305456359921512877e-01,5.174161886043004629e-03,5.392024254331109212e-01,1.003584796015226210e+00,-9.901068208714639551e-01,-1.150395324751298132e+00,-4.836978705976673343e-01,4.504030392656744319e-01,-7.491556662721603477e-01,7.134830131977376588e-02,-6.606046886442791533e-02,-7.324867531063282700e-01,3.341894856192508256e-01,1.023412472088105485e+00,-7.480432476936078601e-01,-1.843938255733423015e-01,-7.974523956906930389e-01,9.930278530277028004e-01,8.615022016163185192e-01,-6.319474003819678387e-01,-1.023977940654277496e+00,6.017120302593365055e-01,2.449105086109073792e-01,-8.943940740500716524e-01,-5.942211840433617720e-01,-1.088727402261666505e-01,-1.509036827110543377e-01,-8.349066367307126368e-01,-2.274536593333041090e-01,7.826775474778961961e-01,2.744514453187923975e-01,-1.378363693831751391e+00,-1.841061626378388133e-02,3.840614035800869741e-02,2.090800564663396199e-01,-1.367623114976754373e+00,-1.384626836741834177e+00,7.311085378581739791e-01,3.668209682566146990e-01,2.656557487921969440e-01,-1.017220836126771610e+00,8.026416624774054265e-01,5.016651096780431335e-02,5.975399097668840365e-02,-4.819504454886909817e-01,-8.826256914074238624e-01,1.031591890517833621e+00,2.483603778783952942e-01,5.724799201948416183e-01,6.074594712013511172e-02,-9.777811599121527530e-01,-2.940427288018396812e-01,9.473152438026512245e-02,1.795842441134958001e-01,-1.327712470956209811e+00,-4.155890954005436178e-01,-9.960533986184283428e-02,5.668641557468405701e-01,7.196366360709673948e-01,-9.822218815331681396e-01,8.434032558135228230e-01,7.046878170631457605e-01,-3.673998697487648180e-01,-4.870262955131041127e-02,1.013009593171980915e+00,7.364982196040599227e-01,5.623494160636749450e-01,1.242016496117733793e+00,9.124947209594990172e-01,3.943623441009019848e-01,-2.993761211409979861e-01,-2.684710889063547934e-01,5.233676818190331481e-01,-2.750834882077156651e-01,5.749464711792811045e-01,-8.558820556914513711e-01,-8.889100860791653291e-01,-4.963099072624434505e-01,4.140179412622751465e-01,-7.270749363367554619e-01,-2.908022858646088782e-01,-1.436172110335905694e-01,4.256049323605762269e-01,-5.739610642698836918e-01,1.115646657927939073e-01,1.341897143124864134e-01,1.084241170310424218e+00,9.567401604898794210e-01,1.398829309776777441e+00,-7.210014084403453261e-01,3.358775257862340463e-02,-7.226119140305746757e-01,2.161290323256726265e-01,3.959456429511511444e-01,-5.515008242005372541e-01,3.917052576994675683e-02,1.138197264222416072e+00,-1.115560996686196064e-03,2.189636898099165119e-01,2.869759929990666203e-01,5.472525530611014322e-01,-2.069706077115703591e-01,-8.374041678613178274e-02,-4.332249308590650494e-01,-3.227826729559278851e-01,-3.484381190906937209e-01,-8.603335548344337447e-01,6.814444757245404771e-01,3.725599488910107393e-01,-1.870145760958780157e-01,-4.739874822294906642e-01,3.203179620091552438e-01,8.799042491661186460e-01,9.528001804590562340e-01,1.303782647183377108e+00,7.799131350370204219e-01,9.616650783005420422e-01,-5.165766924033265983e-01,2.631988396989986545e-01,-3.436740592439698622e-03,-1.432366254813278172e-01,-2.291289785654417599e-01,7.926846928587442109e-01,6.728811442466410553e-02,-8.568049228296527042e-01,2.864313475982395163e-01,-1.278452955374282274e+00,-1.027362935462404980e+00,8.155817704225740705e-01,5.422222512713343878e-01,9.881436147118751734e-01,7.498681265687190400e-01,-9.273603072887965926e-01,-6.643068339350187701e-01,-3.879850537103513575e-01,7.781009445327934371e-01,8.738196767176624746e-01,-7.902753511555412613e-01,-7.358051922947560497e-01,-1.626159444311585378e-01,-4.274202788424138477e-01,-2.592225491808991533e-01,1.439611695790629087e-01,9.946288326190283469e-01,5.549947576435114716e-01,1.200853818998909084e+00,5.261717021593981247e-01,1.876690609602637005e-01,-2.205586702603883897e-01,6.614496570735922676e-01,1.184043052579244026e+00,7.115626570144329976e-01,-9.262738631324931582e-01,5.583961753671879968e-01,-5.210665152818486634e-01,7.676267651064579978e-01,7.316247637271814375e-01,-8.676102689333649032e-01,6.397306092452993420e-01,2.543742109671262575e-01,3.826648692659157525e-01,-8.583135590515870161e-01,9.371490920135387981e-01,-3.274878448944138487e-01,-6.617312928643406256e-01,-6.641610129424515563e-01,4.697458687713044340e-02,7.084949454318193451e-01,-6.370703776301832599e-01,-2.765297647389766689e-01,-3.203363320573750506e-01,1.132404410199799871e+00,4.253858635004429956e-01,2.035299656654458375e-02,-4.426884858184915172e-01,2.391428794725152240e-01,-2.929885830183215911e-01,-5.387889851124796348e-01,-6.398901642176412219e-01,-8.180704148093573824e-01,-5.507231319173057360e-02,-8.039799778817292575e-01,-6.775601526903477501e-01,-1.647919677629659241e-01,7.022452539015386908e-01,9.407581300269214630e-02,2.151327200474390661e-02,4.640212187203434091e-01,2.235606453354538059e-01,-8.052001906681202636e-02,-4.464881349730434046e-01,5.478275063361462971e-01,8.835550613156520905e-01,-4.535879002894205314e-01,-6.659533656085119269e-01,-4.416256677641252071e-01,1.620756403175388216e-01,-1.043062674926033884e+00,1.671804709319825444e-01,1.557987700274049703e-01,-4.531581967262032773e-01,-3.068977602484120326e-01,4.385771753822116370e-01,7.973824092742642922e-01,3.005081736263376380e-01,-1.884651025873185892e+00,1.056343853240588743e-01,-1.150153987508051534e+00,-1.172379244179145574e-01,4.050914093529978111e-01,-2.507671670402569220e-01,4.258159112679733016e-01,-7.404616249955777718e-01,-1.122321927985023837e-01,1.267259672189971376e+00,3.085354783966277048e-01,6.414967160577020877e-01,-2.482918455089554721e-01,-3.254484998181602640e-01,-4.317439262347440576e-01,-1.142925782937807555e-01,3.828121871062471482e-01,2.064088892829997191e-01,2.083651035073496027e-01,1.683634005329125161e-01,-6.699168247300797407e-01,1.322851081018107944e-01,2.179290135127087968e-01,-4.913807592757927223e-01,9.112928018810063646e-01,7.805811732136850312e-01,2.844092094873221233e-01,7.032306877345807505e-01,6.666925169482051938e-02,-1.181207667202385014e+00,-7.892272301218420383e-01,-5.947690691894283455e-02,-5.542519646408883283e-02,-9.275609105920977759e-01,2.661598460108485775e-01,4.992106526487751217e-01,-2.653611968374175456e-01,1.576769718378372709e-01,2.888514638246881261e-01,-4.111007850971237776e-01,7.946751961033765577e-01,8.995935855427007466e-01,6.011901072047284300e-01,-5.414714410766617858e-01,-6.653863680997222918e-01,-5.808372725227166633e-01,3.151436069765728987e-01,-3.599501123388107460e-01,2.807420517177075525e-01,8.360948940194931067e-01,7.019871662021711645e-01,-5.784130656571248585e-02,2.528765968145877951e-01,-6.375017701156120431e-01,8.993168188628909432e-01,5.918162388317045330e-01,-3.727264549100601787e-01,5.855800272879770896e-01,4.867793554758910179e-01,-3.016723489221166954e-01,-5.623797330112200177e-01,-3.734320258078340782e-01,-2.812955091601100910e-01,-3.846109978814730712e-01,6.788798372580008289e-01,1.672580089191642513e-02,8.743671038021808561e-01,6.052695070288663937e-01,-2.457109121470593405e-01,-2.854535130274101773e-01,-2.210481632691651821e-01,-8.268057063142271179e-01,-1.061915591431477957e+00,-1.310540294828710373e+00,-8.516014005405203591e-01,1.494992348904629342e-01,-6.192042250108714674e-01,-3.807499816693719619e-01,6.399920607638396319e-01,1.168144358046438125e+00,1.859847238151198789e-01,2.938223036661916088e-01,5.258697060641975840e-01,-1.062495290758591171e+00,-8.539148231429135594e-01,2.154026278044721965e-01,-6.833803631064445661e-01,9.242653072065794284e-03,6.785305076013219416e-01,-3.339131294326556643e-01,-2.917580361999124738e-01,-6.722842254990200050e-01,5.409936986496449718e-01
-1.047654563807329520e-01,-1.047981480866194914e+00,-2.216791217131000302e-01,-3.658806380290922089e-01,7.691104102747339244e-01,-5.954245783365489514e-02,-8.291063195306063172e-01,3.635409159812413860e-01,-1.284688514207155685e-01,-6.740263798571430875e-01,-4.608276297843324487e-01,9.218394477345860372e-01,-8.287082835824918225e-01,-2.939092191850999347e-01,-7.107581031420466822e-01,-6.737225753917612803e-01,9.321888153075413852e-01,-6.573968680631440131e-01,-4.186140263578040921e-01,6.193224875864762335e-01,8.962941121387035803e-02,3.302958317365112251e-01,4.243868290473337690e-01,8.593186499678260315e-01,7.774532802619213978e-01,1.657389661232436529e-01,-7.187685364541159805e-01,1.185016575238221348e+00,-9.707323746235761996e-01,-3.274143564753181912e-01,-6.824149803637907796e-02,1.132845590696103938e-01,3.692065154633485391e-01,1.972321468573397796e-01,4.898146325333374573e-01,-5.475584269865149123e-01,-3.255165480714625192e-01,2.258282614039043845e-01,1.644425843430066814e-01,2.159555584879700382e-02,-7.146606086478126674e-01,1.481004511599206264e-01,-3.423489635384388552e-01,-4.495001985496039354e-01,-5.822413800787640259e-01,-4.086776188981313673e-01,9.896823941263668267e-01,-6.028101176171823949e-01,-6.589590492795054377e-01,7.561005456348525167e-01,1.068951028878826065e-01,7.803190481070289009e-01,7.336527384857309819e-01,2.645682699982921937e-01,9.372729523063653145e-01,1.137710475411473077e+00,-2.311907763575198407e-02,-9.956488167433941161e-01,7.180703064901481358e-01,-1.034398948308994093e-01,-4.321962804327858509e-01,2.313239876671621398e-01,3.884544330222030051e-01,2.300420543023021791e-01,1.615114918487419449e-01,-4.038517882250493574e-01,-1.580739407642242078e-01,1.229317007259945471e-01,5.359476493587489454e-01,-3.393422609677296808e-01,4.169649478611899274e-01,-5.910208000602945599e-01,5.886482707229414579e-01,5.852177424030013432e-03,-4.620053072172732866e-01,6.658623917541227621e-01,1.372291568490130009e+00,3.222288233170140237e-01,4.467128035404455133e-02,-5.821930703616697844e-01,4.401601605581159093e-01,2.665538065555069225e-01,-1.061316342866133189e-01,5.479382887277283176e-01,-5.153744194434929371e-01,-3.131630739134200203e-01,-4.856719709180527533e-01,-9.807437290871042768e-01,-4.455420092032042478e-01,-7.697880953695480921e-02,-4.163589784218491019e-01,7.977360723388633446e-01,2.332002155814103528e-01,1.191262565733818696e-01,2.589553772650539376e-02,-1.154299319828192782e+00,7.569690285674653962e-01,-8.739683001352851477e-01,-1.423306395475747999e-01,-9.515800673676196864e-01,-1.176114704425432533e+00,-1.091662510954180820e-01,-4.384768256166379774e-01,7.161387408143924382e-01,1.303386534956511689e+00,2.781914039810751138e-01,5.048405008187639709e-01,5.539003130631713345e-01,6.178226845433226755e-01,2.837838261017707753e-01,3.535197167214300107e-01,-5.970752006979187509e-01,9.059109749468138850e-02,-1.112252969178770812e+00,-1.870288223903089908e-01,4.174194538787323050e-01,3.158872063807034447e-01,-3.287062513709347322e-01,-3.168735211206085700e-01,-1.194121716407990225e-01,-3.918610539308357565e-01,1.048865887639419681e+00,7.181121483429810937e-01,-1.157291051851816466e+00,-1.508683640099886869e+00,-7.470924817739436063e-01,-1.536886725886665861e+00,-2.774330565578300156e-01,1.442833983468335413e-01,-1.231633324424030063e+00,-1.078445973467274388e-01,-2.679691735339410075e-01,-4.036587772920235961e-01,-4.045196092791595865e-01,-2.439307564683247109e-01,-3.996413605226197818e-01,2.659773841695312613e-01,1.158728260866140225e+00,1.332455908665093440e-03,1.093674939885864311e-02,5.229944498753285043e-01,-7.700493599351843077e-01,-4.629463175774193862e-01,-1.863327850488676607e-01,-9.982108441947466770e-02,-5.687678941509083375e-01,4.234804972337517792e-02,9.384657984890638627e-01,2.258655479923306619e-01,7.610712704380125926e-01,9.751295004383695453e-01,4.647139893104937358e-01,-7.750172589711642468e-01,-1.001276448243191508e+00,1.597133969854234725e-01,-2.095871081867101693e-01,-6.118962162867974675e-01,-1.277550887106961186e+00,5.696351207389627191e-01,-1.011914395359856389e-01,9.863190989958138255e-01,1.569775176021505902e-01,6.154149109706295029e-01,1.261293456411884506e+00,5.679193725755493638e-01,6.093239098442673196e-01,6.099133110443840655e-01,2.922227986856220650e-01,6.969220923814185564e-01,-6.075454367140304957e-01,9.207753447937773172e-01,8.351814301559240539e-01,4.667918507141577966e-01,-7.761302504279278258e-01,-6.558142902301747901e-01,1.020287735538244034e+00,4.069201343297683404e-02,4.714016190625702207e-01,2.047453675761210998e-02,-8.638778068475778671e-01,-6.629597017030293138e-01,7.074251710224596090e-01,5.538456632159539650e-01,-5.575791514752730382e-01,8.031268120941793542e-01,-4.524214680278108580e-01,8.673185836106174218e-01,-2.509394929444210276e-01,4.519470538599715259e-01,9.093071013205571429e-01,6.575349995144956772e-01,-3.548770641534241821e-01,-3.314858185029194715e-01,1.103657452775724135e+00,3.232513415668262780e-01,-2.651659883819756924e-01,6.977348938920866495e-01,8.674319021524328210e-01,8.552844300685822354e-01,-8.395974778043799880e-01,3.893753875018386990e-01,-8.816883383095951432e-01,8.153420469269552495e-02,-5.561291988904815131e-01,5.995318593780240013e-01,-1.290846522797695350e-01,8.648556158597738852e-01,3.897209079695220790e-01,1.175787031739390989e-02,1.691098747735359786e-01,-5.306785156067487241e-01,-2.339226238536221969e-01,-4.257409407409352975e-02,-1.107199971861180243e+00,2.477797049561833165e-01,-5.568489476642349834e-01,-7.267741292233030614e-02,-1.208344542062489202e+00,-5.465234697481042847e-01,5.721867485583953528e-01,-8.404802900007168898e-02,5.944521077601717662e-01,8.448269465410093160e-01,-8.995813438330865219e-01,2.816316034828404979e-01,5.828122769840641260e-01,-2.293592275198408012e-03,8.497390942796985147e-01,8.148608070155886063e-01,8.354899514690682372e-01,-2.665427817057410831e-01,-2.345354001465590477e-01,5.605828027954332660e-01,1.053630695456920563e+00,-1.119361277995407633e+00,-6.817690395103168655e-01,-1.618572749671277344e-01,5.120070779226026936e-01,-1.174478927119365773e-01,9.992773822961406038e-01,-9.275710417531106700e-01,2.501586222353205727e-02,-1.674535701539420440e+00,-8.837278394965532025e-01,-1.070366820513560802e+00,-2.677958532948663817e-01,2.703690086795948466e-02,4.490974622718160170e-01,-1.019689448308467972e+00,-9.285578150097421046e-01,-1.789726522839512612e-01,1.194868807912430608e-01,-5.052496990624506523e-01,5.513420712864475215e-01,-8.232178431087164294e-02,-3.584176210167450138e-01,-8.618423840388625967e-01,1.048682352100275272e+00,6.279325991984402444e-01,1.478236867431948209e-01,-2.474444300531052632e-01,5.319214018246244402e-01,7.692122615530925245e-01,-7.813745539110835692e-01,-8.686825199200867154e-01,7.472326550919656807e-01,-5.461013508751405565e-01,7.074369709814302132e-01,-1.699475091899976531e-01,-2.491979921977727497e-01,-1.557420842612956102e+00,-3.560887094520107099e-01,1.598984269421447890e-01,-1.703985560634500851e-01,-4.530955272263836875e-01,-6.617790376373304806e-01,2.916289442146007271e-01,-1.774167010915573672e-03,-1.399130493416912147e-01,1.366829483274338009e-01,-1.532843531910884072e-01,-1.131975727728544850e-01,7.958187380585379778e-01,-8.548228090327879558e-01,5.734280456839865314e-01,1.045539474272490166e+00,-4.526429836121113048e-01,-2.185063775315892465e-01,2.044084539703601433e-01,6.047870673394818430e-01,7.528219830063240803e-01,1.834025592887128797e-01,7.039253043116919795e-01,8.322234169147488259e-02,-8.586308143468041054e-01,2.914795801732636971e-01,-4.585514185581269775e-01,-6.549424807183457098e-01,-1.044869528511167989e+00,-7.203706384000926333e-01,-7.431450795125258413e-01,-7.329407598612338592e-01,-5.707288758502743198e-01,7.558577387984536378e-01,-1.485913368754402164e+00,-9.181088402007936411e-01,5.528566400466078390e-01,6.580147357270690889e-02,6.387673696001969770e-01,-8.291608084932428069e-01,1.988312838756647050e-01,5.101687420191705069e-01,-4.893214276357558262e-02,5.031393706223616924e-01,6.316328864484903605e-01,1.505383990182384557e-01,-5.112342658711743759e-01,7.528717011097029177e-01,-4.888330585585399235e-01,-3.766366050466728455e-01,-6.324656993463180221e-01,3.163609473981397746e-02,-8.178188149119792749e-01,5.730665378911895536e-01,7.876205646604013122e-01,-7.837947268644054333e-01,-1.004923509369238577e+00,-2.899218165459179763e-01,-2.726680357290008905e-01,5.562684472296990368e-01,-6.353375175427208310e-01,3.279058983540670824e-01,-5.988415095475617678e-01,5.920640550433880350e-02,-2.844017054172954251e-01,-5.182224044357598425e-01,7.914987708523357757e-01,-7.576726790261765210e-01,-8.685248546840833306e-02,-9.476724738943835546e-03,7.548379474430959302e-02,-1.818024086891139313e-01,8.393371244414092880e-01,-2.992902087260498889e-01,-6.084187676424322039e-02,8.344926448279756936e-01,4.046741374046549100e-01,-9.448821338280033455e-01,1.687929135534315117e-01,-4.023905537687779699e-01,-9.751768920178357503e-01,1.656898015236227817e+00,-1.112766133845315142e-01,-5.255409133428546459e-02,5.589761761239094850e-01,-5.528162287908765515e-01,3.288838850195398567e-01,-3.899204276655158230e-01,4.953328560542422099e-01,-1.782388168371389914e-01,-4.365758675057391791e-01,-4.377057617924688393e-01,1.103483511266773354e+00,-2.305632527393290110e-01,7.464440490792706440e-01,6.489076291484956460e-01,8.416689598957725060e-01,-7.062243493127018379e-01,6.446640172619556575e-01,-9.551669026127742601e-01,-4.089215394029021566e-01,-7.189674383372683941e-01,-1.898612985987005730e-01,1.411878295971840558e+00,7.164708543859501511e-01,-7.566681146929348234e-01,1.098259943111144360e-01,-7.152974537731978666e-01,-1.262960285234731028e+00,-3.025764036436537005e-02,-1.935426479932547406e-01,4.541859770457885026e-01,4.062484536657725576e-01,2.002803917589759120e-01,-4.114757353001654572e-01,2.652591249712861754e-01,1.045208938533982224e+00,-6.421485359035095097e-01,-5.944512497141769547e-01,-4.713523273899353216e-01,-5.997965381419242403e-01,-3.684106118006846842e-01,5.774452191149948010e-01,1.782853337331966326e-01,-4.350299924461342171e-01,-7.651941404409630110e-01,-2.390616873157928035e-01,-4.086726007009301442e-01,3.375752822411012106e-04,-4.531215388992726467e-01,-3.686134030096200331e-01,1.594199036868104713e+00,1.862070875083116306e+00,1.903678038731910771e+00,3.120246093057517101e-01,-6.978006483155619888e-01,8.668056418899492410e-01,-5.680455696279127498e-01,6.479226870881629186e-01,5.740192142875070180e-01,5.641334481355649855e-01,1.552306336984087265e-01,-3.554105511071816714e-01,1.554683091481387613e+00,5.856103773128655821e-01,2.837317171317418341e-01,-3.272539977320631510e-01,1.192941973243589304e+00,8.064723244017127923e-01,4.933242725512170246e-01,-8.186735450113320489e-01,-2.997391532043516271e-01,-5.141622475369260759e-01,3.874227575536035029e-02,-7.058669627205619301e-01,1.822655645515876277e-01,7.942762268981482521e-01,-8.533495722051136489e-01,-4.082233094736635315e-01,3.222833230743217259e-01,7.047562040353589907e-01,5.040670692108512041e-01,1.014556891538942185e-01,5.565085108440589456e-01,-2.016475213939905031e-01,-6.059043150827112534e-01,2.298373445655734794e-03,1.305814692755516981e-01,-1.258725803303061497e+00,-1.506989705780332978e+00,7.343094257209857867e-01,1.216590468954663384e+00,4.297540088219563015e-01,-7.223232574807099127e-01,-3.422385480433784988e-01,-5.737252772077493512e-01,2.144089305987603722e-02,-4.239295571200236146e-01,2.439282179845877752e-01,7.021334323152375045e-01,-8.786570279868272104e-01,3.466372916374364510e-01,4.650507971813209185e-01,8.680926342627516556e-02,-2.132806438823979522e-01,9.784583664731418828e-01,-3.560246160972759255e-01,1.009428724117712894e+00,-5.087535062958563614e-01,9.664345052875861208e-01,8.063383818512002144e-01,7.831144860459844370e-01,1.210090301651937095e+00,-4.660644929496587929e-01,-6.483006762663443001e-02,-5.623847231148484394e-01,-7.003422114440316371e-01,-4.296806327546802695e-01,1.784694839493997792e-02,9.709225759787883936e-01,-7.615005100197306254e-01,7.125226862256950344e-01,-4.737111588312692412e-01,9.551613923827566577e-01,3.759713755228210053e-01,-8.068086851221918376e-01,7.371928813974750749e-01,-2.293757789444621498e-01,-3.124691575897301510e-01,3.927610917501304227e-02,-6.104765180379053691e-01,4.183308574976122296e-01,-9.032092569383305680e-02,-1.073081446902752756e+00,-6.977345646060348905e-01,-4.333094711491350393e-01,-7.157072335261847051e-01,-4.559849114622290811e-01,1.521701747978546349e-01,1.839855496120675060e-01,1.424885972489491559e+00,5.598909681362452817e-01,-5.884286723967613320e-01,2.794993383790939090e-01,-2.175614825690154186e-01,6.124666035045301937e-01,6.053486594920709507e-01,4.054574358738289863e-01,3.082893497724293330e-01,-1.089675265674956983e-01,4.141817056418333753e-01,3.266016133523248488e-01,5.473017338035254253e-01,-9.143765668388668111e-01,1.711964575382479981e-01,-7.026637532713805312e-01,-2.180340633247081494e-01,-5.590934083925357401e-01,-3.661918870891840427e-01,-9.954617908021481387e-01,-9.584928890743186214e-01,1.000362748523362516e-01,2.213164432401318049e-01,-1.371548761896791147e-01,-9.392313201327419092e-01,6.860547815970770291e-02,-1.059392503538662683e-01,-1.806875476037356765e-01,3.446529502398308353e-01,-1.384610912378727576e-01,-8.362956350416909934e-02,7.960658312827482153e-01,-1.029227635970854982e+00,4.162620493386805232e-02,-6.727124920676960107e-01,1.893588730016433908e-01,1.219015098197512477e-02,4.474357215182627190e-01,4.782442819940805334e-01,-5.288433902558485888e-01,-9.952861824078239605e-01,-1.929513878460498710e-01,1.071800274135417674e-01,-9.358108041453377934e-01,-3.257853577576420162e-02,1.645542367710826903e-01,-1.711100180515062463e-01,5.533708861555618475e-01,-1.230626614963360871e-01,-4.925101880346889893e-01,5.641492501080150879e-01,4.806779570119382727e-01,4.787219585956519960e-03,-9.964257211545257675e-01,-6.306998097230658296e-01,4.645590141634705073e-01,-2.794139773425061146e-01,2.193380800341137582e-01,-6.082145301103589752e-01,3.814956006605761396e-01,-8.355371621312638331e-01,-1.069839396049474978e+00,-1.243525294505649637e+00,-6.487420454897389055e-01,-7.662420641841705127e-01,-1.097090589166075603e+00,5.171072651410717480e-01,2.574782686734183312e-01,-4.541027405379136073e-01,-5.124723130612047761e-01,-4.115280863212098655e-02,-1.465529672584812426e-01,-5.938149320737799997e-01,6.496435641546676187e-01,-2.300284404420715467e-01,-4.928866557509353208e-01,-4.047470351305174630e-01,-6.389989146449275292e-01,-3.736340332167746858e-01,-8.545457449095648084e-01,-7.094520400169403995e-01,3.950560832904014830e-01,3.234836184554597538e-01,-2.493924777325942088e-01,4.521592885488607411e-02,3.369920927795179155e-01,7.042318114758068237e-01,2.705075771048758293e-01,3.178354174015377565e-01,-3.920409672267972656e-01,-4.358287598774689131e-02,-2.020131493868474945e-02,5.297001754260280970e-01,7.660143699522223848e-01,7.118800227543990999e-01,-1.098957922399357079e+00,-6.699121113215864565e-01,-2.369598368761348939e-01,-8.021705543554458195e-01,7.176066738558234404e-01,5.917608899085506913e-01,-6.854761744577710092e-02,4.270073329857441147e-01,7.607601540373313265e-01,8.815599914979285190e-01,-5.662345002725305276e-01,-1.975337681838877923e-01,9.556340012129981021e-02,-9.109519469070685993e-01,5.734312041360429824e-01,4.131950749847565496e-01,2.694275027941012701e-01,3.262493768536204874e-01,-6.133706789555127825e-01,-2.758530336399855898e-01,-1.477336998388695255e-01,-3.789316197101497696e-01,4.177661044822467140e-01,-5.455019326926560108e-01,-2.166053087829327428e-01,5.093180240106180978e-01,-2.982721298694766543e-01,-4.052426564961575939e-01,-2.849808569992617890e-01,5.170878471775536278e-01,2.269011974120998532e-01,2.141553370504250264e-01,6.235943574980414850e-01,9.266768784195932307e-01,-3.258642004901487598e-03,1.253978849282849639e+00,4.750832897380146136e-01,-4.400778080740007092e-01,5.721424048973430265e-01,5.489246973985896227e-01,2.381123287158330437e-01,1.023774035887793588e+00,-7.756757570994673445e-01,-2.132842885528280219e-01,-8.388075982322694690e-01,4.212142536734913428e-02,3.443345950591102933e-01,-5.996353958980358279e-01,-3.347690627625744125e-02,-1.215405795165417913e-01,8.922722995902376830e-01,-3.943931823938957582e-01,-3.577537158458768962e-01,5.326504522165202704e-02,1.633475734937757384e-02,-2.553537909310852339e-01,3.896567056955957953e-01,1.459735316646258996e-01,-5.049466437864432722e-01,4.115381631936087525e-01,5.591752244636027935e-01,-8.275402813482487518e-01,-5.578397044442678920e-01,5.764508121741250823e-01,4.270054084150217699e-01,-2.922533784581752281e-01,9.471738559823084103e-01,2.893847845600057145e-01,1.789743269268598558e-01,1.276422146156151183e-01,6.964042397152266917e-01,-1.133689894718560076e+00,1.916755472904120572e-01,-5.173360012798986496e-01,6.997014863707438082e-01,-2.224704375964378644e-02,-4.066855810356508338e-01,3.535195934332276829e-02,7.284180772320854036e-01,-3.773610775518619342e-01,1.923053299034837016e-01,1.622285805163159178e-01,-6.960612119402157516e-01,-4.781730721826813468e-01,7.531632567390511568e-01,-1.701345661418980637e-01,-4.144001500007139793e-02,-9.946780408353292913e-01,2.379596952235404211e-02,-5.151893606763697786e-01,7.685557681290634824e-02,4.604898240528351172e-01,-1.045692696918753661e+00,1.105720713904980862e-01,-4.131178756790433448e-01,-5.131991558435247125e-01,-3.282820594564938577e-01,1.764922330247976345e-01,7.882233044496799179e-01,-9.407720769937913952e-01,6.961392131569051900e-01,-2.246580027044238759e-01,3.615207164481381019e-01,-7.370077006026398703e-01,-1.691507584631527228e-01,-3.626653436337796133e-01,1.476441572576460970e-01,4.847656817461774015e-01,2.727700159885309561e-01,-2.932923633836498345e-01,6.649541221829653459e-01,-7.990183977628121381e-01,3.375618558309776418e-01,4.298455044089605770e-01,-4.859009086368445418e-01,-9.746457118905963238e-03,-1.235291535219401743e-01,4.338983837088410955e-01,-1.003170712955824717e+00,-2.175988987496039473e-01,-9.755918314459224305e-01,-2.529140417390556284e-01,5.751347278304990152e-01,-4.966796112660954443e-01,1.647140936117318377e-01,-2.147685174614623327e-01,-1.994604931733246211e-01,3.113651039174133994e-01,1.089528218714047370e+00,-5.422799938751490453e-03,1.680213264908002602e-01,1.026127443112434090e+00,9.134855653880119553e-01,5.498175953319779374e-01,7.155579235339859512e-01,2.576174021390350566e-01,-8.557421779018272723e-01,6.171657335674092248e-01,-7.211604440113236203e-01,-9.721161540697810244e-01,6.985723670313617184e-01,8.583241606923025513e-01,-4.948847798679936738e-01,5.156983904460683554e-01,8.305074886365175768e-01,1.017843285565573019e+00,1.020842651258269118e+00,-4.026837873329697781e-01,-1.649442159715484163e-02,1.671185286745434928e-01,-9.016451593762245809e-01,-3.260978865828356166e-01,-8.054862159362626839e-01,4.856271221910561930e-01,2.720508864326868226e-01,1.384406356674780514e-01,5.293627411663832660e-01,-1.221071796257578029e-01,2.547085067647411605e-01,-1.221503414874731130e-01,4.458515130203051791e-01,-3.897885282284813124e-01,-1.137427632627157958e+00,5.078614770341671747e-01,-4.537678482478674780e-01,-4.229021289587078236e-01,-3.531308173413732349e-02,2.096683646237500198e-01,1.475207133247373736e-01,9.250150190643657844e-01,9.100753624833008981e-01,-3.366342861160612765e-01,1.361575546793933444e+00,5.537390472206014103e-01,1.118012214603828491e+00,2.543938626613729270e-01,-2.679076440823939254e-01,8.396734692446520265e-01,6.453412361190843383e-01,2.323924253998981559e-01,-1.351524452800933807e+00,-5.956106909240466152e-01,6.592376007428829565e-01,4.376387217522785811e-01,5.737700963582633706e-01,2.233525316171151576e-01,-4.535882712176085296e-01,-4.012500377881163538e-01,-2.017100575401565565e-01,7.381656191694323521e-01,1.518811693871055524e-01,2.321271433052785049e-01,-2.494634973301180503e-01,-3.212096486772019199e-01,6.246472485663071700e-02,-5.982254296841611474e-01,4.006813587111567043e-02,-6.801927410927921525e-01,3.131258756201614757e-01
