akj:
6.783675084563862701e-01,3.204086629048066293e-01,-3.761138424900897781e-01,-1.881584121527551945e-01,9.535669156654134060e-01,5.296075904741993634e-01,-5.056856681054950897e-01,-3.555845869664766012e-01,8.291817553706473110e-01,4.666180826294474282e-01,2.141719720722521092e-01,-8.538233537416517471e-02,8.045765744992834367e-01,3.833119295984185187e-02,5.121728171623544101e-01,1.036922726341064915e-01,-5.489913941155392108e-01,-1.369655368635438186e-01,-7.577406901022458729e-01,6.984597582171396812e-01,7.886323008901007237e-01,-2.395333908051893168e-01,5.570800444335639590e-01,-7.835311608168712416e-01,2.572682396008897365e-01,1.003319745475005575e+00,2.213664861854970807e-03,-1.211045455656694081e-01,-1.810919599025749283e-01,8.872551665596779547e-01,-2.467065086934581153e-01,-3.486004872884222450e-01,-5.269985201644004080e-01,3.300160074772157115e-02,-2.078610625553327651e-01,9.394148692015763524e-01,6.981082409362415753e-02,-2.082584018609225096e-01,-9.939886236796761088e-01,-8.682136665314859059e-01,2.055276393808107838e-01,-3.333605065534969714e-01,-1.086200378256099441e-01,6.363125695069345999e-01,7.829937458131849271e-01,4.887735965983750624e-02,1.467486126150016890e-01,-8.397470741835030283e-01,-6.149461620058811473e-01,-7.478697716284052888e-01,-3.291599580113317713e-02,7.351046179307635375e-01,-4.812714315711949520e-01,-5.320605461332524877e-01,3.134338098260999184e-01,8.158046173725117534e-01,8.979813703304625472e-01,3.331208511616073897e-01,1.095306478178901921e+00,6.031012051059333468e-01,-1.752885250418567686e-01,4.979932106245123502e-01,2.340021032467125006e-01,5.662037271766260371e-01,-7.369630453081519317e-01,8.862509574310316607e-01,-9.213474589784578228e-01,5.900750598008810965e-02,5.460820446973358583e-02,-2.803881126982448180e-01,-5.799636851354408318e-01,-3.090013833229991458e-01,7.466085514839165826e-01,-3.990635106494105355e-01,8.471363749582495606e-01,7.105863705479196213e-01,7.004878657960029731e-01,-6.983419751499488903e-01,5.122939712816406699e-01,-9.872271802331297197e-01,-9.636781550774088378e-01,-3.894217708988125803e-01,3.930300481647689970e-01,9.671591780702677443e-01,3.771103237669047679e-03,8.960019332642085166e-01,7.514087746129887169e-01,3.659726468137607380e-01,-3.221839447801808642e-01,5.587129050305055245e-01,7.873515795640526616e-01,-8.088075137947265958e-01,3.657062209890534626e-02,6.341045711796662321e-01,8.015156282960692047e-02,7.098902572354726104e-01,9.626974007811750500e-02,-1.528582538350597153e-01,-7.211107620700706045e-02,-4.243558803904369237e-01,5.479873862628367176e-01,-5.717611717098438628e-01,2.901214296562670825e-01,1.176150399147380288e+00,5.419455978692300224e-01,5.635768612120913845e-01,-3.825666984628568051e-02,-6.949943976655991174e-01,-5.957223513948893823e-01,-3.413843769359978242e-01,-3.944094130771935158e-01,8.599204524524208804e-01,-3.220628352862997534e-01,-3.360107750704536267e-01,-5.391429937101247655e-02,-8.229461653372481811e-01,-8.078173889353285064e-01,-3.877946487024593325e-01,-1.130922251846708665e-01,1.068947116045515511e+00,-6.482207214219407598e-01,7.031470919444573475e-01,-8.135855735914617748e-01,2.530426320288842734e-01,-8.724106687634607393e-01,-1.863095053576552529e-01,-1.319592295679564042e+00,-6.063229297239240978e-01,-5.538273661721517804e-01,-7.481564959075016896e-02,3.110020796888904315e-01,5.294365580777209424e-01,1.626037412667377946e-01,-1.415526596582083740e-01,-1.608084345378510416e-01,-5.553369845061576493e-01,-8.209468620926233529e-01,-4.010486732545319732e-01,9.295611379600499102e-01,-6.867714572075606094e-02,1.998376193547688473e-01,-4.284413594334768316e-01,-1.065873388732013621e-01,4.018822147166674630e-01,-9.159849114166766781e-02,4.725677595168061296e-01,5.114800237444124820e-01,7.518059661578938568e-01,-4.700052444441117916e-01,1.151172753545534722e+00,-6.644198073983530461e-01,-4.430058505269603430e-01,-5.704270815222772795e-01,-3.942496015087451622e-01,8.206147368986758117e-01,5.891980065004370770e-01,-3.144935190400958702e-01,-9.816131442364128823e-01,-6.943941560099341492e-01,-9.820452290860437472e-01,-3.787556729080115425e-01,-7.741245868501442917e-01,-5.246657215949163122e-01,-6.808269779254458864e-01,-8.819021292037850790e-01,6.455912055179359454e-02,-2.730615133041619513e-01,-1.954941557223860427e-01,1.737305745086135389e-01,7.723229112411450492e-01,1.858253301056832507e-01,4.655271968548883588e-01,5.395810243563226027e-01,8.263711725163330746e-01,-6.229284317089861522e-01,6.658984680229613762e-01,4.425958564772219384e-01,-1.158497404226174754e-01,9.583521936109223871e-01,8.202746247805347002e-01,5.223522088308765188e-01,5.481197954407226458e-01,4.191882257789938254e-02,8.756494655295072871e-01,8.694032020834207009e-01,8.319210790344349071e-01,3.963757061940863524e-01,8.758874578358356588e-01,4.594134333480889842e-01,-8.147834647084730708e-01,-4.698465263974456185e-01,-4.939124116484120974e-01,-7.612227715913498782e-01,5.514179214975097887e-01,9.979625352498041613e-01,5.781110179657146242e-01,2.392166062268742330e-02,-7.910720298535543066e-03,-7.820971162328553827e-01,-2.247130598127507484e-01,-4.399369308298850534e-01,8.943081326963583377e-01,-3.608966754122854281e-01,-1.070593415907806489e-01,3.004750638285691444e-01,-3.116386092304630415e-02,-8.146535966917065608e-01,1.955936073992097304e-02,2.978986979853647313e-02,4.176752331707032084e-01,6.871272747966382655e-01,2.311636134388219896e-03,8.281596301637210722e-01,4.292082792274851122e-01,1.048577975525470718e+00,-3.293879243476599550e-01,-1.086901496693187141e+00,-1.460949631876819588e+00,3.317065161954568242e-01,2.371867162431225695e-01,-3.702077521631697565e-01,2.082500347172026867e-01,-1.910936028541252718e-01,-6.872390741028086003e-01,-5.826055300566077011e-02,-1.266604943718219745e-01,1.107567181513908317e+00,7.184288495151265330e-01,6.088219693436649482e-01,2.496927378513227602e-01,9.042452700328310611e-01,7.778630270649392608e-01,8.779197454690714775e-01,-4.948158092349717596e-01,4.266365231173764316e-01,1.098481661139582677e+00,6.028763880623756455e-01,1.044317177584290990e+00,5.581247242728653024e-01,6.089515020344457574e-02,-5.579887330993849037e-01,5.104537764954517609e-01,-9.800747417482192914e-01,-3.330691869764678681e-01,4.044455091132641011e-01,-2.862157970448475641e-01,-4.708771383497168950e-01,-4.107147328889377280e-01,-7.676348362360941868e-01,-1.001405078372110458e+00,1.365205905552828447e-01,1.021618286143046866e-01,-3.743589019246451044e-01,-4.716554605176141446e-01,-3.123636410548706333e-01,2.924051561653688847e-01,1.462105215415154258e-01,-7.512642827692885827e-01,7.849404887797035713e-01,-8.793508976912810526e-01,-1.006049229401483780e+00,-5.200853888398651037e-01,8.907719646616719666e-01,7.709172606134843120e-01,1.155753304589793584e-01,8.111898874429673834e-02,-1.057175407644587173e-01,-8.591477885466068942e-01,-9.270698761152492695e-01,2.820970926355658159e-01,7.250150649791934354e-01,-7.940055128884082603e-01,-8.734207147620398626e-02,4.872784309551476678e-01,-2.606222250367921656e-01,5.107848607344331882e-01,5.887325283650221008e-01,-1.349646278063474369e-01,-9.339905779824625442e-01,2.688631257547812181e-01,1.010171249445317443e+00,5.846420407068120273e-01,-2.298392658329085347e-01,5.100195311468374015e-01,-6.217493089291054043e-01,-2.082042014205074953e-01,1.725557806733388167e-03,5.947758295734256739e-01,-9.371963999804370227e-01,2.548719470903350603e-01,-7.015427027641371049e-01,-5.476789713073191290e-01,-2.766902440104290206e-01,1.667700828181979400e-01,-9.380071162889436209e-01,5.369621117648345487e-01,6.288055725155963227e-01,4.070632281765897975e-01,1.102717890571335735e+00,-6.344215783482034521e-01,-8.229339711999112961e-01,-2.606174884086925880e-01,4.081962160443165094e-02,-3.432900207388468461e-01,8.693718261139531112e-02,4.588941996905236687e-02,-6.620495242644178768e-01,-2.396890795268205032e-01,1.873208327116036853e-01,1.169847096548730508e-01,-6.229142279531986182e-01,-2.392327771201364361e-01,6.003602000517499482e-01,-7.851552880602649109e-01,-5.126922879306647918e-01,-1.822178259635379438e-01,3.773280183610024374e-01,-2.157658641966479773e-01,-2.355257831806259750e-01,-5.355304363604962425e-01,-3.642827177089651425e-01,9.505644662416375124e-02,-7.387000462873231088e-01,4.320274705060829223e-01,5.950898125828175678e-01,3.518912886453648414e-02,3.733840652576062707e-02,-3.012296969364673394e-01,-1.408179276049783546e-01,-3.194334284401791346e-01,-1.960299078754017821e-01,-1.020866804585329080e+00,-1.079214857052792853e+00,-1.029843010076433307e+00,-7.987823140658009691e-02,-9.716979244721485331e-01,3.288877327537786943e-01,-2.274646426441475633e-01,-7.692333426586277223e-02,5.270036660140070550e-02,7.442708017385142316e-01,2.124803017404918448e-01,2.641966403669258542e-02,-9.980438831200490191e-02,-8.660036066452700410e-02,-5.634527339196405277e-02,-3.255840488713120928e-01,3.610839403974081541e-01,-9.836220733344234191e-01,7.852788608943201965e-01,-5.411342438470501115e-01,8.069671951717375391e-01,-4.259840419422033508e-01,4.530687698714652711e-02,6.133322958978721928e-01,8.709567398550646100e-01,4.036570044601679452e-01,5.561841069981853236e-01,3.724804312919122729e-01,-6.414599945567657224e-01,-1.192528772244806579e+00,-8.117960989542818417e-01,8.190854538248004690e-01,-3.259549428758741207e-01,6.384428751079925801e-01,1.941658170109906295e-02,4.343797178634681844e-01,7.778265067546370481e-01,2.461975963186298078e-01,4.334214090482310655e-01,1.051972109452378845e+00,5.310138566331877863e-01,-9.858616487158247121e-01,-7.240131461028586068e-01,1.555293604086696035e-01,-4.590000792582840661e-01,-1.001769528154190736e+00,-4.744560284715558240e-01,-2.591181294103137578e-01,-6.132120770955452604e-01,6.178447004904616957e-01,4.279062797306638077e-01,1.026142654657578174e-01,-1.116804479533192590e-01,-8.523242786057702025e-01,7.119080129833578185e-01,8.515274825833576422e-01,9.243355965537239927e-01,-2.902319598299031855e-01,6.710470460295705486e-01,2.548418413295000517e-01,3.837851613389395844e-01,1.770618765310993381e-01,-8.054083259984087251e-01,-2.615714871122660767e-01,-2.611906723061739877e-01,-2.231393715009600265e-01,-5.449140833083301327e-01,-1.486915084085653205e-01,-4.018230920390428174e-01,4.698210702853146681e-01,5.064369369203072097e-02,3.152187806109346679e-01,-5.698180075946505108e-01,4.139710653733594259e-01,-6.501365749085928902e-01,-6.736266338421673661e-01,-2.497938428222888085e-01,1.116038577550707428e-01,3.064196369310161483e-01,4.609397976211232484e-01,-5.469494379632293679e-01,3.781176196210658813e-01,-2.313229274832354632e-01,1.485573214967174371e-01,9.404954150091173748e-01,8.904996550400886557e-01,1.900196204101530228e-01,-9.559028877125984591e-01,6.765372124665228748e-01,1.067305156324115378e+00,-4.394582685006871436e-01,4.337819352829935249e-01,7.948820953556595681e-01,1.117901517424245261e+00,-3.235572594514159461e-01,7.806363953021382418e-01,-3.501374252770672602e-01,-3.674056190508172004e-01,1.103260521791952914e-01,-5.311188455853752544e-01,-7.277417984768137504e-01,8.539525858146680692e-02,1.980793930108673551e-01,3.817572299082933607e-01,6.498992860403419725e-01,3.595031649402907759e-01,-6.975625632121656983e-01,-6.160595744764024717e-01,-8.604628655391982628e-01,1.046118767659381721e+00,-6.088440759341221531e-01,-4.882621500317767538e-01,-3.583292619653314359e-01,-6.860522392889335519e-01,-6.883061792092726172e-01,5.324358406089125806e-01,1.472900190277077748e-01,6.577147360839059598e-01,-5.575121072595568689e-02,1.794883203862491783e-01,1.040487613561343672e+00,6.457517652142956699e-01,-2.074567507253583520e-01,7.521525327874648559e-01,-1.233275258672771324e-01,-4.160948351724071403e-01,5.054625149739334217e-02,-1.124032812370492386e-02,6.742408950502143394e-01,-8.461095490963488341e-02,-5.642709068277763917e-02,-8.840381909014556339e-01,7.826268093167840778e-01,-4.969093811000175887e-01,-2.134616145654031072e-01,-4.998832537156665951e-02,4.956479225541768341e-01,5.845326677046215336e-01,2.954088423310348155e-01,-3.787338517717727671e-01,-2.420685699585322925e-01,-3.166489573606355856e-01,2.056226745331432848e-01,-6.786115072947611626e-01,1.031671095951015804e+00,-3.904399896810660797e-01,-5.388677089034640266e-01,8.983640567372097596e-01,7.169284848086404649e-01,4.088507543879830730e-01,5.223772804845991935e-01,1.417746330669264754e-01,1.034279612046363761e+00,-9.334208362857833174e-01,1.053372728860547808e-01,4.501240955299937174e-01,7.856202664090602417e-01,-7.221202612952865030e-01,-5.586316963689759163e-01,-9.801491344635208103e-01,1.753790120066157920e-02,6.834372846944859747e-02,-4.825478648849697572e-01,-4.358192472143535556e-01,-8.182792796546944913e-01,-4.060720284742461716e-01,-6.004890247948472259e-01,1.918254810788371234e-01,6.519236824901502025e-01,-7.602646515780721037e-01,-1.464451979674592508e-01,3.361969478443397885e-01,1.488843864070350242e-01,2.776234209488372962e-01,-4.981663030221629707e-01,4.485458419156658216e-01,-7.848076924575255742e-01,9.758491461351034291e-01,-5.306317348714202353e-01,4.551425856007640380e-01,2.826000901414459088e-02,-4.624042527927480495e-01,-3.316092829678021214e-01,1.275386364317862842e-01,4.821297416985283468e-01,-9.007670433964931611e-01,-6.733769853286311058e-01,-7.456710379768799468e-01,4.166435370873907140e-01,-1.319828226482250566e-01,-3.482517103762433064e-01,8.849775682273898214e-01,-2.061521227305367077e-01,4.208191699326468416e-01,-9.207486734068848211e-01,8.085108201943865813e-01,-9.735737900708978376e-01,-1.113822196312074936e-01,4.538928548854823108e-01,6.956350126239129184e-01,-5.493658984096579934e-01,9.681347898933982954e-01,2.138983176367515726e-01,-1.250522699161461804e-01,5.962607421570187416e-01,4.802009033040998132e-01,1.410245354836311138e-01,-6.425899543810661418e-01,-1.569471123367262855e-01,-9.648956185806085717e-01,9.210858925607432468e-01,-6.200726699529414132e-01,3.167145921805205044e-01,-1.365556305169057794e+00,-8.368799319456760033e-01,-8.915316315049981455e-01,-7.169560123735553292e-01,8.467128516934997740e-02,5.307680706712325502e-01,8.925781456772564626e-01,-3.977544733441377295e-02,6.026880055830164951e-01,8.128024618193396833e-01,2.086261749041148916e-01,6.880492978427975581e-01,5.516597740037028075e-01,-4.677391656193896075e-01,-7.910494414676525476e-01,-2.642831925223991796e-01,-5.280369844657236689e-01,2.064951153828988584e-01,-3.750459910676982589e-01,2.769397276962592414e-01,5.823429382903720919e-01,-6.710618841447352212e-01,-5.460203210621894510e-01,-6.638727576924645657e-01,8.962164368695289818e-02,-4.508869700417938442e-01,8.859917485238549828e-01,4.786180994781289999e-01,-9.429526054640228194e-01,5.976114634681732873e-01,5.425756773482468542e-01,4.326632380894831487e-01,1.106952074855880985e+00,-5.806842598396809718e-01,-2.439541408502877151e-01,-7.596795904975757185e-01,-5.698223410789962085e-01,-3.297036905180952271e-01,1.385946837747268900e-01,-3.014411369299700993e-01,-4.031504118576453299e-01,-9.990971665145828018e-01,2.303877500667859402e-01,-1.989444061329772306e-01,1.803789947103431324e-01,8.312186553246594944e-02,-2.907945828366140795e-01,-2.115401042600567327e-01,-3.997116972040907212e-01,-6.823131778633296785e-01,9.605349672739702527e-01,-4.763171875763640983e-01,-8.197177480805077909e-01,9.786668865677161655e-01,-2.919522059534538361e-01,-7.028812903992367467e-01,-1.239179037021108210e+00,-1.235309646312375137e-01,5.334950688834984023e-01,6.487325298889381475e-01,4.093253804976453858e-01,-6.327132794867119936e-02,1.105417632233319791e+00,4.887115278926139617e-01,7.766679392063180476e-01,-5.380875681567395263e-01,-6.440799795219787072e-01,-8.781818184803520388e-01,-6.926480869529249018e-01,-1.014779683426762169e+00,5.193040087796976234e-01,1.509356078729204020e-01,-6.057723488951305413e-01,-1.145833098767525676e-01,4.373702747248060518e-01,-8.035341179458703742e-01,8.747462052482555261e-01,-5.726536625901123001e-01,5.071678716750802618e-01,7.224987575518495575e-01,-1.206808163001128753e-01,9.100037216565097786e-01,6.244286921096569021e-01,-6.108118993228001115e-01,5.026307533328487898e-01,-3.277744917648120482e-01,1.063769573826920167e+00,2.910593010888972154e-01,1.438278562241172287e-01,1.297179492785969890e+00,-4.371136845820305927e-02,8.078632027433525487e-01,-4.278573131077540448e-01,2.177486973072047804e-01,6.591491505513118465e-01,-2.413219256830971549e-01,-1.201892987810799542e-02,-9.877364261985244198e-02,-3.522100295631290234e-01,1.352505055685288005e-01,-4.772851114741817891e-01,-3.615459002885364481e-01,-1.180861752900336514e-01,-1.616700936439801617e-01,-7.795094265625567287e-01,-5.705861510910661405e-01,2.336436454770801641e-01,4.309428112164310348e-02,-3.775524734345818145e-01,6.538957203430596499e-01,-4.216849667591873740e-01,-2.510802807144110749e-01,1.691240255541444359e-01,5.544356623289539154e-01,-3.535639085102268986e-01,8.180500451106091919e-01,-3.826339940070270784e-01,1.452583146410942050e-01,1.647519069713911932e-01,6.142633928390766052e-01,-5.038470697995950376e-01,1.351321473363894521e-01,-7.870156089517690301e-01,-7.540767458883245178e-01,-2.863247776989618076e-01,8.933339719034663062e-01,-1.474163185475702853e-01,-5.983855200057641710e-01,-3.371031045667827741e-01,-7.463956858939705709e-03,6.179745527833114815e-01,5.111832552648865047e-01,6.633608961684868133e-01,5.478006896908503842e-01,-1.819109905771623126e-01,-7.830663808250783176e-02,-5.479592631952558968e-01,-2.751539143879883631e-01,9.543108369426424042e-01,4.178044778913809210e-01,-6.450524843575595746e-01,6.358125495214297374e-01,1.250582174386094314e+00,1.071450181197038498e+00,-5.251906792677162317e-01,4.638473228938905790e-01,2.156340168137533542e-01,1.019745996448959691e+00,-8.965733309130820006e-01,-8.271566375538742522e-01,3.126703414996588326e-01,-7.201601859315753806e-01,5.738204768904230785e-02,-1.204115678235673920e-01,-5.112635825622688368e-02,-9.743978954242819845e-02,1.559504464465923668e-01,-5.322294178332136472e-01,3.447566696530526831e-01,8.867821135359643669e-01,8.786987287564591576e-01,2.652458045268275000e-01,1.252218722541214302e-01,6.510259797809074822e-01,7.685069974538588644e-01,-3.190365939369433496e-02,-1.836912772515086334e-01,6.887971478482657339e-01,-7.863768055189691575e-01,-1.318667601683500001e-01,4.812704251678264766e-01,5.603793092010792565e-01,-3.686209772957601549e-01,3.396082555543586956e-01,-5.750245564344415028e-01,6.944593305474873468e-02,4.900581797043933041e-01,6.753602498052959646e-01,-5.086929685326905259e-01,-7.291818965605314506e-01,5.936803842752913507e-01,7.688349194159076472e-01,6.192212369157021890e-01,4.640483349830550053e-02,-3.127693995307412322e-01,-5.679278906099396451e-01,8.382533321454017639e-01,-1.028490577031824005e+00,-5.967561555259025541e-01,-2.913840087691728087e-01,-1.370127354949642440e+00,-1.178179368524104875e+00,-1.736600206678258207e-01,-2.200124017209298677e-01,-6.391596623146373890e-01,-9.699675430620681160e-01,5.433207127656219937e-01,8.404458487753408910e-03,6.847632286639044885e-01,6.668622207853671657e-01,-8.244965328451171471e-01,-7.442810455057066177e-01,-3.333085943240065574e-01,1.029723920650990721e+00,-8.376136635097032324e-01,7.571429003164235061e-01,9.100033955178754574e-01,9.267837421543732024e-01,-9.330790975132882137e-01,7.910704356048404717e-01,9.130471996350185693e-01,-2.445268396302212877e-01,-4.190257027410947410e-01,4.197771307200495045e-02,-4.677818412044940644e-01,-6.560613504178917088e-01,-4.048603151907446684e-01,7.813497098923471995e-02,1.403716144070305538e-01,-1.013349661471626556e-01,-4.113028734488550220e-01,-6.242292054666932488e-01,-6.333245129500192361e-01,-1.220715007623361936e+00,4.303002748069634231e-01,2.646223853478721355e-01,-7.315667045112052014e-01,1.024961924294813809e+00,-3.095280172997092460e-01,-9.257719400511231767e-01,-2.993042219099781992e-02,-7.364062009167227085e-01,-4.932477634246424936e-01,-8.733192420298929726e-01,-6.316100069114356785e-02,3.935048548298863968e-01,4.667369838537235860e-02,-6.034284452937952459e-01,-7.505935655529800687e-01,-7.873963596169043511e-01
-5.465959196242450302e-01,-8.865757649591236023e-01,2.038375870636622289e-01,-5.854636095465168832e-01,-5.629236814408568046e-01,-7.147767580518737951e-01,8.138663792380388395e-01,7.007980075189955693e-01,1.547905529600067664e-01,2.432193362743280685e-01,-6.925290153696721518e-01,8.150465232273187421e-01,1.139147009993235482e+00,1.007431225791053597e+00,-4.371910849743284588e-01,-6.876242981196529769e-01,1.027507005622499081e+00,-8.030579678573287472e-01,6.817437139775632815e-01,-7.573366758939416021e-01,-3.411454551552032255e-01,9.285991935000581510e-01,7.289541712467085821e-01,-7.250443067878130643e-01,-6.189786444239430141e-01,6.480419263903719473e-01,-4.640277756838029344e-01,6.271222372925036037e-01,4.642922965485957176e-01,3.066115767848709428e-01,-8.880901572808712618e-01,-9.506446813196395285e-01,-2.107046434030336868e-01,7.209146494628109192e-01,5.498939933852690087e-01,9.204017109081692460e-01,8.090534539118787727e-01,5.612319659746775047e-01,3.853160322062587073e-01,-8.131497524431392510e-01,3.783983171430840842e-01,2.109962543461580964e-01,6.480889941113743280e-01,9.528999360098889815e-01,-4.503419887968469482e-01,-5.041306513679492951e-02,2.827586696623909379e-01,9.692420385066465860e-01,4.775395887715432053e-02,7.156447324888242090e-01,2.062866559839330594e-01,-6.740882946611096438e-01,-4.527043320202392973e-01,3.725167644317887161e-01,2.225927557679376334e-01,-5.226489795079645173e-01,-8.146062878137312335e-01,-5.001653982616844907e-01,2.698154671032282903e-01,8.180019124835148370e-01,7.167297727880712621e-01,-5.530651050358895704e-01,6.677010466335836503e-01,2.889738552522475024e-01,-6.641096645298131262e-01,4.157838829428358030e-01,3.325047038264297705e-01,1.052942342463483838e+00,-8.123379289282031124e-01,8.043361237929528285e-01,4.195235280403348810e-01,-8.355563050329198882e-01,-1.595726931762253206e-02,7.178210418842816409e-01,8.539656015004121192e-02,7.376331534625593656e-02,7.572968442158948266e-01,9.889634054840478194e-01,-2.393897121337608125e-01,-9.216811813356547978e-01,4.805532050031959823e-01,-6.905650379371941483e-01,-4.929324981520732396e-01,7.729386176723516966e-02,5.650473684916677009e-01,-9.172311208881231970e-01,1.315069978792246519e-01,4.270853969980666354e-01,4.271938300161052249e-01,3.987411625207940014e-02,3.773042637116965081e-01,8.419086153533471562e-01,4.273058601526074640e-01,-6.735754720992701561e-01,-4.362019659800208116e-01,6.199178150159914136e-01,4.816092262799082091e-02,-6.996066610762151639e-01,-7.825795526208552122e-01,7.529312990723645571e-01,6.104460307486287984e-01,-5.125845188181099576e-01,-8.039468495513739654e-01,3.976479977348699318e-02,3.728987650886479988e-01,-1.983825012738569260e-01,9.802054337628793856e-01,-8.063381535164843017e-01,2.715903965945083431e-01,2.744096321240085956e-01,-2.568032641200874155e-01,7.584391625879491894e-01,5.108835991009851307e-01,1.809138921316852389e-01,-2.145669290314880240e-01,-4.789993478930129611e-01,2.533861342502493064e-01,6.388449994513111241e-01,6.694157885229505833e-01,-6.263339201072880558e-01,-7.536287646129743445e-01,8.152338802756761149e-01,1.620154197630793436e-01,5.857364315423456702e-01,-1.168313856839896664e-01,8.433369876366705320e-01,-3.836493141446936650e-01,2.369377919596427351e-01,-3.480966621978962561e-01,-2.885332678010365526e-01,1.085985649749108495e+00,-7.470627183450255782e-01,9.508334025547817703e-01,2.043915891277453892e-02,7.463173152889227557e-01,-4.775594811342465662e-01,-7.062223041363236975e-01,1.676851177005625193e-01,1.463327451375422417e-01,7.927820464326834626e-01,-1.050525362684778807e+00,-6.090513643028870883e-01,3.360356634769953721e-01,-3.345361482872815651e-01,4.552608623528098808e-01,-7.831705443557378521e-01,2.951133322647682689e-01,3.042732972674438985e-01,8.389429796825067509e-01,3.338681641191590388e-01,-2.874578647015970101e-01,-7.316898117919260480e-01,1.846714861208927083e-01,-5.405320378931729453e-01,-4.296045917013310844e-01,-6.892115477186369077e-01,6.682608619750273204e-01,8.070250734668681369e-01,-6.276474302619677870e-01,1.004045675231249185e-01,8.027169962709175197e-03,8.445174609456858050e-01,-9.333274934101694065e-01,2.904506931044065765e-01,8.459855573650834626e-02,1.675238995201815961e-01,5.000712316460610429e-01,3.452433306713130201e-01,-1.785550708349097904e-01,-7.547642193610837325e-01,-1.133382407475431730e-01,-1.905542971418389409e-01,-3.006390036772928487e-01,-1.810926534814140954e-01,-6.238224832819116300e-03,-6.750752183210000368e-01,-6.154347948661704759e-01,-7.396231171355772682e-01,7.989791717799854531e-01,5.359708936184138794e-01,2.757122489317765934e-01,1.023130220996303352e+00,1.001783994429754632e+00,-7.736092555336326893e-01,-7.782657432719775059e-01,-6.597100483492250866e-01,-7.938224230511548019e-01,1.022797728566334108e+00,2.147557479858379359e-01,9.445054463515262233e-01,5.328405552593542538e-01,-3.801132144750624664e-01,-5.328855705639009427e-02,6.128574330589333652e-01,2.377477007024065558e-01,6.530561247281215786e-01,2.809648244851303267e-01,4.641286748196364331e-01,-5.734672354747710754e-01,7.260855327323928465e-01,-6.991841591363379127e-01,-3.696013739583119961e-01,7.317055020119910269e-01,-7.221587485456457678e-01,-5.125065566833653108e-01,9.273464370119338662e-01,8.468571714825962049e-01,1.896041856584359808e-01,-8.371754737852953321e-01,5.882338905219819392e-01,-1.985450064258091618e-01,-4.353513222924900172e-01,2.913772637391808251e-01,1.335748691768123830e-01,-1.037983617013690685e+00,-6.761864043973106475e-02,-8.737629600010500264e-01,6.555367946361134734e-01,5.334849145259795700e-01,-5.833712620847549823e-01,4.978651428564913606e-01,7.662714822407913351e-01,-8.046801587911186493e-01,-1.302956473410734617e-01,8.608158831876485673e-01,-5.682251046464478206e-01,-2.111053760674766466e-01,-3.942565910769950388e-02,6.579853276069832502e-01,-2.999953185254114474e-01,8.800027973024289185e-01,-8.555815016131602946e-02,9.595507775058484956e-01,-6.655318301643465828e-01,-4.581690788714745666e-01,-2.444818041421196186e-01,5.473784531438564693e-01,1.509253663403642975e-01,6.139072610387772411e-01,8.083778218926330750e-01,-8.033995053927337482e-01,1.924055618883926122e-01,-1.087943614421889027e+00,7.266832657437032328e-01,1.419751048706263952e-01,-6.678088031388863532e-01,1.054442380318240780e+00,-3.946078305696951727e-01,5.648851515149529989e-01,2.120034661910686069e-01,3.388545811877598235e-02,5.623455344219480123e-01,6.655900356887936575e-02,-8.015274476865545950e-01,-7.249596014924137855e-01,-4.206435524615392829e-02,-5.682633030468500213e-01,5.096781994522219250e-01,-2.542874929843995657e-01,2.992076954685424783e-01,-6.466426197302982404e-02,-9.546400124138754162e-01,-9.533888981545425301e-01,-2.023651773481427996e-01,7.403882107694909065e-01,4.993333255121891745e-01,-5.242670284347132892e-01,-4.850272891243866402e-01,-8.464792738234885316e-01,3.942339899266427139e-01,-5.825988195059931402e-02,-7.536405392307952977e-02,-8.372570190666665801e-02,-4.109400018565799451e-02,-5.959758102589459705e-01,8.814951118414323661e-01,-9.602877084833790766e-01,-1.396958751194719017e-01,-6.676069930953845710e-02,7.562259062274103716e-01,-8.440272668597583738e-01,-1.533772429177971686e-01,6.029677055545556996e-01,8.651422026175134006e-01,2.163936334008993300e-04,5.370854319438302937e-01,-2.171084567238229790e-01,-9.076713626316392780e-01,2.473890933019199934e-01,-6.194746881710702091e-01,-7.345161584350271555e-01,-4.073718000639781761e-02,-3.608579271117602905e-01,-3.632380589550038980e-02,6.420729201278422282e-01,6.153239169897052330e-01,3.349414146725185892e-01,6.456770980951389571e-01,-9.909242517364436065e-01,-4.896053968412252266e-01,3.057682605684852173e-01,3.378560591060654206e-01,8.460679733820124504e-01,4.042289953071533937e-01,8.653700519307320205e-01,-5.969786027475438850e-01,7.090144334359527178e-01,-4.290547573620357436e-01,-1.281953413351309135e-01,-1.743608500613691159e-01,2.346627491791211939e-01,-1.140808081147878655e-01,-2.271866316258373264e-01,5.218606649423157551e-01,-1.670750839696218404e-01,-6.071476549682672808e-01,9.423590143226868721e-01,7.945958193279621939e-01,6.227512266920425255e-01,2.355076292852383846e-01,7.222469436035146018e-01,1.333678602455769802e-01,-9.676091230777222885e-01,6.765480723544482489e-01,-3.256256632850390575e-02,-7.501306382406448536e-01,7.970465256039137580e-01,1.085595107138803000e-01,-1.158568795135656027e+00,-7.458855406881810257e-01,-6.980341009070372138e-01,-3.725219819237477470e-01,-3.094056941136889560e-01,8.321326894345669745e-01,8.747270677806707750e-01,6.473670885495000915e-01,-3.687901890051147324e-01,-9.124746898753083313e-01,2.259474060135389650e-01,1.691968937139301243e-01,6.705474134106137463e-01,-3.423750169008551447e-01,-3.807643260679777208e-01,-7.148840510084909505e-01,3.692117077999121921e-01,5.858291174414732572e-01,-3.271923735958045532e-01,4.993898438927153460e-01,-8.598898541037872656e-01,-6.813337055389044883e-01,4.213843010366015718e-01,7.178456607990213456e-01,-1.130884668789123998e-01,-8.853953887688237323e-01,-7.024330648217067541e-01,-1.038199611006924261e+00,-1.070749483620572873e+00,4.544611929821244789e-02,7.525113474645754863e-01,4.301024658424752733e-02,9.530864059647188302e-01,-1.004990591553525769e+00,9.222665963844467463e-01,-8.152632206840790818e-01,-4.303730015972012102e-01,-2.045536244207631360e-01,9.359041383010048287e-01,4.543451804687143047e-02,-5.310167908700180739e-01,-8.149594117573214502e-01,8.574332486983521351e-01,7.122596827244704887e-01,1.486211986468457535e-01,-1.965406656713389877e-01,-3.846520245751911538e-01,5.098443308005408126e-01,4.557432163637681333e-01,4.966431842748178505e-02,9.320069353298763293e-01,1.037987936098223526e-02,7.004412199298022390e-01,6.900430669291669483e-01,2.914410388496362359e-01,5.504929269003593084e-02,-8.370186077161120286e-01,8.096829662149274132e-01,9.155246860823715860e-01,-2.502873989473376470e-01,2.102716529050313934e-02,8.150241185781866848e-01,1.036257427272886111e-01,-2.125490251446160161e-01,-7.020458182991468066e-01,9.442959041363229167e-01,6.524929467633696634e-01,5.462161024379557084e-01,4.969301279501610047e-01,-1.033786647644234225e-01,-6.378689014255409795e-01,9.277042894002521800e-01,-3.239818094149851113e-01,-5.870567005568424479e-01,-5.113077213234831220e-01,7.545215539898469936e-01,8.182574905922641584e-01,-9.148082723887002166e-01,-9.456628034423060214e-01,9.532529311670493444e-01,-1.990078042740623943e-01,-8.793196431644862976e-01,7.758063122607244955e-02,8.101543002820367212e-01,7.735968573671606618e-01,2.622320444085858848e-01,-9.505672668841237682e-02,-1.054045389220271911e+00,9.283278316997022328e-01,-5.530673186756184245e-01,-2.185384399810660350e-01,8.260092650550406868e-01,-4.417594453727573950e-02,3.697799717758272764e-01,-2.278125412569847186e-01,-4.863675915748065792e-01,-6.343269102437695262e-01,8.506014752465084205e-01,4.009788244480649855e-01,2.509387484824291970e-01,6.612871824397931197e-01,7.304435553405481674e-01,-8.364657357543862082e-01,7.873186727829206699e-01,3.117018622285958052e-01,1.695125985881954997e-02,-7.063109919184926699e-01,4.541085370310750657e-01,-7.370982546535485014e-01,-8.611364027728279913e-01,-3.490781606400754356e-03,-3.098583671730466560e-01,-4.528706082200849026e-01,1.745974690953052966e-01,-3.079209732171618308e-01,8.177238667430155594e-01,8.686663224832703589e-01,-4.249301951233789842e-01,8.054733956711295217e-01,1.326838346294708648e-01,-8.840302558205658245e-01,1.770836034374591653e-02,7.452790569196564296e-02,-1.990354536917972594e-01,-3.769509194078586867e-01,-5.691827855972750871e-01,-4.507185142261678212e-01,6.535979491443707490e-01,-4.135996269453327545e-01,-7.167398720827296010e-01,1.541418179650907994e-01,6.297100470828114194e-01,-7.693031906085081584e-01,-2.574099952675167891e-01,-1.128791569932759309e+00,-1.133053674289120627e+00,3.892544246713501299e-01,-3.752150700295565633e-01,-2.558199224435555030e-01,-1.066517792115159596e-01,3.801928983660660677e-01,-4.060711348664148845e-01,-4.782950575694859818e-01,-6.651560968691191400e-01,2.449455327138583549e-01,7.485155717289246891e-01,4.571000052580199702e-01,-6.244335418796053139e-01,-8.531431437262376738e-01,-1.181760824309182889e-01,8.212906039991103857e-02,-7.855744058754859926e-01,-6.936313576153534388e-01,-4.821573287168326449e-01,-4.430062040068117879e-01,-6.350764389247119945e-01,-5.008610691640890122e-01,5.200015065205145781e-01,-6.563952768344082367e-01,7.836265490417296253e-02,3.048342414042942150e-01,4.116251804339128850e-01,-4.986740036598573678e-01,5.824957760018552033e-01,4.471454498368460651e-01,9.726545130291560648e-01,-1.138354313293833409e-01,7.290695318435891359e-01,-4.701534803837096876e-01,-1.533153743293080018e-01,-6.353082778477159298e-01,-8.945124007489068108e-01,-1.030104494920978775e+00,4.833925799614443020e-01,6.543931900663531032e-01,-8.313084776455983427e-01,2.918207282378808554e-01,5.292529679592974240e-02,-7.825931091137610096e-01,-8.190969864729130689e-01,1.105489687008733846e-01,-8.153516240221775346e-01,8.566638368904704315e-01,7.742702633177089844e-01,-1.031323432903814286e-01,9.786204159650502277e-01,-3.893841713252313430e-01,-6.142323829671627600e-01,-7.853749855532662361e-01,-7.432881478867036096e-01,3.933023444835097998e-02,-7.649651753798140108e-01,2.216141570051814377e-02,-5.442852040958624099e-02,-8.439474526753064643e-01,-5.905564588500923362e-01,8.720776677697594792e-01,3.353408898170035513e-01,6.189299237550264232e-01,-9.955830374593861443e-01,-8.686256249335354562e-01,-6.564362547873487941e-01,-4.854041518461890692e-01,9.868285509598595517e-01,-9.428582705484410686e-01,8.857607361429532533e-01,-8.478867354903437681e-01,-3.169428704821444787e-01,-4.553858320336962584e-01,7.479871758572317342e-01,5.826033627957621919e-01,-4.544524045383029759e-02,-6.124423907078907492e-01,9.598737722361834201e-01,-6.952287673640931143e-01,3.168422296466256172e-01,-8.219554737054152183e-01,2.854367903218190880e-02,7.482534354222719619e-01,1.634627637922821397e-01,-9.564286646513229240e-01,-7.611738936902364694e-01,2.793458852490351974e-01,8.355915246636290428e-02,-6.238008299378422494e-02,8.232074702042972980e-01,1.264002440135260016e-02,8.550465550923648239e-01,-8.570325606552431363e-01,-5.893207957071274761e-01,-7.876288437166202305e-01,-4.273879427329010383e-01,8.094165555826319247e-01,-6.517745647415229548e-01,-3.575705464476165718e-02,6.841626263751371395e-01,2.192593216440040793e-01,1.246052489859129087e-01,9.592867507018234541e-01,-8.344215590817889439e-01,1.035782783725495371e+00,-8.316815578261719244e-01,-3.338612913801270454e-01,1.010168145186929739e-01,-1.188956193880881529e-01,1.165239501267914674e-01,-7.246790894240313641e-01,-6.061643275099766193e-01,-6.566827272898622114e-01,-4.530392417499746194e-01,-8.713403214871252578e-01,3.470397896129301385e-01,1.959495449732240047e-01,1.026155825600863825e+00,4.214573287871368756e-01,7.277916050311216134e-01,7.084124199948536038e-01,6.303956692174152998e-01,-3.058616855682919078e-01,6.105883219406622597e-01,7.982689100032952512e-01,6.624704680163979731e-01,6.860764985869360899e-01,4.974459525184187769e-01,9.195817291810177707e-01,4.390218012205363562e-01,-2.419552878709970434e-01,-3.509857608236488513e-01,-3.359442778141376040e-01,2.177548143200441211e-01,-4.642058013553948537e-01,4.394776722463685781e-01,-9.104491007328991969e-01,-6.195780982081938726e-01,-2.263936419128500382e-02,8.858033656949588774e-01,-1.150094992637848756e+00,-3.675303147963634998e-01,2.260535843467688100e-01,-8.884879976175581451e-01,-5.622979619678863950e-01,2.112919370203403535e-01,2.618083534130515311e-01,-6.555131876692609216e-01,1.009078900829994518e+00,8.687990777751398719e-01,-3.281554453725187004e-02,5.355976716604273768e-01,-4.944731172200290126e-01,4.200788941286599520e-01,-9.292757546492101950e-01,-6.875291471731148629e-01,-5.039225518646940349e-01,8.345950970569534499e-01,-4.201199482004174257e-01,2.263635645418739517e-01,-2.512937481202795476e-01,-1.591174605527837238e-01,-6.883798273583012772e-01,-9.787657711365851387e-01,-2.578105660955056291e-02,9.306526249384834415e-01,7.939370654892652368e-01,7.205340562183868425e-01,-1.529157161310953916e-01,6.512585820460238262e-01,9.628186736964965409e-01,4.753360511526334431e-01,-3.220083622615090846e-01,-6.578013103948232576e-01,-9.587524232575910244e-01,-8.255136395871442989e-01,-3.316711248931394906e-01,-7.646742809563982224e-01,2.268038500907511301e-01,-6.687828055648060710e-01,6.800703642383791880e-01,-9.071844387494925055e-01,-3.937142060021782131e-01,8.903759580072398983e-01,-7.711640122350686966e-01,-9.515547239071979746e-01,5.863241801238721074e-01,2.340434976142760359e-01,-6.557364801511029739e-01,-2.933162037280362955e-01,5.662716099901582423e-02,7.933392800551036794e-01,-3.264270969512877985e-01,-1.866547862078998532e-01,3.782262662116761542e-01,-5.155034098892548045e-01,4.971366741900417607e-01,-9.514602098725597479e-01,-8.905878583461938891e-02,-6.734050414701954201e-01,6.829536562815170520e-01,-7.887975232343251708e-01,-9.347036661525107704e-01,-9.607244600357764952e-01,-1.690069483657539451e-01,4.528491564664617330e-01,3.533443188968249382e-01,9.458161126747132164e-01,-2.765135634911239926e-01,-7.396025902585764422e-01,-2.829844295216717154e-02,-1.355631217286101253e-01,5.049413959730361112e-01,-5.590679397158707653e-01,2.185978825620589761e-01,1.991505803362106641e-01,1.271467721676983187e-01,2.477057075520298357e-01,-9.572328648452993471e-01,9.016922212699602923e-01,-8.172641057610942061e-01,-5.309333036752444945e-01,5.109551872964737118e-01,-5.495755855313059213e-01,-1.040663746631468545e+00,5.834642599136674601e-01,-2.910782042877712583e-01,1.963914558860764548e-01,4.209944554302327280e-01,-5.670638775672196541e-01,5.286238403174380318e-01,-4.978729653122011822e-02,-5.534526528656692479e-01,-3.018990680681984951e-01,5.374334349680700562e-01,5.681043166723241944e-01,-5.304275475990570810e-01,-3.313113307506113658e-01,7.303849101784688491e-01,9.255352961626224229e-01,-8.310977019078782391e-01,3.426291460551700307e-01,1.735513111389226648e-01,-9.288443054845967328e-01,4.590420732987010033e-01,1.013277784039698037e+00,8.733900238380186698e-01,6.390382569981395422e-02,-5.894035337654762730e-01,4.135364314477239511e-01,-3.383445273885142268e-01,2.864273266778534222e-01,-1.681352433191070084e-01,-6.180379429120309576e-01,2.189533763480936979e-01,3.243249512673250790e-01,-8.074508288683363011e-01,-1.109133189723197521e+00,4.509717858882711372e-01,1.697545755673703083e-01,9.546219295154046991e-01,3.645725899686149685e-01,-7.933277529517093196e-01,-4.928514814089258178e-01,-4.928623451035130110e-01,-3.815541308045342639e-01,-8.331509465627041644e-01,-8.614946054385465013e-01,-1.844448163580726940e-01,-7.114658501167544502e-01,1.079082659222732055e+00,-4.940494629031034757e-01,7.077026959321260913e-01,-1.671136107268630933e-01,4.301251784385016208e-01,-5.471075482375239440e-01,1.051626686964099583e-01,-8.399548480371191728e-01,9.331711500081358857e-01,6.364483110901374419e-01,-7.204922841387304544e-01,7.702385270238930604e-01,6.757688641850986278e-01,5.208997545442047850e-01,5.459864860744946258e-01,-1.154498399892178062e+00,-6.985259271872868991e-01,-3.605675354251775544e-01,-1.700116759128826038e-01,5.937027563355095072e-01,1.248858143229227835e-01,-4.328964905904792437e-01,-1.990378442607380893e-01,8.464368124230211565e-01,6.781399807192638185e-02,9.010262703504204329e-02,-1.061095953373615286e-01,7.983494918819286079e-01,-7.518365878236117350e-01,-9.660653723754653033e-02,-1.447117623729793634e-01,3.623398361611634422e-01,8.140769588955981684e-01,-7.511959139213405523e-01,-6.056631550338694714e-01,2.806958075736577518e-01,-2.385389859054204142e-01,6.324483302142862584e-01,2.638344374738829656e-01,5.508558120595928864e-01,2.389010194491708317e-01,2.678532949577981936e-01,-7.028511413413321973e-01,4.020113569692508881e-01,7.711880894876271819e-01,-4.987501447109033426e-01,8.089232408362664328e-01,6.008322306276016045e-01,-4.299183475396917697e-01,8.374101222890831808e-01
7.844986651183157855e-01,-3.875820341061285701e-01,-6.916473508409864968e-02,-6.517266027462049749e-01,8.964007895971319861e-01,-4.607999517674348233e-01,6.111341119494313051e-02,2.248374636739046695e-01,-8.262721732655270435e-01,5.013473082521522350e-01,6.531861766264961400e-01,-3.526688654363699382e-01,9.531340652640914179e-02,5.168558582888608255e-01,-1.448497698708346160e-01,-1.041737089494181451e-01,1.847613836062977077e-01,-5.086713633895963982e-01,1.382679017653387910e-01,-1.635542006972374660e-02,4.436152283535099161e-01,8.673982919735199193e-01,9.336881385879469697e-01,9.822897602497377978e-01,6.407507046277828577e-02,-3.557271201405367567e-01,-2.185771994724075573e-02,7.116340694547115264e-01,1.028002411148037920e+00,-8.932304905817646246e-01,-6.806253849402651435e-01,1.486295217785864042e-01,3.643161759709989678e-01,6.662340590277339158e-01,1.333902021076753264e-01,-6.274790383836727214e-02,-7.861561536087906532e-01,7.658162821923173436e-01,1.104570281192912562e-01,-8.670829775583219767e-01,-2.541476284096612012e-02,-7.616788277642386751e-01,-1.740696391530744402e-01,-6.399225256108290738e-01,3.191813558636547032e-01,-7.311530142240703078e-01,-6.440667764324393696e-01,-2.894390140619463869e-01,4.542567538760732826e-01,7.351128816632398477e-01,8.253896855249166498e-01,-6.056788828986411355e-01,1.054330603002422873e+00,5.716907944368203598e-01,-3.253508628872420205e-02,-4.019084512309324397e-01,-1.955215585068320328e-01,-6.722765793724563288e-01,3.716337020485160347e-01,9.196288143732420650e-01,-8.896359624107841313e-02,-7.634313415706026618e-01,-4.962912644260191186e-01,-2.417796285015744728e-01,-7.967933694191646765e-01,3.677812241667541837e-01,-1.631308992068874753e-01,6.642507869192413317e-01,1.365822774317644039e-01,9.749148558169731249e-01,-1.754913687185530591e-01,-2.400480460546524919e-01,1.066075041322840145e+00,-1.281931798397562272e-01,-6.327102541236078181e-01,-6.847481489107619668e-01,-4.774546073834037285e-01,1.108268669433197795e+00,1.027169803723845698e+00,7.700075494929283781e-01,6.524083752755813759e-01,4.747952373656904590e-01,-2.808649857130278149e-01,5.304560897584625900e-01,5.756728897496665026e-02,7.403725281719758522e-01,2.920123311163052016e-01,-3.970294086906057118e-01,-4.489129423557863263e-01,1.296500476090862441e-01,6.943937468652263689e-01,6.768235603794927613e-01,3.268265539479348614e-01,-5.506556044389164795e-01,-4.889205099676249833e-01,4.235253072797071083e-01,5.194189004855683800e-01,6.951203098286320436e-01,1.201221548485215118e+00,-5.421078139840223020e-01,2.717078008818312740e-01,1.788253723591887723e-01,3.256958709576839306e-01,7.660331211482297453e-01,3.598323317679660849e-01,-2.865785482531580941e-01,9.855959424148267312e-01,2.700100857765961315e-01,8.889107978258956044e-02,8.767566345934405536e-01,7.604696241984562066e-01,4.570727601212986047e-01,-6.952077084506687044e-01,7.725435424992581623e-01,2.445442189982736242e-02,9.840860185819523542e-02,4.855464487238927984e-01,-6.175176117824221489e-01,1.050032600947896633e+00,1.014082948261521677e+00,-5.309520045642067698e-01,2.667763460217434934e-01,1.279659668777267889e+00,2.874857090020582207e-01,-6.058904545909743478e-01,6.424325696139976394e-02,-3.184443645826426361e-01,-1.459017485152518667e-01,6.099668937308785344e-01,1.053515083195457613e+00,2.728137404472474881e-01,-3.576665143121451895e-01,2.632347826181496431e-01,6.343867492204257053e-01,9.891068469974234612e-01,2.948018774225283911e-01,8.940870042364188475e-01,-3.173984017684571834e-01,-4.198159965796793847e-01,3.504553022422586817e-01,-7.998120860660946629e-01,-4.864192503032386816e-01,4.710008955296675071e-01,-5.215540284938888771e-01,6.920546253684876081e-01,8.928416152097145009e-01,-6.543992015379010985e-01,3.486730369274386454e-02,-6.189498336742890183e-01,-1.188660283349031177e-01,9.179407754651498497e-01,4.794918729876175845e-01,-1.758738004249060100e-02,1.435393484495888217e+00,7.450392990688337047e-01,-1.089193101463727054e+00,-1.423712449027463300e-01,8.469947506866100095e-01,-4.895846284026420664e-02,6.777813233174773133e-01,7.573222401360936162e-01,-3.308543229205593295e-02,1.427563026713699577e-02,-1.009116417742203620e+00,7.871952971451334768e-01,3.910298673950184101e-02,3.985306413515644075e-01,-8.071845557441881258e-01,-5.832763377686099870e-01,-5.598974329029093866e-01,-6.613534242704757204e-01,-7.511070730855123889e-01,-6.417612547740225715e-01,-2.337619604951108598e-01,-7.938802399899563822e-01,5.713803954093594761e-01,6.754395968772900494e-01,-9.049089911869987457e-01,5.908741756799978928e-01,1.687847624784968026e-01,-9.728912514624605823e-01,9.162741810166927792e-01,2.840250361766266107e-01,-9.397587638646237584e-01,-3.891074557943138834e-01,7.632875420526908927e-01,3.774061366026593145e-01,-5.484226000484146990e-01,1.042442235421168761e-01,-1.179442731191974181e-01,-2.454971853380706892e-01,-3.345518877978098660e-01,7.646601489525786111e-01,7.395004562476287235e-01,8.679933536782813430e-02,8.341431406029931050e-02,-3.317089347224064788e-01,1.079208491826537525e-01,-8.352136894218324947e-01,-1.058160411743283569e-01,7.083634166425946121e-01,-2.931414553445285121e-01,1.039131112712726956e+00,1.036700968240305665e+00,8.630990037711893104e-01,-6.419049752034110268e-02,-1.871322933993107285e-01,-4.093918588326699304e-01,-1.091324574972077910e+00,-3.341667704785287185e-01,-1.117618107788384899e-02,-1.412699262646732290e+00,-1.952087355794215773e+00,7.525204872748730844e-01,7.201769694601436456e-01,-4.982926629598636303e-01,-3.755916155335844442e-01,6.127007939350260779e-01,4.625399862376746163e-01,-1.268254135253773507e-01,4.711643538727292024e-01,-3.951581653684133055e-01,6.732830921510428723e-01,-7.758839737171652207e-01,-8.745420738549704032e-01,8.567252556913593775e-01,8.202969505217843071e-01,-5.711098383739087181e-01,-3.329312029085143010e-01,-6.484481230769990612e-01,-5.476757507674511194e-01,6.252197952812930115e-01,1.055563611817724068e+00,-3.307646968269786769e-01,2.954384081319166855e-01,-7.654752230939559920e-01,4.777435688913025391e-01,4.993404867688195914e-01,-6.170627300408061400e-01,-1.216115596024746948e+00,-1.239318863694172324e+00,4.892298705887523913e-01,-6.626643096400606225e-01,-7.332778840490240535e-01,1.217215402176620720e-01,1.019894149042748360e-01,9.033581763271723020e-01,8.471428825294611276e-01,-3.319467961586850535e-01,3.338456491381344704e-01,-1.535425529564498071e-01,6.866221763073937501e-01,-1.490491497453198810e-01,1.297746913178377537e-01,-5.957228994358702012e-01,-6.710289318641227130e-01,-2.192291182354912382e-01,-1.026047866525210406e+00,3.883641962930899361e-01,-5.617062280564585341e-01,-3.512982804504682921e-01,-3.757045996977415037e-01,9.260714525590224566e-01,5.002776256693036716e-01,2.779724868519847236e-01,-1.256238851191373795e+00,5.218786343871404387e-01,-9.179411250754074825e-01,-1.321324653056025422e+00,-1.143443717832543172e+00,5.665284340729982021e-02,3.037883014895780276e-01,-9.388315871876539154e-01,3.055837074011131249e-01,2.693255860432601789e-01,-1.016926460944002214e-01,-5.116620689528789123e-01,7.497898283857487023e-01,1.079469419438544159e-01,-7.974567491424533472e-01,-8.197160479709871828e-01,6.577403049806831437e-01,4.831139706996966932e-01,-2.195118704543469815e-02,8.812601785253414144e-02,1.366875198935308955e-01,-4.076285776509490644e-01,8.726548005557640542e-01,5.702570860663372931e-01,-3.753447389287413172e-01,-5.543271253587884750e-01,-3.926350719553924895e-01,-9.855622072083718155e-02,-1.007189787848538742e+00,1.804289887249029833e-01,-6.779653582150404478e-01,-2.588058629143497047e-01,-1.200044345208677754e+00,-8.700419848818797819e-01,-9.676964218241531634e-01,-4.385879917990534449e-01,9.189453147003134870e-01,7.371784102289028473e-01,-3.692576437660973210e-01,9.865001194655687033e-01,-9.367855010188713694e-01,1.143201213280935213e-01,-6.923775958417741627e-01,-8.834241797382076378e-01,7.164933913526143616e-01,1.261123049546171784e-02,6.712531170948775605e-01,-7.790205504087652777e-01,3.918219441628986721e-01,-7.457875486500946394e-02,7.854699480449894855e-01,1.163622252656629108e+00,7.805272562591655250e-01,-4.660477318457332818e-01,6.508733486586565364e-03,2.360073599111189857e-01,-6.110081946023282473e-01,7.554851041718823046e-01,7.777740692016915647e-01,-4.378294551406209933e-01,-2.813492621013676254e-01,-4.501795090383922671e-01,1.653757666115520109e-01,1.684552411274229666e-01,4.487965246794177188e-01,5.266616649810852702e-02,-2.087028090884269771e-01,1.620339388959493865e-01,4.962932699062521519e-02,2.347227877175938338e-01,5.259867300671964285e-01,-1.041624975746751725e+00,8.110498798036901436e-01,-3.379926696935989794e-01,-9.587108327509008543e-01,4.099155687313224550e-01,-6.692513365905485845e-01,6.003415920222480162e-01,1.929986808636219575e-01,2.741035314904500253e-01,5.594421004938966435e-01,-3.683835756587917065e-01,7.955809324487986833e-01,-7.636422121356335468e-01,-5.510123326383036257e-01,-4.528058019899992570e-01,-5.902057909737720535e-03,-2.061365449981086007e-01,-9.936779563218877120e-01,-2.940176122626774607e-02,2.536386981368239368e-01,-9.976191821730865383e-01,-4.449958922378123051e-03,-3.052166224782185133e-01,4.520979788832155122e-01,4.792190704370344334e-01,-8.366132672438481022e-01,7.573269975686356403e-01,7.666166105452527635e-01,3.003717404934899693e-01,-4.568992786978329224e-01,2.461690875788679622e-01,-8.768873249392684643e-01,-1.164991543296461929e-01,7.646026256798021947e-01,7.129494924000724376e-01,-6.754269831061374685e-01,8.524139435177534585e-01,8.549459624829096605e-01,-8.280995171726340809e-01,-3.995603002742420529e-01,-1.006156684133886259e+00,-5.558545387269908655e-01,5.675184331010083572e-01,-1.278656396959620301e+00,-1.089739217052885678e+00,-5.229933264268809001e-01,-8.474354408361775004e-01,6.366115242617712555e-01,5.247493676636372228e-01,-6.061014132460265103e-01,-8.172651373812700459e-01,-6.297868232122966203e-01,3.837696830606165260e-02,7.134496766792411959e-01,-2.028863370213839779e-01,1.264346299728179301e-01,-1.062845517591699984e+00,-1.404380477586283406e-02,-2.903429589324480475e-01,1.992704262001247784e-01,7.219179831023858629e-01,2.684251197432043212e-01,9.791665223991931066e-01,-4.375763161662621914e-01,1.169700107241542497e+00,-4.795108235873464519e-02,-4.270228986207735833e-01,6.674564025026310521e-01,-2.388157290071775407e-01,-3.786680567882089732e-01,-8.081673362513575043e-01,4.704117694242883063e-01,-9.261596346970419891e-01,1.822592316798669898e-01,-8.607777636093195683e-01,6.943870353907760640e-01,-5.265672605948887863e-01,-8.520712631976186113e-01,-6.972332053374891148e-01,4.157796753469992779e-01,-1.086684529641073899e-01,-1.307611089217478817e+00,1.535725582994255656e-01,5.735185004315034307e-01,-5.206347933029970010e-01,5.894211853606646789e-01,-6.156986208808017391e-01,5.284843019859946089e-01,4.831835700083951801e-01,4.706458445866219531e-01,-3.050688698869079007e-01,3.716261962221994453e-01,9.404207516832592262e-01,-4.663215605477804004e-01,-1.002091464374938318e-01,7.971344775537039795e-02,-7.922669615540872678e-01,-6.313529208491703848e-01,-1.315643032255228828e+00,1.214718475780054464e-02,-4.141568204240408946e-01,-6.099018887591833860e-01,1.803770063588426287e-01,-4.878839660358322838e-01,3.385477924172488051e-01,-9.076380852758486606e-01,1.119018341143808992e-01,-1.112403543579992826e+00,1.257149175091072657e-01,-2.964470361680270893e-01,-3.000128454715958459e-01,-3.688450218490951088e-02,-3.027652166639074882e-01,-7.402052091100368436e-01,8.472286333581144913e-01,9.386424332458469244e-02,-2.793959569343366089e-01,-6.788700142799154458e-01,-4.529841582354081631e-01,7.416301655859701691e-01,-2.495495894452384456e-01,7.895295270826293565e-01,9.449717548727890604e-01,-7.045974454615894222e-01,1.740086344482645250e-02,-2.745684547238639445e-02,-1.116474540439049007e-01,-1.215742601280295432e+00,4.439599745130552999e-01,1.333432396685444166e-01,3.964285185288694557e-01,5.532077615727002406e-01,4.837042409937725718e-01,-2.422708995484466332e-01,-3.259784609122871046e-01,-5.386659715454235053e-01,-5.437145892671722130e-02,-6.513787970104463199e-01,5.244178756276107745e-01,5.099513269498899826e-01,5.758595036045549564e-01,8.854411888242250672e-01,6.560889057553618287e-01,-2.278190800037820929e-01,3.130914423419212667e-01,-3.684230286019309908e-01,3.375072176293502646e-01,2.959491306691800494e-01,9.124753968741543542e-01,-5.044848216456626622e-01,3.542081425293349128e-01,8.478702405952428522e-01,7.403159952963549451e-01,2.030598934912863085e-01,-1.096769316293200625e+00,-5.006806098120391013e-01,6.393164894809244547e-01,-8.715694323292296763e-01,-1.042449558670390353e+00,1.021543627874386406e-01,-6.233607037585974231e-01,-8.647026528590938677e-01,-5.248658440497354360e-02,-1.072169862641727756e+00,-9.684673983983352885e-01,1.722781931227119756e-01,-7.174500404488448613e-01,-5.527722856970507248e-01,-3.961599989773911257e-01,6.237895974757845519e-01,-1.012940449373335383e+00,5.751947638380403571e-01,-9.406915758145371065e-01,-4.154733945099229331e-01,2.605412249729631702e-01,8.395243930337421556e-01,1.053056627968595338e+00,-3.716087717456930117e-01,2.620841221440907698e-01,3.712335133744585347e-01,1.108237211417186785e+00,-8.518866168713652709e-02,3.068499223048374858e-01,-6.771380004498794847e-01,-1.192004543624924251e+00,-1.186312415216731919e+00,4.811070667637672438e-01,7.323952993805619149e-01,-7.272084659582309651e-01,8.448330142970017498e-01,-4.924945526138835850e-01,-4.729924071962722243e-01,3.135986119775197034e-01,2.957270429021712776e-01,-3.386526745805006067e-02,2.089373544112702319e-01,-1.251625453549819016e-02,-7.073036626768521851e-01,-4.965894166291031642e-01,-8.973254500809464407e-01,6.344408385005094742e-01,-1.582116363821752664e-02,-6.014219849450296307e-01,-7.246546058006604341e-01,-2.095444986352342220e-01,-8.754054539288458336e-01,1.635893332022917562e-02,-7.467895195768521344e-01,5.482798712330761992e-01,6.740261517283319126e-02,1.355326834669397414e-02,-2.478045343401959477e-01,7.429033817762763225e-02,-1.015773781085044236e+00,-1.415674610161530012e-01,-4.675820993444211593e-02,-9.315412720976495864e-01,-6.209845717991003822e-01,3.711405384101820193e-01,-3.725811721427534917e-01,8.847595407700296066e-01,-3.141896335161099008e-01,7.132164664713759317e-01,1.104713726087914960e+00,-9.675835946968829315e-01,-8.025493212954362132e-01,-1.676834502531652782e-01,-5.229006915251412785e-02,-6.184261328605069469e-02,1.611605716352974282e-01,6.046602895834347624e-01,8.468317697437277580e-01,1.070186268418931830e+00,-3.375728380692309960e-01,-8.151892738647870118e-02,-6.907627012238673481e-02,2.289842157844801385e-01,-2.876218149585104134e-01,-9.449811027974263089e-01,8.057963120349531660e-01,5.309646607173665843e-03,4.875937727011835920e-01,2.503316059990682851e-01,-7.519163510257865779e-01,-3.296078312566262936e-01,-1.411854486203623638e-01,1.395342749421851547e+00,8.457085289447471843e-02,1.165734777509839004e+00,5.143695860399618569e-01,-3.174942262554754646e-01,-5.740549458786100567e-01,-8.798667694853115062e-01,-5.216613299157250028e-01,2.363653409234416913e-01,-1.872344245904660198e-01,-9.503740901441364297e-01,-2.072055503533434817e-02,-3.822860156507752460e-01,8.551092186021440611e-01,8.619395095135976570e-01,3.593728211737554634e-01,7.690804814397417255e-01,5.855790814457425553e-01,-6.497401529537565334e-01,-6.873209800898727462e-01,-8.302417562660448919e-03,-1.372394055821511416e-01,-2.477505518285627595e-01,4.452338694814334530e-01,-6.455833044268868282e-01,1.335158564753393118e-01,1.866352213481070610e-01,-3.768923611933127082e-01,-5.404905105553912265e-02,8.326518238448078479e-01,-3.444422151490567074e-01,8.324267110227017152e-01,1.091732242105118711e-01,1.493714003726838158e-01,3.423870456746371804e-01,-3.226028644105506382e-01,-7.479764076527699590e-01,6.921274194354187781e-01,-1.207322468136167309e-01,-7.961830180403552948e-01,1.006045546613450609e-01,-2.688656692625277650e-02,4.504571079757316854e-01,5.445077438455049601e-02,1.011303630823607635e+00,-1.806587804888591664e-01,-3.573425575839055957e-01,3.494303940001269870e-01,1.297885477847048330e+00,6.561246699869921484e-01,1.105819274695910570e+00,-4.989160600040988824e-01,-5.738245096850050353e-02,2.956312385995084613e-01,2.812443572774825373e-01,-6.417854861952518863e-01,2.582543640861183487e-01,-7.177459939429305935e-01,-6.253684108852620993e-02,-7.432054533197857138e-01,-5.519579003173747944e-01,-4.842082459706610609e-02,9.416975880679984146e-01,4.215786183287523192e-01,1.096239940714848204e+00,2.295915486183633947e-01,6.724443414919151207e-01,2.187378385444124773e-01,-6.520479230652070912e-01,-3.382907363530564537e-01,9.111036101059868941e-02,-1.148363829694667437e-01,1.265205424811008950e+00,3.360982719911332905e-01,7.992792063168587813e-01,-5.420303490791438250e-01,9.279451924669237517e-01,1.263941747185085285e-01,-5.001717117693484094e-02,1.020599319774561309e+00,5.927451259378144766e-01,-1.353327510251583821e+00,-6.398761803180288421e-01,1.788736979563928520e-01,3.175293683754148999e-02,6.403984238866797796e-01,-1.073762152889569665e-01,-7.128288787427718987e-01,-6.510716499754537478e-01,1.684966265804950791e-01,-1.352217854383947759e-01,-3.212254513417170942e-01,8.734665862686147308e-01,-5.472675641742020813e-01,3.601257598596711018e-01,-1.880215344622864770e-01,2.103557638744761316e-01,-8.127924198453414517e-01,1.295811202664285122e-01,3.264189629154809480e-01,-5.179494405544173841e-01,3.801434859559216228e-01,3.620040752407581719e-01,-2.216891677555677675e-01,4.396172859349152806e-01,-3.513214020089183709e-01,2.436598361542345881e-01,-1.383021260367253528e-02,5.719639060735181024e-01,5.930258035800548555e-01,-5.321687406449369107e-01,4.367583283794366222e-01,-4.690418736388751175e-01,-6.019945851076119459e-01,-5.848009859452812931e-01,-8.667616739721909491e-01,-5.780466810444827574e-01,-7.168353681916364017e-01,3.384108288073078286e-01,8.603115661163860395e-01,5.738155376813768305e-01,1.085999002729850782e-01,-5.820703340271599080e-01,-4.580086819196408365e-01,1.318582251961040175e-01,7.537788927968128716e-01,-6.564194006675803106e-01,-8.063121689715913032e-01,-6.834854315328591223e-01,1.840739355499639296e-01,1.049348018914448399e+00,-8.065565446405136285e-01,3.100333742006563531e-01,-4.910227225673894358e-01,-1.149843143663328071e+00,6.523766821569543239e-01,-3.608759886775252945e-01,1.746559275606987816e-01,3.042547604543653361e-01,-6.887189314686994468e-01,-7.818079710542767957e-01,1.448609000857321513e-02,3.485910520393714629e-01,3.004214005717060210e-01,-4.924088484067024041e-01,4.865000108231583020e-01,-4.294619127069572162e-01,-6.857841405898056353e-01,-1.058781316734765721e+00,-8.161581956589415432e-01,-1.089731562541680132e+00,-7.428436312945448927e-01,-8.492035968817449598e-01,-3.396226532664560205e-01,4.027035376553149137e-01,-4.089866781511812266e-01,-4.226980683353633306e-01,9.473889005655568019e-01,5.057725992611156185e-01,9.525159652700854185e-01,-9.148928110494246313e-02,8.528587666744522622e-01,-4.381231610757581607e-01,9.278687840013214450e-01,-2.399636396279125339e-01,-2.113470042015184736e-01,8.921802100785046763e-01,-2.675747653536422743e-01,-1.971576319969587654e-01,-8.761229966445613915e-01,-4.281914464333553272e-01,9.447157080446951793e-01,7.075603453411054566e-01,-7.491760512711627129e-01,5.578158376861837020e-01,5.614147099601399793e-01,-9.880666833501351443e-01,1.226455894253146023e-01,6.976918391208556357e-03,-1.196275096305213781e+00,-1.518589777034859756e+00,5.679724638811969317e-01,8.378483070184861159e-01,2.596592870380936557e-01,-6.162410487690334060e-01,9.940673964996900036e-01,6.130600934660523915e-01,4.250917914437293832e-01,2.889815707045547688e-01,-1.295606036377738857e-01,7.064669077695847621e-01,7.323955245618219978e-01,-2.316305448411614676e-01,7.051525886288810829e-01,1.983831585537732534e-01,6.215573715241229369e-01,-9.233277945497524453e-01,2.435941698131302846e-01,-6.134369296470755240e-01,1.143162653615126395e-01,1.048654645277182107e+00,-6.894717924839027789e-01
-8.286855719927340713e-01,1.353830243035625824e-01,-8.541567476494975608e-01,-7.476792501508573441e-01,1.282928218466824338e-02,4.976589529448315896e-01,-8.234911440700826146e-01,-5.377226385365068140e-01,8.873575218105465012e-01,2.927511780021243015e-01,-2.352713213980472395e-01,-3.007146904047590108e-01,7.873098062031842481e-01,5.431948359713122398e-01,6.786808333028031548e-01,-2.460233368329272641e-01,-1.553295110567896875e-01,-8.594676232649214320e-01,6.156132844184649677e-01,7.686557370180641113e-01,8.964270971158150303e-02,-2.635122468747940205e-01,-7.964174099312679167e-02,8.376485447295892728e-01,5.503675130533001170e-01,4.891416787696921675e-01,1.124250968172042731e+00,-1.928798243798542922e-01,-9.047711674066710730e-01,-9.647782614341622320e-01,-1.969803953645519745e-01,8.956655096050225584e-02,3.698792395902740782e-01,8.671958251338689472e-01,3.177541434374771545e-01,-1.409110712079870986e-01,9.435321955508132463e-01,4.742073377276817547e-01,3.799830170174459121e-01,5.337413628371231317e-02,2.719082204951073223e-01,1.870261273785784606e-01,-2.248307566837443872e-01,4.826875655941507692e-01,6.773991314209359960e-01,5.334550503683825884e-01,7.664005986164018625e-01,-8.109217243733525260e-01,6.998673115144945500e-01,3.869894051594922058e-01,4.298258657188220866e-01,-9.934867921118761824e-01,4.521509040668915680e-01,7.510286579184276556e-01,2.772169249751035291e-01,-6.202198426917984175e-01,-7.084288000928831153e-01,2.351142764965736404e-02,-3.947143812032116172e-01,-1.008082078469494824e+00,-4.165742470127524744e-01,8.086485196019429500e-01,6.133805753386888382e-01,3.254025455076687834e-01,2.945677641085127016e-02,-7.997451411148089884e-01,-3.731032199067059740e-01,-8.949995556837313515e-01,-9.193821435283917598e-01,-1.391466405445456855e+00,4.982189535746317510e-01,-7.578967483434013719e-01,1.398305454258088054e-01,-7.804726887475236241e-01,1.166435445977577867e+00,1.961441652011290671e-01,2.597874098361737660e-01,-2.278840336664623989e-01,-8.798964295973743521e-01,-4.456608290054790422e-01,4.465410354828668327e-01,-4.958536629749069752e-02,-3.478020712886836785e-01,-3.974736896223804439e-01,1.738056241380174505e-01,-1.781235340954206159e-01,-2.030890534405733472e-01,4.330563779210299530e-02,1.961358390277755381e-01,-8.146841760830337842e-01,-5.660765333881587758e-01,6.831525341247891570e-01,4.895281097438526352e-01,-1.147500489774296417e+00,-1.066328962642579814e+00,-1.000226740922448565e+00,-1.569154354517402261e+00,-1.155915001978592649e+00,-1.483884948681477023e-01,-8.056530924467947274e-01,-1.409086132725248242e-01,-4.002856126642727053e-01,7.048418894941230750e-01,2.169307855441259536e-01,-2.404466105508997198e-01,-1.169619736598962317e-01,-1.019736283247551389e+00,-9.150281743722964434e-01,2.473244363247709132e-01,5.780636552694188302e-01,1.256268085338775986e+00,-1.721315095886829238e-01,4.835863389987438143e-01,-9.284574528521299941e-01,-6.041084905669469318e-01,-9.284903608966825761e-01,8.582216045153256978e-01,-9.527564671460708734e-01,-2.801895729552661418e-01,8.151815983770592799e-01,1.248733128377929602e-02,-6.541368331529996416e-01,1.641495765890561287e-01,1.354740370140036787e-01,-5.772846447883569349e-02,-4.250822671419257626e-01,3.434540386441881643e-01,-1.047901649355694603e-01,-1.228379037477574487e+00,-3.920502667469376590e-01,1.507775243334756043e-01,9.922390331141339725e-01,2.807499341109537805e-01,1.044534296034311582e+00,6.419569370636524219e-02,5.973165483543798615e-01,3.732576420540035245e-01,1.129083369491374889e+00,6.878506471483053497e-02,2.475756776217261368e-01,-1.035098047630594653e+00,-1.022733330059723444e+00,7.527127543122195119e-01,-8.844748569018461293e-01,-7.726643743702876765e-01,4.585479903282643210e-01,4.013879599082847971e-01,1.516479952449217572e-01,-9.956887142953442238e-01,5.186035855882484835e-01,2.514517496231818972e-01,-5.734511441269887766e-02,-7.296899422960375636e-01,-1.367483366859391092e+00,1.739074934117362456e-02,-1.334832719490201436e+00,-4.205249876550123389e-01,7.253510463762320448e-01,-1.396877370333589607e-01,8.880234509995154069e-01,1.363564681990774519e+00,1.105888193818027831e+00,-2.666969637230011125e-01,-7.582409053090538587e-01,2.151693554305039169e-01,5.825818242327203411e-02,4.776882317834130753e-01,8.277772001871687158e-01,-8.287805503915212091e-01,7.287346060073249809e-01,1.326059437887380787e-01,8.858645540157494835e-01,-5.901577797016319127e-02,6.099216330797033736e-01,-2.613114391123603220e-01,-5.127041938529030007e-01,6.076031914557169511e-01,2.517117679906706873e-01,-2.169882952356317340e-01,-6.446048774973018869e-01,-2.247519569982701221e-02,-1.110257237497660254e+00,-6.987431424348568010e-01,-7.988992996653748735e-01,9.932241341507147547e-01,3.836698057417609609e-01,-6.035629420202166528e-01,9.031388409144370799e-01,1.352680314937479977e+00,8.303824523241224442e-01,5.933975115528361544e-01,-1.483320697813113598e-01,-8.716569341574359475e-01,3.679555827806732515e-01,-2.509782120440195996e-01,-3.712705923134900221e-01,-8.766575981293589503e-01,-4.704706595089285792e-01,8.791189310946823099e-01,9.453724216165707572e-01,-3.163327549182186615e-01,6.690775574189817831e-01,-6.996134089988269300e-02,-9.976973611806694286e-01,-7.162929929284808095e-01,-8.421206185821457080e-01,9.011530953954278722e-01,2.712797651477524830e-01,-5.202820788478257352e-01,-9.155924728502591314e-01,-1.895035345202639721e-01,8.569741297772133226e-01,-2.138713887138972147e-01,-7.903165248092944850e-01,-4.824799724675638002e-01,-1.101865545820316594e+00,-6.855371998507494569e-01,6.707099977879518900e-03,2.078014748589955552e-01,5.739283268178657638e-01,-8.404914869217844364e-02,1.621195284154941518e-01,-6.450929392079274294e-01,-4.384297124386571931e-01,-4.508831852968163134e-01,-2.157729242507308021e-01,5.862816397551499081e-01,1.010585814562461993e+00,4.642418619818008962e-01,7.290136462922333638e-02,-7.553877755171987118e-01,6.081691282866578119e-01,8.052417215391775018e-01,6.634957520822701849e-01,7.789832176612889736e-01,3.439009958233137099e-02,7.346604880909622937e-01,-9.759017185345570944e-01,-1.113453541113395007e+00,-4.939347647727509311e-02,5.225205627729287983e-01,-1.006947530593048867e+00,-3.972582185418656042e-01,-4.319026849276251523e-02,3.653205740311888522e-02,-1.109121492409484988e+00,-1.205985801116007172e+00,-2.268245469873168552e-01,-4.768257538656118233e-01,9.911299013154156734e-03,1.075310355155012054e+00,-5.457058145434490193e-01,-9.521343236960322365e-01,-9.169189823576475717e-01,3.133877350677948259e-01,-1.102404447981098490e-01,6.083417109470005135e-01,4.868929629085743671e-01,5.640773855997914810e-01,5.087738413229415668e-01,8.744185415825630470e-01,-3.766940217865576979e-01,6.359113216722133144e-01,4.283443714850831419e-01,4.467209864047541612e-01,-1.369050033225738927e+00,-9.600246670123693260e-01,5.154415449310458669e-02,-5.525097080375119818e-01,5.471454277836500513e-01,-3.835584683805645656e-02,-4.216245179834642309e-01,-1.047099574896643404e+00,-1.036835358579490496e+00,-1.345049333512686185e-01,-7.774822268221488475e-01,-6.402015978315113154e-01,1.049199854874909521e+00,9.909117724465663635e-01,-5.639984161640306803e-01,-9.578868251919970822e-01,-6.499520086543753017e-01,-5.266164399832573562e-01,-8.367423369555001544e-01,1.748250100413366592e-01,1.049659558250918945e+00,1.260805102310642356e+00,-9.638679937107044737e-02,1.695075228637330067e+00,1.310232807213306705e+00,-5.761687967258171117e-01,3.823554252398596587e-01,2.300828874535109925e-01,6.384802204095854083e-01,-6.973528691499710774e-01,1.761317323600207208e-01,-5.202224095248058067e-01,4.816984152689227638e-01,8.969827132139697179e-01,2.560735410013692537e-01,-4.283413291609645124e-01,-5.949204957426260654e-01,-3.411975356664975756e-01,-3.856738969871489342e-01,-1.528416242414118963e-02,-5.721466197303626267e-01,1.081666721121758323e+00,-4.662395566525683321e-01,6.258538843549805719e-01,-9.039902086291649042e-01,5.944169408882928746e-02,3.938737233855754694e-01,-7.226062821087496646e-01,-3.909674148880770694e-01,1.747767931546242437e-01,6.450401983736943345e-02,1.243766341790179197e+00,1.311480635496874159e-01,-2.865922780204163134e-01,-3.764599600160161569e-02,3.684902052244352078e-01,7.527034796594720412e-01,-5.202775092535475432e-01,1.031441310545696821e-01,-5.808038664515260407e-01,-6.564389777286830929e-01,8.465544544478812439e-01,1.681236206218462981e-01,-5.136290030629482306e-01,-6.611835701785331310e-01,-6.262094752525164676e-01,-6.750838616111027868e-01,9.751201172280490326e-01,1.059149934904235035e+00,-2.574180361080816715e-01,-1.489829484360110645e-01,5.631354372548322829e-01,6.535899727762438660e-01,5.075758675898968120e-01,-4.686253931758893043e-01,-1.067351315044590410e-01,4.510556476003836357e-01,-4.402354765416918170e-01,-3.049041826153287005e-01,7.692435299238648688e-03,4.169997477065573444e-01,6.173582862922187831e-01,-3.547190628022033332e-01,7.533661981033539234e-01,1.082366184012357041e-01,-3.049997192260710532e-01,5.099932760172652957e-01,1.958336864703892344e-01,-1.439511277299714953e+00,-3.958937778120257267e-01,1.221498373871413579e+00,3.214321412001586858e-02,1.012647414733728546e+00,-8.503656489083152303e-01,1.394760682278053165e+00,1.439760576810078296e+00,1.280187925721190112e-01,5.105091149520202265e-01,-4.881139024872852561e-01,-4.782976563359696565e-01,-9.206151197402130393e-01,4.920615482372863725e-01,-5.111381503470076026e-01,1.043550750805958827e-01,5.855919275546611624e-01,-2.540950789538729548e-01,-3.901753954212413555e-01,1.040472465098837729e+00,1.069202073527918961e-01,-1.301694672697821242e-01,1.256752305553530347e+00,-9.420881250568711174e-01,1.703026747345565417e-01,2.104445066117075491e-01,3.912320697947599957e-01,8.311369736696753163e-01,4.935673227840992605e-01,-5.193288899122084912e-01,5.052256573041095100e-01,5.099555106632497337e-01,7.987616962143226917e-01,-3.437829399296520316e-01,1.016199148813692776e+00,1.150209491079407842e+00,-1.778329669294196613e-01,5.832621086002039990e-01,-3.828805784698950665e-02,2.013312607650202812e-01,-5.549475723030375951e-01,-6.329783397770507580e-01,-5.789038809552599085e-02,5.128769915425569481e-01,7.551228736758471838e-01,-8.182525467370430627e-01,-9.964614791576750230e-01,-2.987977953110791951e-01,5.327473107833829991e-01,9.396148462119472411e-01,4.720003210770922775e-01,2.239386799204242107e-01,5.253753010458477313e-01,-3.968298475516136015e-01,1.372596773902286516e-01,1.325854513149481217e+00,1.187473850593326885e-01,-1.391731044839895626e+00,1.312950467177584069e-01,7.477781708019964890e-01,-9.170856743642809006e-01,6.637405881656726070e-01,8.717273636708372520e-01,4.059526467046941089e-01,1.457219673482454958e-01,7.737186781211423670e-01,-7.925965543968084281e-01,-8.635913841452624862e-01,8.225958828220910485e-03,-6.188579351519039040e-01,1.989341276784976076e-01,-4.744935385967465336e-01,6.609366995305140380e-01,-4.834424859047180556e-01,-1.015250524642994145e+00,1.029296237776014644e+00,-1.054070058369819707e+00,-2.805777359987778399e-02,5.689167250233374135e-02,7.702233934945399429e-01,-1.904682211708555450e-01,-1.851236395700972190e-02,-2.977079110006342066e-01,-6.612932297044313845e-01,-6.476806797871114130e-01,3.435675332882527355e-01,-5.199985180679325691e-02,-3.082485197413669525e-02,7.709758545498087701e-01,2.675865218003282697e-01,1.061513964049097147e+00,2.786432504322087778e-01,1.126587355448886996e+00,-9.284630040291620423e-01,6.947945854238894992e-01,-8.654368977651196726e-01,9.998438931317170375e-02,6.366164951486259493e-01,-3.016523628684680824e-01,2.629441445310768399e-01,2.602371863442878297e-01,-8.173714785730299415e-01,6.858295702422236850e-01,-2.619484390428934995e-01,-1.077226177150063080e+00,3.996131942874683873e-01,-6.120728501617690442e-01,2.124994124621245317e-01,-7.878835190598714178e-01,-2.096608348981877923e-01,-5.966176317198115253e-01,-7.199183092726035849e-01,-1.302747747108054854e+00,-8.546297468936606689e-01,5.590912491424571140e-01,1.092049146879610300e+00,2.784563295850394082e-01,1.393643235139518932e-01,6.986205346307351460e-01,1.815027910281400703e-01,-2.736929405411367422e-01,-1.219420775760403503e-01,-7.610545256750755883e-01,-9.761186655386150379e-02,3.938543656445106511e-01,-7.821461424464116741e-01,5.680379479943910986e-02,-7.104697001141707657e-02,6.997115947775804923e-01,1.614790338647797696e-01,-3.651272998112192192e-01,1.534446973693434635e-01,-2.004695766385573563e-01,4.420571363256997621e-01,-2.022685494412767085e-02,4.846659633036010661e-01,9.911954257706055982e-01,-9.747608119193410525e-01,-1.094114206254770627e+00,-4.849544860665592205e-01,4.320899071330119301e-01,-7.667003430765207961e-01,8.707468487560394987e-02,-3.506442567806674487e-02,-7.358017986106009101e-01,3.361847066590122335e-01,1.029862153750925602e+00,-7.613217212131372369e-01,-2.109431656672661470e-01,-8.061973381053091359e-01,9.921608174766092247e-01,8.530808651742289861e-01,-6.374676826622284187e-01,-1.016823993069716492e+00,6.070223518475065250e-01,2.389082619668879692e-01,-8.961886449111212682e-01,-6.101636981935859572e-01,-1.297430873744988555e-01,-1.638176241232605634e-01,-8.348963721218535250e-01,-2.309703051542194852e-01,7.593812172733029886e-01,2.170884950729427554e-01,-1.400908409545922328e+00,1.341205226407932508e-02,7.910239383692609094e-02,1.729286646187270793e-01,-1.348856284229953184e+00,-1.354617416766347171e+00,7.450912125133646313e-01,4.196896011612722965e-01,2.620327604675642408e-01,-1.023650707089016842e+00,8.154744010198261561e-01,3.651357875129945807e-02,3.943850438111027451e-02,-4.785129240974221876e-01,-8.699359895968862277e-01,1.015497119297945616e+00,2.347140184735058699e-01,5.707111419089836435e-01,6.531528365089298016e-02,-9.892736029837401190e-01,-2.868867899057402915e-01,7.480224018171105493e-02,1.666398925055159186e-01,-1.332931039734805756e+00,-4.274968078765862822e-01,-1.386502071147421855e-01,5.544540945425944223e-01,7.348596514495178145e-01,-9.898435237404509257e-01,8.721130590102091906e-01,7.194145810495065074e-01,-3.858587374261054914e-01,-2.278751393817822143e-02,1.035701594944216986e+00,7.581169358872941189e-01,6.099063584994695031e-01,1.221847373806685733e+00,8.892150687276801913e-01,3.826279746192794984e-01,-3.040801552504326377e-01,-2.819796422277430770e-01,5.339123907514508049e-01,-2.564940412297296857e-01,5.983724896042504904e-01,-8.345024043850165496e-01,-8.579060806186514787e-01,-4.638010879083107607e-01,4.307421709563163392e-01,-6.934551328351776789e-01,-2.821263768873458200e-01,-1.253190594475946107e-01,4.469366655482236994e-01,-5.966398896469777835e-01,9.322414302878262449e-02,1.360068776621203290e-01,1.110373959813274247e+00,9.507995314327086778e-01,1.406119731592381683e+00,-7.318906361924844006e-01,2.421202641075663377e-03,-7.299091357129929847e-01,2.254286156571138622e-01,4.172787016435579588e-01,-5.119054949051280445e-01,3.810831580432556386e-03,1.092554726433269119e+00,-6.060861828261686519e-03,2.197188834120578638e-01,2.736525684700820138e-01,5.591127008502153606e-01,-1.928334731993823215e-01,-3.956818565732533183e-02,-3.861612534598870550e-01,-2.667508630552697935e-01,-2.880255088599246172e-01,-8.168925477096772303e-01,7.322166691213194412e-01,4.111943396919245930e-01,-1.419355225583957270e-01,-4.170436817332033308e-01,3.033327839257666247e-01,8.534165055016197377e-01,9.429330508253901399e-01,1.295256107807344792e+00,7.646438667492849728e-01,9.717421773127973283e-01,-5.391206161366639549e-01,2.202869196953634590e-01,-3.290534769260191478e-02,-1.359928250668564487e-01,-2.130696920457289534e-01,8.142730650395282321e-01,6.288461321506247370e-02,-8.184273921815033992e-01,3.556370053997658931e-01,-1.232257487201974033e+00,-9.926868925528844478e-01,8.283358777371698789e-01,5.421938397216627958e-01,1.019502909445420880e+00,7.899378814909879809e-01,-8.844972500226154777e-01,-6.187402486154958137e-01,-3.616825387776866907e-01,8.098105307533663977e-01,8.977239774513716686e-01,-7.589995363032576714e-01,-6.910539286570989148e-01,-1.777803634897932861e-01,-4.758081961891894029e-01,-2.770179427504825820e-01,1.109911738660465524e-01,9.741532169381368345e-01,5.654625635950527585e-01,1.163925181201772574e+00,4.884944231913503354e-01,1.818362323301181971e-01,-2.100496378300979183e-01,6.626750381166774950e-01,1.188516175737567293e+00,7.257566305124104611e-01,-8.629484360312588143e-01,5.909525528018757523e-01,-5.147412128601819292e-01,7.627048477704407858e-01,7.026353056992931112e-01,-8.958286740307705998e-01,6.661681868920417138e-01,2.845985689514464734e-01,4.137537341325291940e-01,-8.367060016045030357e-01,9.487766284728442745e-01,-3.090452532508323191e-01,-6.589756187077181471e-01,-6.429362528314565006e-01,8.490892085316396887e-02,6.973225474794021439e-01,-6.852207232819619298e-01,-3.040013745297271974e-01,-3.491219582139094002e-01,1.102659579992393279e+00,4.279178932179704686e-01,-2.975475834037676071e-02,-4.469515806342186925e-01,2.696565153043564145e-01,-2.819179462762353428e-01,-5.194032569933950683e-01,-6.425433211918483156e-01,-8.441507390853263404e-01,-4.581770589121519216e-02,-8.341553251869775476e-01,-6.829012415148371096e-01,-1.812545215608355742e-01,6.835513418588989865e-01,8.275890503314888014e-02,4.246727476694890646e-02,4.869830676128133473e-01,2.469070677316477780e-01,-7.844897506263998066e-02,-4.474069976541291127e-01,5.414486880321452977e-01,8.751289401636943577e-01,-4.354716985679149555e-01,-6.275435490636195324e-01,-4.180977099760862514e-01,1.350252668788083088e-01,-1.050877701111240459e+00,1.430584137690825708e-01,1.281474073312251216e-01,-4.217924194557098327e-01,-3.085380736439675697e-01,4.588596372534783363e-01,8.143045782316646886e-01,3.193086665403629953e-01,-1.826943282292666781e+00,8.719115378036790265e-02,-1.165995566463372324e+00,-1.171271340162633873e-01,3.926383169408487195e-01,-2.394565670958352654e-01,4.278431412981272830e-01,-7.509213386194889539e-01,-1.215628947423589706e-01,1.268743414775197031e+00,3.221954060476356352e-01,6.575188194554423271e-01,-2.536720049091094054e-01,-3.326942314010581381e-01,-4.240642738876699291e-01,-1.158045951678855212e-01,3.869959875303694563e-01,2.444366507470614736e-01,2.586934007712656247e-01,1.617215878695358322e-01,-6.747781748487271525e-01,1.314015456563268902e-01,2.237478211205788936e-01,-4.581065005090612097e-01,9.187690998158010158e-01,7.672866838953343871e-01,2.815500474334363123e-01,7.015492505290613634e-01,9.295487309619095140e-02,-1.194243460849387706e+00,-8.140017453850654228e-01,-6.880035635881322220e-02,-2.029937354607462552e-02,-8.950212543482944927e-01,2.818445933884707877e-01,4.878466632570999661e-01,-2.993634845644326803e-01,1.411148092990717473e-01,2.778208169212297296e-01,-4.176016263359202951e-01,7.911179990005157148e-01,8.924747464878747261e-01,6.126502328207690251e-01,-5.334849394818018675e-01,-6.643960948177021208e-01,-5.435469330220714657e-01,3.580203622459328106e-01,-3.726788739543860918e-01,2.973960810732492188e-01,8.597534623917690855e-01,7.237032570097158279e-01,-3.956124166091854605e-02,2.445914258018357101e-01,-6.564907937710362518e-01,8.957769191383382346e-01,5.990312080145872020e-01,-3.525221938617760231e-01,5.759487541970268465e-01,4.569438496226285729e-01,-3.225220391914954132e-01,-5.314296637684655655e-01,-3.519169289633550246e-01,-2.974106473151522656e-01,-4.065688525707294443e-01,6.554731371603668144e-01,1.885553239136063958e-02,8.655465193909069876e-01,5.861496248161472966e-01,-2.577971404225150032e-01,-2.847640084393195381e-01,-2.075086395030166786e-01,-8.101223260418518590e-01,-1.058092479855152757e+00,-1.281140190498932574e+00,-8.021413777584888161e-01,1.269182503716280996e-01,-6.169801125537056619e-01,-3.586874198290529447e-01,6.771204954474689952e-01,1.166003460029416905e+00,1.492537877189702988e-01,2.619952585981971116e-01,5.402239197034632845e-01,-1.036976461430420660e+00,-8.652755540015266700e-01,2.071933628060482480e-01,-7.046525354468479163e-01,-1.089025713009052036e-02,6.995666346326540053e-01,-3.094360525218163849e-01,-3.021166606921368292e-01,-6.614416332133767895e-01,5.648499928906395295e-01
-1.130525600996127034e-01,-1.044425360217475562e+00,-2.195427686864035166e-01,-3.661809323153450424e-01,7.687449517419516765e-01,-6.206272975266471925e-02,-8.254523273044378495e-01,3.702565581329982369e-01,-1.228923025709371675e-01,-6.707625418559558517e-01,-4.562874517071258684e-01,9.230932247106212740e-01,-8.279320481257864683e-01,-2.859974840009626429e-01,-7.003356566065148670e-01,-6.698743530665589585e-01,9.352442323330670826e-01,-6.521543682829863409e-01,-4.132558012834263717e-01,6.230200051978136422e-01,9.006206703255394130e-02,3.306768390751387288e-01,4.253448757092730403e-01,8.582946554809102180e-01,7.754361505670095411e-01,1.650065148504516466e-01,-7.213348363058963431e-01,1.177247549685743744e+00,-9.776209889508361561e-01,-3.220631954289484566e-01,-6.635530702223525756e-02,1.136756944860382590e-01,3.662136624289027420e-01,1.959270298043609138e-01,4.951289621394643903e-01,-5.415587675383434219e-01,-3.215704298265086858e-01,2.258464011518133696e-01,1.707034795396221993e-01,2.057125317036807149e-02,-7.171297473490014784e-01,1.549593132069042312e-01,-3.298494882571584852e-01,-4.441294011557787025e-01,-5.778705306526333851e-01,-3.981858333554348373e-01,9.975223169439237925e-01,-5.975700133969854555e-01,-6.613364747603196481e-01,7.621131581507538666e-01,1.121741993261382853e-01,7.795282635925157022e-01,7.337940894391505875e-01,2.639682889105304797e-01,9.354826910428982734e-01,1.131495032952049451e+00,-2.944187936795220409e-02,-9.888995168709808770e-01,7.183882341148160044e-01,-1.023602244991711763e-01,-4.342937102765390134e-01,2.337375393766063236e-01,3.957099591662074367e-01,2.343783271344146713e-01,1.617203819845275392e-01,-4.071375485129075655e-01,-1.504678051084892831e-01,1.228910129800993428e-01,5.380655477801832287e-01,-3.263922777848425882e-01,4.406220784236020149e-01,-5.801836689130501767e-01,6.006998657704086808e-01,9.499231743597449582e-03,-4.615064196219912374e-01,6.652882817418329653e-01,1.361864888710500487e+00,3.275213072810378989e-01,6.135473491918668615e-02,-5.808523105229916883e-01,4.406987246160861127e-01,2.677585683989064380e-01,-1.071290859926737754e-01,5.468094473318267923e-01,-5.195561942503862385e-01,-3.052464909875529098e-01,-4.866046229632021713e-01,-9.786807486387253396e-01,-4.457093139947415628e-01,-7.297932329841723409e-02,-4.074375692759132361e-01,8.021325510205339349e-01,2.343742015209011875e-01,1.171132853760405018e-01,3.907149507215511297e-02,-1.144677876214438061e+00,7.655238877514336515e-01,-8.471767198378298280e-01,-8.787610423544620075e-02,-9.315149477715866100e-01,-1.165907308195275105e+00,-1.019060929362506224e-01,-4.414521927277856861e-01,7.078090245412361758e-01,1.294311032988172627e+00,2.863274326032815287e-01,5.236001522642659278e-01,5.610013902151957943e-01,6.143718790023665610e-01,2.794254857656177093e-01,3.516656837472707520e-01,-5.937693107362335132e-01,8.820053782685872978e-02,-1.104374507832395436e+00,-1.881584710632495105e-01,4.217844705106871817e-01,3.148721774611181190e-01,-3.230533517268742716e-01,-3.050390932944024303e-01,-1.120111429776583789e-01,-3.870363470157722197e-01,1.045581651281159541e+00,7.229679258359610339e-01,-1.142461891947467612e+00,-1.488138287402333892e+00,-7.143502176110990698e-01,-1.475950376488674110e+00,-2.290114954932757074e-01,1.504381211263352558e-01,-1.218868828906510382e+00,-1.093730837545021789e-01,-2.543725564915103043e-01,-4.182859397574159033e-01,-3.865998858009526140e-01,-2.321969621224558855e-01,-3.995177243149017898e-01,2.573713202686523926e-01,1.145889202296015874e+00,-4.686992811338073182e-03,1.793160952418202184e-02,5.201918388114009639e-01,-7.665835599208309370e-01,-4.643839474114644927e-01,-1.821123061532450571e-01,-1.008311448107106351e-01,-5.700559012380858048e-01,4.936817504826236658e-02,9.468122382209243071e-01,2.153278494608335258e-01,7.445514254656281361e-01,9.593636660462215859e-01,4.649655356817511964e-01,-7.733831530364858597e-01,-9.841348683393515984e-01,1.797267316288054251e-01,-1.652487426045455010e-01,-6.068683960205485395e-01,-1.274859348430624317e+00,5.618898422893230382e-01,-8.793067118850074471e-02,9.638524858272605744e-01,1.583252638645078203e-01,6.405765735784306747e-01,1.258092212613560079e+00,5.455593794996294044e-01,5.932739935467952197e-01,6.010593892199117549e-01,3.020634472323480146e-01,6.965444359069101754e-01,-6.052946246257323581e-01,9.205016824328117186e-01,8.382614117463282888e-01,4.607488408723519613e-01,-7.874431580508995943e-01,-6.538734881132591825e-01,1.027238360010070739e+00,2.850397835784318143e-02,4.476407170357133980e-01,1.575670368211765484e-03,-8.538580889996205681e-01,-6.758177781218810409e-01,6.912860712453680057e-01,5.499706300681391768e-01,-5.340728706112851665e-01,8.047692194391711240e-01,-4.571370723494452837e-01,8.489367351200785006e-01,-2.405833621071727935e-01,4.553159242591545697e-01,9.129609448944798755e-01,6.764680129525570962e-01,-3.484859692791323904e-01,-3.654072321225946274e-01,1.086312773811880739e+00,3.151875365477087021e-01,-2.551100080787543356e-01,7.012570546693012163e-01,8.703694576951321871e-01,8.570829215696095238e-01,-8.355260176134905459e-01,3.779040240051626531e-01,-8.903508779233414439e-01,8.416959112534480592e-02,-5.515038904634381733e-01,6.051706575426034629e-01,-1.419017300142089710e-01,8.467110046948658209e-01,3.903007523701395587e-01,2.149934457961587622e-02,1.471847447114822960e-01,-5.385884977175078303e-01,-2.206410734056094558e-01,-2.719508997632383296e-02,-1.101866824003727929e+00,2.372235460599092793e-01,-5.509295156570473972e-01,-5.638748269537787600e-02,-1.191737783163860032e+00,-5.387067244600757254e-01,5.836620176249468495e-01,-9.942040748398148220e-02,5.761103591208829311e-01,8.363676697740307642e-01,-8.914827802820790570e-01,2.899012455417258605e-01,5.839827421308289024e-01,-2.325866462970821620e-03,8.494136039172881514e-01,8.045327126538123208e-01,8.300668593733867562e-01,-2.619571753540742565e-01,-2.381386753442944759e-01,5.766783960385221119e-01,1.061949559511312202e+00,-1.134045723013825890e+00,-6.948331052632467086e-01,-1.559605716863654290e-01,4.752167985027846986e-01,-1.383639760987171730e-01,9.990511162106314735e-01,-9.111364371615009450e-01,2.490817850072922848e-02,-1.652853331020752270e+00,-8.921291623303971852e-01,-1.064310257591891240e+00,-2.657679841602704207e-01,3.159896880402507380e-02,4.561987945855024984e-01,-1.012319438626172907e+00,-9.287303831720968850e-01,-1.782596682538843402e-01,1.387697985943334433e-01,-4.980260856945398773e-01,5.495841245087775828e-01,-8.358868053166308709e-02,-3.572204478125771132e-01,-8.752920809816587822e-01,1.044147062406562299e+00,6.320230557341370847e-01,1.374394145685838287e-01,-2.417831445793666434e-01,5.449658824936827184e-01,7.669969672529706184e-01,-7.970781829399509189e-01,-8.864303203538543841e-01,7.173449280576996712e-01,-5.537843033364203693e-01,7.301805936033765043e-01,-1.533711225806881351e-01,-2.737551542627216228e-01,-1.545627082683085129e+00,-3.560779316932090599e-01,1.541957823407495987e-01,-1.845041842023940337e-01,-4.501111751460933896e-01,-6.721811775623067753e-01,3.068121535652874599e-01,1.689292174608242325e-02,-1.252179537803769782e-01,1.642656618755830300e-01,-1.470445338336464347e-01,-1.184583201131005764e-01,7.933136659966728566e-01,-8.568811179758039076e-01,5.543305844571358998e-01,1.039225769887249573e+00,-4.422141601919643006e-01,-2.242185388581729721e-01,1.985632194189759780e-01,6.086621179868895171e-01,7.390017108489290720e-01,1.632517905210645326e-01,6.757040976163569690e-01,5.679290832127111693e-02,-8.489768145511336073e-01,3.048779727677650153e-01,-4.363998071937996714e-01,-6.662106539577788977e-01,-1.052320739143826289e+00,-7.196300295609371345e-01,-7.391728862355958496e-01,-7.354312061861375538e-01,-5.674137808987056442e-01,7.435806234982569318e-01,-1.469386993491665017e+00,-8.992820999146630134e-01,5.616301771493942274e-01,8.399132906694650735e-02,6.425352606541618883e-01,-8.371819446926419550e-01,1.976617139258232680e-01,5.063063274070507269e-01,-6.820699620003536912e-02,4.903085058827911791e-01,6.486154541084721004e-01,1.389531361679169075e-01,-5.234074629939213796e-01,7.615706651157614360e-01,-4.989127971375011406e-01,-3.835021495951979054e-01,-6.362703469907673437e-01,4.864167566982802691e-03,-8.162908172741315527e-01,5.454119076341026329e-01,7.834030262062938732e-01,-7.796152137473330024e-01,-1.014585018653477722e+00,-2.990665021918865185e-01,-2.816299349470421376e-01,5.511117839141778108e-01,-6.422134482483435880e-01,3.326041303118023040e-01,-5.838571045199202336e-01,7.729404756746385829e-02,-2.747594912317931626e-01,-5.084898932211352474e-01,7.932643070830843746e-01,-7.627311963854574994e-01,-8.668238013549339760e-02,-1.474277027023806683e-02,6.226608063701422752e-02,-1.869375175562710822e-01,8.487648923759403274e-01,-3.210694799284387058e-01,-7.565876140563801422e-02,8.292189768211308820e-01,4.028368272631178137e-01,-9.454340381106174362e-01,1.736476054277839021e-01,-4.009804789102272005e-01,-9.646052767464597943e-01,1.655573383431478973e+00,-1.021420109777321922e-01,-4.300609719173893036e-02,5.507935253799506325e-01,-5.470520987175916394e-01,3.198551142604117992e-01,-3.971421830698765865e-01,4.838744271452645740e-01,-1.671579965437317017e-01,-4.261656450923462791e-01,-4.108876212694999031e-01,1.106684016941014148e+00,-2.244626102868007844e-01,7.468164771414985692e-01,6.435799305459621866e-01,8.387357139083714275e-01,-7.101692107382731045e-01,6.301365458576284606e-01,-9.711210343714166138e-01,-4.135652215084117955e-01,-7.277474416194764650e-01,-1.986985738616687813e-01,1.391755070272686856e+00,7.115668598078775942e-01,-7.676308254761827765e-01,1.291959368102084948e-01,-6.972596169479630124e-01,-1.245893782167911912e+00,-1.334160812806647715e-02,-1.818563352984086667e-01,4.653926343384226505e-01,3.841125957430875926e-01,1.878904010499477251e-01,-4.066272219308299518e-01,2.711920412490019805e-01,1.037550395015454541e+00,-6.189165408925748624e-01,-5.872788090766506430e-01,-4.502831890096564149e-01,-6.006186322423732182e-01,-3.674490528994343030e-01,5.746211203346986984e-01,1.728336924899850635e-01,-4.415921346699063221e-01,-7.651498822489796181e-01,-2.513952730332418839e-01,-4.237871221206251926e-01,-1.975761059602905087e-02,-4.680242217297531648e-01,-3.756917757789126067e-01,1.576127083322049760e+00,1.834943710416518048e+00,1.868012907240451215e+00,3.152413241362645446e-01,-6.752200282524463137e-01,8.717600727140668582e-01,-5.716046477813645499e-01,6.448829339556868545e-01,5.771943303460632668e-01,5.623718699419580913e-01,1.693014344175018115e-01,-3.571251880776913357e-01,1.547310694922211294e+00,5.682595258715219533e-01,2.899619400336563291e-01,-3.332429577626250805e-01,1.189795807267648664e+00,8.027521871708459544e-01,4.965471158905549465e-01,-8.262831194591202522e-01,-3.062243019405745392e-01,-5.202049840677628323e-01,4.476170172973523848e-02,-7.106949066359247169e-01,1.758336097672737464e-01,7.764938242085354103e-01,-8.551502060305172792e-01,-3.807420430720376836e-01,3.293747961444927208e-01,6.759614538741153256e-01,4.608546578090724211e-01,6.618562524652721324e-02,5.537837515021608592e-01,-1.859112955327514860e-01,-6.081379828880850713e-01,-2.445401494256732242e-02,1.239672065614262769e-01,-1.228420399879235125e+00,-1.465700119414265146e+00,7.394852438269602368e-01,1.218143229891778034e+00,4.157717566537735276e-01,-7.291203776249027824e-01,-3.479411310446494654e-01,-5.827687788958251236e-01,1.274604512399244750e-02,-4.285501220538056599e-01,2.387901729443530074e-01,7.017676859407577794e-01,-8.774746306959413378e-01,3.603347393616904148e-01,4.674315170979781997e-01,8.365458132476631670e-02,-2.287201323301440437e-01,9.716470951773537035e-01,-3.349860867655258256e-01,1.012900384703849799e+00,-5.147167716855408637e-01,9.406567363988961317e-01,7.715009123579862349e-01,7.568814836287695025e-01,1.221385210452461845e+00,-4.486917149470954769e-01,-8.283854372204479954e-02,-5.740986835414322309e-01,-6.794605872370790278e-01,-4.151736356660071792e-01,2.127422962467477238e-02,9.753034507912006212e-01,-7.632434798512914842e-01,6.946421934652353691e-01,-4.853281690908142765e-01,9.499279398751239167e-01,3.627274283915781772e-01,-8.098933390502595087e-01,7.373865316757930444e-01,-2.225773003595639954e-01,-3.106717881900185607e-01,5.411094879419026810e-02,-6.041783676315294338e-01,4.114043711378846946e-01,-1.032045581524831668e-01,-1.075173077066396088e+00,-6.862770104642046398e-01,-4.399120064310398925e-01,-7.132870382975715629e-01,-4.613597714077606327e-01,1.664455262672140945e-01,1.661408054853941996e-01,1.414274664389064684e+00,5.783542714437455157e-01,-5.878934388786880572e-01,2.737651043903741033e-01,-2.095200060060739555e-01,6.113931069612152935e-01,6.067879497666199828e-01,4.094304410529582827e-01,3.108998302917945766e-01,-1.371277801392740137e-01,4.016031548640946469e-01,3.215807411753472955e-01,5.501364130575151501e-01,-9.063011126984940047e-01,1.765848184731985404e-01,-6.926745061272971959e-01,-2.145735356869818700e-01,-5.429833404353244797e-01,-3.599891014042798099e-01,-9.954230138426322094e-01,-9.696951312394422873e-01,1.028507917610971406e-01,2.321540691581354676e-01,-1.290289362945324370e-01,-9.300576282886950930e-01,7.964822589233448713e-02,-7.943051745540977149e-02,-1.865580867276531996e-01,3.145108090065809048e-01,-1.263200096619183088e-01,-6.971641653939363026e-02,7.873008385103266171e-01,-1.023218365034793242e+00,4.872292238159185718e-02,-6.654506243157262135e-01,2.019501052139325292e-01,8.286948353837366235e-03,4.247703248668866505e-01,4.793770339587096752e-01,-5.260416672344784272e-01,-9.642729598991656159e-01,-1.687262330609058947e-01,1.146721001228727665e-01,-9.259595193050771389e-01,-3.159268454416309241e-02,1.729207096724072468e-01,-1.696068166352949769e-01,5.495795659725856153e-01,-1.348662258152766302e-01,-4.935375512644444851e-01,5.829367675101609914e-01,4.858920186044733414e-01,1.231527015295325565e-02,-9.838678800177469430e-01,-6.149439694446637850e-01,4.690107519361730315e-01,-2.904087963077110479e-01,2.303343705484050818e-01,-6.059317080668273903e-01,3.678714100918874519e-01,-8.309171894396277791e-01,-1.063729756199599530e+00,-1.217660000680053978e+00,-6.353031845365849639e-01,-7.620596482441162056e-01,-1.088779127229593247e+00,5.269817064987741828e-01,2.622357402500033463e-01,-4.223895189538282580e-01,-4.899080882341692034e-01,-3.496238985257659609e-02,-1.378005173749867474e-01,-5.989276940569238095e-01,6.411427932530032736e-01,-2.330828038899101784e-01,-5.024518452099342447e-01,-4.238632433270481115e-01,-6.416551379134964872e-01,-3.627462208223187212e-01,-8.618787509366679922e-01,-7.024140303647450345e-01,4.097481966243088358e-01,3.324551673958837106e-01,-2.392461428515821054e-01,3.493380735531867454e-02,3.305696147317330746e-01,6.965859875008373336e-01,2.540981910498602003e-01,3.172029002524216490e-01,-3.685775679505976510e-01,-1.209783811591413037e-02,-1.462025027515274911e-02,5.437542877788571483e-01,7.711008905121549128e-01,7.065453390461348127e-01,-1.090962207341290124e+00,-6.558617752775813825e-01,-2.165655043346435271e-01,-8.052619028837886272e-01,7.192395304332082073e-01,5.777216641447431300e-01,-8.601705218077382309e-02,4.103902134387877876e-01,7.485532056558288350e-01,8.554432321650007331e-01,-5.848194563892142872e-01,-2.038282976685922843e-01,9.513832236563711520e-02,-9.052212059979818370e-01,5.747336610704882887e-01,4.105172088430448230e-01,2.840129290082782365e-01,3.198680358892003195e-01,-6.224119458910833957e-01,-2.967932125469906479e-01,-1.680114975464884475e-01,-3.759953606789276370e-01,4.323923999578018207e-01,-5.426524878012923825e-01,-2.074714045132243778e-01,5.275825608882080964e-01,-3.108284309478006047e-01,-4.110958131652124870e-01,-2.686754955723222316e-01,5.236535273968720983e-01,2.396377293478100245e-01,2.093026747798885645e-01,6.224616367198900768e-01,9.071416555539369986e-01,-3.080703892061704974e-02,1.235790718749151473e+00,4.670613989108954867e-01,-4.622129499873907643e-01,5.427147660454962885e-01,5.314245082259515529e-01,2.526793810282245145e-01,1.023552064008085516e+00,-7.741536626221233730e-01,-2.100806846983509779e-01,-8.354308023074931144e-01,4.815706906468157633e-02,3.368136032074788844e-01,-6.237708663772968398e-01,-4.589355172525032972e-02,-1.160177689018249969e-01,8.818036307211241098e-01,-3.742404680744393919e-01,-3.530480136184013795e-01,6.040001989155181078e-02,1.337712157591055585e-02,-2.569181314322797616e-01,4.005886528910183042e-01,1.469372688902924051e-01,-5.135368730445022400e-01,4.173543747938642801e-01,5.623203161451096888e-01,-8.361148168584406903e-01,-5.723625923375300628e-01,5.831824214597641776e-01,4.342138687138949460e-01,-3.082939798086887229e-01,9.247607751620990912e-01,2.845346749447487666e-01,1.996923325719533460e-01,1.418266134848714388e-01,7.123701416298140465e-01,-1.113826167214858387e+00,1.910743094403407338e-01,-5.204349111020876162e-01,6.911977807031691734e-01,-4.292262692648675382e-02,-4.166210099138976108e-01,2.224355544535812357e-02,7.210737445472372720e-01,-3.582881734433549514e-01,1.851583718284351143e-01,1.616742375629901807e-01,-6.972499951328596790e-01,-4.796936036313134699e-01,7.534945991954358213e-01,-1.732952473298890461e-01,-5.233035054514809797e-02,-9.781642089030935239e-01,3.163304373029435929e-02,-5.163462789484761783e-01,8.039777143537608917e-02,4.720611825651978566e-01,-1.034433419444746427e+00,1.067548281122185916e-01,-4.230905147322436832e-01,-5.216252280987403456e-01,-3.145741035765887150e-01,1.917158310077639871e-01,7.879917896168796565e-01,-9.259529980904206425e-01,6.991824265586319420e-01,-2.303403126671121071e-01,3.564255295578562799e-01,-7.610194155484446554e-01,-2.040924050132041090e-01,-3.750013991738603281e-01,1.449707499043681180e-01,4.826840901270274542e-01,2.634691878503395701e-01,-3.083262287892805098e-01,6.646293466502634084e-01,-7.930076944455034527e-01,3.300018099487695422e-01,4.131894441000459883e-01,-5.007213552709109949e-01,2.415851863822462281e-02,-9.599636515333780096e-02,4.483173653032191397e-01,-9.917882070773806902e-01,-1.992592968755049487e-01,-9.709694304280130916e-01,-2.464312073739414188e-01,5.887996146431555555e-01,-5.068068802000910145e-01,1.647486300189729413e-01,-2.124199915089008406e-01,-1.986445532782906143e-01,3.217639705010100215e-01,1.068945251226391280e+00,-2.258184814436366844e-02,1.364531947088034880e-01,9.782781997346557956e-01,8.931331732092654407e-01,5.537774330031818293e-01,7.174961048262598062e-01,2.671339619149201150e-01,-8.771537285601989087e-01,6.018553647779002480e-01,-7.107885066469501467e-01,-9.717861340368161294e-01,6.929385922978095191e-01,8.378549887788356854e-01,-5.101195603281741819e-01,5.350843618856132577e-01,8.468555704940233797e-01,1.019709336488330065e+00,1.023149662217082145e+00,-4.001337388019901575e-01,-5.168625760881478265e-02,1.545361686437233262e-01,-9.034209056997353215e-01,-3.416017212890161137e-01,-8.083564398398360717e-01,4.949542105602950937e-01,2.828344879645372512e-01,1.302601038486080887e-01,5.037669903779783409e-01,-1.487996349008909591e-01,2.195204282599743095e-01,-1.537410881233930715e-01,4.519918434201100621e-01,-3.855467268242372403e-01,-1.134576333048734842e+00,5.017584395713764467e-01,-4.688239099669357368e-01,-4.263874021426327654e-01,-3.818778744754972032e-02,2.071086557597494326e-01,1.434001988708588637e-01,9.328526733620696731e-01,9.193586243741410646e-01,-3.320016839052019053e-01,1.350677198149245806e+00,5.339275720410198156e-01,1.111672773521665381e+00,2.424464294415239196e-01,-3.167980569120745771e-01,8.139579615501233434e-01,6.375088752881336029e-01,2.090581592964706747e-01,-1.352119810358424212e+00,-5.863377898468226102e-01,6.767825406488919837e-01,4.319763101469439870e-01,5.476597110912846400e-01,2.062124956371161610e-01,-4.709314724826343945e-01,-4.177224318367372402e-01,-1.879575837243590009e-01,7.571723241165917440e-01,1.663302738560326621e-01,2.408581467009949517e-01,-2.540541383233785311e-01,-3.345924891072626917e-01,4.162783165790465145e-02,-6.002519885564826518e-01,4.872766458816118335e-02,-6.646573819041742270e-01,3.397165948785517697e-01
