akj:
6.728600478498990567e-01,3.152801867549691606e-01,-3.824387608553309614e-01,-1.959250179969337369e-01,9.463815171229769119e-01,5.222538354395809268e-01,-5.139591738975939350e-01,-3.651494521286634543e-01,8.188053427135846274e-01,4.540313827140167735e-01,2.042809680259964900e-01,-9.307016165498219196e-02,7.955411447346768528e-01,2.932222773114808931e-02,5.048204615615775603e-01,9.856393828469077467e-02,-5.554198467358143487e-01,-1.441602411877306866e-01,-7.598358330337330324e-01,6.967123208052284911e-01,7.869156572050011178e-01,-2.395339324486196464e-01,5.576894044451219390e-01,-7.835314632385976807e-01,2.581692159609525472e-01,1.005726486046655488e+00,2.809999685577842850e-03,-1.231752047063896099e-01,-1.860578386173369625e-01,8.812954134090444924e-01,-2.548793020078867766e-01,-3.567145838723396190e-01,-5.332628240201364722e-01,2.602127197644991258e-02,-2.168232509196540703e-01,9.297698510284274631e-01,5.844891558259990294e-02,-2.208375767282035884e-01,-1.002431729213402178e+00,-8.719173271165923111e-01,1.934830841060299622e-01,-3.407395229013018279e-01,-1.152294456701756231e-01,6.344643053137098976e-01,7.794174553127302119e-01,4.249216032435017970e-02,1.506194871973630944e-01,-8.326254793665067711e-01,-6.147516421523905317e-01,-7.477552281710078130e-01,-3.197717519711824885e-02,7.351349930482253825e-01,-4.785901894571560344e-01,-5.357121753688955934e-01,3.080306010477323886e-01,8.135186038595092484e-01,8.933891506907012392e-01,3.270816549035879262e-01,1.088825648217711217e+00,5.971500598818343386e-01,-1.826384923149603212e-01,4.920925810721213378e-01,2.255457771839932124e-01,5.533799545267480413e-01,-7.559639371023494370e-01,8.798360432316780777e-01,-9.192975888130381357e-01,6.329813489049318509e-02,5.009364503548340702e-02,-2.903677832606266773e-01,-5.856305710581900525e-01,-3.062249113105149911e-01,7.486945238518436518e-01,-4.081482349751131000e-01,8.569031480844668813e-01,7.149524785724199472e-01,6.979222220176806157e-01,-7.023502703865998065e-01,5.091885441528464229e-01,-9.878981106527736644e-01,-9.602832801492506842e-01,-3.985537195724476178e-01,3.795919730762327693e-01,9.646291829267925610e-01,1.966364318828924443e-05,8.929018515844945325e-01,7.468974483430461664e-01,3.618884674472764851e-01,-3.278254835859044647e-01,5.517943035611583280e-01,7.806740762699027059e-01,-8.183977706316755141e-01,1.735238724635624133e-02,6.214570399112483434e-01,7.977602923069311569e-02,7.102819810975435910e-01,9.935046583146661670e-02,-1.632296793434355187e-01,-8.188067853422485720e-02,-4.388240606178325232e-01,5.510836816947387584e-01,-5.806184530660177812e-01,2.886677011635844781e-01,1.154366727528112646e+00,5.335965669605813311e-01,5.538612249010812505e-01,-5.043246980964565668e-02,-7.013659404243572926e-01,-5.928439727878516141e-01,-3.560475626316152997e-01,-4.073199463970523793e-01,8.577364532499058836e-01,-3.240569093449285898e-01,-3.382995497564064147e-01,-5.821734688803604368e-02,-8.269151190984552757e-01,-8.125482898198307380e-01,-3.932654712911906603e-01,-1.214987567108560124e-01,1.059748268535338545e+00,-6.673716613249907059e-01,6.904487159867407353e-01,-8.088586975147701308e-01,2.456984601314404770e-01,-8.755620369109761159e-01,-1.970777853935605506e-01,-1.321984699546193021e+00,-6.195973898800338775e-01,-5.640806004729287393e-01,-5.809451085768549405e-02,3.004534689770170797e-01,5.009615115261549789e-01,1.441682300738709455e-01,-1.290013164515008970e-01,-1.602823575723232585e-01,-5.633301378984274521e-01,-8.096960426103200215e-01,-4.090402891693601384e-01,9.158319055835422162e-01,-7.349132936245340864e-02,1.981868834626206166e-01,-4.327371052804616092e-01,-1.114207579969910822e-01,3.965162982909622991e-01,-9.736559354733398397e-02,4.675264309339114410e-01,5.049084345258922912e-01,7.416832280061204097e-01,-4.878203280983622325e-01,1.139980660169464644e+00,-6.515393245018429313e-01,-4.458731882651162381e-01,-5.777293736173321204e-01,-4.170498586723217493e-01,8.063507766856387038e-01,5.757248756318836813e-01,-3.462834124565254412e-01,-9.607659908808736660e-01,-6.948607860010781456e-01,-9.922910508676964225e-01,-4.052901263817221822e-01,-7.620827390713720284e-01,-4.973181874342415543e-01,-6.809468573939418956e-01,-8.623436112924256491e-01,7.196976802225138470e-02,-2.867427772350715776e-01,-2.040257306403033266e-01,1.713569529158866789e-01,7.673063726415271235e-01,1.810644819747223577e-01,4.582797848137076802e-01,5.330334873357777115e-01,8.197808896445887283e-01,-6.276951268667859685e-01,6.608554671368646050e-01,4.285782922207359569e-01,-1.271927485133252378e-01,9.607230582417284337e-01,8.181428633775595927e-01,5.018835822469458474e-01,5.183551661258699594e-01,2.508778087869497492e-02,8.648425490597918541e-01,8.619130518835286248e-01,8.300795331196688664e-01,3.773421138449460366e-01,8.571602344718827204e-01,4.574874205453651754e-01,-7.934859048358029465e-01,-4.282636691227471037e-01,-4.662961928614064999e-01,-7.272873674761957119e-01,5.518878649180333218e-01,9.827627784867862815e-01,5.667402084932067208e-01,2.307356417389166969e-02,-1.296550473783197009e-02,-7.889571273116867678e-01,-2.329166335014293543e-01,-4.449194646187053515e-01,8.905964055355446440e-01,-3.683975825867733533e-01,-1.151679714026806189e-01,2.912388063243456227e-01,-3.559785188450059062e-02,-8.064121850108909584e-01,1.776494967075875619e-02,3.030384130150384943e-03,4.172028703365446289e-01,7.082315307116449077e-01,6.856307144300812471e-03,8.477897024202052378e-01,4.337644027050334139e-01,1.002123441725699005e+00,-3.430500609548422508e-01,-1.033204026496621353e+00,-1.393192485801568514e+00,3.857653174852752609e-01,2.732403838782122008e-01,-3.483836978563875086e-01,1.903353042842444443e-01,-2.058767167312801349e-01,-6.897711347207854393e-01,-6.048360774885304381e-02,-1.310222128190929591e-01,1.099300087467681486e+00,7.085699891693063579e-01,6.021909463150511010e-01,2.443196133755714261e-01,8.895872556796539099e-01,7.623155770465086523e-01,8.665731456145274736e-01,-4.937960619683929298e-01,4.260749655223897703e-01,1.103811018293897162e+00,6.012376463502330237e-01,1.043873459564428341e+00,5.794217680592140818e-01,5.892900111786670420e-02,-5.485659516897487542e-01,5.409825163385341140e-01,-9.773873869447773366e-01,-3.475970165353428620e-01,4.460918415798797443e-01,-2.263711829866857650e-01,-4.429910041302609902e-01,-4.020136408008143092e-01,-7.545716365856388608e-01,-1.008971940274904000e+00,1.305249710326853996e-01,9.472009626813020222e-02,-3.761362866172327513e-01,-4.761787121873406470e-01,-3.220841772183989371e-01,2.832392735679246654e-01,1.409156031760402106e-01,-7.560320374355606887e-01,7.669665355738082280e-01,-8.918735181447536853e-01,-1.020292173450769502e+00,-5.286116632609890731e-01,8.748561404353690785e-01,7.761123793990174491e-01,1.116022460776689706e-01,6.168416980346274475e-02,-1.013620814885209526e-01,-8.755829265123978855e-01,-9.571836150105783592e-01,2.842508022062843476e-01,7.124749610752373341e-01,-8.079328773413230191e-01,-1.077715245809691552e-01,5.206721821806860051e-01,-2.321708007412942032e-01,5.228049004284111012e-01,6.051222663296589310e-01,-1.305051100229693006e-01,-9.413854505443955967e-01,2.582906193448633592e-01,1.010063984459078190e+00,5.822492484218916298e-01,-2.353571332532343463e-01,5.046113511189204148e-01,-6.197226475655058797e-01,-2.154990609275627689e-01,-1.582769926719491960e-02,5.887035997251228725e-01,-9.311904777195010308e-01,2.596221174742281979e-01,-7.216078311667368794e-01,-5.376250560923633293e-01,-2.853208303194558759e-01,1.581855854823775998e-01,-9.663532233509000147e-01,4.929282675715980777e-01,6.233306958486461991e-01,4.106006537943215351e-01,1.074573405024085826e+00,-6.921349001881014207e-01,-7.915491827612124442e-01,-2.039077912415574734e-01,6.990086591015788609e-02,-3.286051222372058933e-01,1.050016680313477085e-01,4.356983976546916632e-02,-6.645875317561087403e-01,-2.437114801551116261e-01,1.883870736605017804e-01,1.148321458591107513e-01,-6.284425209595005946e-01,-2.463371642521333671e-01,6.046574762511308654e-01,-7.882059205564349025e-01,-5.168307739011905877e-01,-1.706242835619083131e-01,4.064556314388743652e-01,-1.864295690069580624e-01,-2.435604913631552459e-01,-5.161826922072296764e-01,-3.548810377686459905e-01,7.646860688525446148e-02,-7.616467767137982126e-01,4.130076114300965662e-01,6.260661949833664641e-01,5.855529166188307849e-02,5.911134013783331947e-02,-3.527372206709548097e-01,-1.111882124484407791e-01,-2.767860221496982742e-01,-1.939429418254300930e-01,-1.001960224820254819e+00,-1.057442668461420432e+00,-1.027756996728775629e+00,-8.117804534696261565e-02,-9.761461742707709943e-01,3.321664277721744218e-01,-2.269438011523450260e-01,-8.021985834137125571e-02,4.892427707518621355e-02,7.337821557049445387e-01,2.052129922365353576e-01,2.883887292430740990e-02,-9.737554428486247526e-02,-8.375325760529504782e-02,-4.703293706106738414e-02,-3.266830487239947289e-01,3.798248468378810361e-01,-9.628491120661087921e-01,7.817703375931575049e-01,-5.553490464907855362e-01,8.170027372213604089e-01,-3.595939910114972493e-01,1.039141375412427626e-01,6.511270140961602504e-01,8.300511576900488908e-01,3.962129670682417171e-01,6.060165944879056799e-01,3.684784191374598783e-01,-6.269917157229326632e-01,-1.163416963651227487e+00,-8.021496514160426639e-01,8.181512955622206595e-01,-3.270078654384759864e-01,6.412242379792654212e-01,2.089253524123099379e-02,4.357677945905544803e-01,7.803410335311745660e-01,2.281895584679912159e-01,4.193934880618574446e-01,1.046005313467868181e+00,5.247320051012686060e-01,-1.002952436423910410e+00,-7.504395075762529954e-01,1.287881671198747302e-01,-4.380925359092064375e-01,-9.592434223528204518e-01,-4.394299427426194837e-01,-2.020823739076407499e-01,-5.478366148784530321e-01,6.682188256500372070e-01,4.535824895880457008e-01,1.193095198369894527e-01,-1.181778407123190988e-01,-8.507837236194848440e-01,7.505827615112479201e-01,8.561175775877885030e-01,9.404717144939824802e-01,-2.688747751727870727e-01,6.825364018466102412e-01,2.635118664303972569e-01,3.892522817102948007e-01,1.790114305068760125e-01,-8.039618903919689696e-01,-2.590376150451054738e-01,-2.560232661173711954e-01,-2.389448955706051925e-01,-5.472498382377242176e-01,-1.500043858456244217e-01,-4.071801693634348185e-01,4.629523111377727984e-01,1.338881558950285981e-02,3.003853240300601857e-01,-5.213730580459925434e-01,4.815538936639787160e-01,-5.859096756089920977e-01,-5.871533652128075875e-01,-2.065799457606967149e-01,1.118089518151489520e-01,2.952313875095721185e-01,4.884879712994825152e-01,-5.141752147457702149e-01,3.604284087942568604e-01,-2.142246691164231276e-01,1.457486949888067429e-01,9.541374585766159155e-01,8.971828006964930324e-01,1.973640401126382782e-01,-9.459038415396330279e-01,6.835359469374169272e-01,1.073273314903273379e+00,-4.350847972910373285e-01,4.376341893560016238e-01,7.984468560674672366e-01,1.095965433526277177e+00,-3.344912759499099608e-01,7.870207112107878711e-01,-3.696542278231405021e-01,-3.688619074212436399e-01,1.080399742107701344e-01,-5.290217324246443420e-01,-6.867957457207766181e-01,1.377516109583099002e-01,2.464059162745712295e-01,4.261202848459998971e-01,6.888467265939864914e-01,3.445507687360616633e-01,-6.887329576594416469e-01,-5.649319335409688225e-01,-8.113044662355384240e-01,1.035316580764169103e+00,-6.133727223388240057e-01,-5.028282565030145479e-01,-3.734160078707696728e-01,-6.681533267522721253e-01,-6.810720600730827412e-01,5.353323998835067821e-01,1.437947295904573597e-01,6.665605607135804966e-01,-5.014680541100342837e-02,1.823633638993557293e-01,1.036772265272190685e+00,6.209434314878556904e-01,-2.280267575373568778e-01,7.562476176669604699e-01,-1.215659852007050096e-01,-4.011704795605668949e-01,7.395846365908910480e-02,-1.216153053682673436e-02,6.850433526105783599e-01,-2.856273569952297309e-02,1.163268920208854369e-02,-8.421057016668559436e-01,8.269218821688334442e-01,-4.542502834275327084e-01,-1.639469186082411767e-01,-3.602944695167478555e-03,5.408043661387909040e-01,5.885970392939565698e-01,2.640255414901888087e-01,-4.062698698282954379e-01,-2.955143586029805314e-01,-3.495603624878128590e-01,2.116490013075520427e-01,-6.793706940264214733e-01,1.025995483889896143e+00,-3.818991029429962825e-01,-5.354979832794899419e-01,9.002228338696764975e-01,7.126114017155947833e-01,3.844766818196783120e-01,5.040537747619063813e-01,1.356933910838301616e-01,1.032875930889928462e+00,-9.242927399350202577e-01,1.271694629762070150e-01,4.481266874270677381e-01,7.804704328185729789e-01,-6.935561721130517610e-01,-5.155270247327277122e-01,-9.249588522851970307e-01,7.318735980982840617e-02,1.099747948153192018e-01,-4.190573867307835210e-01,-3.787726631733429050e-01,-8.116047751796583443e-01,-4.185437008787533109e-01,-6.282982607081935011e-01,1.594598961772311918e-01,6.135090175235119458e-01,-8.279772685241978403e-01,-2.071412262936683235e-01,3.414841790984605163e-01,1.546888797442091401e-01,2.868831366129755422e-01,-4.929570135244133455e-01,4.566784253205929955e-01,-7.862070411734494169e-01,9.504899867328011620e-01,-5.520064734584659849e-01,4.491147736088175191e-01,1.578647787978977590e-02,-4.647372346342745209e-01,-3.073373374906111510e-01,1.018329347972310034e-01,4.556679339988781163e-01,-8.926332063574410336e-01,-6.450303069578583459e-01,-6.976729703985038444e-01,4.786652002188143684e-01,-1.010102095583380738e-01,-3.100034292960643367e-01,9.081635426353781293e-01,-2.202348845362063490e-01,3.979713166796853829e-01,-9.483438997033248885e-01,7.766461444757848387e-01,-9.873181835534547979e-01,-1.601256926280963111e-01,3.504054226143652473e-01,6.769415891429826360e-01,-5.354562256447528146e-01,9.762854681441165416e-01,2.181084667402194421e-01,-1.112911708787926029e-01,5.997222514873333798e-01,4.563774121450472343e-01,1.227847466666883020e-01,-6.453321924990017555e-01,-1.677507973311151701e-01,-9.792330233541121087e-01,9.365036592103351820e-01,-6.419520061510299858e-01,2.961971461153912744e-01,-1.329011001139627002e+00,-8.124946106118409173e-01,-8.517551121202538988e-01,-6.792341041250657963e-01,9.372543112793392528e-02,5.492286836111006654e-01,8.773078963871624447e-01,-7.880977340997147307e-02,5.804995719181016423e-01,7.728832061512947993e-01,1.707668807514344800e-01,6.793413757965611754e-01,4.930707106058128675e-01,-5.583024351266429042e-01,-8.057654449140965180e-01,-2.635763738907336839e-01,-5.158456540914968524e-01,2.170841634847467394e-01,-3.579271815844333737e-01,2.840490242421639944e-01,5.728206678906361260e-01,-6.832752128028977134e-01,-5.442409917207053915e-01,-6.550979496744177011e-01,8.394342486637451639e-02,-4.534961826321766698e-01,8.758312286777297784e-01,4.798001265462715215e-01,-9.143212817374903878e-01,6.013668141119949961e-01,5.518363754361957918e-01,4.327606508492821136e-01,1.090535715516939064e+00,-5.835913202807669897e-01,-2.724668568157370685e-01,-7.810363980347140300e-01,-5.946300360588062661e-01,-3.778837863728423674e-01,9.776999946285065690e-02,-3.284720349490962144e-01,-4.787229898591978672e-01,-1.044160074728673226e+00,2.304663747186027345e-01,-2.027469395586987133e-01,1.939145867247711874e-01,9.684512018819038670e-02,-2.755174309613909189e-01,-2.041339260667965894e-01,-4.052081114008278528e-01,-6.892829178973353121e-01,9.712161976630783178e-01,-4.663897384524773315e-01,-8.217264411738449681e-01,9.621754426198289023e-01,-3.049532609985898812e-01,-6.871031694900044950e-01,-1.213793654078811013e+00,-1.371271892866342823e-01,5.093294083535402361e-01,6.236943468801005030e-01,3.782757912144378287e-01,-1.262468322424951661e-01,1.070111945718185797e+00,4.815902955155260123e-01,7.466847073827558301e-01,-5.841094720409336638e-01,-6.612119163609796457e-01,-9.028177238451308151e-01,-7.448349209330368259e-01,-1.003418956636499271e+00,5.251397348785992181e-01,1.494105780040661524e-01,-5.931614394025572778e-01,-1.053168728544097710e-01,4.528040321266029178e-01,-7.996105640780165613e-01,8.666309645956092877e-01,-5.786780830902288342e-01,5.190361715607917370e-01,7.176278624032617071e-01,-1.323905755091198122e-01,8.871176051559276354e-01,6.147624197768709609e-01,-5.854885365017221677e-01,5.416365968590450830e-01,-3.230474655945816398e-01,1.050094527163393021e+00,2.585716196294536862e-01,8.151788172127559517e-02,1.239277335685623260e+00,-2.864501744880666723e-02,8.079175048164625172e-01,-4.467336679054196291e-01,1.890082993723669058e-01,6.584881540906212249e-01,-2.801063465284335807e-01,-2.714827624590129829e-02,-7.662432466028643030e-02,-3.435909899665825495e-01,1.401089869823738121e-01,-4.642613959312874572e-01,-3.511780110256049192e-01,-1.038890397753086531e-01,-1.572107419655779104e-01,-7.803532104595894969e-01,-5.724304057026466941e-01,2.412432548592122750e-01,3.775708608220843671e-02,-3.828624967646014343e-01,6.395877935386035107e-01,-4.376080278918131894e-01,-2.356552183478444473e-01,1.991823612923234177e-01,5.552657414528281432e-01,-3.708856485293222094e-01,7.633582887007818174e-01,-4.404755063486788247e-01,1.624553718701469973e-01,1.902443844821364860e-01,5.891525021280771268e-01,-5.165460257947301903e-01,1.209165843296703818e-01,-8.009238986256121962e-01,-7.959383786167909536e-01,-2.742782566168863179e-01,9.012589829320865054e-01,-1.385139260354565360e-01,-5.843246870907837787e-01,-3.238106408515717405e-01,7.556638476716645396e-03,6.309446666828804062e-01,5.273511908409588278e-01,6.766756657634855898e-01,5.584333993497218041e-01,-1.621926482824084248e-01,-6.547737063246833467e-02,-5.446031312505804634e-01,-2.748763014489306600e-01,9.469628676306539594e-01,4.356157164736364495e-01,-6.178967821892176193e-01,6.519848209503413816e-01,1.240195932193949968e+00,1.027715259176412044e+00,-5.420073900416294554e-01,4.862864270435292013e-01,2.139567566698602763e-01,1.006315551868333769e+00,-8.983031375086374393e-01,-8.174185200853274491e-01,2.893271925360453856e-01,-7.327780644985669722e-01,7.794318019526491614e-02,-9.999576864011422428e-02,-3.188335182924820904e-02,-6.828895030872116079e-02,1.591111167264512571e-01,-5.276045459788252234e-01,3.504201734527885859e-01,8.992110103743230498e-01,8.822891216300230433e-01,2.725614654155144589e-01,1.531124940455587391e-01,6.746432658070075084e-01,7.787368300250268049e-01,-2.012777909854017444e-02,-1.751823816106242715e-01,7.202681375588411150e-01,-7.505607162239809060e-01,-9.910610136129457959e-02,4.750779668519035659e-01,5.275307696553098724e-01,-3.849294719610992788e-01,3.333640740136495917e-01,-5.836060965448119919e-01,5.640464939384433329e-02,4.926833610133592445e-01,6.800595804934852495e-01,-5.493474521247579956e-01,-7.324401662350958908e-01,6.121454824505326853e-01,7.935782005645543036e-01,6.362004826661445955e-01,6.158085531165819609e-02,-3.071320022283164919e-01,-5.582975974134394281e-01,8.564164010467429922e-01,-1.010233131185826583e+00,-5.964514134517976407e-01,-2.859093854915355504e-01,-1.334746546476534235e+00,-1.131069524542605231e+00,-1.502714100226565652e-01,-2.053191729213076633e-01,-6.238086336225765471e-01,-9.421864275468927463e-01,5.713020771742030046e-01,4.445189903345328486e-02,6.674757892304749030e-01,6.307585705334539661e-01,-8.303700379854347391e-01,-7.379307600918276755e-01,-3.273660347498745238e-01,1.026334741122262972e+00,-8.280783593422096356e-01,7.239284209680775239e-01,8.644773028125742886e-01,9.340479132498167303e-01,-9.206523605626972806e-01,8.060034721685710446e-01,9.302898872282433507e-01,-2.142340990751724350e-01,-4.041092563268987581e-01,6.036617321522565888e-02,-4.463479378360304395e-01,-6.416104387133183540e-01,-4.051772825290274604e-01,7.767958924801472709e-02,1.654412045942932896e-01,-4.296525245774567014e-02,-3.852568271472223138e-01,-6.106475538393995039e-01,-6.092685277674212418e-01,-1.187085899656942667e+00,4.506884166615989229e-01,2.776846444486044119e-01,-7.807202084519933027e-01,9.834128113011928463e-01,-3.206126640960998975e-01,-9.262700379910283610e-01,-2.429554658769223288e-02,-7.381049718494462342e-01,-5.152210502825957938e-01,-9.332205684165520987e-01,-1.230434031675795015e-01,3.920503450633555098e-01,6.136023544923908252e-02,-5.950185067085211887e-01,-7.391991502621738652e-01,-7.429822160517826068e-01
-5.456178053565324815e-01,-8.875948660316421712e-01,2.039134880669456473e-01,-5.823856962892545175e-01,-5.603779041189714816e-01,-7.153000140218257474e-01,8.125976740425641109e-01,7.003796420009776869e-01,1.538560949015006785e-01,2.410518747002412254e-01,-6.964848652740164292e-01,8.101414361894315741e-01,1.134928215999601031e+00,1.002313576141753426e+00,-4.435212270618830166e-01,-6.938176259717167005e-01,1.023615168578594359e+00,-8.077327091435659856e-01,6.759472937129420433e-01,-7.639935087403835201e-01,-3.463475824362849953e-01,9.254981062697186234e-01,7.211785891538164961e-01,-7.330801998383210671e-01,-6.253199197646767127e-01,6.466193522617416090e-01,-4.731765136258297422e-01,6.141298039990507052e-01,4.653271391179657490e-01,3.057153206687598934e-01,-8.879845827152774707e-01,-9.471086915954373131e-01,-2.084900188191712300e-01,7.202184890828647879e-01,5.476545181822846109e-01,9.202007224571518984e-01,8.099128749156754292e-01,5.560223307587071062e-01,3.809880610844574300e-01,-8.190930920424047690e-01,3.744628016445362695e-01,2.060503251983346329e-01,6.442574982900610703e-01,9.481644545555247827e-01,-4.538582738766411273e-01,-5.487727898344618022e-02,2.773858854380925054e-01,9.626862432927683066e-01,4.083116043234753800e-02,7.099749557167527314e-01,2.010153912657547393e-01,-6.785273100326140172e-01,-4.574680603265622314e-01,3.722131179422346614e-01,2.188258506360778732e-01,-5.342663192230162617e-01,-8.134888917320243218e-01,-5.011995357737587531e-01,2.706081747307744756e-01,8.223014313445341505e-01,7.178773167739757044e-01,-5.546079059870937522e-01,6.662543116941972432e-01,2.887592226905856263e-01,-6.597169504859213829e-01,4.016358259103660067e-01,3.198355362292621407e-01,1.050441457359609920e+00,-8.173683525929469340e-01,8.002502290492434778e-01,4.146342175841191136e-01,-8.386254118513725153e-01,-1.777085819215746057e-02,7.181199393580507406e-01,8.276749906730056228e-02,5.976870964992152258e-02,7.506451870808412696e-01,9.859303227056382957e-01,-2.460581950780612592e-01,-9.242939917556934892e-01,4.756097490037990427e-01,-6.893945587353303983e-01,-4.935877525460588555e-01,6.661483319377838053e-02,5.658338975243415447e-01,-9.186305241751627770e-01,1.321934162834828841e-01,4.309256249812749018e-01,4.261369203078073098e-01,3.791811378293883511e-02,3.784213942110764006e-01,8.424480337564452803e-01,4.323169841238083677e-01,-6.851359037250128736e-01,-4.576603053488632056e-01,6.153215435730088334e-01,3.956109942273729890e-02,-7.097672284315091895e-01,-7.906081347067627219e-01,7.506397395228547875e-01,6.171585701292110482e-01,-5.068056225460417785e-01,-8.110468878848514640e-01,2.298213550006172196e-02,3.578964618149733101e-01,-1.938026582581558466e-01,9.696277802173050020e-01,-8.162853403159067156e-01,2.654157362534528275e-01,2.787699486187276143e-01,-2.574024120350588141e-01,7.504592696223857384e-01,5.107553113798740663e-01,1.797733345013516337e-01,-2.142599229859098731e-01,-4.740425104389892619e-01,2.515882878586859772e-01,6.354963654210964430e-01,6.739863065879769799e-01,-6.216073539852301488e-01,-7.487597542659196748e-01,8.015624551099950201e-01,1.412944692850381379e-01,5.809147927122272348e-01,-1.222662875248303194e-01,8.290578394962606623e-01,-3.999163067107227021e-01,2.340737206516201874e-01,-3.409153234092148765e-01,-2.852911541592518807e-01,1.074971602522895253e+00,-7.643777653948220507e-01,9.371893082320053026e-01,1.556731692951949207e-02,7.363432173972177530e-01,-4.921049544774441231e-01,-7.124894405249129203e-01,1.729850937126236332e-01,1.459080014997784225e-01,7.900741208065810151e-01,-1.050863737392521591e+00,-6.089846111422139163e-01,3.352672702057449272e-01,-3.299613365237245577e-01,4.554405046790696576e-01,-7.847328653020207989e-01,3.000675522345089274e-01,3.102250697580254957e-01,8.467385781424993096e-01,3.272780674668868683e-01,-2.980413713924258134e-01,-7.395296086238793976e-01,1.729460873600933424e-01,-5.540791724786757744e-01,-4.520675268126427837e-01,-6.909886571474297412e-01,6.654884235415013949e-01,7.956253701428697145e-01,-6.260396668739176551e-01,9.050098977096537878e-02,2.795474886167668375e-04,8.450394695519275468e-01,-9.391182061406494475e-01,2.736938587134340461e-01,7.750852935067682747e-02,1.733817074424833238e-01,5.011237984890676289e-01,3.469958699128787849e-01,-1.794847405985236510e-01,-7.544415686631471551e-01,-1.128511550300256294e-01,-1.894028827672474269e-01,-2.978131025062931703e-01,-1.784787868776318565e-01,-7.005905623559843289e-03,-6.733427617905968221e-01,-6.105230262274271569e-01,-7.417219830760333199e-01,7.980081926639683854e-01,5.254982876012070925e-01,2.636735409793095064e-01,1.005520015128937850e+00,9.873172948763049295e-01,-7.815009913950521359e-01,-7.880863237846295055e-01,-6.681259568875250743e-01,-7.905929392711059656e-01,1.012067666040522784e+00,2.051901852916775404e-01,9.512975467854132283e-01,5.419385044303385301e-01,-3.911931478559260711e-01,-6.666602034346892636e-02,6.145215333065565666e-01,2.420481058238815875e-01,6.591727385165777608e-01,2.791530653085739222e-01,4.635883905852344333e-01,-5.715565121945918037e-01,7.245782556533062468e-01,-6.954184737648433368e-01,-3.648673965132965269e-01,7.261786134558535499e-01,-7.176710207627194915e-01,-5.104655985530507367e-01,9.279432956450864856e-01,8.420852854804391496e-01,1.857855564670929105e-01,-8.404402189063601147e-01,5.683819236237845907e-01,-2.129769295443085242e-01,-4.395995052652428847e-01,2.828146859311575501e-01,1.282001112154701195e-01,-1.039557457245333438e+00,-8.998233809726810528e-02,-8.792485508407207329e-01,6.552017504772831291e-01,5.294220812703324119e-01,-5.879904333866384780e-01,4.944225597402470695e-01,7.633483205708160302e-01,-8.028731438342933124e-01,-1.275345656969891217e-01,8.585284399766881513e-01,-5.710790946846221461e-01,-2.093829992141897356e-01,-3.968196604418459950e-02,6.612968811407357039e-01,-2.943169345527772429e-01,8.787345248162199418e-01,-7.845002499351261260e-02,9.671758146110051024e-01,-6.543586144715745068e-01,-4.610218585845262118e-01,-2.484437248927468533e-01,5.536548131746842349e-01,1.482882995573789053e-01,6.061853087638547910e-01,8.010250136233806328e-01,-8.129554833533663150e-01,1.795373720654398486e-01,-1.088050770864229300e+00,7.248076073791169804e-01,1.469979939921370049e-01,-6.734778358110429242e-01,1.041810233398248853e+00,-3.977681530268529775e-01,5.709212435590070855e-01,2.128536382808807748e-01,2.993114130428838754e-02,5.595272427584536690e-01,6.301703536458261312e-02,-8.049145046709328399e-01,-7.251661687757209318e-01,-4.294051814780102533e-02,-5.706203873281039396e-01,5.057721291792528495e-01,-2.548739172730279945e-01,2.972361974011687447e-01,-5.892282181634932864e-02,-9.400315558586372910e-01,-9.559178067454953132e-01,-2.025870100789763928e-01,7.441309698259110927e-01,5.055186044378283672e-01,-5.216421470228115309e-01,-4.987506315082066433e-01,-8.563174597515390563e-01,3.939874864203972149e-01,-4.875020866587531643e-02,-6.114869927319413478e-02,-6.629770290401496013e-02,-3.664244419600232172e-02,-5.868019383442274473e-01,8.885194335474687621e-01,-9.567600180364664864e-01,-1.401432878768446577e-01,-7.556094272654018118e-02,7.474641796401293448e-01,-8.476912217778002079e-01,-1.555801716556047820e-01,6.018919707767362848e-01,8.626717065894147218e-01,-4.281327408103215854e-03,5.317467768198241851e-01,-2.082356793396679673e-01,-9.101882776378672490e-01,2.428679772697875938e-01,-6.111216109267688656e-01,-7.348036380858294914e-01,-3.959199118412276563e-02,-3.485155145768940033e-01,-3.020779815812488570e-02,6.535424449988151974e-01,6.131218026249787290e-01,3.184015082314264333e-01,6.449110187088848978e-01,-9.863243473939783401e-01,-4.815043862120055307e-01,3.331194693013299069e-01,3.499626171423466103e-01,8.672390738354687212e-01,4.260979573168616752e-01,8.656088948646553094e-01,-6.031896093690561900e-01,7.036763583428878865e-01,-4.348875932350896312e-01,-1.308312649414604401e-01,-1.762290243431821057e-01,2.347098652922653683e-01,-1.165496089521074058e-01,-2.303984422946347699e-01,5.184265722827019474e-01,-1.574606146021594877e-01,-6.069883867487649853e-01,9.354416071639174435e-01,7.913097561475850306e-01,6.213436018646431025e-01,2.381679046297685287e-01,7.412977622405035882e-01,1.470488870659487635e-01,-9.490836832853996041e-01,6.887678672150722159e-01,-4.659609888275893091e-02,-7.506997532792843986e-01,7.981513405062355959e-01,1.206220203493846704e-01,-1.124783514205355051e+00,-7.293716438719548556e-01,-6.834974574401799785e-01,-3.489350391068846702e-01,-3.136818581416886964e-01,8.299900718279682454e-01,8.748745108825907169e-01,6.463183285537918987e-01,-3.713859046423568788e-01,-9.133758185083878933e-01,2.282306120458480192e-01,1.677135199589661063e-01,6.745824580696543338e-01,-3.375915778991850913e-01,-3.753980731419220840e-01,-7.139062827109066145e-01,3.783343105976575416e-01,5.883782000569168780e-01,-3.279448493395087927e-01,4.996792160665404214e-01,-8.438358330467422563e-01,-6.753165875751241387e-01,4.427380771562365869e-01,7.228042279781619062e-01,-1.278475465435808534e-01,-8.882831080609113750e-01,-6.931780936511270363e-01,-1.016766648317194432e+00,-1.047831139887521301e+00,6.129539638322829831e-02,7.605548308417487968e-01,6.572046257362047783e-02,9.412243499738676134e-01,-1.002732739731153622e+00,9.226970077047904617e-01,-8.205252989572967559e-01,-4.330895425444714064e-01,-2.048230685886769653e-01,9.365747968521311861e-01,4.785542161388015026e-02,-5.211886319062162265e-01,-8.093488650413990237e-01,8.682677460771068834e-01,7.151895999475662569e-01,1.648977990177670216e-01,-1.831546300683854489e-01,-3.781162673888939230e-01,5.112639180203371048e-01,4.715411322495221547e-01,4.837396648112017583e-02,9.391117675783794416e-01,3.817040054917493572e-03,6.910138344108525121e-01,6.869259947010546430e-01,3.078624844005133365e-01,7.326097987574567427e-02,-8.284100744471418754e-01,8.098593666271289848e-01,9.195347007006247075e-01,-2.323674510732640086e-01,1.438595477635115291e-02,8.190055743115683962e-01,1.005523378958016883e-01,-2.204087432077548314e-01,-7.048615151561533620e-01,9.431946038207413840e-01,6.526559040336270545e-01,5.475379757901911448e-01,5.034975478968249929e-01,-1.104533861249014648e-01,-6.346021612423980995e-01,9.386388860382749444e-01,-3.201715801243779635e-01,-5.796053899020174871e-01,-5.012190408192718216e-01,7.627995388249598774e-01,8.304935865619399449e-01,-9.068738389553203660e-01,-9.615631891792284502e-01,9.424000231071264500e-01,-1.988044010691725483e-01,-8.849166825836780603e-01,8.560337013330045208e-02,8.160587646457293509e-01,7.868385509313609028e-01,2.744743715489264546e-01,-8.869404604125288860e-02,-1.042672900921418622e+00,9.274209923020108048e-01,-5.471702975592548368e-01,-2.242120919421300151e-01,8.169607268143656009e-01,-4.771430045667009873e-02,3.687182451445014664e-01,-2.292350774493499832e-01,-4.885207105410080963e-01,-6.286462857120457270e-01,8.475506732323234704e-01,3.928340208524204180e-01,2.679460998841502462e-01,6.671185977397264821e-01,7.241677885373306589e-01,-8.229004371310407739e-01,7.952515808599339708e-01,3.207824989680716499e-01,1.679797626665269911e-02,-7.166657446033466439e-01,4.427610620046519840e-01,-7.353827504299801365e-01,-8.684779281218566460e-01,-1.366498758110204145e-02,-3.022040149352690497e-01,-4.345786699392001906e-01,1.936030567098060706e-01,-2.948053937866390029e-01,8.349541105116312645e-01,8.716694635765741550e-01,-4.192782341969949478e-01,8.041641729953855622e-01,1.306097547353688437e-01,-8.871677116385847661e-01,1.713201207402234236e-02,7.182013135309336938e-02,-1.993587598008772499e-01,-3.681077703948780200e-01,-5.604242653957217657e-01,-4.589973368203550952e-01,6.509307211429260498e-01,-4.240097593749747040e-01,-7.370364618696175762e-01,1.517003928003779478e-01,6.380259847281747332e-01,-7.675177268882626969e-01,-2.692691897488367903e-01,-1.133624768492056845e+00,-1.136833069782478001e+00,3.940142304223507308e-01,-3.849328442373101122e-01,-2.635234918018304340e-01,-9.377566008601108394e-02,4.047341757043248500e-01,-3.867856672977237897e-01,-4.682036034530767665e-01,-6.507831747644317044e-01,2.487713410651531398e-01,7.531539974006291605e-01,4.585009483084135917e-01,-6.265349404257594124e-01,-8.580963597322885938e-01,-1.188972526856533207e-01,8.115825825543110383e-02,-7.850191782283530983e-01,-6.846089691694047241e-01,-4.731559295246045016e-01,-4.464839161246679788e-01,-6.426051725721124708e-01,-5.175060869362411164e-01,5.012902977865915100e-01,-6.697457300019307169e-01,8.938348282063450501e-02,3.103265530657473570e-01,4.098867508187957753e-01,-5.055614524175222613e-01,5.756297049830441104e-01,4.484980066201489368e-01,9.614291803957660809e-01,-1.126374236599901185e-01,7.403900056365161353e-01,-4.483263577881119732e-01,-1.324313937928873197e-01,-6.283489456944675311e-01,-8.934141694954294000e-01,-1.026940955703675495e+00,4.890301971044377360e-01,6.498825575262926479e-01,-8.407799200839483067e-01,2.861000433874700266e-01,4.984071164104907775e-02,-7.850139503833285515e-01,-8.189099502382890527e-01,1.165326507247032850e-01,-8.047360137174615069e-01,8.587032633746277677e-01,7.721760290290690110e-01,-1.149563518069002532e-01,9.667179962501095680e-01,-3.828253676778592962e-01,-6.029765708509989830e-01,-7.748767488691645777e-01,-7.381731405396718682e-01,2.670974807957836317e-02,-7.806331517133102693e-01,3.221226483346600888e-02,-5.330141381385104099e-02,-8.400317341575177510e-01,-5.703516399135830639e-01,8.973615194858756139e-01,3.470193123152731651e-01,6.188657281155102163e-01,-9.996650355871337101e-01,-8.611196118356527762e-01,-6.525054594166946886e-01,-4.958470757830691911e-01,9.762364996745830359e-01,-9.473256665437168600e-01,8.836195591448339215e-01,-8.505085871075950266e-01,-3.191951438988053225e-01,-4.508419601274371580e-01,7.543275102074059602e-01,5.883184453412801940e-01,-4.227211964049912979e-02,-6.171397058047418671e-01,9.567748573627478104e-01,-6.791396523782611272e-01,3.256963679816185508e-01,-8.146268031084606953e-01,3.651921442650853111e-02,7.344185274176702194e-01,1.556081696744567311e-01,-9.404553523248770919e-01,-7.500398509291046345e-01,2.896093961119383109e-01,1.148367055862151709e-01,-4.665125689913292989e-02,8.230179225356287764e-01,1.090194127658623141e-02,8.589966643407138669e-01,-8.457460613106846381e-01,-5.950384798351661120e-01,-8.004097883619500919e-01,-4.396438341093524271e-01,8.071323958773710672e-01,-6.508366222209915897e-01,-3.600332968199972117e-02,6.778943832064936448e-01,2.197697158130306749e-01,1.260487260990114100e-01,9.630297422705121901e-01,-8.326684639886114958e-01,1.032463413973762734e+00,-8.307040427638822111e-01,-3.264584525483682498e-01,9.995859450440326699e-02,-1.154625091038636586e-01,1.185187433234236171e-01,-7.365981012874314171e-01,-6.065545266679966963e-01,-6.350604402024589978e-01,-4.334100542896148212e-01,-8.582272158476750290e-01,3.722418427874583657e-01,1.981018131631269996e-01,1.031550458396747416e+00,4.253909258047535724e-01,7.350826801911972685e-01,7.091217214221829934e-01,6.199559747499372442e-01,-3.158339967528207004e-01,6.030711768995049571e-01,7.992905185163898807e-01,6.654997467059773353e-01,6.842680171662106625e-01,4.912084159017663931e-01,9.174001038231442973e-01,4.414598349822876355e-01,-2.413760057779538726e-01,-3.461020257647390852e-01,-3.408113450683945556e-01,2.232898815186618591e-01,-4.625912214332004724e-01,4.342335722034163514e-01,-9.096877134805994025e-01,-6.267785804101096980e-01,-3.326254162878587717e-02,8.924536345245757119e-01,-1.117182930422075282e+00,-3.496308806380442058e-01,2.357424120570408288e-01,-8.813584313135643944e-01,-5.692295125968981351e-01,2.250887585923519174e-01,2.690788722737441074e-01,-6.500294901629637412e-01,1.004844856746520243e+00,8.651159710691291860e-01,-3.584646097188787933e-02,5.296653972982851011e-01,-4.946942099158357919e-01,4.205855515111291965e-01,-9.345986415095436373e-01,-6.914238167198278884e-01,-5.050775929421822408e-01,8.354815953922054561e-01,-4.231628734871595854e-01,2.308228483312217416e-01,-2.593113088393508292e-01,-1.549574517552902986e-01,-6.906695738023279629e-01,-9.847698760659776562e-01,-3.330055550008116649e-02,9.162466299553472249e-01,7.753790686834943768e-01,7.359643971402619611e-01,-1.187291253567967914e-01,6.620398410745872431e-01,9.689844895876016384e-01,4.684104467395199256e-01,-3.257141269195582001e-01,-6.416807562195487868e-01,-9.421043129011075212e-01,-8.205599410127589755e-01,-3.349226135494932088e-01,-7.659435388459798766e-01,2.241549565460595750e-01,-6.787931812297810508e-01,6.780308895051573304e-01,-9.102164105349487278e-01,-3.989873474095631534e-01,8.912449589041269160e-01,-7.691546123933760137e-01,-9.523606469051454360e-01,5.808302787306425241e-01,2.394364130253581469e-01,-6.582035248243780501e-01,-2.894481198713195202e-01,6.011667187043024524e-02,7.902626735092430632e-01,-3.359812277353416143e-01,-2.091886308671598027e-01,3.518149620937502942e-01,-4.923472859152832060e-01,5.208232456361298057e-01,-9.429670012258417611e-01,-9.072460705170297401e-02,-6.783462701680262885e-01,6.911537004748421475e-01,-7.672348412404567108e-01,-9.163152730664558820e-01,-9.561019515434164839e-01,-1.709977415843853543e-01,4.514552276510366280e-01,3.491301408801757988e-01,9.343819753816795526e-01,-2.799825764879687595e-01,-7.420160025726862951e-01,-3.092104790000724593e-02,-1.320817621899784411e-01,5.078091435633893536e-01,-5.524658519752447816e-01,2.209523903006288259e-01,2.113333491645329187e-01,1.364573126707774864e-01,2.575707379077663561e-01,-9.505482557959884504e-01,8.999936008247861885e-01,-8.297886327511828641e-01,-5.504370849763244866e-01,4.950992822302041629e-01,-5.210471277479215013e-01,-1.023622381735174169e+00,5.836252728612635332e-01,-2.955138665749126869e-01,1.913121346731460060e-01,4.374183681464998696e-01,-5.432330405178213972e-01,5.383369133606618062e-01,-5.256388509173653967e-02,-5.601859500501635836e-01,-3.092471155470182254e-01,5.335877416976316789e-01,5.614297872476039508e-01,-5.348724364172771084e-01,-3.333439492326185083e-01,7.323859153513477827e-01,9.282755703934305602e-01,-8.231306864618943564e-01,3.463534691285581890e-01,1.758507979534578991e-01,-9.107890059149732487e-01,4.674191533613831773e-01,1.018882604744507203e+00,8.782325854850064895e-01,6.712013014465262328e-02,-5.910044602201411923e-01,4.023604317416439313e-01,-3.431358821278273075e-01,3.136633326703378577e-01,-1.564350490448730979e-01,-6.170774283301646568e-01,2.087331270782741277e-01,3.263794604042963843e-01,-7.855074538733318734e-01,-1.092952665475475316e+00,4.468240841683132625e-01,1.564015890109720919e-01,9.440184910568708565e-01,3.568570456898366716e-01,-7.952194124163899369e-01,-4.987335687024729847e-01,-5.003944726123571440e-01,-3.873906563153268756e-01,-8.369703131764204551e-01,-8.578842450943424680e-01,-1.713232039259206807e-01,-7.106467848647420871e-01,1.073396372388101927e+00,-4.830004027135884059e-01,7.203406526985153269e-01,-1.605440258777213469e-01,4.343547192986779160e-01,-5.457283506267248674e-01,1.039736507694136725e-01,-8.554041077562638540e-01,9.395012273214642384e-01,6.571880156989926558e-01,-7.049328054529516718e-01,7.667547757331425462e-01,6.569161175295258337e-01,5.291226196751849242e-01,5.685085163259760987e-01,-1.149149790326176701e+00,-7.092928989358284753e-01,-3.696694885984384005e-01,-1.703839799059460591e-01,5.950335864520832629e-01,1.266956667851459328e-01,-4.348053796023730877e-01,-2.134495933935104950e-01,8.325886626627174714e-01,5.743345555606327313e-02,8.356285906368565719e-02,-1.003624477712059815e-01,8.012915151435198169e-01,-7.516363440063085211e-01,-8.086949094636103341e-02,-1.175393606112358075e-01,3.863416111738419700e-01,8.240813327629352703e-01,-7.477148557912528526e-01,-6.092977948647420039e-01,2.698648965332433591e-01,-2.235680596648999263e-01,6.447392432889085256e-01,2.776490411659383040e-01,5.397400160997880558e-01,2.212877404020349714e-01,2.767202265725861587e-01,-6.921129648426694869e-01,4.003270362234596647e-01,7.699793425994569951e-01,-4.998909632746619813e-01,8.113994525458833040e-01,6.080818928920262989e-01,-4.290455272795125063e-01,8.215626887665455902e-01
7.846840849814736840e-01,-3.908474394876267355e-01,-6.575006829787077844e-02,-6.539649074040914112e-01,8.874951752330507704e-01,-4.656312681288874988e-01,5.863851306753663228e-02,2.219433265278560330e-01,-8.266083904433367824e-01,4.969201044710923609e-01,6.505463522945168497e-01,-3.477640470325275568e-01,1.001678328569061971e-01,5.226105203950750511e-01,-1.399960048246393918e-01,-9.485746730086716538e-02,1.918199839143707175e-01,-5.056801856740602563e-01,1.397159331591449061e-01,-1.212713215408231689e-02,4.475489515063608148e-01,8.703432259816612504e-01,9.342808044363947184e-01,9.815271774847830200e-01,6.347173496098355849e-02,-3.577850006240148040e-01,-2.799342599256352329e-02,7.108793745420689536e-01,1.027786316836227565e+00,-8.964848628096112604e-01,-6.763766812310569865e-01,1.460090329222629435e-01,3.575708756268048405e-01,6.624795596465982150e-01,1.304500127966354284e-01,-6.636227457219193160e-02,-7.864090606860266730e-01,7.628165549898956455e-01,1.082673660770934326e-01,-8.627709027001639885e-01,-2.353315018704535411e-02,-7.556831086479289805e-01,-1.672648524737266051e-01,-6.191625152683390976e-01,3.285839979330673621e-01,-7.267685786450016616e-01,-6.485282221927688440e-01,-2.917242983689444236e-01,4.635558812697956887e-01,7.370757019071333405e-01,8.270144121245097679e-01,-6.024806572908073532e-01,1.054363218491891407e+00,5.714206643973624988e-01,-3.930768479337378579e-02,-4.032717609600944275e-01,-1.935517385066046481e-01,-6.744378373721271469e-01,3.767037364431751190e-01,9.161050528982808139e-01,-9.285870696531596524e-02,-7.650956093140933723e-01,-5.002917264815522902e-01,-2.470947418639203585e-01,-8.037551050828142252e-01,3.645212826160800779e-01,-1.637479691660282677e-01,6.687285946414756044e-01,1.391248384176931863e-01,9.798032621502227313e-01,-1.680726665289571098e-01,-2.200042934496728164e-01,1.067864820186419372e+00,-1.337262076448497150e-01,-6.313273647961700208e-01,-6.870195295009937642e-01,-4.664647618462637313e-01,1.108896741768902627e+00,1.018074471291611882e+00,7.702616955190003667e-01,6.532822629362895483e-01,4.720542321472215308e-01,-2.897866569644265700e-01,5.239371095092472119e-01,6.106186311555134721e-02,7.406506462167055105e-01,2.986269276610876711e-01,-4.013798489432199856e-01,-4.517332220037905133e-01,1.293213924861143782e-01,6.884137588860841372e-01,6.676190828971070301e-01,3.191111062615422655e-01,-5.585920215692090629e-01,-4.936286079697959628e-01,4.343699589311385556e-01,5.222399470257332865e-01,6.947046111950083702e-01,1.197583958662782333e+00,-5.334249800748690484e-01,2.783020019593104855e-01,1.641969198400702323e-01,3.188032204226464161e-01,7.671593701913738128e-01,3.668244361044950552e-01,-2.948619624639025050e-01,9.757251521834439112e-01,2.706379698922171118e-01,9.226273766588637126e-02,8.783894114934903685e-01,7.535280513755086007e-01,4.520512005158188740e-01,-6.919488370159563306e-01,7.749094349957990069e-01,2.970882734911170844e-02,9.425772224156540868e-02,4.847498104019030696e-01,-6.175576432762189816e-01,1.045107937062994985e+00,1.004329545475669105e+00,-5.384957672868427858e-01,2.516203046551921951e-01,1.269347569540380194e+00,2.982530831979915975e-01,-6.046613059590270067e-01,5.148110660439705194e-02,-3.260652647693462192e-01,-1.466071502649561875e-01,6.176346620636721241e-01,1.037844197158023452e+00,2.501806738590293677e-01,-3.691964619416731597e-01,2.607078558018525172e-01,6.166304508796397466e-01,9.807444541101697499e-01,3.077035131596740913e-01,8.979143530849563737e-01,-3.122821016173623065e-01,-4.217287790506432654e-01,3.500480003385372241e-01,-7.964658355223031005e-01,-4.819304871779223620e-01,4.754286804011010892e-01,-5.274260415146287961e-01,6.909218767334559530e-01,8.905678943411751147e-01,-6.627985976114867395e-01,2.245113576888454338e-02,-6.200918693003181215e-01,-1.199966602639958024e-01,9.162608156454622454e-01,4.922714441094789284e-01,-4.203950362870766122e-03,1.421772546305944518e+00,7.346497573480779142e-01,-1.076902332436849852e+00,-1.359187234681217549e-01,8.278402013761728684e-01,-7.044748526383196041e-02,6.568385150742764855e-01,7.502115155045327999e-01,-5.387063498427687586e-02,-3.220589052187214016e-03,-9.976860512652443447e-01,8.031617956592816965e-01,4.510551547466778305e-02,4.018268187714222339e-01,-8.010687196752060979e-01,-5.795797933732355078e-01,-5.560112961025434064e-01,-6.583447303955987095e-01,-7.583047432383936970e-01,-6.468666930884644506e-01,-2.367285279957797306e-01,-8.016383497315142659e-01,5.614815532393010455e-01,6.765309401912785736e-01,-8.905725245354773056e-01,6.122364958432495730e-01,1.746537618116827117e-01,-9.592552766618305249e-01,9.120740627338452811e-01,2.823734991268879724e-01,-9.273082026605374839e-01,-3.834290079931296780e-01,7.493776952937587499e-01,3.633023723498575719e-01,-5.613226765671152085e-01,1.086681955520168857e-01,-1.335423425602186021e-01,-2.761502157669560309e-01,-3.413775948378069969e-01,7.876218114326001274e-01,7.533641791842776714e-01,9.151992901102233569e-02,8.747176315646575107e-02,-3.293685293096262345e-01,1.124303628354317436e-01,-8.333889611161290345e-01,-1.134452882580385125e-01,7.010735960932181765e-01,-2.879750600961580309e-01,1.040961673977655266e+00,1.031014414187438444e+00,8.509730522165314115e-01,-4.368694993744602628e-02,-1.513610556012797148e-01,-4.043325000701862293e-01,-1.084717587230980884e+00,-3.266636468731132226e-01,1.153454748263178597e-04,-1.393572073939825406e+00,-1.926851375344631911e+00,7.343793523815448365e-01,7.059712468849635991e-01,-5.123985106546464774e-01,-3.729402083356314623e-01,6.030110586163465181e-01,4.353511075877194991e-01,-1.452332032420094177e-01,4.870327018544159392e-01,-3.734877482885834987e-01,6.863785772293957699e-01,-7.700628842846584110e-01,-8.731015408503235431e-01,8.638208586945671508e-01,8.215247881184469803e-01,-5.778791738730048033e-01,-3.351819298035758621e-01,-6.405404958176208474e-01,-5.477270000512457493e-01,6.179994417854761668e-01,1.035742890537237892e+00,-3.263931122838677479e-01,3.297162931799263452e-01,-7.669512063826589010e-01,4.823744579332272520e-01,5.200648252440527308e-01,-5.937033480382651884e-01,-1.187641921442793791e+00,-1.216128811409067589e+00,4.737267030581190919e-01,-6.952890970407329396e-01,-7.443028185490787596e-01,1.245886082988441196e-01,8.721309897026266467e-02,8.790048393730076626e-01,8.348648719621820646e-01,-3.258917804647657457e-01,3.511712073545326107e-01,-1.351907517514050472e-01,6.925482411231259627e-01,-1.461744787278126678e-01,1.387608761015562409e-01,-5.955138828943430385e-01,-6.783284712775911052e-01,-2.141723474600908672e-01,-1.022117380376335261e+00,3.832104456399188508e-01,-5.649920570633276684e-01,-3.593689215441502882e-01,-3.819222454638375730e-01,9.416575501660069403e-01,5.017807996101932844e-01,2.756171433020808137e-01,-1.237842152098126425e+00,5.327598371312990411e-01,-9.061220404839777087e-01,-1.310116433097030963e+00,-1.139428285412676489e+00,3.774762565391088370e-02,3.084244075650351413e-01,-9.255019464432845400e-01,2.922219821749516555e-01,2.523135795194163533e-01,-1.174799811149774970e-01,-5.121978426109953242e-01,7.626526689782809898e-01,1.298377652551573058e-01,-7.892915080074600631e-01,-8.151053928843130514e-01,6.678793939710627736e-01,4.831838068255252527e-01,-2.611136811625886303e-02,9.693890515178787970e-02,1.432691182657163664e-01,-4.230413461181122270e-01,8.646039664597205965e-01,5.731321782258125275e-01,-3.801168142648554404e-01,-5.501316025300319046e-01,-4.048961491267889512e-01,-1.180994867860672426e-01,-1.007500958435014971e+00,1.631338721067652486e-01,-6.734911006256235622e-01,-2.528344153054818966e-01,-1.199843494055679249e+00,-8.679336202852474536e-01,-9.557064778713308950e-01,-4.342635090460811864e-01,9.089057380300574751e-01,7.289393342861637537e-01,-3.719817679864039772e-01,9.794832165713490690e-01,-9.296362801413856625e-01,1.294420690278780817e-01,-6.764182835210182931e-01,-8.773600529986539387e-01,7.260526334523181857e-01,1.334977389397247818e-02,6.693050928690624790e-01,-7.683361318070363044e-01,4.079680141200134891e-01,-7.807475954438575227e-02,7.821144713315567598e-01,1.170157086759666232e+00,7.808095237978176506e-01,-4.732193073972425501e-01,-1.333858478499044646e-02,2.051607659946728390e-01,-6.280504169337598475e-01,7.419305441149094404e-01,7.727576901430606160e-01,-4.278102737146099455e-01,-2.898721873180845621e-01,-4.472191575003939823e-01,1.800323482498431826e-01,1.659371973715891013e-01,4.454437166760263911e-01,3.829075744968533229e-02,-1.999988248149404124e-01,1.625358973590424749e-01,4.774335079604086207e-02,2.434005512297378604e-01,5.410391264175172799e-01,-1.035235620972630333e+00,8.193723214374025732e-01,-3.396812254495801264e-01,-9.595457977786027159e-01,4.226488259360546285e-01,-6.532814442379891728e-01,6.014629959596270448e-01,1.941094475834322930e-01,2.853288236055769866e-01,5.712520211568876682e-01,-3.901165671776822830e-01,7.808779214986293349e-01,-7.691041255810177057e-01,-5.729091871734931507e-01,-4.401152589685932703e-01,-2.146741922198153098e-03,-1.973284174582851103e-01,-9.953590264870701976e-01,-3.876111745150732923e-02,2.656230172273240653e-01,-9.970363066615249847e-01,-1.420957114569622141e-02,-3.062024680890511608e-01,4.609637750869635120e-01,4.850815354417707392e-01,-8.371393799505297828e-01,7.734626917017677350e-01,7.833334613329377971e-01,3.091441454109596365e-01,-4.499881074051235164e-01,2.446244959507054562e-01,-8.724482165580319526e-01,-9.952919580990153559e-02,7.817118224749074473e-01,7.214892797786660594e-01,-6.700436906663226333e-01,8.609709509326394228e-01,8.596291931981137058e-01,-8.381813257382598747e-01,-4.011153132717992231e-01,-1.002766861444328361e+00,-5.791594451779622510e-01,5.764169849493259168e-01,-1.285000555140660028e+00,-1.102028877413812280e+00,-5.326537998491208681e-01,-8.528695315893097817e-01,6.373133247312396943e-01,5.132421383520422431e-01,-6.248832867782584399e-01,-8.041111363333180995e-01,-6.164440143248935966e-01,4.242665246230711840e-02,7.191312661985448385e-01,-1.891489935750261808e-01,1.453974861680796260e-01,-1.051596794327826823e+00,-7.139884953647805677e-03,-2.910934101577927757e-01,2.026706382127570205e-01,7.382112864826512189e-01,2.771146812944710325e-01,9.887737775496402426e-01,-4.323710643599200654e-01,1.174056460001191127e+00,-4.949086319298764969e-02,-4.365967613364565292e-01,6.688600230856925899e-01,-2.486222715750106282e-01,-3.917122453532290161e-01,-8.048454133150011458e-01,4.705741108715826848e-01,-9.575795283738732788e-01,1.700427799804102025e-01,-8.767460516499364642e-01,6.805483327827478446e-01,-5.368997128594948931e-01,-8.455454973062018764e-01,-6.714361850358846473e-01,4.327231111072758485e-01,-1.035921042924036889e-01,-1.292514632249814666e+00,1.591547646964239504e-01,5.812233136089164365e-01,-5.088927867052290832e-01,5.922526740370420706e-01,-6.154712177654459992e-01,5.354351400643961867e-01,5.004202176695119464e-01,4.771262481841214154e-01,-3.022505822723988711e-01,3.677036159270113957e-01,9.404049919998057616e-01,-4.722962519459056319e-01,-1.173891749295724457e-01,7.573685387530179614e-02,-8.011991726597306185e-01,-6.490320426766594819e-01,-1.303403970667384781e+00,2.552519466266388662e-02,-4.308083822159791132e-01,-6.336063301810437309e-01,1.660645069293970599e-01,-4.957715341247724283e-01,3.509304442733219287e-01,-8.817654622302296685e-01,1.435568697390182114e-01,-1.093446269263094850e+00,1.373456785687963422e-01,-2.771902643314254067e-01,-2.998517722507373362e-01,-4.349513676347306623e-02,-2.934412551027897331e-01,-7.400333131040156553e-01,8.505311887695029549e-01,1.043650631004622159e-01,-2.614621278043777197e-01,-6.662007540473855460e-01,-4.486195838097711830e-01,7.346977485106764849e-01,-2.552924496168632040e-01,7.806401355468619574e-01,9.291811876547156901e-01,-7.199523648280208299e-01,9.225417120051605455e-03,-4.375852197977611602e-02,-1.074944674148966411e-01,-1.206733474996233069e+00,4.283742429103981619e-01,1.110802104158945675e-01,3.922180099491540672e-01,5.397714238194949443e-01,5.006893239568298570e-01,-2.185945508677521465e-01,-3.174249164357313968e-01,-5.314912618125540167e-01,-3.852557960986396218e-02,-6.359315302625364597e-01,5.119857856827940701e-01,4.954616787866940597e-01,5.839933433668473839e-01,8.839887870921165902e-01,6.593270171565061011e-01,-2.172038901588833892e-01,3.257627996457664321e-01,-3.660757060265733553e-01,3.360705010332820097e-01,2.866799389536879850e-01,9.073865749599258068e-01,-5.064833146811016373e-01,3.499263294488216269e-01,8.304655224228316701e-01,7.416980169635303266e-01,2.046306506953253779e-01,-1.094911753623141193e+00,-4.961666129381280821e-01,6.238859926115964960e-01,-8.807087927288838047e-01,-1.035098932396483651e+00,9.803230806861712443e-02,-6.055517312912068739e-01,-8.553094455909284743e-01,-6.789797567383627774e-02,-1.063599947878473007e+00,-9.540462930251134566e-01,1.695638576833883859e-01,-7.362423992449946830e-01,-5.704280605548277538e-01,-3.861506600508651244e-01,6.205541271675134585e-01,-1.010662182647599661e+00,5.843468972133446515e-01,-9.310700555693331992e-01,-4.154105250674050565e-01,2.553158670939807973e-01,8.345417786820816808e-01,1.057193688784070051e+00,-3.658911459524420429e-01,2.624567371934448112e-01,3.599027822885387806e-01,1.103144643275898451e+00,-8.531991638885476348e-02,3.152749039546870469e-01,-6.747282326823720311e-01,-1.195585572045930745e+00,-1.182192379252735348e+00,4.888753938473332505e-01,7.312805333122506246e-01,-7.139615458939247983e-01,8.356883422024423691e-01,-5.147132603462309941e-01,-4.588471363943711911e-01,3.061623029242328542e-01,2.783455021770271931e-01,-5.160938564393121458e-02,1.874035614963125429e-01,8.561308944119519493e-05,-7.089530673005174366e-01,-4.931718223326181372e-01,-8.848495793230878315e-01,6.524594053038577091e-01,-3.711648750430853426e-03,-6.026751524875580968e-01,-7.260953571085465574e-01,-2.135520426600617805e-01,-8.808864496480233175e-01,2.365420914903931457e-02,-7.454733640519758398e-01,5.428035907577084540e-01,6.606509780683808564e-02,1.757413281088859511e-02,-2.456983821944135060e-01,6.422887560145490449e-02,-1.017360851425402668e+00,-1.444826158325328569e-01,-4.955255366286268753e-02,-9.168375719575653227e-01,-6.265819711401822145e-01,3.589242944866225526e-01,-3.706183237316533208e-01,8.684235582434439715e-01,-3.298805225548871456e-01,7.026025383130403146e-01,1.088740299119573374e+00,-9.596785442824800061e-01,-8.090332760480095642e-01,-1.611042331474138445e-01,-3.666935578406949059e-02,-5.207941757884729239e-02,1.704036385912578999e-01,6.050363636375802878e-01,8.446567553183017552e-01,1.062465022872669751e+00,-3.425504721696636112e-01,-7.477863483711294501e-02,-7.382464451107736969e-02,2.246725036743872361e-01,-2.909618727974386809e-01,-9.370236015490700510e-01,8.021875765066799335e-01,-1.089258813319338159e-02,4.824780585440468506e-01,2.494608203216008568e-01,-7.533000957222762972e-01,-3.170498578768889963e-01,-1.495349233209693207e-01,1.393561782093635015e+00,8.861071296222601534e-02,1.155957525083175064e+00,5.116442145583474099e-01,-3.191284201649979835e-01,-5.767131447017281864e-01,-8.795702462381866926e-01,-5.292857065391370908e-01,2.420867828546204303e-01,-1.822795510676103459e-01,-9.467828346133221329e-01,-1.990407909476238704e-02,-3.865601557361809104e-01,8.461327940207000742e-01,8.575315812042250130e-01,3.615290744799020684e-01,7.649675979905659062e-01,5.770731731823183219e-01,-6.603974800630051378e-01,-6.840171805532248017e-01,-9.968612354429444086e-03,-1.471957529505812379e-01,-2.639937983021707346e-01,4.426376721729778363e-01,-6.432811406101527352e-01,1.330908831635752021e-01,1.951492941290714211e-01,-3.868459342864373762e-01,-5.270694311078460287e-02,8.459606171840601263e-01,-3.439971355841454081e-01,8.308827109196619265e-01,1.053185864790292386e-01,1.566681951309459864e-01,3.418210311843143390e-01,-3.196447586772293015e-01,-7.356640316100637733e-01,6.988802072383706321e-01,-1.150640680041642300e-01,-8.027839104870173603e-01,9.331707289056194454e-02,-3.365230323687893460e-02,4.547634465564324713e-01,5.826778652285771742e-02,1.012607746264189146e+00,-1.876198332100195154e-01,-3.702006035691272068e-01,3.493961828745473230e-01,1.289993790180467448e+00,6.482469961482882903e-01,1.090252065181193331e+00,-5.021833452007095078e-01,-5.368282883659925009e-02,3.001546080556188878e-01,2.821030008941062817e-01,-6.447679629765633580e-01,2.522811872179468451e-01,-7.181892497911659401e-01,-6.474194481836936799e-02,-7.463702754841233800e-01,-5.564223840218989192e-01,-4.687844275538748107e-02,9.388449466761444873e-01,4.227544964588848542e-01,1.097078861611385792e+00,2.302930648147580861e-01,6.732614286684556193e-01,1.994585333336545974e-01,-6.578802769479841217e-01,-3.370434035579777388e-01,8.226352511221078634e-02,-1.249029919868889088e-01,1.258076028980968042e+00,3.292855394499453747e-01,7.955891288658299976e-01,-5.404868264900936081e-01,9.268255557798126265e-01,1.172446029656178668e-01,-6.102371184350846578e-02,1.018060086011156384e+00,5.889541423600230807e-01,-1.341922164227681957e+00,-6.384418258077290131e-01,1.771901888982160278e-01,2.777026014914534685e-02,6.399301274144847396e-01,-1.125380982998781532e-01,-7.120751586128160060e-01,-6.536750229450049021e-01,1.663065599098758895e-01,-1.287325217417081558e-01,-3.249738740143669480e-01,8.765894396045107451e-01,-5.482131101084135594e-01,3.568852165048716496e-01,-2.054031997771884610e-01,1.986267259037541588e-01,-8.133721138580766175e-01,1.207516398663087687e-01,3.216009558572071603e-01,-5.195961641456130486e-01,3.848927543530796247e-01,3.536366183521627016e-01,-2.294910233257141663e-01,4.434182886081445840e-01,-3.522641313307903754e-01,2.483880838047014539e-01,-1.262370807648268388e-02,5.559409907963401842e-01,5.934305223168718779e-01,-5.204094290629256436e-01,4.448269703876773229e-01,-4.578713395381778239e-01,-5.969753584762036436e-01,-5.934011212003164060e-01,-8.701451111756191015e-01,-5.824482288995695978e-01,-7.216026757263939162e-01,3.429374773831043166e-01,8.569155728331633304e-01,5.790127997136067517e-01,1.106017668827123518e-01,-5.888931403819644972e-01,-4.658103092397021805e-01,1.198363665271841433e-01,7.422575235849966369e-01,-6.517228124789761212e-01,-7.995168142294063474e-01,-6.785464195270751731e-01,1.844665760748769590e-01,1.031616167977431386e+00,-8.061840778092006499e-01,3.258712254734622560e-01,-4.837031881070259498e-01,-1.138658981470755283e+00,6.533162266015686281e-01,-3.821641254721681591e-01,1.656620679989883882e-01,3.015819551207685745e-01,-6.707436867638966183e-01,-7.754158289678921845e-01,1.168769594244374078e-02,3.343083581284215788e-01,2.867231727543069209e-01,-5.062487567621194451e-01,4.757612052364356692e-01,-4.284533472339228655e-01,-6.858768674644339924e-01,-1.053699909811033564e+00,-8.134357517134058746e-01,-1.086737131383403776e+00,-7.268705415373051260e-01,-8.404148825485009411e-01,-3.457889513123607594e-01,3.961946859946274269e-01,-4.147160602148461939e-01,-4.188154818273204794e-01,9.474228115550790141e-01,4.982352389547937688e-01,9.614098069925555157e-01,-8.232457440240441293e-02,8.541623496419552541e-01,-4.262173899412454725e-01,9.206495186061829372e-01,-2.489583126218483933e-01,-2.320403239004976415e-01,8.732914920539749382e-01,-2.602434601737664277e-01,-2.023788734863702088e-01,-8.910023097367431033e-01,-4.425053333082526463e-01,9.296100831318010460e-01,6.859218663449366815e-01,-7.684381551182569714e-01,5.631330001912420169e-01,5.631831243266908205e-01,-9.780178823585845560e-01,1.250140655927812205e-01,2.196785180350056821e-02,-1.172002415545104315e+00,-1.506399555926173583e+00,5.713928926660570840e-01,8.393144805308460077e-01,2.594857143795822330e-01,-6.174782600463948334e-01,9.878105751536703227e-01,6.029676386574909230e-01,4.259560470208166860e-01,2.821180838480212838e-01,-1.338707846544454072e-01,7.062244331094087446e-01,7.099160675927916886e-01,-2.488647741477515996e-01,6.654036492986469264e-01,1.923202196488834614e-01,6.305290077721369402e-01,-9.194540202797752970e-01,2.369712825811718104e-01,-6.224463552653584086e-01,9.991382864807732411e-02,1.029201244116535019e+00,-7.029888927743921379e-01
-8.030322844233551693e-01,1.490882748640827704e-01,-8.496675400602418105e-01,-7.437663856123294392e-01,1.664543530793157963e-02,5.026582409770059545e-01,-8.266789329546825327e-01,-5.440452767891184038e-01,8.845695115311519308e-01,2.951942316106373476e-01,-2.440990903007216606e-01,-3.105148902829155677e-01,7.758678581068565450e-01,5.306975503074742306e-01,6.687222923885983716e-01,-2.554310884595969444e-01,-1.686427776317264426e-01,-8.696153044395624754e-01,6.038561175979949569e-01,7.574770739364292682e-01,8.546474931557064558e-02,-2.710406327285569406e-01,-7.942989576676431906e-02,8.454269727180646621e-01,5.542888361062435765e-01,4.892311174692379749e-01,1.117590899869449261e+00,-1.966513032312202092e-01,-8.794819995230416243e-01,-9.543922926019858810e-01,-1.925781086343978377e-01,9.314776022464865690e-02,3.735194265875191322e-01,8.706956649406417670e-01,3.135785588986654826e-01,-1.466946444780661274e-01,9.383001036724046839e-01,4.915249735300106226e-01,3.747041261053136729e-01,4.495433118691464364e-02,2.597510224844252757e-01,1.719070808464628619e-01,-2.279963118574376280e-01,4.690331142168395195e-01,6.625322522801181391e-01,5.320012393903885695e-01,7.624423381392749777e-01,-8.107694764209515403e-01,6.991871662376867302e-01,3.776615428125471019e-01,4.217021706453052965e-01,-1.000564270359409091e+00,4.477299027553826027e-01,7.455175256256040273e-01,2.679377868241167304e-01,-6.236020919609818192e-01,-6.820266737465666695e-01,3.230933113647634775e-02,-3.903950732084724429e-01,-1.003845150135461939e+00,-4.115204272073881842e-01,8.125855278788011171e-01,6.074868523534943110e-01,3.184070600340090929e-01,1.037177125552836594e-02,-7.415358356085968161e-01,-3.416887036310394810e-01,-8.999720253342096132e-01,-9.191565594816453189e-01,-1.397948061459340918e+00,5.024219100894407042e-01,-7.763425456916690504e-01,1.169891843704089218e-01,-8.016754887630662685e-01,1.158112179196208347e+00,2.012645455446524512e-01,2.692998677887997183e-01,-2.305560805481951248e-01,-8.952806028124681292e-01,-4.624075895723843144e-01,4.405845806893918803e-01,-6.029517300099602323e-02,-3.562181821743861665e-01,-3.942527535780653292e-01,2.010859398227090589e-01,-1.670940830064146509e-01,-1.976782790944655033e-01,4.927343174292888456e-02,2.010947619209592363e-01,-8.107628616514213071e-01,-5.728642243207011653e-01,6.813753655306211687e-01,4.764767557260007336e-01,-1.100761036482648558e+00,-1.025441376744115063e+00,-9.960756069500950050e-01,-1.545988386074761411e+00,-1.152078177566779216e+00,-1.514030099986814759e-01,-8.326926338739149003e-01,-1.491565214538239648e-01,-4.204208966763133271e-01,6.878809436136424926e-01,2.322788488547163910e-01,-2.167327933118781413e-01,-1.190166580944096164e-01,-1.022296232277251748e+00,-9.201276017510237049e-01,2.393598473621125489e-01,5.615017899129894907e-01,1.246280739803184767e+00,-1.717464660078027727e-01,5.107868918988330842e-01,-9.172968310058491337e-01,-5.993430705380787815e-01,-9.211180406324923631e-01,8.631525635992929324e-01,-9.471269416300027721e-01,-2.942412937327962275e-01,8.164203730155810135e-01,7.303561724362344493e-03,-6.155323709003185373e-01,1.939920291360640314e-01,1.249712799395322482e-01,-2.891964939961189085e-02,-4.289610257238385405e-01,3.366220731952676015e-01,-1.234655108058159700e-01,-1.250739471732002839e+00,-3.792882451411863642e-01,1.509717342143496455e-01,1.018026517479727167e+00,2.940202314612074819e-01,1.032000446953684092e+00,5.902573544813441431e-02,6.105792731774936088e-01,3.712089743205806980e-01,1.104225164587491204e+00,6.003373950884691862e-02,2.480793167182060999e-01,-1.012086273156779015e+00,-1.017347324896871852e+00,7.550448418391031424e-01,-8.818732416691577036e-01,-7.727469430845802512e-01,4.540420337845362253e-01,3.846259902572871647e-01,1.449202532778986752e-01,-1.001736173092129478e+00,5.341185505358383434e-01,2.791488690776871562e-01,-7.176926620085792574e-02,-7.108479838575841869e-01,-1.378761137713671481e+00,-9.961359614553556407e-04,-1.358811926615414389e+00,-4.656603261419742790e-01,7.462648069154247388e-01,-1.353912299218386073e-01,9.109429363846779371e-01,1.350971178838886955e+00,1.063371332264959612e+00,-2.827645630434770241e-01,-7.615915455619346464e-01,2.253040747572880587e-01,4.567780012116864907e-02,4.739264255348530352e-01,8.286291763901636465e-01,-8.105591363881681222e-01,7.294414614199048463e-01,1.379938678951982689e-01,8.805572989809395956e-01,-7.193308459620927076e-02,5.996521116326848366e-01,-2.636587825705359323e-01,-5.110653407110760105e-01,5.904106568068165917e-01,2.463449749326528937e-01,-1.968148891924426658e-01,-6.333646479095199622e-01,-1.529731941372443685e-02,-1.109961827471082074e+00,-6.996131620654661987e-01,-8.160647907568501225e-01,9.623272168024729067e-01,3.895709661495696530e-01,-5.859028651743949379e-01,9.327210382645513276e-01,1.342102777266317215e+00,7.809858851453712614e-01,5.633531269856870694e-01,-1.691802171878117045e-01,-8.598405267915621986e-01,3.777006561364724124e-01,-2.577209456107021346e-01,-3.732588781561606561e-01,-8.598248231146129461e-01,-4.709960148514600875e-01,8.797110714943114917e-01,9.387103930137526975e-01,-3.340127169939129392e-01,6.732381736907480096e-01,-5.849605491960719467e-02,-9.916318539621007400e-01,-7.509797120776839918e-01,-8.484857279141898578e-01,9.246395944529504085e-01,2.817916963855034984e-01,-5.361783848741465963e-01,-8.811870109687961472e-01,-1.418691306331269775e-01,8.664328262582853268e-01,-1.831091168576394201e-01,-7.681228226772011114e-01,-4.919482299237749046e-01,-1.065683985626182384e+00,-6.548084009157185692e-01,1.091509866881123191e-02,1.879850685706395963e-01,5.610061668310820648e-01,-8.795064208206461454e-02,1.717848678307672960e-01,-6.566887484264609665e-01,-4.436049346875372001e-01,-4.335559573864630201e-01,-2.125716312545147813e-01,5.869444636026855955e-01,9.987171526730065363e-01,4.527496588487489038e-01,7.517950245742636983e-02,-7.433746100536396950e-01,6.158068840648488473e-01,7.657657325647128088e-01,6.344900825860348981e-01,8.055399168354676620e-01,3.990392498521397324e-02,7.460357623581780340e-01,-9.270548426350646576e-01,-1.072048035360978036e+00,-4.641079916015909690e-02,5.754733301767517295e-01,-9.584704093732788754e-01,-4.036914157110312318e-01,-3.054872995117540943e-02,8.296761822324284774e-02,-1.068674057111841380e+00,-1.201559110638430905e+00,-2.300478112685622190e-01,-4.884249133506483598e-01,1.084725747899423914e-02,1.063009428604619888e+00,-5.485759480754648365e-01,-9.346918705933556781e-01,-9.098559903056824272e-01,3.142200224289485311e-01,-1.217420608070129834e-01,6.037295626653107483e-01,4.822108689592395359e-01,5.658218240902679330e-01,5.194056859702904649e-01,8.427068980887921779e-01,-4.423069204162689561e-01,6.422189773858945072e-01,4.466557868062463466e-01,4.468148091905629338e-01,-1.374730019721168928e+00,-9.902720407219979259e-01,2.234029814715413065e-02,-5.694938499443498170e-01,5.433127889990154724e-01,-7.425084343705072587e-02,-4.089730220678371997e-01,-1.053983677572915223e+00,-1.020828455113605315e+00,-1.216934052360481439e-01,-7.730577076300499950e-01,-6.484218895446707265e-01,1.045258490416445030e+00,9.848623127616453754e-01,-5.560706790055273130e-01,-9.427755283972940603e-01,-6.448215230955115507e-01,-5.247938580069265724e-01,-8.489165485688456858e-01,1.672300616851283006e-01,1.029665105963926131e+00,1.212649265863466885e+00,-1.175227103221819919e-01,1.658295368737782605e+00,1.248594181382883361e+00,-6.033580957769755226e-01,3.926372772236637054e-01,1.850789613257876609e-01,6.115406505513396596e-01,-8.046744841588355790e-01,1.288084926240220529e-01,-4.983951582082157827e-01,4.767538916562008011e-01,8.669000402116657789e-01,2.411764014659223687e-01,-3.951527744074368464e-01,-5.766231209897416665e-01,-3.377897806169506967e-01,-3.885093675173987848e-01,-1.207717147948568319e-02,-5.717574576683648324e-01,1.075402824399001034e+00,-4.512991624960732140e-01,6.386605201973837298e-01,-9.005140879033226575e-01,6.160671608385326348e-02,3.774059844353406801e-01,-7.238284436457528281e-01,-3.968978166025489140e-01,1.413457262113802515e-01,4.204494591289859723e-02,1.230773164403678122e+00,1.313257266395646827e-01,-2.888570099213245146e-01,-2.191397590849478508e-02,3.228284094381818625e-01,7.260439109607574881e-01,-6.045607917189813607e-01,7.074283080807629298e-02,-5.103828618045170851e-01,-6.555928031227988839e-01,8.578791787645929645e-01,1.494178152413962457e-01,-4.960203077124626381e-01,-6.586413651561253690e-01,-6.195468393935897877e-01,-6.753518722025171339e-01,9.725689349498907177e-01,1.053406232840389700e+00,-2.673938546843694919e-01,-1.379291003411024230e-01,5.778538433973221533e-01,6.633647279150935994e-01,5.162020527632238398e-01,-4.715266108127377231e-01,-1.057870912202669711e-01,4.415487333517085222e-01,-4.335673739205378463e-01,-2.677463360318732555e-01,1.067306204490657551e-02,4.181855192483295847e-01,6.257031778694426283e-01,-3.003631307741112533e-01,7.754660060466700422e-01,9.841290586802121931e-02,-3.857599962986079101e-01,4.543983027672866548e-01,2.261293951452839346e-01,-1.424739445391012493e+00,-3.813141278603400797e-01,1.181050997421586368e+00,-9.166747840346989524e-04,9.987321048345225716e-01,-8.708340585432881031e-01,1.388011958843588189e+00,1.443164761855325606e+00,1.124185187526332563e-01,4.984091687264742276e-01,-4.834434145346300227e-01,-4.630372540312072682e-01,-9.116601199989122772e-01,5.051983377404306585e-01,-5.005441797452178099e-01,1.155541362222615442e-01,5.788565148622432099e-01,-2.428270124424726506e-01,-3.351172073964798770e-01,1.036036648556114548e+00,7.881912556635488343e-02,-1.667614932690969221e-01,1.290669469592437002e+00,-8.806292843790406444e-01,1.897121044881946439e-01,2.015222857921535882e-01,4.119166804672024784e-01,8.457827727564490861e-01,4.971024474214974509e-01,-5.219081629490806007e-01,4.926973793830857207e-01,4.763840157401674769e-01,8.104503060369050438e-01,-3.638083463151758901e-01,1.012248283965967444e+00,1.151867119684761409e+00,-2.007169776341515277e-01,5.761732638510820292e-01,-4.641582919149583181e-02,2.167714894977461615e-01,-5.471537721509164287e-01,-6.194472793009770939e-01,-4.621351724880195383e-02,5.260166628574730607e-01,7.947490670807464408e-01,-7.885836946490204502e-01,-9.529461180913523233e-01,-2.740750442353043215e-01,5.079604788746364674e-01,8.706544485722232940e-01,4.428259318242449005e-01,2.585682765608281475e-01,5.735135903066521657e-01,-3.628432994953441626e-01,1.560300170702381140e-01,1.288666272114227018e+00,8.982855964847756558e-02,-1.389848798174272204e+00,1.395000482057493774e-01,6.858037399667786804e-01,-9.120527928016672892e-01,6.585883618424632768e-01,8.888410008007193719e-01,3.956468026551561157e-01,1.312075942439277498e-01,7.717962073750737062e-01,-8.055830690039972319e-01,-8.484495893013175305e-01,1.333384320076813623e-02,-6.058590754154228319e-01,2.153029193515989814e-01,-4.666374329479988092e-01,6.787679274697654419e-01,-4.450846672811509253e-01,-9.929109736664046837e-01,1.044841127301479933e+00,-1.014926357719504457e+00,-7.555976153804476458e-02,2.808554038071022288e-02,8.117756306129872979e-01,-1.464464506722608639e-01,-5.479182841888015874e-03,-3.052996690721380690e-01,-7.143438318376951202e-01,-6.412024595351667466e-01,3.954218351642780904e-01,-4.650124313216981442e-02,-7.718560763203395625e-02,7.471615666555811996e-01,2.554840202732130972e-01,1.058479516218848948e+00,2.901793590369892706e-01,1.118188255457504665e+00,-9.188973697994470280e-01,6.974623749669821571e-01,-8.521221842576027772e-01,1.053718875597209753e-01,6.508680839735965229e-01,-2.913731027278576025e-01,2.662437514082624523e-01,2.438108118441302541e-01,-7.995921745210035070e-01,7.084553704765668147e-01,-2.524369538761987997e-01,-1.000975192080452603e+00,4.239281665396182341e-01,-6.670315495462865174e-01,2.135945589611490669e-01,-7.530231500171149506e-01,-1.866965203869861145e-01,-5.708283764185150266e-01,-7.329320949995672407e-01,-1.281719345131516308e+00,-8.182427712180839752e-01,5.614082886962934449e-01,1.067203366225612404e+00,2.472179553284678255e-01,1.311468453180034965e-01,6.612447884120492558e-01,1.550326993285198185e-01,-2.833184683012456295e-01,-1.129088415665338435e-01,-7.587969088917545513e-01,-8.383622140765013830e-02,4.017471242739827364e-01,-7.657008541953598257e-01,6.531315403802569197e-02,-7.760082389574037010e-02,6.935211477094720411e-01,1.678807952287861005e-01,-3.590797250847506672e-01,1.605818331690586631e-01,-1.366436459993411456e-01,4.917131723563825663e-01,-8.219514238562589115e-02,4.379018779135356310e-01,1.012840622254423950e+00,-9.348774895506831717e-01,-1.038173081509336848e+00,-4.965471114444861001e-01,4.484302831190851713e-01,-7.333629478619122510e-01,9.789394100238212049e-02,-5.203144255612903585e-02,-7.538908619722148874e-01,3.305892611481114907e-01,1.015142119988083458e+00,-8.112829400865063656e-01,-2.607731782437192614e-01,-8.051479218763195611e-01,1.004145442268115751e+00,8.676847191086650701e-01,-6.257934582700919179e-01,-9.992232265495323285e-01,6.172411251845674185e-01,2.264577542654500064e-01,-8.962174505855994289e-01,-6.009007447573737615e-01,-1.243357990679982150e-01,-1.527069690050825435e-01,-7.794967299134455407e-01,-2.324029124184864015e-01,6.901743164647538009e-01,1.413007496438160038e-01,-1.381995991681884028e+00,6.070342525178813037e-02,1.459267124838853069e-01,1.705681694029946571e-01,-1.309289088587834771e+00,-1.285542307127831574e+00,7.758663019035078046e-01,4.196394230063527075e-01,2.197814609723056922e-01,-1.043466189928667465e+00,8.120046203907032023e-01,1.521982679061250308e-02,9.230610844830984887e-03,-4.601604890012807592e-01,-8.391620257898646518e-01,1.029509319461928030e+00,2.449752893662655584e-01,5.877686817579370615e-01,8.087756443388936789e-02,-1.001607312072263944e+00,-2.660828451593202360e-01,8.017555409304381875e-02,1.855970442941234921e-01,-1.316018732045831419e+00,-4.121245095564196603e-01,-1.811611736484396162e-01,5.171936912050224544e-01,7.236281844665872764e-01,-9.586282480487364754e-01,9.373862633877658723e-01,7.929981768158854694e-01,-3.665259660767138383e-01,3.183171811705513832e-02,1.058341499199257241e+00,7.637241450142532306e-01,5.976166842426234860e-01,1.151423421709695250e+00,8.575126854065429072e-01,3.688878712250844849e-01,-3.123847319687246826e-01,-2.958364795808240966e-01,5.863884151605904815e-01,-2.014780099351276277e-01,6.198841778512129697e-01,-8.209817358381493735e-01,-8.385026968396992464e-01,-4.469658094290415162e-01,4.216898022850436578e-01,-6.724024105565454823e-01,-2.835059254587269373e-01,-1.157281180717106145e-01,4.664507916319921010e-01,-5.976172536675686819e-01,8.583381668277961785e-02,1.356201775962744549e-01,1.125569186877772188e+00,9.679054632952153181e-01,1.469364662716619918e+00,-6.778568460301881426e-01,-2.066802655167436151e-02,-7.506678292846183931e-01,1.998445253605999061e-01,3.866493010939588415e-01,-5.500194117055876575e-01,-5.075352962948483787e-02,1.070277289981979907e+00,6.562085101373481277e-03,2.160376215675455513e-01,2.744406774665910098e-01,6.182821174408218434e-01,-1.312486586759600560e-01,-1.929378709836379602e-02,-3.686297032563434772e-01,-2.432677392420240503e-01,-2.678371413780090693e-01,-8.215958176536598545e-01,7.384442151637208296e-01,4.065106875509948980e-01,-1.480757840458945540e-01,-4.058866998214800126e-01,2.974729514609972814e-01,8.428271763471483213e-01,9.375373883805834252e-01,1.308952975979477573e+00,7.724615851854917947e-01,1.019794490825695288e+00,-5.468411160387658398e-01,1.327420879396521980e-01,-1.182194634847685832e-01,-1.696863848322666679e-01,-2.331014789777023088e-01,7.847029800593241511e-01,3.055462382945894201e-02,-8.074955999080499769e-01,3.602377908699429532e-01,-1.260875011518084010e+00,-9.799903336792807895e-01,8.569728152968456580e-01,5.765816924106604846e-01,1.034946407713036143e+00,8.097824915734079809e-01,-8.609431654751946716e-01,-5.975075031607979259e-01,-3.660488676768047789e-01,8.087042571935166846e-01,8.901656169052749590e-01,-7.751590830990119363e-01,-6.924009428828760138e-01,-1.989610317816093710e-01,-5.139212240770733020e-01,-2.879060879660517158e-01,9.923666804712390210e-02,9.687697187448169878e-01,5.756488270476108893e-01,1.116352067325382835e+00,3.901734537827808991e-01,1.208638859616912725e-01,-2.198750931783541585e-01,6.494256716587381018e-01,1.156283601744150014e+00,6.949146393788790954e-01,-8.577344362826936353e-01,5.626812565148285872e-01,-5.247721548106089040e-01,7.797049501027132345e-01,7.060417651466088795e-01,-8.888346250807604987e-01,6.848086542752018779e-01,3.032306319906865055e-01,4.328621062188401925e-01,-8.258484221580698614e-01,9.435233295420722976e-01,-3.151348033620705591e-01,-6.789879786202049905e-01,-6.646294742387831578e-01,7.412900757445191335e-02,6.665240827787981548e-01,-7.137014836954449493e-01,-3.104364326983435340e-01,-3.565696895914187703e-01,1.083583500490084450e+00,4.198460561787386580e-01,-1.026266655939789413e-01,-5.106602347374059603e-01,2.713144511045526008e-01,-2.769654048478262243e-01,-5.245274499494662068e-01,-6.690377527674183922e-01,-8.764425959003688815e-01,-5.137109808712623377e-02,-8.746856337394833814e-01,-6.623195028494606174e-01,-1.730745359568227615e-01,6.985116358214029653e-01,1.017413422627695685e-01,6.366474130674358578e-02,5.050007152573651181e-01,2.622645006044169169e-01,-8.231840608384141666e-02,-4.577750719910460564e-01,5.180314006761378431e-01,8.544112151751190876e-01,-4.543416699264880565e-01,-6.328955597463896687e-01,-4.434318762137143266e-01,1.348978667540195464e-01,-1.027944194507951936e+00,1.426421605676869986e-01,1.253939381620704785e-01,-3.971649590268556684e-01,-3.489169179485330785e-01,4.369246982633986920e-01,8.035385375916873629e-01,3.053435808433448417e-01,-1.808488438859556569e+00,5.851552707044363477e-02,-1.172645005709041843e+00,-1.479175694463659152e-01,3.734097997134780411e-01,-2.059653855006835788e-01,4.473824086863619764e-01,-7.357206679811107986e-01,-1.097071838627180912e-01,1.275267783834787005e+00,3.383432677826217483e-01,6.748776633732099794e-01,-2.611369763321007009e-01,-3.479375086074250056e-01,-4.296295514696115148e-01,-1.201922520142180012e-01,3.586897795055113969e-01,2.573622960622714007e-01,2.631907800253542873e-01,1.829556454043530511e-01,-6.520686208841528497e-01,1.426008667429216892e-01,2.601331592127182346e-01,-4.389960500225684736e-01,8.734340814806251796e-01,7.290024709624893795e-01,2.408417394459490823e-01,6.561606971906356334e-01,7.002902848648256962e-02,-1.222795829394728306e+00,-8.279930848452040637e-01,-1.042174870660926983e-01,-1.798969826724186160e-03,-8.611665467858383716e-01,3.047079149232895245e-01,4.980607996973948626e-01,-3.088552123586180698e-01,1.280462912740810144e-01,2.655429132541078929e-01,-4.250796804195642320e-01,7.822292006015201249e-01,8.658954686655471189e-01,6.010778038366246800e-01,-5.331509214043352873e-01,-6.894455619960581094e-01,-5.270036528794304065e-01,3.694401148860269046e-01,-3.362296601620398673e-01,3.395285590609399273e-01,8.836807210181292227e-01,7.746763113575801940e-01,-5.704139437196806967e-02,1.858577484443287020e-01,-6.854157602457666698e-01,8.696826902775632862e-01,5.679763765036948131e-01,-3.715860999100891737e-01,5.474325096993685191e-01,4.137105562662203861e-01,-3.641430894160602727e-01,-5.143876722132398882e-01,-3.406177097829833356e-01,-3.096901306392205733e-01,-4.114945297182406314e-01,6.663267548897440218e-01,3.566280806775724843e-02,8.683368860511083698e-01,5.783933035217818652e-01,-2.616877201694757238e-01,-2.898242296748461677e-01,-2.009332783775358844e-01,-7.922446241748652973e-01,-1.070265582480749211e+00,-1.266540873026518410e+00,-7.710601451433730658e-01,1.664750970445688094e-01,-5.696776025432583879e-01,-3.082586841177914483e-01,7.355755484746073769e-01,1.105667470860872692e+00,7.433456027537894972e-02,2.310885818247163659e-01,5.341784644189744302e-01,-1.012604131890634696e+00,-8.579453866522860350e-01,1.834299265072807106e-01,-7.279744552066930163e-01,-2.155231201698819266e-02,7.478543417741897459e-01,-2.705030788340270220e-01,-2.782497203201209635e-01,-5.905099742727238921e-01,6.944917253538976931e-01
-1.268065918048179308e-01,-1.047090260496224889e+00,-2.201719420837718044e-01,-3.658661850182063358e-01,7.683269428523923361e-01,-6.351867671701705298e-02,-8.197073412075720489e-01,3.789022180081473290e-01,-1.164443244392945193e-01,-6.652647487192465681e-01,-4.484145683778697489e-01,9.261561348188039888e-01,-8.245962736812108007e-01,-2.747657644513157860e-01,-6.882334109183102511e-01,-6.652154486171283354e-01,9.394151357784841228e-01,-6.462437439144957940e-01,-4.059608774242572937e-01,6.290484503383269033e-01,9.174151894409839081e-02,3.310333968384282510e-01,4.261705422004314348e-01,8.565751062715065700e-01,7.727028850519159775e-01,1.633702212398889242e-01,-7.232968964775000620e-01,1.167109136954089132e+00,-9.907681629948447144e-01,-3.226526150338174803e-01,-6.698203179654219075e-02,1.144749924160487209e-01,3.631821437966014088e-01,1.955254583152266634e-01,5.025611071896173287e-01,-5.337298729091328742e-01,-3.166700965896311337e-01,2.276728128199212720e-01,1.801902996844497451e-01,2.285010018379806523e-02,-7.170827598458501262e-01,1.637817463349111602e-01,-3.163884231281708925e-01,-4.397288580704732386e-01,-5.728340853325307735e-01,-3.875960391004981687e-01,1.006801211243456562e+00,-5.894995734816494970e-01,-6.618271243585730490e-01,7.690528431800998099e-01,1.186205826960137627e-01,7.790709298833663476e-01,7.344180183405354390e-01,2.628761647498427112e-01,9.343818781578150379e-01,1.124132343801138134e+00,-4.252021745511445211e-02,-9.878282785908893970e-01,7.169896531086489277e-01,-1.008027278951346140e-01,-4.367988251590692039e-01,2.360941096116498938e-01,4.046981501371226808e-01,2.413102440282290373e-01,1.650017808422306331e-01,-4.117453248629239226e-01,-1.447601710118787410e-01,1.265047371558378764e-01,5.428955960816976845e-01,-3.140269248104932132e-01,4.643514345152105482e-01,-5.703275762164843332e-01,6.086113532862049702e-01,1.035523921268420577e-02,-4.599058512327846016e-01,6.697747200196868533e-01,1.354241939081681334e+00,3.356674449316981446e-01,7.905778845062505500e-02,-5.786160186798735561e-01,4.429167129638230671e-01,2.690122567813484356e-01,-1.080562104175558369e-01,5.461051084369188402e-01,-5.312400199541114088e-01,-3.032135766523962883e-01,-4.889614144103961446e-01,-9.771972767441304830e-01,-4.466542850618749338e-01,-6.880564963783311616e-02,-3.971846580029859131e-01,8.088559282236419401e-01,2.413231246481700176e-01,1.163513784009829743e-01,4.681797391864445101e-02,-1.132029773162757769e+00,7.776813322359916736e-01,-8.182413857040382599e-01,-3.326202296749040943e-02,-9.116166107602727831e-01,-1.160748753399133415e+00,-9.922332987200990773e-02,-4.453774484696760849e-01,7.042252292533470737e-01,1.288356662533413521e+00,2.984539032802678293e-01,5.412608977679204125e-01,5.692319081021102178e-01,6.127523694342346117e-01,2.766858561115786985e-01,3.488491596087922586e-01,-5.907667237661173854e-01,7.802668001936588493e-02,-1.102219240717412729e+00,-1.908727714812007703e-01,4.248347561226197278e-01,3.123539920392298108e-01,-3.170185480290462765e-01,-2.920721781569491915e-01,-1.010625802038455229e-01,-3.746204786155791777e-01,1.041967686073756560e+00,7.180535504244854872e-01,-1.123382578061601134e+00,-1.466298767663936964e+00,-6.805860207971785591e-01,-1.416398749755371389e+00,-1.815242252060468020e-01,1.527619962559250422e-01,-1.212994927115093269e+00,-1.166817708908396839e-01,-2.375043619741539769e-01,-4.270008563140334501e-01,-3.647841140681898353e-01,-2.239391732045611094e-01,-3.970837561331553855e-01,2.549682854804469767e-01,1.134725422551531970e+00,-1.160642617103585690e-02,2.440172903722820363e-02,5.096300046067725464e-01,-7.680299751515761164e-01,-4.664989732997969485e-01,-1.788977123931103919e-01,-1.037448151029893573e-01,-5.699714880493426117e-01,5.806254275716059288e-02,9.594847633460835690e-01,2.122756305507968455e-01,7.274651613793404747e-01,9.307067102340286224e-01,4.694076212569774365e-01,-7.681280958890945865e-01,-9.652724688231142380e-01,2.006164307459148421e-01,-1.232773958738763997e-01,-6.066133323107418818e-01,-1.281608238363592722e+00,5.490489458514261623e-01,-7.251045361268253220e-02,9.460152494829493497e-01,1.613289730037883452e-01,6.636579317680988410e-01,1.263871110539209308e+00,5.334980032358903612e-01,5.792529454348910312e-01,5.919875276234897177e-01,3.105074150803135424e-01,6.881694019127644335e-01,-6.081082566411594170e-01,9.192545252000174916e-01,8.402079460999125615e-01,4.548592164530224635e-01,-7.976857911390834444e-01,-6.502093238650445972e-01,1.036117831267717726e+00,1.884325921172918042e-02,4.234707356129304712e-01,-2.476415523210604569e-02,-8.424388166118408350e-01,-6.793436771014835784e-01,6.786123378378727811e-01,5.492347192173169246e-01,-5.124593903816829776e-01,8.005382024314999789e-01,-4.735335556781652411e-01,8.231350041494436276e-01,-2.335577552572636051e-01,4.572891618046571183e-01,9.184075720245482577e-01,7.010107138026012707e-01,-3.323268145075018443e-01,-3.905327030182892956e-01,1.071358679869033104e+00,3.070124535129116761e-01,-2.460834645403401355e-01,6.961148597712545349e-01,8.680527413086042143e-01,8.575529478376398007e-01,-8.329322836875526770e-01,3.681766159220626333e-01,-9.003078415003441526e-01,8.480489069188358597e-02,-5.468144432125942034e-01,6.112566371608649796e-01,-1.605784044859554782e-01,8.186434097625475692e-01,3.908469568580205111e-01,4.201441902078213025e-02,1.318827214692967487e-01,-5.435156659694310166e-01,-2.063749998218991355e-01,-1.680618390278991459e-02,-1.108028087046222687e+00,2.176273222234317017e-01,-5.458022545631646683e-01,-3.393123934077356407e-02,-1.170126137465203220e+00,-5.229757646154958861e-01,6.000153439267492672e-01,-1.112061777917992128e-01,5.599914089146200702e-01,8.281557728682709119e-01,-8.830836519530530504e-01,2.900852792002500680e-01,5.808630852884680840e-01,-3.115380129525723539e-03,8.486063463608131130e-01,7.957172522123716618e-01,8.190387577824761456e-01,-2.657525205393228007e-01,-2.435580187210951153e-01,5.909597367121310896e-01,1.065763409195706668e+00,-1.159172342682101453e+00,-7.094434609901082434e-01,-1.365947308787014980e-01,4.483312932935550887e-01,-1.526239468502645358e-01,9.944785150797834650e-01,-9.061667285495816904e-01,1.718331834940154540e-02,-1.630954470881204710e+00,-8.938488328760071377e-01,-1.047216041747455639e+00,-2.566839904375499692e-01,4.322689151976392280e-02,4.695846243521356600e-01,-1.006457944296216711e+00,-9.268923710401747451e-01,-1.785434393793327856e-01,1.557890529510095601e-01,-4.976667086025518549e-01,5.449933033896297019e-01,-8.473676666164203786e-02,-3.561614267269249678e-01,-8.869650316015134095e-01,1.031930433065668007e+00,6.299276581474352321e-01,1.252178799400610332e-01,-2.415773908863227404e-01,5.543765846739977521e-01,7.530021872832177721e-01,-8.177011906044426848e-01,-8.946627031376696015e-01,6.986382006319803439e-01,-5.585826329427838743e-01,7.422484456817458609e-01,-1.499487659964444108e-01,-2.989262619966017165e-01,-1.531881509839260413e+00,-3.519188580237043174e-01,1.494212726804610702e-01,-1.935798464473486302e-01,-4.378900826181183481e-01,-6.739378967143696553e-01,3.220865769416937363e-01,3.525933565049800544e-02,-1.157138264358080343e-01,1.855052681350468913e-01,-1.473413702083936072e-01,-1.252198794456962083e-01,7.909256999546419031e-01,-8.586142326131517288e-01,5.374297806473263828e-01,1.030842247030363978e+00,-4.297107634460633485e-01,-2.281883958474628937e-01,1.892333196971195397e-01,6.138608298369693239e-01,7.167977034908634693e-01,1.384340520264516761e-01,6.541900775927010914e-01,4.237525473204201837e-02,-8.360608795059785159e-01,3.138731634937355630e-01,-4.220476525286745439e-01,-6.713478508015854329e-01,-1.056662303877935472e+00,-7.201733354137443976e-01,-7.373260649350075191e-01,-7.324015441800840742e-01,-5.527543333427199501e-01,7.385647084055059208e-01,-1.452081956100398585e+00,-8.857111521272766907e-01,5.616130919076097738e-01,9.585317808361151770e-02,6.401020643473109839e-01,-8.456715659645158700e-01,1.964578464724575646e-01,5.034472978768516072e-01,-8.602838644908346322e-02,4.769528247951379529e-01,6.684975205919657659e-01,1.345601368273817988e-01,-5.385324639456064988e-01,7.661973936656064632e-01,-5.147483351132133844e-01,-3.896926611842075339e-01,-6.301410429900001775e-01,-1.287058598232675502e-02,-8.061416184832826959e-01,5.196810687666987283e-01,7.725666868119426267e-01,-7.691685066981959196e-01,-1.016795675663059839e+00,-3.114466434662391814e-01,-2.966567901472182411e-01,5.484582748978096278e-01,-6.435383606010587343e-01,3.409174935850959320e-01,-5.717139181388835034e-01,8.874046390989999422e-02,-2.727751309375373578e-01,-5.041759855485412611e-01,7.889071930984663528e-01,-7.694457019113887242e-01,-8.891088394892115998e-02,-1.906988225650808541e-02,5.401311952899436747e-02,-1.929854780529579594e-01,8.581655508610710470e-01,-3.347945165404907497e-01,-8.645265831922750721e-02,8.207055490823427224e-01,3.984428366900211183e-01,-9.445636062586197923e-01,1.798635899777090985e-01,-3.943088847471177272e-01,-9.583999522536620352e-01,1.646219850665378459e+00,-9.489323035361316161e-02,-3.294641152905384424e-02,5.444116550867748039e-01,-5.510947279486959616e-01,2.963657666807790747e-01,-4.065366112970326684e-01,4.763979326394304215e-01,-1.534815377549115789e-01,-4.201541011858774821e-01,-3.900988561876104765e-01,1.100920964097458654e+00,-2.254912083733733308e-01,7.408801752492695236e-01,6.356220624720004819e-01,8.321745454783153750e-01,-7.151101692499175488e-01,6.208559555527325413e-01,-9.860555161044990413e-01,-4.194673956245239532e-01,-7.369233656811567945e-01,-2.059916877440752525e-01,1.373646191788208792e+00,7.065681598913963191e-01,-7.812101202583151549e-01,1.504906432987904996e-01,-6.787172550589711806e-01,-1.233386720521142843e+00,-4.544150630833624326e-04,-1.713648991980811498e-01,4.704353882399345821e-01,3.572448331118340814e-01,1.695535848760901521e-01,-4.108180599250870202e-01,2.763560789327735856e-01,1.034836832153755992e+00,-5.916668934693934956e-01,-5.820996954435667670e-01,-4.329680682313510887e-01,-6.113072428227980248e-01,-3.733085988699679225e-01,5.659292901893698824e-01,1.646067383866791078e-01,-4.499786241768222173e-01,-7.669246367009374676e-01,-2.598413035449844144e-01,-4.427553406575496231e-01,-4.315669303926533695e-02,-4.847888407381700238e-01,-3.903354459506355179e-01,1.558197060368637699e+00,1.805579271476788872e+00,1.837605044021194622e+00,3.211491420539874797e-01,-6.543861418257821416e-01,8.798428027385023498e-01,-5.688199625892839117e-01,6.390269865492416157e-01,5.694660633628755297e-01,5.526933500389366039e-01,1.848331902460546294e-01,-3.613661790902633064e-01,1.544111446863623449e+00,5.554093281592732412e-01,3.069816324139633124e-01,-3.352874101414395902e-01,1.184605089024259650e+00,7.899716895160482366e-01,4.918359552739314799e-01,-8.394718359754635983e-01,-3.138174791645277906e-01,-5.249908896734569730e-01,4.959862675977182861e-02,-7.133081841639593579e-01,1.663424146982528662e-01,7.518359481560017432e-01,-8.531363840701419177e-01,-3.539840188594944870e-01,3.311850489012368448e-01,6.519137810954562795e-01,4.278136818978876543e-01,3.117061164916571855e-02,5.528992393391436444e-01,-1.669835328526791396e-01,-6.061697498945064488e-01,-4.535180074296141228e-02,1.070565436587314900e-01,-1.206569324609821470e+00,-1.424149332863033690e+00,7.430618750411790430e-01,1.224539365390194368e+00,4.069731414191131158e-01,-7.293931516635507872e-01,-3.481248821081752709e-01,-5.949389163570673045e-01,-5.061635445825064458e-03,-4.406779689029924341e-01,2.281741723389016097e-01,7.011489011563430962e-01,-8.755069684662548646e-01,3.736682423246643903e-01,4.724979727641251959e-01,8.296105436817137468e-02,-2.439861841364273642e-01,9.709292428261288022e-01,-3.148743666951547282e-01,1.007663391429639788e+00,-5.195568514798747373e-01,9.200542277683507741e-01,7.374027561930617258e-01,7.313346010662208352e-01,1.228572645090348692e+00,-4.267755930904446604e-01,-9.443837073467520327e-02,-5.943360842186382609e-01,-6.707353649778780014e-01,-4.049128320520451463e-01,2.457311999904790434e-02,9.829836728890043451e-01,-7.660498747200015224e-01,6.735895487989507213e-01,-4.966204462943458742e-01,9.418552975489872248e-01,3.428097670093209759e-01,-8.162381121983762755e-01,7.308137560234388985e-01,-2.161584045697804712e-01,-3.065431129587646852e-01,6.903600632297850204e-02,-5.952831508346611011e-01,4.078278082861504505e-01,-1.082419618906915182e-01,-1.068460272232184316e+00,-6.750670460823180452e-01,-4.540390463890385808e-01,-7.145782151731107090e-01,-4.555420900124983463e-01,1.836569160976170567e-01,1.478259783796731508e-01,1.400722462938809088e+00,5.986672372752881444e-01,-5.833524281112224541e-01,2.613411759189645522e-01,-2.108679059914245479e-01,6.042430257605367894e-01,6.009429002850791290e-01,4.111431773490912822e-01,3.113028459342356835e-01,-1.682704858085805333e-01,3.849565429062122845e-01,3.054481815702582148e-01,5.514978320840997483e-01,-8.979135785115497370e-01,1.749171659438587267e-01,-6.836485786222746830e-01,-2.103791540068970789e-01,-5.255083318476020393e-01,-3.511503094397096514e-01,-9.905698456816537378e-01,-9.710518971280657219e-01,1.143060954042585120e-01,2.462213653661406709e-01,-1.189198136673877415e-01,-9.154983263312843622e-01,1.031434965818137511e-01,-5.361853495600663738e-02,-1.957799372318481113e-01,2.850893978182245658e-01,-1.110137968609003489e-01,-4.373917433611485689e-02,7.771762949459677383e-01,-1.024596157366488569e+00,4.520948446095113260e-02,-6.742737938866820713e-01,2.057476424980560215e-01,4.503213870560210559e-03,3.992515244790557638e-01,4.710400731393066809e-01,-5.433733057318769211e-01,-9.402688177792878355e-01,-1.454141144737694236e-01,1.149813069337702887e-01,-9.186793091774891895e-01,-3.173527756005489059e-02,1.830831283800109510e-01,-1.643248502870265082e-01,5.498092188683986192e-01,-1.359702381886327693e-01,-4.881343426248188067e-01,6.048525780263708240e-01,4.943945886834561487e-01,2.263994528010404919e-02,-9.722608441142658320e-01,-6.021879444514581792e-01,4.739969508130499332e-01,-3.018639839716998896e-01,2.469958478360315124e-01,-5.864568013475907060e-01,3.592084853045904858e-01,-8.341353871497889649e-01,-1.066327495588583973e+00,-1.205416331755357895e+00,-6.323878535610866214e-01,-7.623182473833088890e-01,-1.085907074091042812e+00,5.231357304860208002e-01,2.465624992823555739e-01,-4.011458889055212196e-01,-4.697085066690131483e-01,-3.596717499219523329e-02,-1.322812925817032914e-01,-6.054862401403385830e-01,6.340056943326860539e-01,-2.336348636801493517e-01,-5.109111264013478371e-01,-4.332117658172793817e-01,-6.408320100107418593e-01,-3.496945057609297525e-01,-8.669532640874408891e-01,-6.966841358658809602e-01,4.165749936209078297e-01,3.356058013657126637e-01,-2.325632613361379719e-01,1.612534462718775985e-02,3.284578668899988951e-01,7.087416626034301892e-01,2.440732836623483171e-01,3.087014306301569255e-01,-3.495631657467545006e-01,6.653423707847452850e-03,-2.060492051755850179e-02,5.488528239403249742e-01,7.678606630892768070e-01,6.846617797055553067e-01,-1.097244969526663949e+00,-6.531324841075811793e-01,-2.065585084994319420e-01,-8.117605098032024680e-01,7.201087147645860442e-01,5.645964855529346238e-01,-1.016032140571304643e-01,3.959132421172228966e-01,7.364177908233646708e-01,8.352656881994524607e-01,-5.966769865141918761e-01,-2.029100907809588406e-01,9.770546323600212690e-02,-9.029727060809169537e-01,5.667010411422865879e-01,3.982790909361110798e-01,2.878152056216725652e-01,3.071240516601704273e-01,-6.187440877866257072e-01,-2.978895608830503527e-01,-1.903378268954530605e-01,-3.828006458554223390e-01,4.408252818145123597e-01,-5.485967778564376784e-01,-2.082975945715599131e-01,5.426567572128977446e-01,-3.265210895048255013e-01,-4.263742029220005669e-01,-2.574814992822884729e-01,5.252187928703286879e-01,2.470176164524670037e-01,2.003379932140411934e-01,6.175025122197765892e-01,8.866708740845897774e-01,-5.717890776073709241e-02,1.219193233032544788e+00,4.588498743505434185e-01,-4.773812289509879458e-01,5.250409024736364394e-01,5.251711303484420945e-01,2.754991361985549281e-01,1.027997097745726451e+00,-7.733163437788105332e-01,-2.057272951384731263e-01,-8.306367818471105391e-01,5.737847399382483421e-02,3.423733122558258457e-01,-6.372845481655886601e-01,-6.169373774262461307e-02,-1.181467005161256079e-01,8.666547072153883979e-01,-3.595937403159060741e-01,-3.523377035690486436e-01,6.933781635559276013e-02,8.618474168131247740e-03,-2.625244357487055979e-01,4.113323719281946622e-01,1.493645472181004963e-01,-5.195190178424843319e-01,4.172522723664133237e-01,5.590898204058774024e-01,-8.478084901091360592e-01,-5.871540739466765135e-01,5.914319575053181843e-01,4.440041506301047325e-01,-3.142866322637410947e-01,9.160342991321365202e-01,2.933999095581809602e-01,2.330849911745370706e-01,1.644223757270993902e-01,7.295906863956868049e-01,-1.089028426905989111e+00,1.966599716435394607e-01,-5.227538086174495779e-01,6.862619940495118254e-01,-5.660469656540485089e-02,-4.282275987017674646e-01,4.912378764092111862e-03,7.101366260248193063e-01,-3.420632073910039317e-01,1.772734638828040443e-01,1.613425271199282196e-01,-6.991955353436763998e-01,-4.773570933673514372e-01,7.545262188997605701e-01,-1.748496642809135027e-01,-6.116705573983071548e-02,-9.685928885884012018e-01,3.389536464182942715e-02,-5.189229678884305086e-01,8.523639643869293514e-02,4.884383500733950889e-01,-1.016084307768146067e+00,1.105011152758814397e-01,-4.185226044674355550e-01,-5.118499614297272737e-01,-2.805392281121280584e-01,2.161752003556530188e-01,7.893047774652351967e-01,-9.065453832472746276e-01,7.030934509339684668e-01,-2.441070438773251250e-01,3.516452022026551050e-01,-7.773032233544542313e-01,-2.409128341038201948e-01,-3.845166581033375719e-01,1.469587556334549516e-01,4.814923803524025492e-01,2.572451201440800195e-01,-3.214908449531347912e-01,6.658869397293116776e-01,-7.808315093939106610e-01,3.264588208190112861e-01,3.997320212316399224e-01,-5.123980447919249670e-01,4.830616149641973195e-02,-7.691383591142651743e-02,4.584900617966672920e-01,-9.832610642600313478e-01,-1.744123442525188916e-01,-9.546260397315443624e-01,-2.394997862719246418e-01,6.119457054296175702e-01,-5.019508371329540752e-01,1.821578489572926729e-01,-1.975225876993136898e-01,-1.922689699376632366e-01,3.412166749043371028e-01,1.044560106808558597e+00,-4.673621128451953266e-02,1.162021368356732226e-01,9.333158037823739983e-01,8.683432766973038230e-01,5.642942838531552763e-01,7.302816441764081734e-01,2.808018831967155626e-01,-8.971432849186165015e-01,5.862087270663833838e-01,-6.976947376659305977e-01,-9.667233152321933476e-01,6.929749060976747588e-01,8.214206020924911256e-01,-5.233241217241831889e-01,5.431281261023037654e-01,8.540771346578538425e-01,1.013377929369804864e+00,1.015726979793219353e+00,-3.936497410106000183e-01,-7.960757996253065016e-02,1.429151617647934358e-01,-8.945631052132210215e-01,-3.417858643299303001e-01,-7.936092792386862937e-01,5.202108263134203048e-01,3.020599668362726753e-01,1.317432865718232704e-01,4.766172880569858883e-01,-1.687231809974375218e-01,1.993880185857837273e-01,-1.803905206749125689e-01,4.554234845676725651e-01,-3.782618628065689825e-01,-1.119940450845219981e+00,5.006206741107845914e-01,-4.876483811870756524e-01,-4.337894980682396318e-01,-3.847968334691023035e-02,2.089056558420327170e-01,1.433145153320391496e-01,9.407642652404127892e-01,9.268082968888341489e-01,-3.403824467103112594e-01,1.330911261620557173e+00,5.016180358098252245e-01,1.096471828754469913e+00,2.309970695277281938e-01,-3.649518292796663510e-01,7.886931011937564628e-01,6.460483761521537138e-01,2.076668627761422692e-01,-1.329993670664266547e+00,-5.553126401761666608e-01,7.073706793534189075e-01,4.329768640903288168e-01,5.227718816025193060e-01,2.014970543966210503e-01,-4.788028128778737402e-01,-4.289523774564237835e-01,-1.808178258627263224e-01,7.722028313669976329e-01,1.874458609080942306e-01,2.469839202876758788e-01,-2.681251685649693739e-01,-3.540768873147198126e-01,1.851106000804630947e-02,-6.036475232406396385e-01,5.184065094709431470e-02,-6.594989480439781282e-01,3.512010448924227646e-01
